FANN_FLO_2.1
num_layers=3
learning_rate=0.700000
connection_rate=1.000000
network_type=0
learning_momentum=0.000000
training_algorithm=2
train_error_function=1
train_stop_function=0
cascade_output_change_fraction=0.010000
quickprop_decay=-0.000100
quickprop_mu=1.750000
rprop_increase_factor=1.200000
rprop_decrease_factor=0.500000
rprop_delta_min=0.000000
rprop_delta_max=50.000000
rprop_delta_zero=0.100000
cascade_output_stagnation_epochs=12
cascade_candidate_change_fraction=0.010000
cascade_candidate_stagnation_epochs=12
cascade_max_out_epochs=150
cascade_max_cand_epochs=150
cascade_num_candidate_groups=2
bit_fail_limit=3.49999999999999977796e-01
cascade_candidate_limit=1.00000000000000000000e+03
cascade_weight_multiplier=4.00000000000000022204e-01
cascade_activation_functions_count=10
cascade_activation_functions=3 5 7 8 10 11 14 15 16 17 
cascade_activation_steepnesses_count=4
cascade_activation_steepnesses=2.50000000000000000000e-01 5.00000000000000000000e-01 7.50000000000000000000e-01 1.00000000000000000000e+00 
layer_sizes=25 81 11 
scale_included=0
neurons (num_inputs, activation_function, activation_steepness)=(0, 0, 0.00000000000000000000e+00) (0, 0, 0.00000000000000000000e+00) (0, 0, 0.00000000000000000000e+00) (0, 0, 0.00000000000000000000e+00) (0, 0, 0.00000000000000000000e+00) (0, 0, 0.00000000000000000000e+00) (0, 0, 0.00000000000000000000e+00) (0, 0, 0.00000000000000000000e+00) (0, 0, 0.00000000000000000000e+00) (0, 0, 0.00000000000000000000e+00) (0, 0, 0.00000000000000000000e+00) (0, 0, 0.00000000000000000000e+00) (0, 0, 0.00000000000000000000e+00) (0, 0, 0.00000000000000000000e+00) (0, 0, 0.00000000000000000000e+00) (0, 0, 0.00000000000000000000e+00) (0, 0, 0.00000000000000000000e+00) (0, 0, 0.00000000000000000000e+00) (0, 0, 0.00000000000000000000e+00) (0, 0, 0.00000000000000000000e+00) (0, 0, 0.00000000000000000000e+00) (0, 0, 0.00000000000000000000e+00) (0, 0, 0.00000000000000000000e+00) (0, 0, 0.00000000000000000000e+00) (0, 0, 0.00000000000000000000e+00) (25, 6, 5.00000000000000000000e-01) (25, 6, 5.00000000000000000000e-01) (25, 6, 5.00000000000000000000e-01) (25, 6, 5.00000000000000000000e-01) (25, 6, 5.00000000000000000000e-01) (25, 6, 5.00000000000000000000e-01) (25, 6, 5.00000000000000000000e-01) (25, 6, 5.00000000000000000000e-01) (25, 6, 5.00000000000000000000e-01) (25, 6, 5.00000000000000000000e-01) (25, 6, 5.00000000000000000000e-01) (25, 6, 5.00000000000000000000e-01) (25, 6, 5.00000000000000000000e-01) (25, 6, 5.00000000000000000000e-01) (25, 6, 5.00000000000000000000e-01) (25, 6, 5.00000000000000000000e-01) (25, 6, 5.00000000000000000000e-01) (25, 6, 5.00000000000000000000e-01) (25, 6, 5.00000000000000000000e-01) (25, 6, 5.00000000000000000000e-01) (25, 6, 5.00000000000000000000e-01) (25, 6, 5.00000000000000000000e-01) (25, 6, 5.00000000000000000000e-01) (25, 6, 5.00000000000000000000e-01) (25, 6, 5.00000000000000000000e-01) (25, 6, 5.00000000000000000000e-01) (25, 6, 5.00000000000000000000e-01) (25, 6, 5.00000000000000000000e-01) (25, 6, 5.00000000000000000000e-01) (25, 6, 5.00000000000000000000e-01) (25, 6, 5.00000000000000000000e-01) (25, 6, 5.00000000000000000000e-01) (25, 6, 5.00000000000000000000e-01) (25, 6, 5.00000000000000000000e-01) (25, 6, 5.00000000000000000000e-01) (25, 6, 5.00000000000000000000e-01) (25, 6, 5.00000000000000000000e-01) (25, 6, 5.00000000000000000000e-01) (25, 6, 5.00000000000000000000e-01) (25, 6, 5.00000000000000000000e-01) (25, 6, 5.00000000000000000000e-01) (25, 6, 5.00000000000000000000e-01) (25, 6, 5.00000000000000000000e-01) (25, 6, 5.00000000000000000000e-01) (25, 6, 5.00000000000000000000e-01) (25, 6, 5.00000000000000000000e-01) (25, 6, 5.00000000000000000000e-01) (25, 6, 5.00000000000000000000e-01) (25, 6, 5.00000000000000000000e-01) (25, 6, 5.00000000000000000000e-01) (25, 6, 5.00000000000000000000e-01) (25, 6, 5.00000000000000000000e-01) (25, 6, 5.00000000000000000000e-01) (25, 6, 5.00000000000000000000e-01) (25, 6, 5.00000000000000000000e-01) (25, 6, 5.00000000000000000000e-01) (25, 6, 5.00000000000000000000e-01) (25, 6, 5.00000000000000000000e-01) (25, 6, 5.00000000000000000000e-01) (25, 6, 5.00000000000000000000e-01) (25, 6, 5.00000000000000000000e-01) (25, 6, 5.00000000000000000000e-01) (25, 6, 5.00000000000000000000e-01) (25, 6, 5.00000000000000000000e-01) (25, 6, 5.00000000000000000000e-01) (25, 6, 5.00000000000000000000e-01) (25, 6, 5.00000000000000000000e-01) (25, 6, 5.00000000000000000000e-01) (25, 6, 5.00000000000000000000e-01) (25, 6, 5.00000000000000000000e-01) (25, 6, 5.00000000000000000000e-01) (25, 6, 5.00000000000000000000e-01) (25, 6, 5.00000000000000000000e-01) (25, 6, 5.00000000000000000000e-01) (25, 6, 5.00000000000000000000e-01) (25, 6, 5.00000000000000000000e-01) (25, 6, 5.00000000000000000000e-01) (25, 6, 5.00000000000000000000e-01) (25, 6, 5.00000000000000000000e-01) (25, 6, 5.00000000000000000000e-01) (0, 6, 0.00000000000000000000e+00) (81, 6, 5.00000000000000000000e-01) (81, 6, 5.00000000000000000000e-01) (81, 6, 5.00000000000000000000e-01) (81, 6, 5.00000000000000000000e-01) (81, 6, 5.00000000000000000000e-01) (81, 6, 5.00000000000000000000e-01) (81, 6, 5.00000000000000000000e-01) (81, 6, 5.00000000000000000000e-01) (81, 6, 5.00000000000000000000e-01) (81, 6, 5.00000000000000000000e-01) (0, 6, 0.00000000000000000000e+00) 
connections (connected_to_neuron, weight)=(0, 7.21369893677265672238e-01) (1, -2.05548048903563679302e-01) (2, 7.54158851786840611631e-01) (3, 3.83990384607324097832e-01) (4, 7.54828536705658859063e-01) (5, 7.97576467689403156847e-01) (6, -4.50590763157033524777e+00) (7, 1.73545479278249570321e+00) (8, 1.19120020766969303416e+00) (9, 4.17202291879297515464e+00) (10, 8.62852793850163002354e-01) (11, 5.10049315241926093378e-01) (12, 6.81043207189345856101e-01) (13, 3.64931570830125007188e-01) (14, -2.07155972909569037199e+01) (15, -9.76208743008297119559e+00) (16, -8.50646949924339923488e-02) (17, 6.22199515357619636902e-01) (18, 6.74238579965855566734e-01) (19, 6.22681233836953729188e-01) (20, 7.50558330998434719561e-01) (21, 9.06090785143817467606e-01) (22, 2.38194857524939740401e+00) (23, 1.47569749205891032062e+00) (24, 6.63245348138316592745e-01) (0, 5.69929994360371061646e-01) (1, 7.42148320059010213612e-01) (2, 6.26690835554840841581e-01) (3, 9.05786240353168015105e-01) (4, 8.04700647105105915102e-01) (5, 9.43814706747426956923e-01) (6, 6.38705340909026531016e-01) (7, 6.43988359878351235288e-01) (8, 7.90820161619915862339e-01) (9, 8.93739160051260972395e-01) (10, 7.62565392637649108742e-01) (11, 7.89951838216134683002e-01) (12, 7.22873159690671007738e-01) (13, 8.15804921208289512968e-01) (14, 7.70265232983221137530e-01) (15, 7.18274910024187196456e-01) (16, 7.52751428887159068637e-01) (17, 5.67530446561580692588e-01) (18, 6.40622644405142604995e-01) (19, 5.90226460508339267896e-01) (20, 6.76885556591541703852e-01) (21, 7.29352925341454016994e-01) (22, 7.54928105257650972071e-01) (23, 8.44199389572927172409e-01) (24, 6.76450249008471060641e-01) (0, 5.55020715483486259956e+00) (1, 1.82298949816939774848e+01) (2, -5.27630055374488726727e+00) (3, 7.42476766042450275762e+00) (4, 5.08420001406699917368e+00) (5, 7.80463709306022224155e+00) (6, 1.16894517775895678824e+00) (7, 5.27077136287721703667e+00) (8, -4.71207416996787392671e-02) (9, -1.42650109378760809875e+01) (10, -6.51035720824092933867e+00) (11, -5.67793227026494928822e+00) (12, -5.66672550941805575064e+00) (13, 2.05583852230737162969e+00) (14, -1.24573467625764422451e+00) (15, 5.10887005954687989373e+00) (16, -8.23032119629326430754e-01) (17, 3.94850549694845254223e+00) (18, -8.07260840395628176402e-01) (19, -5.51107587029590373362e+00) (20, 1.78025292403492731326e-03) (21, 5.67411499781384787156e+00) (22, 1.63249996728887012409e+01) (23, -8.86721672461460741488e+00) (24, -1.41114558195439276922e-01) (0, 5.59154626833465506763e-01) (1, -2.69105833999806420831e-01) (2, -3.51658662926077947297e-01) (3, -3.38132228843640303406e-01) (4, -1.76010080946972624627e-01) (5, -2.45027743482023524502e-01) (6, -3.78485160680106902387e-01) (7, -1.53331723482234283384e-01) (8, -5.63104986040755650656e-01) (9, -1.27560734279551102333e+00) (10, -1.27297669107408056854e-01) (11, -4.76087835635003314705e-02) (12, -2.97442013626866119669e-01) (13, -1.46142724754882630256e-01) (14, -2.87063751354970198015e-01) (15, -3.68358521325531040880e-01) (16, -1.51861475371400544976e-01) (17, -2.93340387050492090726e-01) (18, -3.27169553059499185199e-01) (19, -3.61003450791441193868e-01) (20, -2.88342857399627616743e-01) (21, -3.33837915395487516701e-01) (22, -3.24043257165810560938e-01) (23, -2.82051663169391397812e-01) (24, -2.44483160099829260892e-01) (0, 1.88047640916490982343e-01) (1, -2.67613442519030575451e-01) (2, -2.60629139330396941698e-01) (3, -2.64773380293572058175e-01) (4, -4.27188994460326154634e-01) (5, -1.11878689387117147280e-01) (6, -3.07088821841665915446e-01) (7, -3.06130087828866026545e-01) (8, 5.41421988136634335653e-01) (9, 4.99474002541572814629e-01) (10, -1.71946450164596392751e-01) (11, -2.31880132413692235938e-01) (12, -3.39126940683890931716e-01) (13, 6.07686015099459631017e-01) (14, 4.49262170453722353702e-01) (15, 5.36061996706030274851e-01) (16, -3.44196597180015717576e-01) (17, -2.28303773669492282572e-01) (18, -2.24021695616090560366e-01) (19, -1.88108495437854489341e-01) (20, -3.82911486183793337013e-01) (21, 5.00911880133219522548e-01) (22, 4.59024938547005489919e-01) (23, 4.40126556457903994612e-01) (24, -2.17710867237013716569e-01) (0, 4.16184054608809750331e-01) (1, 5.88388793519396546827e-01) (2, 5.18989463252747640354e-01) (3, 4.76143247828474225347e-01) (4, 3.90119066977246686800e-01) (5, 4.71392952584700375418e-01) (6, 4.10216832738199699282e-01) (7, 5.26171335702973586024e-01) (8, 5.12127073875555782756e-01) (9, 3.33751711828756514322e-01) (10, 5.56066331309870265365e-01) (11, 5.64245188612516379578e-01) (12, 4.28555562809556533921e-01) (13, 6.67745116992549236912e-01) (14, 6.46700694822373245430e-01) (15, 4.11955097422804894514e-01) (16, 4.79622506170560181094e-01) (17, 4.06666959975121533599e-01) (18, 4.63980230987316388802e-01) (19, 4.02054371320115455646e-01) (20, 4.91792039154849258686e-01) (21, 3.66444023032755139546e-01) (22, 4.04470840745972670671e-01) (23, 3.91273846980702388887e-01) (24, 4.87093962047895068235e-01) (0, 4.22005659175993586008e-01) (1, 4.89072863352148612393e-01) (2, 3.94068834073701301790e-01) (3, 5.61444812654548819353e-01) (4, -4.54637459475513705520e-01) (5, -2.75029796506078283436e-01) (6, 3.60352869217699323112e-01) (7, 4.87835379791403067617e-01) (8, 5.34960298374807408095e-01) (9, 4.33494429456172503112e-01) (10, 4.72111156273508025816e-01) (11, 5.91372107658346579662e-01) (12, 4.39028235817400303009e-01) (13, -1.96283868179722320590e-01) (14, 9.57269114788514396963e-01) (15, 5.35568556708245435694e-01) (16, 5.69543298262130459619e-01) (17, 4.24783934903288584728e-01) (18, 4.68866152760258336762e-01) (19, 5.03403569526594596439e-01) (20, 4.99049913346077622656e-01) (21, 4.24792786230296481875e-01) (22, 3.37164498765357700805e-01) (23, -1.66724212595231680023e-01) (24, 4.69241608929891029778e-01) (0, -3.71848640544552633269e-01) (1, -1.93997206784533859913e-01) (2, -1.76398350053477676047e-01) (3, -3.03017952928555378556e-01) (4, -1.75320997513326692907e-01) (5, -2.12870653156286254726e-01) (6, -3.61779970880807100198e-01) (7, -2.98223918056825576528e-01) (8, -2.65014519175827412134e-01) (9, -5.38759156475684952703e-01) (10, -2.01820705299241703878e-01) (11, -2.80029321036020295566e-01) (12, -3.71439656787138861027e-01) (13, -2.50262882044883228083e-01) (14, -5.13623556636587305646e-02) (15, -3.33067396737210807967e-01) (16, -1.43348311897206065479e-01) (17, -2.29390262024197683077e-01) (18, -1.51828182109344594908e-01) (19, -2.45125683931012167127e-01) (20, -2.49853555410261135572e-01) (21, -2.72510545127226111450e-01) (22, -3.41777588841568891187e-01) (23, -2.00824308447629051866e-01) (24, -1.94079633983995969437e-01) (0, 9.79045965942688845018e+00) (1, -4.86579676668706273546e+00) (2, 7.25011809808545848455e+00) (3, -2.25396732217991626612e+01) (4, -2.81416095248741129353e+01) (5, -1.25803473233544664822e+01) (6, -5.37081416992692872725e+00) (7, -1.22590304691856353259e+01) (8, 5.98059361373554907004e+02) (9, 2.96145934400787268714e+02) (10, 4.00354197335165622462e+02) (11, 1.04807369103341920891e+03) (12, 7.83187611111448660495e+01) (13, 1.39065991593533500037e+01) (14, 1.31679980744668995385e+02) (15, 3.10376666915396590696e+01) (16, 8.58708334225616454205e+01) (17, -4.08341242078052886200e+01) (18, -6.75617556022785059611e+00) (19, -1.66122869735404883329e+01) (20, 1.38790622579975847506e-01) (21, 1.14911561306872780364e+01) (22, 2.94449771500830124182e+01) (23, 3.44201472464203277468e+01) (24, -1.28118410258801357360e-01) (0, 5.74657801941267698531e-01) (1, 5.54053532652408087245e-01) (2, 5.53833314039692381492e-01) (3, 5.23934339383231861831e-01) (4, 7.24587892996736204765e-01) (5, 7.41665073121332785178e-01) (6, 4.78295472788752284998e-01) (7, 4.68023292279250435755e-01) (8, 3.90013822952249900045e-01) (9, 5.51877981050060473223e-01) (10, 6.16834912670243373789e-01) (11, 4.54552582086863610211e-01) (12, 5.68181189267636943541e-01) (13, 1.55343614938225016431e-01) (14, 5.35013735524622502382e-01) (15, 3.33362185954944434396e-01) (16, 4.25289650863183987806e-01) (17, 3.89312369883743292220e-01) (18, 4.11614577327639619142e-01) (19, 5.39468937052468011650e-01) (20, 4.94353372073019381450e-01) (21, 5.40000768161509769882e-01) (22, 4.17684662760032243689e-01) (23, 1.70513591253039803464e-01) (24, 5.11359974325664046191e-01) (0, -8.49590869625114919472e+00) (1, 3.93922090524265255951e+00) (2, -8.67709457133265793516e+00) (3, 2.16112740405843659630e+01) (4, 3.51135372634707252359e+01) (5, 2.19984980052028546993e+01) (6, 1.42505834773293393880e+00) (7, 2.58975044806425387378e+01) (8, -1.34706111836581817442e+03) (9, -6.02334169438333674407e+02) (10, 1.18384431831313587935e+01) (11, 9.48168388217295330378e+01) (12, -8.48754679665700422220e+01) (13, -1.63897600291771254888e+01) (14, -1.17704052181699552193e+02) (15, -2.61466132593008353524e+01) (16, -1.05192756761058518578e+02) (17, 5.96129157926124975120e+01) (18, 1.69327835509478283882e+01) (19, 2.34172450806158174430e+01) (20, 1.35541865977223313644e-01) (21, -1.55933619651527055616e+00) (22, -3.96221857008066820072e+01) (23, -4.70070970102885183906e+01) (24, -1.19735937149426388548e-01) (0, -1.70411655587494728081e+01) (1, -5.78599006016118710960e+00) (2, 8.38881748448731734413e+00) (3, -1.22119356372530507571e+01) (4, -4.39311507889807160154e+01) (5, -1.31532410809536077778e+01) (6, -7.45823648667765293219e-01) (7, 1.10871146205031099186e+01) (8, 1.62500060003585566903e+01) (9, 2.72977464967567513554e+01) (10, 6.77100641599948982474e+00) (11, 1.63032417434636534015e-01) (12, 1.75607229610188007030e+01) (13, -2.71550669648874958284e+01) (14, -8.88025987700793884017e+00) (15, -2.13920866647573433283e+01) (16, 1.72668918375368178886e+01) (17, -1.63863568745429089013e+00) (18, -4.69717360222586499674e+00) (19, -1.96857937221281744655e+01) (20, -2.18507266283416896613e+01) (21, -2.67421215662885884967e+01) (22, -2.85119811291514864138e+01) (23, -3.45440652564449877104e+01) (24, -1.99878865118987170124e-01) (0, -7.24869031031818017441e-02) (1, -1.45237099073669745364e-01) (2, -2.60565657531561967186e-01) (3, -2.79952703668999991482e-01) (4, -1.14743417547619533381e-01) (5, -7.56522257831815148066e-01) (6, -6.61152566831913812706e-01) (7, 2.96273720008969010387e-01) (8, 4.24902175162537254494e-01) (9, 7.05352567412833586502e-01) (10, 2.27904456414053369073e+00) (11, 4.31845742994221382105e+00) (12, -3.26064545469929745192e-01) (13, 2.66832772697573772369e-01) (14, -3.48543222798898089110e+00) (15, 5.85311216879791818002e-01) (16, 5.48880594128199561510e-01) (17, 8.95075199025105128214e-01) (18, -1.08931654606962725895e-02) (19, -1.32508697046694368105e+00) (20, -3.37159110684218332743e-01) (21, -6.05999550096924854969e-01) (22, -5.41633373251477756583e-01) (23, -5.63361633994298283135e-01) (24, -1.94883029663566326173e-01) (0, 1.33307592135552299695e+00) (1, 4.35287694942432745737e-01) (2, 4.82240052546260344890e-01) (3, -6.75229331081627637268e-01) (4, -7.48787952234471143598e-01) (5, -3.21900459924624404717e-01) (6, 1.11083723012105672900e+00) (7, 6.97359186758373050807e-01) (8, 8.83880409259886756779e-01) (9, 8.01216818026744603820e-01) (10, 5.70975584750275877433e-01) (11, 6.38396525293525196609e-01) (12, 7.13118434855618654744e-01) (13, -9.83710130395879928100e-02) (14, 3.03185348062666615299e-01) (15, 5.31821711776298333696e-01) (16, 7.02836252722423338035e-01) (17, 6.20160118118205150317e-01) (18, 6.04932430483007821387e-01) (19, 6.96976446249105818787e-01) (20, 7.26890249060079152166e-01) (21, 1.02393370897383073626e+00) (22, 6.66275421382923060953e-01) (23, -9.31509488429399651332e-02) (24, 5.89288140573827279312e-01) (0, 5.66440927980788933027e-01) (1, 5.65664167426148445372e-01) (2, 5.13114467896513826162e-01) (3, 4.79641585323913210992e-01) (4, -1.38532406275914010685e-01) (5, -2.00669439851483305537e-01) (6, 4.71236185865240908566e-01) (7, 4.34610602275274704454e-01) (8, -3.29922527091859374426e-01) (9, -2.21771474478227342830e-01) (10, 5.23305476572101690991e-01) (11, 5.04571331436342918053e-01) (12, 4.84007238504092107689e-01) (13, 3.28342134443664557253e-01) (14, 4.46650047686845241834e-01) (15, 3.83230206246738813736e-01) (16, 3.42238943438853138179e-01) (17, 5.83792936666247874733e-01) (18, 4.37582536819141165729e-01) (19, 4.65632688883793555146e-01) (20, 4.52449678648450870355e-01) (21, 4.29019900524706676581e-01) (22, 5.59093796383171692810e-01) (23, 7.69139489775082840772e-01) (24, 4.56169978179284785202e-01) (0, 4.69972510705676804754e-01) (1, 3.94065450044677012542e+00) (2, -1.28235603333607315335e+01) (3, -3.79328839691868902051e+00) (4, -2.61975812277975173004e+01) (5, 2.83711149600824974470e+00) (6, -1.50017166611114349806e+00) (7, -1.24568820330956029352e+01) (8, -2.63645893015558279160e+01) (9, 1.68528842017015350052e+01) (10, 1.00236650088560764971e+02) (11, 3.16576830016632982279e+02) (12, -2.51006303530399232926e+00) (13, -7.32361447168613555192e+00) (14, 7.04080210141794560208e-01) (15, -4.00143362977125072177e+00) (16, -2.83339156579901052524e+00) (17, -6.43106776490553616599e-02) (18, -1.14963402408187032044e+00) (19, 1.06771131246718855579e+01) (20, 5.70614091234011411302e+00) (21, 1.38575416482126706486e-01) (22, 2.57770444664961462244e-01) (23, 2.88966563896842494330e+01) (24, -2.08353513747008889379e-01) (0, 3.34584969565941414693e-01) (1, 4.26879566129102605565e-01) (2, 4.13504065921508179304e-01) (3, 5.01705821158660247860e-01) (4, -3.24819690689624962499e-01) (5, 3.28164313976964772124e-01) (6, 3.83967587333445548037e-01) (7, 6.00309522108572579668e-01) (8, 4.54604988135215049017e-01) (9, 3.41373315505636654166e-01) (10, 5.42889816127250846023e-01) (11, 6.71774124201041544779e-01) (12, 4.34152247885270736738e-01) (13, 4.12688348428480011876e-01) (14, 5.60116884551656868396e-01) (15, 3.72286507597590243801e-01) (16, 4.87836364826882140644e-01) (17, 5.08165692867246887587e-01) (18, 5.67701165527288331702e-01) (19, 4.05228618260885520286e-01) (20, 4.97098420791013684283e-01) (21, 3.93129692397768071288e-01) (22, 4.82808126242657342786e-01) (23, 5.00883309518875718958e-01) (24, 5.09280187511031989800e-01) (0, 1.68651186011805833687e+02) (1, 2.45202664337086098101e+01) (2, -5.17690785345728610167e+00) (3, 1.56064398945674955854e+01) (4, -8.55647649273977606299e+01) (5, 4.28181056610134689322e+01) (6, -1.06148167269238626886e+01) (7, -3.57989056922814157247e+01) (8, -1.86783483447703737568e+01) (9, -6.59182500152290202777e+01) (10, 1.40306859417042728566e+00) (11, -1.92480771733107438592e+01) (12, 6.34678076773188859505e+00) (13, -1.97338254371417964883e+00) (14, -4.59273738669115303423e+01) (15, 2.89141467026774385829e+01) (16, 1.29105910862426433994e+01) (17, 3.03525662008659367075e+01) (18, 9.81678250705845556467e+00) (19, -1.34396300684393601443e+01) (20, -2.51862772078125907171e+01) (21, -2.34038438967355517661e+01) (22, -1.74902466082572090045e+01) (23, -1.57559058727555836299e+01) (24, -1.38978661831508115698e-01) (0, 3.91465987912517188185e-01) (1, -2.35383014395661366303e-01) (2, -2.49557788224992749271e-01) (3, -3.28254725016908388557e-01) (4, -1.21137972159379908588e-01) (5, -2.70730768728795756495e-01) (6, -2.91152777002330720446e-01) (7, -2.50811886903963998652e-01) (8, -3.90171067948924421565e-01) (9, -5.91039362453805061648e-01) (10, -3.33858285349701466860e-01) (11, -2.41531611247574357071e-01) (12, -2.79781940400339379504e-01) (13, -3.33507349556227183918e-01) (14, -9.13362177548116271897e-02) (15, -2.47259480265101888596e-01) (16, -3.60797384270329979383e-01) (17, -3.15456991983323831175e-01) (18, -3.13301096426075786905e-01) (19, -2.26806448129900833921e-01) (20, -2.53807253490343665003e-01) (21, -3.30751244389809961888e-01) (22, -2.98095568258522569671e-01) (23, -2.45993223764197327386e-01) (24, -2.48454335995867414688e-01) (0, 3.01616180979378423199e-01) (1, -6.63959324765355102249e-02) (2, -3.11609936286364685998e-01) (3, -5.49148217078595859975e-02) (4, -6.17022079373900522725e-01) (5, -4.95320248942976493201e-01) (6, -3.38447451842846858128e-01) (7, -1.63794100507612616635e-01) (8, -4.83725946559154351689e-01) (9, -7.84416142172648656050e-01) (10, -2.45045479674260185954e-01) (11, -2.93654613209761328196e-01) (12, -2.44347039576123775673e-01) (13, -8.38188574936273300686e-02) (14, -1.71195147474191039505e-01) (15, -2.66959729405841783567e-01) (16, -1.72468439589037764170e-01) (17, -2.23895404501628675353e-01) (18, -2.84411523901762886002e-01) (19, -1.53779219141709416752e-01) (20, -3.83904425179041497440e-01) (21, -2.12692753917953031317e-01) (22, -2.30362769927740462794e-01) (23, -2.89617438814447458739e-01) (24, -1.77524736718657261125e-01) (0, 3.18686056762561875644e+00) (1, 4.93613475638392917855e-01) (2, 5.50171218044640308875e-01) (3, 1.90708814048731079005e-01) (4, -9.99660882067577305499e-01) (5, 4.17338102744930328214e-01) (6, 2.11772677231116102092e+00) (7, 6.53902652398216654994e-01) (8, 3.08417942150007950985e+00) (9, 6.87751500786226155348e-01) (10, 1.15234758202334930388e+00) (11, 6.06492916720281804999e+00) (12, 1.32675063030359058347e-01) (13, 4.13370901777578492187e+00) (14, 1.06786269354458234204e+01) (15, 2.03433209885150345642e+00) (16, 7.95994765721302899308e-01) (17, 5.12352437768095247961e-01) (18, 6.15827410228858007635e-01) (19, 6.19977837861655056706e-01) (20, 5.90344936244465712250e-01) (21, 8.50147642303798134478e-01) (22, 6.85316729697310833558e-01) (23, 5.72058846549847466179e+00) (24, 5.84091891984208855249e-01) (0, -9.94675741925239975672e+00) (1, 2.81223289943118004430e+01) (2, -7.93324002446586096227e+00) (3, 1.33316433279046719917e+01) (4, -7.33045275659284456538e+00) (5, 3.68658830294576045361e+00) (6, 1.64909211006747717931e+01) (7, 3.36441059785723695086e+00) (8, 4.93669460861827769094e+00) (9, -8.54357533579368055854e-01) (10, 3.05485029406277632802e+01) (11, 6.78156524610735687020e+01) (12, 5.55457099773900750961e+01) (13, -5.06607254206676032027e+01) (14, -1.17589957462195981996e+00) (15, 2.17072419312614677267e+01) (16, 8.37657639141394483318e+00) (17, -7.08868277935525714639e+00) (18, -1.98435942100147570955e+01) (19, -6.30462160425043123269e+01) (20, -3.69921293613357349273e+01) (21, -1.10329905059756924857e+02) (22, -9.29970034514483785415e+01) (23, -3.96274698767885070083e+02) (24, -1.66837289417604534014e-01) (0, -7.27568803102571437513e-01) (1, 1.25268686690278130413e+00) (2, 4.08832991534107348386e-01) (3, -7.38990610422021410031e-01) (4, 4.79542816926521631160e+00) (5, 1.03429462883067593282e+01) (6, -1.68608427552514577030e+01) (7, -4.32609995476773079304e+00) (8, -2.30997160826309908543e+01) (9, -1.97728160314715317725e+01) (10, -9.56974310240389236526e+00) (11, 1.09741364127644636106e+00) (12, -5.84519066395836350836e+00) (13, 3.42557982085078105428e+00) (14, -2.03206317496826081026e+01) (15, -2.96015188211989732636e+00) (16, 9.85964263278418151515e+00) (17, 2.66808335274892005629e+00) (18, 1.54987277163634740162e+00) (19, -3.06236919780787575363e+00) (20, -2.00736723240517855871e+00) (21, -4.97820121315885710800e+00) (22, -1.37423762734420193965e+01) (23, -9.54171979299777461847e+00) (24, -2.03967180193323521786e-01) (0, 3.85183931649207556003e-01) (1, -2.62194938615655848135e-01) (2, 5.38577165726253359601e-01) (3, 4.93921333590803091074e-01) (4, 9.16436872711216543586e-01) (5, 9.27550554961835360679e-01) (6, 5.99553665056880569217e-01) (7, 4.34533138911116501024e-01) (8, 5.37509184297558895160e-01) (9, 4.54785012295455648434e-01) (10, 5.17120908300677029068e-01) (11, -2.65969912153080356720e-01) (12, 4.63657675336408892086e-01) (13, 2.27033002278625217762e-01) (14, 9.53576492535526676342e-02) (15, 6.24717634421989576055e-01) (16, 4.09295638476730561095e-01) (17, -1.74850649419590942202e-01) (18, 4.69615787688221208995e-01) (19, 5.86926968659278514018e-01) (20, 5.35027748095603938872e-01) (21, 4.71012449323874093920e-01) (22, 3.94445178458390499632e-01) (23, 8.62073726665117723300e-01) (24, 5.03061085618453973645e-01) (0, -2.51317934620821914482e-01) (1, -1.83384504226039052321e-01) (2, -2.41624007468661583520e-01) (3, -3.21837518542250566878e-01) (4, -8.20936573023568150198e-01) (5, -1.66509306592143135894e-01) (6, -4.07943152197390745961e-01) (7, -2.71502327709065183203e-01) (8, -4.30714216369114499816e-01) (9, -5.03096580166434326209e-01) (10, 6.59380748916795628167e-02) (11, 1.93836260072647731389e-01) (12, -1.47109954169316214934e-01) (13, -2.67087210032863116987e-03) (14, -1.74983357135460787513e-01) (15, -3.11921383779218630572e-01) (16, -2.70832989424420245150e-01) (17, -3.04551633313119463065e-01) (18, -1.86018577732569273531e-01) (19, -1.74128789549969298367e-01) (20, -3.64964193959896210373e-01) (21, -3.09546335363816427222e-01) (22, -3.72077059965971734812e-01) (23, -3.85224256715426260911e-01) (24, -2.29660677205469565543e-01) (0, -1.28480799286551206073e-01) (1, -5.15461019562797953530e-02) (2, -3.11819153108324254031e-01) (3, -2.81996751885398522219e-01) (4, -3.94531243704793199711e-01) (5, -3.89331781620482486606e-01) (6, -3.51855186926562368832e-01) (7, -2.76591063882513865657e-01) (8, 4.79317525227118790276e-01) (9, 5.41141016701010446610e-01) (10, -2.53313892549562547085e-01) (11, -2.43089385550510045375e-01) (12, -4.08010902661606111863e-01) (13, -1.50296959082444198108e-01) (14, -2.49378466434098861049e-01) (15, -1.65244122774682256072e-01) (16, -1.82036069276692025198e-01) (17, -1.43130422707678756078e-01) (18, -1.43401471425434717810e-01) (19, -3.11743541935728896153e-01) (20, -3.06776155491273128106e-01) (21, -4.11323903194013740237e-01) (22, -2.93229978813946967620e-01) (23, -1.87370862656480174913e-01) (24, -2.41847906452753586004e-01) (0, -2.38996350646224792191e-01) (1, -1.36234620366442849004e-01) (2, -3.51119217280719486673e-01) (3, -2.36845990572628284365e-01) (4, -1.85410479804834271711e-01) (5, -1.95412069278655731175e-01) (6, -3.96709334978568528562e-01) (7, -1.65098260275089669946e-01) (8, -5.42259298008647472322e-01) (9, -5.98909046118495269617e-01) (10, -3.11197167181761491506e-01) (11, -3.22005183478777212702e-01) (12, -2.22956386245781873479e-01) (13, -1.93382796211513691143e-01) (14, 5.85620690639149163448e-02) (15, -1.91190107725873192912e-01) (16, -5.22655189607823394971e-02) (17, -3.06232280112281984863e-01) (18, -1.58737385470111125318e-01) (19, -2.73103886135849849293e-01) (20, -3.43022142330627832774e-01) (21, -2.26172417316409024579e-01) (22, -3.00414796651440274555e-01) (23, -3.00883961231482088827e-01) (24, -2.44551614827730440238e-01) (0, 6.19831949970367168667e-01) (1, 5.63871296355338391670e-01) (2, 4.20298117000416360245e-01) (3, 4.27978481618126405106e-01) (4, -3.79975601694824305365e-01) (5, -3.41576234230765496402e-01) (6, 3.15785664164327517511e-01) (7, 4.01313398289569578381e-01) (8, 4.23061512518586035903e-01) (9, 5.12978931194338239052e-01) (10, 6.16124015403892055787e-01) (11, 5.68158102706665113502e-01) (12, 4.99680123663275188584e-01) (13, 6.52346481569153979763e-01) (14, 4.49798755643018799422e-01) (15, 4.20326138394296555667e-01) (16, 5.85142916419468916978e-01) (17, 5.01260130209188137229e-01) (18, 4.30835660286186639123e-01) (19, 4.46271979113497196945e-01) (20, 3.70060398352430208746e-01) (21, 5.12551570558478775119e-01) (22, 4.05545566075169172660e-01) (23, -2.48053008273149272478e-01) (24, 5.07964528620747923782e-01) (0, 5.42962857633745854535e-01) (1, 5.25056369147522628005e-01) (2, 4.97406082437788610306e-01) (3, 3.01340533168530766428e-01) (4, 6.02213923808942230842e-01) (5, 2.97928815553466896926e-01) (6, 3.93820326466169212676e-01) (7, 4.75858863822607336402e-01) (8, 3.04968838801033148567e-01) (9, -7.55971739207690340834e-01) (10, 5.84725357985364069258e-01) (11, 4.86187819562284850861e-01) (12, 3.31932147045142067476e-01) (13, 7.02912444377158163178e-01) (14, 5.04401028581602295375e-01) (15, 4.88789931247374298540e-01) (16, 5.52288703466596531122e-01) (17, 5.10073546220305540366e-01) (18, 4.65863037572189275792e-01) (19, 4.24290880958235472331e-01) (20, 5.01453563136982416459e-01) (21, 4.55379925168780508304e-01) (22, 3.95117650491772332000e-01) (23, 4.10769888426790963365e-01) (24, 4.61471096427915949967e-01) (0, 7.62579439195977371035e-01) (1, 6.29900052813872735058e-01) (2, 6.94125931832163645119e-01) (3, 6.79961777238703213300e-01) (4, 1.99414250195663889098e-01) (5, 1.25806083441253302446e+00) (6, 1.48579109972404510565e+00) (7, 6.60440094014831169389e-01) (8, 7.64009822378867831105e-01) (9, -1.27861532048719139798e-01) (10, -2.05235669116553198776e+00) (11, 4.43774935925483393628e-01) (12, 6.82035459027744095373e-01) (13, 6.70477272826643377890e-01) (14, 1.07206101439996857039e+01) (15, 6.76058694801666915097e-01) (16, 8.02475481698386561291e-01) (17, 5.27044674774058585776e-01) (18, 5.88188187413551943905e-01) (19, 9.50142443072577114194e-01) (20, 7.63454090958267217459e-01) (21, 7.98067277542743980234e-01) (22, 6.78478559818870841092e-01) (23, 7.24951801218201796750e-01) (24, 6.47961593602875751685e-01) (0, -1.26214309198608432006e-01) (1, -2.84784351405866553719e-01) (2, -2.23993421091066818862e-01) (3, -3.95020998353469265929e-01) (4, -2.74633566826224917445e-01) (5, -3.55664647826442636980e-01) (6, -5.05004968801603060236e-01) (7, -1.71690284021428857253e-01) (8, 4.65373807269459649483e-01) (9, 3.54925907818707253583e-01) (10, 6.02878224521450234441e-01) (11, 7.46932444812172469106e-01) (12, -2.31921332681810338228e-01) (13, -1.86691256998183369165e-01) (14, -1.71943611580565647312e-01) (15, -8.80691415782351855190e-02) (16, 5.09837639894558103393e-01) (17, 5.95786951149756882629e-01) (18, -9.56072557450883542263e-02) (19, -3.00523291188788843620e-01) (20, -2.82297176071571342959e-01) (21, -4.25161257300020745120e-01) (22, -3.98474311976185824324e-01) (23, -3.18420657144980800979e-01) (24, -2.39980176208778872571e-01) (0, 4.86896676290242247376e-01) (1, 5.06877068345133907634e-01) (2, 4.78961869861711297958e-01) (3, 4.61002315060384193490e-01) (4, 5.44165110545122510111e-01) (5, 5.37755922876806291555e-01) (6, 2.77988988205401021947e-01) (7, 4.65147567918409443610e-01) (8, 4.55432114076166461025e-01) (9, 4.58863927645251135079e-01) (10, 5.03909959541027685503e-01) (11, 5.36617045437501771765e-01) (12, 4.14950965562511986384e-01) (13, 4.74930383695472801975e-01) (14, 6.22683325166217938040e-01) (15, 5.74318792998987914800e-01) (16, 5.87489840232500393213e-01) (17, 5.13394343784840723188e-01) (18, 5.47163741025227023940e-01) (19, 3.61535730342226302447e-01) (20, 4.00368180775262538784e-01) (21, 4.32151848858494280758e-01) (22, 4.18745278321422165213e-01) (23, 3.84961404416995889299e-01) (24, 4.95082824455388037510e-01) (0, -3.43449543329124082902e+01) (1, -1.57487624321005821315e+01) (2, 2.07055910450560389791e+01) (3, 2.69110207725402474921e+01) (4, 1.30074896080272264243e+01) (5, 3.46223480899456674820e+01) (6, 1.17892776459876529316e+01) (7, -6.97781119360800072826e+00) (8, 5.99669646676969669841e+00) (9, -9.03726535739919456525e-01) (10, -5.33378752595743961251e+01) (11, -4.67887203623632501603e+01) (12, -1.00087328157187556599e+02) (13, -7.93586406301027693644e+01) (14, -1.57726409721745739034e+02) (15, -1.70900218468102394809e+02) (16, -1.76907913695816532140e+01) (17, -9.79399172784925120538e+00) (18, -3.75125384105165338156e+00) (19, 4.76411158709635973452e+00) (20, 4.20062211079787317658e+00) (21, 9.02631564345896464374e+00) (22, 3.33828775611963690650e+00) (23, -1.89764204618812790670e+01) (24, -1.89182007624383252686e-01) (0, 3.96355219537469716240e-01) (1, 5.49896488595811749889e-01) (2, 5.03419563576771977864e-01) (3, -2.67712431938009753907e-01) (4, -4.01712093409727188931e-01) (5, -1.69812100048483710646e-01) (6, 3.52463651975460257049e-01) (7, 5.98228088100344224110e-01) (8, 4.12270045570380161415e-01) (9, 5.02124610076682853510e-01) (10, 1.90441607336315543719e-01) (11, 1.61836304273701325762e+00) (12, 4.47804161105089637562e-01) (13, 5.63781415966453369748e-01) (14, 1.01069453373549400510e+00) (15, 4.78118106715116508720e-01) (16, 4.67849933272156459640e-01) (17, 5.33053296306953972028e-01) (18, 4.59982001865333611779e-01) (19, 4.96507740424155186165e-01) (20, 3.61008285155852204351e-01) (21, 4.96253611612886891269e-01) (22, 4.83275610951913625613e-01) (23, 5.02238182957526424488e-01) (24, 4.35123206703347420454e-01) (0, 1.49579543586883356721e-01) (1, 4.52509751467909393519e-01) (2, -3.64254398019331127045e-01) (3, -2.43254480912826254180e-01) (4, -2.87227659151163605689e-01) (5, -2.49002152111877511631e-01) (6, -4.55104441804547843464e-01) (7, 5.14602319674022923301e-01) (8, 4.40133279417761924535e-01) (9, 6.31362286628850521986e-01) (10, 6.83982041267157780950e-01) (11, 2.38855221136254680658e+00) (12, 4.60251674638291696784e-01) (13, -1.54487388488971106454e-02) (14, -9.27550792402238449830e-02) (15, -2.26061205488839900291e-01) (16, 4.72893094999837837467e-01) (17, 5.95541746318342446465e-01) (18, 5.25876311975546850697e-01) (19, -2.72041341653610824203e-01) (20, -2.32765989736113537711e-01) (21, -4.06462909447376785632e-01) (22, -2.50447545070134780509e-01) (23, -3.58335827874977697061e-01) (24, 4.54023987319024713294e-01) (0, 6.72665952969437430653e-01) (1, 5.11092395312293445997e-01) (2, 4.19252010871184133123e-01) (3, 4.77523428094610791206e-01) (4, 9.10679310139389103229e-02) (5, -1.21987351194224727391e-01) (6, 3.98499948529029535127e-01) (7, 5.49930515489684190733e-01) (8, 5.56516140991519470127e-01) (9, 4.72491886744573319490e-01) (10, 4.41122305695829997063e-01) (11, 4.23287058735727861336e-01) (12, 4.19015990820056971611e-01) (13, 4.12119315062184854437e-01) (14, 4.86219173665549841967e-01) (15, 3.78826094295345860985e-01) (16, 4.60491740713828145992e-01) (17, 4.94467402787742038583e-01) (18, 5.99669885506086797200e-01) (19, 3.87866755045089550702e-01) (20, 4.83267154321349756696e-01) (21, 4.61372303645367576319e-01) (22, 4.38111654573589415218e-01) (23, 5.04060151050912175208e-01) (24, 5.20144721891035555217e-01) (0, 1.58513157916162450434e+00) (1, 6.19995130981846553908e-01) (2, 6.28774303677226975573e-01) (3, 6.25406585414081783725e-01) (4, 6.26572889854596692949e-01) (5, 6.61478395347142256178e-01) (6, 9.52344395718536018691e-01) (7, 7.09581819921963563580e-01) (8, -6.60613265638515523293e-02) (9, -2.60718600432040592541e-01) (10, -1.25769677807607310749e-01) (11, 1.21638783310373321811e+00) (12, 8.83329081178108932448e-01) (13, 7.53202731691839599826e-01) (14, 5.82518478562843999846e-01) (15, 7.94761364927342839337e-01) (16, 6.74271762332455337763e-01) (17, -2.59965793370496134340e-01) (18, 5.65999246320650684083e-01) (19, 5.13118948878918068601e-01) (20, 7.76895473525025637151e-01) (21, 2.26393438259677948210e+00) (22, 1.04331861242058798744e+00) (23, 8.39877397529474101212e-01) (24, 6.74147845530871481223e-01) (0, 6.64198590145904654847e-01) (1, 4.38019045541471196969e-01) (2, 5.44041548481891346078e-01) (3, 3.31597225893401792440e-01) (4, -1.41471910516416388148e-01) (5, 4.96212900146096036469e-01) (6, 3.25133657815190990625e-01) (7, 4.78800405370611859013e-01) (8, 3.48808244172834180929e-01) (9, 3.87717345660276602182e-01) (10, 6.91931314998909585690e-01) (11, 6.79549099795091482434e-01) (12, 5.52842281367852628193e-01) (13, 6.90004819889001419497e-01) (14, 4.93947077764269770750e-01) (15, 3.61713136579225047473e-01) (16, 5.45462994677056833837e-01) (17, 4.17002668624521954932e-01) (18, 5.33869109218743753686e-01) (19, 5.34683104066304371038e-01) (20, 4.80170942204470263537e-01) (21, 4.08451274083179660668e-01) (22, 3.62082665336721454263e-01) (23, 5.39180672301186714179e-01) (24, 4.63482848172983186164e-01) (0, 1.97274914761788577877e+00) (1, -9.83545686694011211948e-02) (2, 2.37147948075240977417e+00) (3, -6.48870072666674335693e+00) (4, -2.31931690107253535293e-01) (5, 6.44725834108530548860e+00) (6, 1.09701039679012263273e-01) (7, -1.02976933044329452827e+01) (8, 1.47853934087910108275e+01) (9, -5.16048300350823649363e-02) (10, 2.10384155600516598028e-01) (11, 3.39933102794730004348e+01) (12, -6.62968082827887794650e+00) (13, -7.21542850403316027297e+00) (14, -5.12522667383223939908e+00) (15, -2.60803768663705888287e+01) (16, -1.08710747576234847966e-01) (17, 1.13344446191614878217e+00) (18, -5.99300038712451854650e+00) (19, -1.73206093616405354396e+00) (20, -4.20705394900420595605e-02) (21, 2.10847291422112759207e+00) (22, -2.20437968770865466706e-02) (23, -1.14641068450124485878e+01) (24, -1.88033955144636499845e-01) (0, 6.83138385171659923145e-01) (1, -2.35394167197274045700e-01) (2, -2.65578536512327711971e-01) (3, -4.13526584689133280826e-01) (4, -3.06099058427098336121e-01) (5, -1.75300984052133596025e-01) (6, -3.02197382838347405887e-01) (7, -1.55010920660846734931e-01) (8, -5.06818059444558932647e-01) (9, -6.98313593301863044793e-01) (10, -1.08440505691440980396e-01) (11, -3.60145012483405746462e-02) (12, -4.07739973239474362554e-01) (13, -1.98635867012846335788e-02) (14, -1.24789238652959055820e+00) (15, -1.93118675744917006609e-01) (16, 4.83717145191048136788e-01) (17, -2.36282475903221517166e-01) (18, -1.40795281658321086438e-01) (19, -2.99683558360143986743e-01) (20, -3.87395326273356988001e-01) (21, -3.14142056527129120980e-01) (22, -2.36738784281702641099e-01) (23, -2.83177491918626733636e-01) (24, -2.55275265234175929852e-01) (0, 2.35976485732365226511e+00) (1, 5.02276073987013016442e-01) (2, 1.39963058834382936269e+00) (3, 4.42013820587610128943e-01) (4, -1.07842844221844258445e-01) (5, 2.62091062281543329959e-01) (6, 1.21173965342267053735e+00) (7, 8.14258603327347230127e-01) (8, -1.42968084774896364575e-01) (9, -2.18214186010376454128e-01) (10, 6.09780253447112952081e-01) (11, 7.17735106884254570048e-01) (12, 7.06309211228683064832e-01) (13, 7.95300165458118546447e-01) (14, 1.53974141980783763017e+00) (15, 6.68609714928443565896e-01) (16, 8.68263479775717272879e-01) (17, 5.18413018476069353824e-01) (18, 5.98780239714775452953e-01) (19, 5.65199434400821876245e-01) (20, 6.29553646660798826851e-01) (21, 6.55197880548811784074e-01) (22, 7.28380672427839437333e-01) (23, 8.56059922534155082197e-01) (24, 5.92306213705260597990e-01) (0, 5.81557943059611170966e-01) (1, 6.41040316881411054162e-01) (2, 4.45352875289555305560e-01) (3, 4.26822150151908663585e-01) (4, 6.05479013088673467813e-01) (5, 8.78600691775269893036e-01) (6, 5.62727911912902389879e-01) (7, 6.08126740769810103515e-01) (8, 6.76376177996581229301e-01) (9, -5.73808690320926739759e-01) (10, -2.59381977233044791475e-01) (11, -2.93517701113838014315e-01) (12, 4.30355269539298146420e-01) (13, 3.67615609058195125236e-01) (14, 4.76085030719314961090e-01) (15, 5.35425703958387622095e-01) (16, 4.69624624469890616929e-01) (17, 4.63216869623079063878e-01) (18, 4.89023983037479181846e-01) (19, 5.11565749852730511371e-01) (20, 5.42088467868057088950e-01) (21, 4.73714957597905328424e-01) (22, 4.28232196431957756744e-01) (23, -9.38955442297595282986e-02) (24, 5.28201096797671465488e-01) (0, 5.47372155203367349863e-01) (1, 4.59470527911480630667e-01) (2, -9.12763490814415684449e-02) (3, 1.42920306911798757586e-03) (4, -3.45158221715120616668e-01) (5, 8.25049251642445691246e-02) (6, 2.16079792433874172397e-02) (7, -1.50956872055628549267e-01) (8, 9.28474609509094550575e-03) (9, -7.44509577381480269764e-01) (10, 5.63369545711537716981e-02) (11, -6.08029103966241768475e-01) (12, -3.42091401546413931278e-01) (13, -1.33444035155226026212e+00) (14, 1.83277650148262050145e+00) (15, -4.70677197783542666798e+00) (16, -2.36458023134784450781e-01) (17, -3.20114779344873645606e-01) (18, -1.67498292827269690264e-01) (19, -3.07282046321387003474e-01) (20, -1.95419837807283641729e-01) (21, -2.31583131240735512479e-01) (22, 4.59197501075165770423e-01) (23, 2.04377358221575794461e-01) (24, -2.03699900509316772501e-01) (0, 1.01180231122770983299e-01) (1, -1.04398246650332537921e-01) (2, 1.75358826392682871642e+01) (3, -2.09688960257120626807e+00) (4, -5.26724783464350476692e+00) (5, -1.18941992098780229270e+01) (6, 1.73573661434533619286e+01) (7, 2.00176051142298447871e+01) (8, 1.04192222353758637610e+02) (9, 4.04087014120919540971e+00) (10, 1.85518040295382178329e+01) (11, 1.15911797228690183204e+01) (12, 1.93465375929153466927e+01) (13, 2.02165511479046644538e+00) (14, 3.94708808202485528227e+01) (15, 2.24855542131488199686e+01) (16, 3.22261295468688357957e+00) (17, 2.52308164021543435140e+00) (18, -2.09698365377123829845e+00) (19, -1.38841520102926647695e+01) (20, -6.95814939907340512804e+00) (21, -6.26630873876776184339e-01) (22, -2.68896977560923078343e+00) (23, 1.04081224610810547659e+01) (24, -1.84105658175466591064e-01) (0, 4.83106101274821730929e-01) (1, 5.90086554838868959649e-01) (2, -2.83349347579635590932e-01) (3, -2.92180578436376514606e-01) (4, -3.84320082089430303807e-01) (5, -2.07904078017341009676e-01) (6, -1.69112257477418315155e-01) (7, -1.84066519950181639587e-01) (8, 5.57213719498386717000e-01) (9, 5.43480159668120688110e-01) (10, 3.95585614478881686384e-01) (11, 4.86219178620629244314e-01) (12, -2.68246698010866702067e-01) (13, 1.08077941892136292212e-01) (14, -1.53182281611720816361e-01) (15, -3.42117055653028523388e-01) (16, -2.12904551776568168320e-01) (17, 5.21424703015269441764e-01) (18, 4.09538347140691316728e-01) (19, 4.34084747264091019847e-01) (20, -3.60639635585353501845e-01) (21, -3.88896956416247774335e-01) (22, -4.27749489916305736248e-01) (23, -2.49572895887584356167e-01) (24, -2.50981325318998416130e-01) (0, 4.02441831773953873075e-01) (1, 6.27871326943011509591e-01) (2, 4.90854255067037392735e-01) (3, 4.93958061255181768434e-01) (4, 5.22731948075972563394e-01) (5, 5.81069774732442367871e-01) (6, 4.60643540395916928354e-01) (7, 4.94494990930232525272e-01) (8, 4.31229323780386641918e-01) (9, 3.61587225672919843067e-01) (10, 5.68545076165496543474e-01) (11, 6.93375604027353320546e-01) (12, 3.66568996471846708651e-01) (13, 4.97380821712198217810e-01) (14, 7.00613948495149463369e-01) (15, 5.37597504494657041363e-01) (16, 3.97141601287861523151e-01) (17, 4.28129710426323140116e-01) (18, 5.20075242473380772168e-01) (19, 4.12121792158775979154e-01) (20, 4.79335266024065675960e-01) (21, 4.61689075440816998341e-01) (22, 3.80072135890939299951e-01) (23, -4.19576979315826048555e-01) (24, 4.84008721709126787935e-01) (0, 8.09590215602641327663e-01) (1, 6.45002754116204224388e-01) (2, 8.41993064430339832604e-01) (3, 7.92261734893501157195e-01) (4, 5.57581694500696944949e-01) (5, 3.16105420091572997254e-01) (6, 1.18507553923449315825e+00) (7, 5.40516663620699056025e-01) (8, 1.15320653515084825536e+00) (9, 1.07745373724326953813e+00) (10, 4.41782582912217725024e-01) (11, 5.03856472380541764444e-01) (12, 1.07104694876430728279e+00) (13, -1.96156288365120695660e-01) (14, 1.11305226355531217131e+00) (15, 7.89687259665966201361e-01) (16, 6.92411623626756678185e-01) (17, 6.45165624974461615615e-01) (18, 6.67865405155874114485e-01) (19, 7.25169953346197604382e-01) (20, 7.15870879795243775234e-01) (21, 6.76314463920953401477e-01) (22, 7.87249265857857927209e-01) (23, 7.37223156212654218145e-01) (24, 6.46437288453760028339e-01) (0, 3.65836511224937155351e-01) (1, 4.63186812301562278460e-01) (2, 5.31453265579764910775e-01) (3, 3.78569360426357359728e-01) (4, -1.59446320137271474460e-01) (5, 4.82260684254731619713e-01) (6, 4.69556448157420092127e-01) (7, 4.67725344786474317438e-01) (8, 1.98612368272115674683e-01) (9, -3.97980070874588254259e-01) (10, -1.88556144686798821120e-01) (11, 4.04083172309787352905e-01) (12, 4.60236367638512833267e-01) (13, 1.17802074158843250729e-01) (14, 4.20762501678229761115e-01) (15, 5.24748493245795977202e-01) (16, -3.35557651315170013540e-01) (17, -2.67967498339362897308e-01) (18, 5.74232197045291936632e-01) (19, 5.08436645874901449460e-01) (20, 3.54552588531930445992e-01) (21, 4.66624494434007885957e-01) (22, 5.76727751989320691628e-01) (23, 2.90843116297012316274e-01) (24, 5.54240733519375528005e-01) (0, 6.82411739768704062037e-01) (1, 6.18817720960382677831e-01) (2, 6.44588838807524266983e-01) (3, 6.49407475490407448682e-01) (4, 1.90368244123396457290e+00) (5, 2.57491234283575654018e+00) (6, 6.01402175011940487437e-01) (7, 4.94876944004224716966e-01) (8, 1.68831285154913079971e+00) (9, 1.46966482249742713684e+00) (10, 8.24697506598273677447e-01) (11, 4.77149348905893000428e-01) (12, 7.33796428036450731902e-01) (13, 5.01553645496704536555e+00) (14, 1.41287541844594222162e+00) (15, 8.41635529697293716112e-01) (16, 8.06941509933139733413e-01) (17, 7.35840617011071507214e-01) (18, 5.86094083616165328898e-01) (19, 6.77471020175826388332e-01) (20, 5.91481995219158007693e-01) (21, 6.41726022095068904250e-01) (22, 8.66051984793245854810e-01) (23, 8.15901502419454138781e-01) (24, 7.08906228478546562854e-01) (0, 5.67560966084291185219e-01) (1, -1.90353440663354050999e-01) (2, -2.29065437361578139175e-01) (3, -3.00693340293751221193e-01) (4, 8.00217508502757690625e-02) (5, -2.41576032484618452578e-01) (6, -5.13690028422638556016e-01) (7, -4.15791000044545999703e-01) (8, 3.64687297733194248917e-01) (9, 3.24250396921191730293e-01) (10, 5.60409078568217755567e-01) (11, -1.67863379002769902426e-02) (12, -7.16259853735310758616e-01) (13, -3.12143421171125423630e-01) (14, -1.43120787524822512538e+00) (15, -6.93601275748542134281e-02) (16, 5.38059228657121857431e-01) (17, -3.05950873271604140147e-01) (18, -1.85464758527306816660e-01) (19, -2.68246208204247327256e-01) (20, -2.60144565285404361088e-01) (21, -3.23301131929394192088e-01) (22, -2.02878931434938514222e-01) (23, -1.82226347351734180302e-01) (24, -2.28110655258748351581e-01) (0, 6.51083726624531067273e-01) (1, 6.65741593473967996353e-01) (2, 2.12222632578585290730e+00) (3, 7.22627504854748803353e-01) (4, 2.11391052930971889978e+00) (5, 7.66239309744972674210e-01) (6, 6.80887063408147308330e-01) (7, 7.88375539710163608653e-01) (8, 6.59944674106708095707e-01) (9, 7.50508417135593131064e-01) (10, 7.47608000048602838739e-01) (11, 6.16749036379886872439e-01) (12, 7.54968074174415137989e-01) (13, 9.04375255376880682334e-01) (14, 7.28636986612056780643e-01) (15, 7.16445153456800487568e-01) (16, 9.13540026321571940748e-01) (17, 6.30116675064677722595e-01) (18, 6.28958988108401340078e-01) (19, 6.27256992982578198692e-01) (20, 6.20824991504281498145e-01) (21, 6.87754181289241151021e-01) (22, 6.89562166438244195099e-01) (23, 1.19577427919650802757e+00) (24, 6.30643768624036926695e-01) (0, 4.99984953753003336097e-01) (1, 4.37816945746751451374e-01) (2, 5.10974034757651573990e-01) (3, 3.59279206283186824944e-01) (4, 7.19592306246610413645e-01) (5, 6.13000464989614246569e-01) (6, 4.49760270824371866105e-01) (7, 4.26861116863361755858e-01) (8, 4.80243910234913640167e-01) (9, 5.10883891683223678726e-01) (10, 5.57606573068276878402e-01) (11, 5.42922804247482515549e-01) (12, 4.68669247966658375493e-01) (13, 5.34398040365787974082e-01) (14, 5.78489846902222715208e-01) (15, 5.18192037377827707800e-01) (16, 4.39127366097457616512e-01) (17, 5.25755907322567384021e-01) (18, 4.26503230793257470665e-01) (19, 4.28440344328840094779e-01) (20, 3.44519140050094707650e-01) (21, 3.73419041008145935479e-01) (22, 3.90600752724018174256e-01) (23, 4.35779270746469049591e-01) (24, 4.76268377518098751100e-01) (0, -5.98225640177385775687e-01) (1, 1.31543740354423253081e+01) (2, -1.38723568050524992401e+01) (3, 1.08265336498040483093e+01) (4, 2.28843095064840653663e+01) (5, 2.00199131372637531001e+01) (6, -1.60729410811161983474e+01) (7, -4.62307279442844976103e+00) (8, -4.93646916642221640359e+01) (9, -1.01511518852077955444e+02) (10, -4.23819239671945595660e+01) (11, -1.73432914445097132727e+01) (12, -3.44454955470962929098e+01) (13, 3.35557189195577532104e+00) (14, -2.86305998521556404057e+01) (15, -4.42017208944719008912e+00) (16, -5.97476201318199007240e-01) (17, 4.88744688952053429887e+00) (18, 1.14829007149452566594e+00) (19, -1.24504745967617136415e+00) (20, 5.70282369117049992013e-01) (21, 3.20827065009408851637e+00) (22, 7.38240807319027680933e+00) (23, -2.44533956897004820519e+01) (24, 3.86869274363590698318e-01) (0, 1.55753873517152974237e-01) (1, -1.00497090784347084536e-01) (2, -2.03488735644307555672e-01) (3, -3.31068695682207980724e-01) (4, -6.29373119933216873534e-01) (5, -3.39962744348922485393e-01) (6, -4.43007967412449576994e-01) (7, -2.56525581439170202724e-01) (8, 4.65876960871624334892e-01) (9, 5.37955808912776056729e-01) (10, 4.87607401076960100816e-01) (11, -9.56492080985142240079e-02) (12, -1.62910717116751563305e-01) (13, -2.77785115583452757448e-01) (14, -3.54591524221284537521e-01) (15, -3.26889637888910788988e-01) (16, -1.25946163358806151322e-01) (17, -1.65510156064334612580e-01) (18, -2.81643696952645239406e-01) (19, -3.01791034583768713606e-01) (20, -1.94035802807932838965e-01) (21, -2.59561375938353600112e-01) (22, -2.66199699182358251459e-01) (23, -2.16355738072538994476e-01) (24, -2.08320495245188475053e-01) (0, -1.50985965390912191264e-01) (1, -7.43632564940519963370e-02) (2, 6.47056051107302687697e-01) (3, 6.24313437473860588511e-01) (4, 7.29321591868392515856e-01) (5, 7.42294964238213395014e-01) (6, 6.55750040532911082636e-01) (7, 7.97451042470627147196e-01) (8, -2.56617881180910140104e-02) (9, 6.58598300230723299187e-02) (10, 6.22996444478762567698e-01) (11, 6.57361097382070269646e-01) (12, 4.40405171697869524117e-01) (13, 1.03930186026309923086e+00) (14, -4.17576043167952382085e-01) (15, 6.55933901603317215390e-01) (16, 7.88760396547855346938e-01) (17, 7.52096961906513983287e-01) (18, 7.74478067421309201990e-01) (19, 6.42980195719133340582e-01) (20, -3.94667578506359834067e-02) (21, -1.65556161516522026833e-01) (22, -1.04703217750983804124e-01) (23, 7.12047969989795248580e-01) (24, 6.27072001014392421681e-01) (0, 9.16710463735956260223e+00) (1, -1.53975489390085290564e-01) (2, 4.11578605231444871748e+00) (3, -2.94446330228337327384e+00) (4, -2.65066472159058141855e+00) (5, 2.10873534654067196215e+00) (6, -1.45692389150028089873e+00) (7, 3.50233467926985619911e+00) (8, 3.15020552639194706401e-02) (9, -4.59276303618296122266e+00) (10, -2.96070728267028160374e+00) (11, -1.46946131909979591512e+01) (12, 3.86778625751196925009e+00) (13, 4.79939194571554672564e+00) (14, -2.55148733011564576856e+00) (15, 1.65527570057552586569e+00) (16, -4.05549426895102538282e-01) (17, 4.73560511228066471912e-01) (18, 1.87975905586827751748e+00) (19, -1.51115215722165296963e-01) (20, 2.28481913079968323999e+00) (21, -1.52744432605567526107e-01) (22, -1.08544848407885430319e+00) (23, 4.49742485310452888569e+00) (24, -2.16382239315482977071e-01) (0, 5.78054624089668345199e-01) (1, 4.89520536145858553567e-01) (2, 4.43291763816212269766e-01) (3, -3.17147954533044895697e-01) (4, 2.31627336689850839291e-02) (5, -4.96288074286159675008e-01) (6, -5.04688751670254176496e-01) (7, 2.17282278593930955335e-01) (8, -1.12652129065548467501e+00) (9, -1.29807579102464565324e+00) (10, 4.20011560197886102408e-01) (11, 5.72353864938932255235e-01) (12, -6.40028118387164290937e+00) (13, 1.15113919462448061060e-01) (14, 6.66922535038201425017e-01) (15, -1.10081064964458547051e-01) (16, 5.40334714363696289041e-01) (17, 4.71218489827062159137e-01) (18, 5.11153623909064602771e-01) (19, -3.73093173439986325324e-01) (20, -2.70933464841794535705e-01) (21, 4.22224449373875265756e-01) (22, 3.95959484130017136394e-01) (23, -2.98002688634326884376e-01) (24, 4.97986222638794717721e-01) (0, 5.46745826234856791004e-01) (1, 4.60545265408713877520e-01) (2, 5.09414062681884605155e-01) (3, 5.32051094882615926984e-01) (4, 1.01931152191681917429e+00) (5, 7.43538952257697283166e-01) (6, 6.17161592168497308286e-01) (7, 4.48284313758684549445e-01) (8, 5.43168949048977278693e-01) (9, 5.42065228923614195189e-01) (10, 5.10331000092909436994e-01) (11, 4.30730754466818244186e-01) (12, 4.39196056893159048062e-01) (13, 3.83003073051493725387e-01) (14, 4.41225668746019539235e-01) (15, 4.60249760190605650134e-01) (16, 4.41347870708658773786e-01) (17, 4.06960923305730526423e-01) (18, 4.27579114106133473250e-01) (19, 5.26966899287324763712e-01) (20, 5.11655670911767890274e-01) (21, 3.76844254740867745657e-01) (22, 3.54805116466931191876e-01) (23, 3.86847543712565966612e-01) (24, 4.81286924230675872138e-01) (0, -3.84515456882570050290e-01) (1, -3.28902311078963838220e-01) (2, 3.72051858524394329919e+00) (3, 1.87604750287244326223e+00) (4, 4.87983674008503864883e+00) (5, 4.91333135345637295188e+00) (6, 3.40494041194708918496e+00) (7, 1.36411455501924305800e+00) (8, 1.78464949725910249079e+00) (9, 3.28722176082479311532e+00) (10, -3.18444153011384578633e+00) (11, -4.63381317535523429285e+00) (12, 5.77759076708655516796e+00) (13, 5.07728655111205817718e+00) (14, 3.87591265393743666934e-01) (15, 2.89605028528490793249e+00) (16, -2.88935074603947961158e-01) (17, -4.50994349734153199272e-01) (18, -2.24185112273937059424e-01) (19, 1.97114035830649414471e+00) (20, 2.28858407940746255704e+00) (21, 2.13907595124672367248e+00) (22, 2.32087295952925654063e+00) (23, 4.36173468909361439216e+00) (24, -2.57951250334081283455e-01) (0, 4.71417875668153574242e-01) (1, 4.52305149536467721028e-01) (2, 5.18873097208371714117e-01) (3, 4.45964639471183477148e-01) (4, 3.52438389154167197592e-01) (5, 5.19398585874480622770e-01) (6, 2.99279532611869625303e-01) (7, 3.98050675751902560684e-01) (8, 2.99945589766839548762e-01) (9, 2.50294697353267259210e-01) (10, 6.97506101789013843728e-01) (11, 1.37982373446262784888e+00) (12, 5.72514602000623207267e-01) (13, 9.28133232374099392814e-01) (14, 5.77259698453382208427e-01) (15, 4.92317155852410148764e-01) (16, 4.33211191909150694634e-01) (17, 4.61510029050388070893e-01) (18, 5.21607302358496283112e-01) (19, 5.30354471553506123804e-01) (20, 5.09319618351294356451e-01) (21, 3.85490214191260338605e-01) (22, 4.34478073030828138013e-01) (23, 4.47233217995797349698e-01) (24, 5.40798651198447055677e-01) (0, 7.73154891108072450656e-01) (1, 6.68655816393208812798e-01) (2, 6.48106800482855294199e-01) (3, 9.46242642066817074564e-01) (4, 2.22623228238480086461e+00) (5, 1.53368461350350826500e+00) (6, 1.02320027962147586109e+00) (7, -2.87136521968350599820e-01) (8, -3.70748034479515334305e-02) (9, 1.00929244934666543371e-02) (10, -3.38667476254650046119e-01) (11, 5.20031346361138124834e-01) (12, 6.75175481088865714341e-01) (13, -7.11659067487290832033e-03) (14, 9.18774547334488489447e-01) (15, 2.03648307178426329900e-01) (16, -7.69166335971936676597e-02) (17, 5.83909299446375262832e-01) (18, 6.67894937638651819967e-01) (19, 8.06048122441935466220e-01) (20, 6.27243006737302044584e-01) (21, 7.20782624336645749707e-01) (22, 7.46849706269682944715e-01) (23, 5.99327696789332620142e-01) (24, 6.24646934655724628271e-01) (0, 4.89572018509868922553e-01) (1, 5.10528471842205178177e-01) (2, 4.30892580232037303301e-01) (3, 4.61783482289367552820e-01) (4, -8.66858705426322151411e-02) (5, -3.53006646645270982798e-01) (6, 1.95633131179356017926e-01) (7, 5.31783054954862222097e-01) (8, 4.34394173696317276168e-01) (9, 3.98780717779204429974e-01) (10, 5.87150896982045034100e-01) (11, 5.88100674625975372578e-01) (12, 4.80542951571804044519e-01) (13, -8.74538918970153428267e-02) (14, -2.40573478600983242659e-01) (15, -1.25716955910528227491e-01) (16, 5.66427495854259888119e-01) (17, 5.07896490305312475755e-01) (18, 5.91332939607306262708e-01) (19, 3.87351101287232713055e-01) (20, 4.13622715698527709804e-01) (21, 1.90146998383833504276e-01) (22, -3.76834002399572431941e-01) (23, -5.39663879457998652001e-01) (24, 5.54779152184871948705e-01) (0, 5.08221836473094823461e-01) (1, 7.33041014045232697249e-01) (2, 7.49102281103413369934e-01) (3, 7.11099753971017212173e-01) (4, 6.67467103351981005943e-01) (5, 7.80277087395090052091e-01) (6, 7.48225179354742642168e-01) (7, 6.86271292902215002130e-01) (8, 6.65045432597934693675e-01) (9, 9.46609520121453017205e-04) (10, 6.20105798707429323180e-01) (11, 6.67956053272111160979e-01) (12, 7.02071060522640788548e-01) (13, 5.59754307608374745975e-01) (14, 6.63575584581614363877e-01) (15, 7.47471529165184001009e-01) (16, 8.12211153574365685159e-01) (17, 6.37969298231051196169e-01) (18, 6.41823707997171699624e-01) (19, 6.75736740442570371634e-01) (20, 7.29106250200281413854e-01) (21, 7.81240294303363835837e-01) (22, 6.67932728750281423657e-01) (23, 8.15497102618337299518e-01) (24, 5.98058244422750684421e-01) (0, -1.01867099439777475389e+00) (1, 1.43391075509712706548e+01) (2, -1.64046340777850438997e+01) (3, -3.98803544663818669846e+01) (4, -3.59058432456730685089e+01) (5, 7.02358494016633105872e+00) (6, -2.83887871467549288695e+01) (7, 1.33927775150340107047e+01) (8, -1.92854329041292587021e+01) (9, -3.94027140109067630647e+01) (10, 1.56157388285351768076e+01) (11, -2.04923705660771133807e+02) (12, -1.18897327723701300783e+03) (13, -1.50000000000000000000e+03) (14, 3.02541196363012154791e+01) (15, -7.74842075804130416827e+01) (16, 3.79776507076471903090e+00) (17, -9.03401593069538932923e+00) (18, -4.99303192720814426053e+00) (19, -3.08348719326748792469e+01) (20, 1.40954671829641622338e+01) (21, 2.26517812903128721302e+01) (22, -2.36442915040900878410e+01) (23, -1.39084654504553366650e+01) (24, -1.53852438137377284244e-01) (0, 4.50727142694473392748e-01) (1, 5.03663132509070798903e-01) (2, 4.89819560212822469047e-01) (3, 4.13382982443740443212e-01) (4, 4.77338094360204356903e-01) (5, 5.21567883443107449537e-01) (6, 4.80642891929490834180e-01) (7, 5.92427801621584149139e-01) (8, 4.52609149239410646359e-01) (9, 2.84306385975323927529e-01) (10, 4.55558955003244892001e-01) (11, 5.83847751840419704195e-01) (12, 5.08003589285399237419e-01) (13, 5.89630269592623545982e-01) (14, 5.72996358018479257090e-01) (15, 4.15745769624595418179e-01) (16, 4.43678772554228328939e-01) (17, 4.11986015450379605696e-01) (18, 5.38456763267414095786e-01) (19, 4.70625683724564702892e-01) (20, 5.26655466923789061795e-01) (21, 4.56622086125824944158e-01) (22, 3.93471347644099078700e-01) (23, 4.32266497183556863693e-01) (24, 5.31893272920127668790e-01) (0, -1.23560175261754001674e-01) (1, 1.95461086216861784637e-01) (2, -1.16058332467110947306e-01) (3, -2.89279851471554438902e-01) (4, 8.13873756369776546471e-01) (5, 5.37628447424038036218e-01) (6, -2.65665813218774082838e-01) (7, -2.30638784070021307659e-01) (8, -1.19824392936806051191e-01) (9, -2.19229400754713033006e-01) (10, -9.36099997000220257481e-02) (11, 8.55431276293934506061e-02) (12, 6.17169529302736552534e-02) (13, 5.38960468219813582103e-01) (14, -7.25577502953259623197e-01) (15, -2.08582445093963425586e-01) (16, -3.68284939912713826793e-01) (17, -3.29216338779951545046e-01) (18, -1.73810292428751816951e-01) (19, -2.16740088657500024061e-01) (20, -2.16528601806591503021e-01) (21, -1.53262592941738162722e-01) (22, -1.65919932143433285221e-01) (23, 4.07852383117929262468e-01) (24, -2.43895211959711116778e-01) (0, 9.03278655320460188705e+00) (1, -3.03132559485780814224e-02) (2, -4.16765044740439094539e+00) (3, 8.79015052591829298967e-02) (4, 1.59195146619346417083e+01) (5, -5.61537109820523183679e-01) (6, -7.59394065763805148350e+00) (7, -1.00983713508984411789e+01) (8, 5.80399144656429566425e+00) (9, 4.31625739069061893360e+01) (10, -1.55698051464353213191e+01) (11, -9.21856239542044342272e+00) (12, -1.34291758372028779966e+00) (13, 8.09539088085239555426e+00) (14, -7.98992510150958601400e+00) (15, -2.00573815797512500225e+00) (16, -1.33502108096560938577e+01) (17, -8.90947434086507894513e-01) (18, 1.33543583312269431573e+00) (19, 2.30180885832184003448e+01) (20, 1.35616714895741470315e+01) (21, 1.35144487144719196436e+01) (22, -1.42652102907556450617e+01) (23, 1.04316562425745491538e+01) (24, -1.06071616776314159303e-01) (0, 5.33624755207023904191e-01) (1, 5.42422013458684015852e-01) (2, 4.35188682580851582404e-01) (3, -2.07272165656676971013e-01) (4, -8.89228540215765139720e-02) (5, -3.56203099509864173911e-01) (6, -5.94389680573241818706e-01) (7, 5.25712758569380267382e-01) (8, 4.07593234342033761131e-01) (9, 5.27456809795254555340e-01) (10, 5.63917874976088917549e-01) (11, -3.55310267344487784591e-01) (12, -4.45926518382932124407e-01) (13, -1.20827871189241806138e-01) (14, -2.64300361202038147646e-01) (15, -1.72765587999735625857e-01) (16, 5.34060308753664503278e-01) (17, 4.54499215246197518780e-01) (18, 4.84537089090161354754e-01) (19, 3.78842474342243162866e-01) (20, 5.21175069312735050886e-01) (21, 4.52064945448612087731e-01) (22, 4.29916096282746074131e-01) (23, 4.78005434998057476825e-01) (24, 4.91648949768416498873e-01) (0, 5.84721771962015024471e-01) (1, -1.32097191046914669288e-01) (2, -2.87420650588029069628e-01) (3, -1.90239602259946766205e-01) (4, -1.71211650936452741689e-01) (5, -1.71127120085920875203e-01) (6, -1.75325482703253793249e-01) (7, -1.92033382295855148403e-01) (8, -4.66960643349783321998e-01) (9, -6.71578457403954276472e-01) (10, -6.69339557165489068558e-02) (11, -3.12002453806758062171e-01) (12, -3.73284973508566653155e-01) (13, -3.48517654068993154581e-01) (14, 1.91987505961996235415e-01) (15, -2.17619308546441403429e-01) (16, -2.63467583067760247051e-01) (17, -2.13133022270032806977e-01) (18, -2.06096330439282493519e-01) (19, -2.27168197977691499467e-01) (20, -2.00409612577489820717e-01) (21, -2.34437265768161567925e-01) (22, -3.63788184635812361645e-01) (23, -4.48732291355756707230e-01) (24, -1.78742541263652215955e-01) (0, 2.68308253920696522243e+01) (1, 2.71615449815469922612e+01) (2, -3.52430069037623354689e+01) (3, -8.02378988610771273216e+01) (4, 2.44636926551330127211e+01) (5, -1.83742956938260959987e+02) (6, 2.49458652922263866003e+01) (7, 4.84228144621787848223e+00) (8, 8.66353970100273684807e+00) (9, 1.21690368295402393528e+01) (10, 2.18659005510228787728e+01) (11, -1.78297293338556905873e+00) (12, -1.05063796369711681677e+01) (13, -1.15404796823626352165e+01) (14, 4.28666137108239464482e+00) (15, 6.26934765538034000087e+00) (16, 2.93010071830301654927e+01) (17, 1.97883742593015066191e+00) (18, -4.80561685776864333519e+00) (19, -6.08847768678139988907e+00) (20, -5.36913774599653326192e+00) (21, -5.17493751252483669134e+00) (22, -1.97333378950549267472e+01) (23, -2.07862037972881132930e+01) (24, -1.05469038584643542977e-01) (0, -9.27620872275364583004e+00) (1, -2.44722273612034015855e+01) (2, 4.68271843499168483049e+01) (3, 8.40484037706654874000e+01) (4, 6.18326580690585529965e+01) (5, 1.72622660456394555695e+02) (6, 4.72030677241277363265e+00) (7, 1.24172205317048733875e+00) (8, -3.01930612090435701589e+00) (9, -1.11376001936638360235e+01) (10, -3.90807273056168513747e+00) (11, -3.62827106661933527221e+01) (12, 6.73793092037048353404e+01) (13, 5.09110666771833848543e+01) (14, 4.29045000793838724462e+01) (15, 6.33274638639372113857e+01) (16, -2.40362811917197483069e+01) (17, -1.56993419495113375461e+01) (18, 1.23397544750735521646e+00) (19, 1.20113536461177758952e+01) (20, 2.10579903187452757152e+01) (21, 1.60247994143156944347e+01) (22, 6.83046640058918370642e+01) (23, 6.17289257075912090045e+01) (24, -2.12315648511529009301e-01) (0, -1.12150797894650313680e+01) (1, -1.15284461535215303485e+01) (2, 1.26455047261131543479e+01) (3, -2.94400429057922297105e+00) (4, 1.02736755993419166089e+02) (5, -6.31908381809391102024e+01) (6, 4.53821719046288336585e+01) (7, -1.74498977902698371167e+01) (8, 4.42957337797543289071e+01) (9, -1.62076300424052965887e+00) (10, -7.10611726862571089214e+01) (11, -7.26897667988917305593e+02) (12, 2.27392732169090834304e+01) (13, 2.45206922391610859790e+01) (14, 2.45436827395978269806e+01) (15, 1.08457407350837531368e+01) (16, -1.70650950796316935865e+00) (17, -2.56336480411168068372e+01) (18, -7.54265936654174495857e+00) (19, 4.01746228697250007400e+00) (20, 1.20937192541510931676e+01) (21, 1.67137309711380126487e+01) (22, -3.34066458143389777291e+00) (23, -2.21419531073973345769e+01) (24, -1.54938902945605583295e-01) (0, 5.46145033690522252456e-01) (1, -1.57540839991324732594e-01) (2, -1.92789622360517193256e-01) (3, -1.12435283423682863546e-01) (4, -2.20865578352048425037e-01) (5, -1.50070899205118263309e-01) (6, -2.14260635078540956355e-01) (7, -3.38331185876304396665e-01) (8, -3.84365770739341194862e-01) (9, -7.25886774508017640350e-01) (10, -1.89566474730183259778e-01) (11, -3.29337073296897764330e-01) (12, -4.08589799788390717339e-01) (13, -8.56059955480157619423e-02) (14, 4.05513521990854275412e-01) (15, -3.05901418174494565960e-01) (16, -9.45930239091068297830e-02) (17, -3.15787911100349705240e-01) (18, -2.14802350309140022144e-01) (19, -1.44100662728453982053e-01) (20, -2.68329999788831596863e-01) (21, -2.84920334507269112923e-01) (22, -3.19360323977531723738e-01) (23, -2.52508335969131469945e-01) (24, -3.05719942064867467035e-01) (0, -2.23603886996573797408e-01) (1, -2.40675110827228838639e-01) (2, -3.26990603708452676202e-01) (3, -2.14399605749581528835e-01) (4, -3.58125556934794697650e-01) (5, -2.17921180182411633464e-01) (6, -4.26063040665512926530e-01) (7, -1.62340273520857003575e-01) (8, -4.02303274704588098576e-01) (9, -5.98935710646519625655e-01) (10, -2.56395822923074556687e-01) (11, 5.86241911718803909714e-01) (12, -2.38043229211559098646e-01) (13, -1.20079494270156558744e-01) (14, -3.21110935423039312031e-01) (15, -4.07893711423547522532e-01) (16, -1.47602757090747410684e-01) (17, 4.53474211887425815437e-01) (18, -2.90431361262437515158e-01) (19, -2.94353722562474717783e-01) (20, -3.16901136823033058310e-01) (21, -3.97872931797011997190e-01) (22, -4.00669461659199921399e-01) (23, -3.64200617217035782502e-01) (24, -2.27006872629549993903e-01) (0, 5.13132735578020970912e-01) (1, 4.84043285190706606969e-01) (2, 3.56428735333138679842e-01) (3, 4.92123478361272403969e-01) (4, 3.63427227376575623374e-01) (5, 3.86973862215440389534e-01) (6, 4.02532575759807886850e-01) (7, 4.27752905200660393792e-01) (8, 5.14690579122608293794e-01) (9, 4.29265543605253652171e-01) (10, 4.70785190692684152314e-01) (11, 5.95751597407358057801e-01) (12, 4.26876476219486655772e-01) (13, 6.98492336569126681667e-01) (14, 6.31523925032248079070e-01) (15, 6.07727266549856093292e-01) (16, 4.40857507519821556485e-01) (17, 5.77632878001434368898e-01) (18, 5.82415049022934616652e-01) (19, 5.27085384877973628370e-01) (20, 4.86036313761335159178e-01) (21, 4.52427131279328820224e-01) (22, 3.61071135126357856127e-01) (23, -2.45797414379030965126e-01) (24, 5.44815471091362413247e-01) (0, 6.76568845840307853123e-01) (1, 6.12423761922497811305e-01) (2, 5.71767139413592584418e-01) (3, 4.00000059390986983932e-01) (4, 7.24024962566483964999e-01) (5, 1.36793095504712702848e+00) (6, 6.15425715166932896238e-01) (7, 5.88321700493101618079e-01) (8, 2.90840662653233916757e+00) (9, 1.41401283634444552284e+00) (10, 8.63885044062961848788e-01) (11, 9.68132562179264244406e-01) (12, 8.49591395359510892504e-01) (13, 6.73057756773713711240e-01) (14, -2.41542242107468174694e+00) (15, 7.30712397948560243854e-01) (16, 7.66735386053161271924e-01) (17, 6.32558769775763973797e-01) (18, 6.41831583828285978655e-01) (19, 5.62274616601149634931e-01) (20, 7.94390225907623537260e-01) (21, 7.98002301736174479707e-01) (22, 1.67185582909257268724e+00) (23, 1.69543018679092072354e+00) (24, 6.70213411640528944346e-01) (0, -9.03365573298724355844e-01) (1, 6.17091946261743573565e-01) (2, 3.95113653351504945377e+00) (3, 1.48448838452900844231e+01) (4, -1.18441150512963861985e+01) (5, 2.64530760885566884610e+01) (6, 4.74835215210836381061e+00) (7, -1.39346499301405568616e+00) (8, -9.23249798866239679285e+00) (9, -5.92611244063100262025e+00) (10, 1.94781547584201213397e+01) (11, 2.97109090429608535544e+01) (12, 5.31776441094547536181e+00) (13, -2.28146935146770291070e+00) (14, 8.57527660688885084994e+00) (15, 1.00060737814394933309e+01) (16, -4.94497104289433608848e-01) (17, 1.34743256647979170459e+00) (18, -1.07979645783194966313e-02) (19, -2.59947584604384340778e+00) (20, 3.54636286502426012479e-01) (21, 1.95571487361738749478e+00) (22, 2.03666708828851881208e+01) (23, 1.42352524263575723751e+01) (24, -1.58044143873223547070e-01) (0, -4.32236075866649294142e+00) (1, 1.01126660448229568345e+01) (2, -1.88437684732089536510e+01) (3, -5.34609607838104636812e+01) (4, -1.46980193170491215682e+01) (5, -2.89945754606851764379e+01) (6, -2.74199593953825377923e+01) (7, -5.01172036983943698374e+01) (8, 3.95284601494692182655e+01) (9, -1.14291114170726260113e+00) (10, -1.29481382894803882522e+01) (11, -8.81316871849647753834e+01) (12, -6.74036566770691170092e+00) (13, -5.16188910696558878044e+01) (14, -8.47380956334844768207e+02) (15, -3.17277346205977210047e+02) (16, -1.00171108577071326096e+01) (17, 5.28577988829717293484e-01) (18, -1.94446939945434991159e+01) (19, 1.17735541877975240510e+01) (20, 1.37774895289538168441e+01) (21, 2.47006934392828405578e+01) (22, -3.23260419924551882787e+01) (23, 1.36661648758706668616e+01) (24, -1.70555544882608489665e-01) (0, 5.93181738309065065273e-01) (1, 5.48799392466420621339e-01) (2, 7.17712471377271676864e-01) (3, 6.01419627785624744121e-01) (4, 8.38667467292164015014e-01) (5, 8.32989778569776295747e-01) (6, 1.06642814588909029538e+00) (7, 6.73624015831447264802e-01) (8, 8.18193475106135936770e-01) (9, 8.18087788154544082175e-01) (10, 6.35262514576963366331e-01) (11, 8.22744009250479524376e-01) (12, 8.38343319233316730532e-01) (13, 5.92477860924690014066e-01) (14, 6.72347666787225906049e-01) (15, 7.70107175555899248209e-01) (16, 5.67565106423588483509e-01) (17, 7.25646478319498799969e-01) (18, 6.72050495751407517275e-01) (19, 7.84340330601072777128e-01) (20, 6.36411766156147140627e-01) (21, 7.45344162033263812894e-01) (22, 7.26500071794803470304e-01) (23, 6.01246524075946475740e-01) (24, 6.89644443672062124051e-01) (0, -8.39799060348111053864e-02) (1, -3.03135608201419770591e-01) (2, -2.96745958838205203811e-01) (3, -1.39915842343022484018e-01) (4, -8.29870394105655329042e-01) (5, -9.48891951528931132387e-01) (6, -2.58311147562715281989e-01) (7, -1.33173602614325314875e-01) (8, -4.17502716379954286197e-01) (9, -8.73935496055071037169e-01) (10, -2.28350792561085369492e-01) (11, -2.36150515694408202894e-01) (12, -2.67196911969900363637e-01) (13, -3.82589559115994626293e-01) (14, -1.72864362739243854206e-01) (15, -2.36563409461138490775e-01) (16, -2.68420704836001389193e-01) (17, -1.68497744829674944711e-01) (18, -2.50324413309305826569e-01) (19, -3.09276940741075034857e-01) (20, -2.63262542436588697914e-01) (21, -3.04304853857165991116e-01) (22, -2.92530725446516259858e-01) (23, -3.09737501097971601460e-01) (24, -1.85983233173113576830e-01) (25, -2.93475747478666670887e-01) (26, -2.58191229021636714513e-01) (27, -8.70645255364168479950e-01) (28, 5.42764121417294465033e-01) (29, 6.07311560721188969936e-01) (30, 5.63269812066163111375e-01) (31, 5.31618606374583024810e-01) (32, 5.92837194994712102236e-01) (33, -1.56858790991488250555e-01) (34, 5.15423757715315677963e-01) (35, 2.84480582821466793098e-02) (36, -1.15003146922733973101e-01) (37, 6.41004209983416894936e-01) (38, -2.28438352892653323556e-01) (39, 3.90947768743199586261e-01) (40, -1.10322041519797686693e-01) (41, 4.40502000466150289704e-01) (42, 1.62297770668701074603e-01) (43, 6.03627608894399814154e-01) (44, 7.23030047795298669300e-01) (45, -1.65204473902098220028e-01) (46, 2.97597892690138199345e-01) (47, -1.45578714485024196534e+00) (48, 5.45157147708224210092e-01) (49, 6.28037519905066399240e-01) (50, 7.67294579371841201088e-01) (51, 6.67273956627294384525e-01) (52, 4.90252871309395099608e-01) (53, 3.79624556631154852493e-01) (54, -1.88729383378681198069e-01) (55, 6.73268745034724891418e-01) (56, 4.68614568821042465352e-01) (57, 1.06676218141616610535e-01) (58, 4.04171582821534092211e-01) (59, 4.88012640610077097492e-01) (60, 4.64222986820396421592e-01) (61, -3.57579944884368894353e-01) (62, 4.40144080841251228442e-01) (63, -7.96095447498631342276e-02) (64, 5.28282933102805718484e-01) (65, -3.60027976392183424181e-01) (66, 4.40440877075878922664e-01) (67, 6.82694288906207868983e-01) (68, -6.28264627181287171886e-01) (69, 8.41111477631423021251e-01) (70, 5.63523699029017222095e-01) (71, -1.72949609884842925300e-01) (72, 4.33353882010171997941e-01) (73, -2.08186775313893207562e-01) (74, 5.29238022261969809357e-01) (75, -3.67692859927313320245e-01) (76, 5.03935682971095699756e-01) (77, 1.29389243841365159104e-01) (78, 6.88145794579812952740e-01) (79, -2.53221114515030876202e-01) (80, -3.66532926145251347627e-01) (81, 3.72028065292194787261e-01) (82, 5.68423106038462466749e-01) (83, 5.17591504764274623618e-01) (84, 4.15004336966376619067e-01) (85, -2.02825198719954080673e-01) (86, 4.36989513854576017149e-01) (87, -2.23182978388577729634e-01) (88, -2.61318320659421843288e-01) (89, 4.49065079672437028613e-01) (90, 6.07157688238785464563e-01) (91, -7.56349728427210932225e-01) (92, 4.65030198936329186576e-01) (93, 6.49170982649035388512e-01) (94, -2.34480250128726003256e-01) (95, -8.85392484056577843549e-04) (96, -7.17123952114578355754e-02) (97, 6.55144004077039543432e-01) (98, 6.65088782769398756400e-01) (99, 5.61222909094787225648e-01) (100, -2.77987054840668990074e-01) (101, -1.05620687517548472734e+00) (102, 2.97767242796450615216e-01) (103, -2.23149930287823788921e-01) (104, 6.06288041967760871209e-01) (105, 5.64242355539265050268e-01) (25, -2.24452867924482046824e-01) (26, -1.89480698860844593012e-01) (27, -8.45630928711207929815e-01) (28, 5.92378880399383467292e-01) (29, 6.28341839000486790390e-01) (30, 4.21824896179083697056e-01) (31, 4.26300974612308536393e-01) (32, 6.34322844032744970200e-01) (33, -4.41354431782632505854e-01) (34, 4.67940381432115692917e-01) (35, -9.67772662100475355995e-02) (36, -7.28376651433268573754e-01) (37, 5.86785890218500250093e-01) (38, -3.42332698774441224199e-01) (39, 5.11269301009093068977e-01) (40, -7.36792890510503561963e-01) (41, 5.15669443880575895101e-01) (42, -1.33304927989866373039e-01) (43, 7.46554275304173953209e-01) (44, 7.26113406251596371632e-01) (45, -2.26885166864313481128e-01) (46, 3.94511234312739544894e-01) (47, -1.80334924090543996522e-01) (48, 4.19153893570457403150e-01) (49, 6.45103533858653599431e-01) (50, 7.01361252267133528093e-01) (51, 7.04370226561039314284e-01) (52, 4.06014114385213009673e-01) (53, 4.29511029157515711319e-01) (54, -1.95790882645341501878e-01) (55, 6.01252311482350365601e-01) (56, 5.66109231639905341460e-01) (57, 3.00819157840487350075e-01) (58, 3.77445557837520873079e-01) (59, 3.81449567309276316163e-01) (60, 5.57934983155026542612e-01) (61, -2.97181087460142490109e-01) (62, 4.46386519591893182746e-01) (63, -2.99609117633544086434e-01) (64, 6.32369106878855169462e-01) (65, -1.99780826052204207866e-01) (66, 4.21108807566447751469e-01) (67, 6.92253366735526731723e-01) (68, -3.46560098045270922884e-02) (69, 6.32589197375138523327e-01) (70, 4.46713603359907174273e-01) (71, -2.84622722671523831206e-01) (72, 3.88264774152522529338e-01) (73, -2.60419789767083076359e-01) (74, 6.17233256439047028863e-01) (75, -1.77678084820653503506e-01) (76, 4.15866078999071964173e-01) (77, 1.81843373581881059819e-02) (78, 5.88971044120469966465e-01) (79, -2.61570774523089522035e-01) (80, -3.42945296708748681436e-01) (81, 5.24245769373370307243e-01) (82, 3.84027609121953938942e-01) (83, 2.47128883867920956519e+00) (84, 3.75935616809938200067e-01) (85, -1.84708966055936563144e-01) (86, 4.40156138773363125871e-01) (87, -1.61809386157798468231e-01) (88, -2.24541886487052255728e-01) (89, 4.56610380638658663877e-01) (90, 5.82675134016585105634e-01) (91, -1.33895735171546681475e-01) (92, 5.14419250436334296595e-01) (93, 6.48978140201053932401e-01) (94, 3.89545486882107605542e-01) (95, -5.62046673635559559945e-02) (96, -6.12864907817803339363e-01) (97, 7.28495639860412103062e-01) (98, 7.26669304373018354326e-01) (99, 4.26995159143745417474e-01) (100, -3.29092290432419498636e-01) (101, 5.01012247931813536894e-01) (102, 1.59353972894084899847e-01) (103, -3.03460675222348263969e-01) (104, 7.01007986990853315667e-01) (105, 5.44832852685973034745e-01) (25, -3.75582582436149226002e-01) (26, -2.16780834797377003342e-01) (27, 7.69403057871799855860e-01) (28, 6.47002226807284142041e-01) (29, 6.15219962439761181017e-01) (30, 4.17874059125956986982e-01) (31, 4.85085812487113632319e-01) (32, 6.64874764466703127574e-01) (33, 1.32387623076969473956e+00) (34, 4.89138534709987138349e-01) (35, 1.08869295306896285425e+00) (36, 2.03778058890312585572e-01) (37, 7.75384545815023362714e-01) (38, -2.77394041856047324224e-01) (39, 4.10936562693220763798e-01) (40, 9.59221598530727415088e-01) (41, 4.71855995335090316889e-01) (42, -6.00802379329617650128e-02) (43, 6.92160807751375006802e-01) (44, 6.72736758330294448704e-01) (45, -2.98437405320590654068e-01) (46, 1.76225181696718552482e-01) (47, -2.94362222784129434761e-01) (48, 3.24866306313797981176e-01) (49, 7.94762031498041809918e-01) (50, 6.69619549841483752139e-01) (51, 6.60204286429248665691e-01) (52, 4.10619047385490043567e-01) (53, 4.17276495224234822423e-01) (54, -1.95616979335442475740e-01) (55, 6.85865858679287065947e-01) (56, 4.36847922096309182471e-01) (57, 6.00510143386992267800e-01) (58, 4.86618513596427493262e-01) (59, 4.83225959267803595321e-01) (60, 4.70909233424842588178e-01) (61, -2.77092787073333624015e-01) (62, 4.61011137101829282514e-01) (63, -3.56662462161466187194e-01) (64, 6.60817742226323057153e-01) (65, -2.33422962564284103282e-01) (66, 3.41637793211978790797e-01) (67, 6.87589583119481595475e-01) (68, 3.82410935336858714972e-01) (69, 7.64983904841011974618e-01) (70, 5.00980216765501307208e-01) (71, -2.55742066981402838000e-01) (72, 4.16007837115901890623e-01) (73, -3.21608676715309182992e-01) (74, 5.98072315291837131035e-01) (75, -1.91019683882173080258e-01) (76, 4.25456343636092637617e-01) (77, 5.14461751672544931324e-01) (78, 6.10747061230790699859e-01) (79, -2.20837805293354727532e-01) (80, 8.43682557822681644666e-01) (81, 3.82114739165412331534e-01) (82, 4.98246468891007543434e-01) (83, 1.81614124889075978508e+00) (84, 4.93820598766383622724e-01) (85, -2.03830458135295239375e-01) (86, 4.30471822028463291243e-01) (87, -2.48363673325461276065e-01) (88, -2.41467395310008881015e-01) (89, 4.15255567476329301435e-01) (90, 7.15747595121612456559e-01) (91, -2.31444965831552301738e-01) (92, 3.10549604913558818797e-01) (93, 6.68591577101873890676e-01) (94, -8.13749796431007393904e-02) (95, -1.07786024668628799272e-01) (96, 9.33389147102729049843e-02) (97, 7.20953140132808423246e-01) (98, 7.96286518932103337676e-01) (99, 4.40551140600429103067e-01) (100, -3.28420543608059889440e-01) (101, -8.60675152283028266353e-01) (102, -7.51915842260709593736e-02) (103, -2.19989315835470572447e-01) (104, 6.13485321341815881269e-01) (105, 3.69477574417647836036e-01) (25, -2.04984322344033936814e-01) (26, -2.50940822981693623106e-01) (27, -2.22605161513584864919e-01) (28, 7.54850297769617539778e-01) (29, 6.59759766832879179788e-01) (30, 4.83749267416528239139e-01) (31, 3.60665333194062520672e-01) (32, 6.79752503140993225017e-01) (33, -2.62672884594321531804e-01) (34, 3.55556611690225177203e-01) (35, -3.68139800880372458636e-01) (36, -3.47540385817088737230e-01) (37, 1.46049599485489034478e+00) (38, -2.51129784284908341707e-01) (39, 3.66139067668555528989e-01) (40, 1.78387879130916873760e-02) (41, 5.21966951160888870120e-01) (42, 5.34615792996157856987e-02) (43, 7.14024924636529889632e-01) (44, 6.67129694414968832383e-01) (45, -2.69263070402699700168e-01) (46, 4.02339062291226456924e-01) (47, -5.06658271317370414999e-02) (48, 4.16057834988029284773e-01) (49, 6.63970339840079470939e-01) (50, 6.53132627487631345353e-01) (51, 6.50566212781198860426e-01) (52, 4.53292213660005050002e-01) (53, 5.23344386672039529884e-01) (54, -3.58430060650111959042e-01) (55, 9.23576774300230995962e-01) (56, 4.67960712445977755625e-01) (57, 8.97257914844734327797e-02) (58, 3.30071413970428328977e-01) (59, 4.51798268772970690321e-01) (60, 3.86716512355922137356e-01) (61, -2.30159015419138801573e-01) (62, 4.55873970774720527199e-01) (63, -2.82365753814988462711e-02) (64, 7.60832794776254206504e-01) (65, -2.37503323426261181428e-01) (66, 4.83763018935364885742e-01) (67, 6.60018096885344518476e-01) (68, 1.20074319332914528080e-01) (69, 7.13804984907807860139e-01) (70, 4.53289985149529950359e-01) (71, -2.32199751227357503724e-01) (72, 4.05889108624912564594e-01) (73, -1.99018737422660629832e-01) (74, 6.92658845815938062351e-01) (75, -2.14432548160853997388e-01) (76, 4.34559228903535321731e-01) (77, 1.83040390144143916284e-01) (78, 7.68211778244455301135e-01) (79, -1.73216936824127393235e-01) (80, -3.53841005420672927162e-01) (81, 5.31632234462341868308e-01) (82, 3.62960579919187009690e-01) (83, -7.19826054944928350743e-01) (84, 5.19261404364714129755e-01) (85, -3.00861328628906965488e-01) (86, 4.94965995605721575945e-01) (87, -2.59669777792965683627e-01) (88, 1.88762680222600912061e-02) (89, 4.93242910155583691445e-01) (90, 6.26919521259060252838e-01) (91, 1.45993781958663665366e-01) (92, 4.52814263228513036452e-01) (93, 7.32366228457615675573e-01) (94, -2.46319117007807897313e-01) (95, 3.00976775134064900019e-01) (96, -2.34893321933439980231e-01) (97, 6.03977870823929618993e-01) (98, 7.90672503550402305805e-01) (99, 5.16331654569945341926e-01) (100, -2.67544049760312430131e-01) (101, -9.94603747671551130516e-01) (102, -2.47592311983783966434e-02) (103, -1.87983986552461679320e-01) (104, 6.50432764774261040763e-01) (105, 3.35118511458611934017e-01) (25, -2.59699826156649493658e-01) (26, -2.49199391910806034023e-01) (27, 2.05193590753298504836e+00) (28, 7.29443128447127220326e-01) (29, 7.52554727529772815586e-01) (30, 3.86494859109928312613e-01) (31, 4.34533331443105130809e-01) (32, 7.98570834737643342471e-01) (33, 6.99480404472386657622e-02) (34, 4.22396418023606778913e-01) (35, 2.57082931079839933919e-02) (36, -2.71832335761735266466e-01) (37, 6.41554074393103523910e-01) (38, -2.95529012975911276051e-01) (39, 4.81367014357162781302e-01) (40, -2.56493285216451705200e-01) (41, 3.65240739787667523242e-01) (42, -7.15610787848136725708e-02) (43, 7.74351540962772477705e-01) (44, 7.00363201738030238808e-01) (45, -2.72991432992745419739e-01) (46, 1.01405179582089541301e-01) (47, 1.16614791457986322065e+00) (48, 4.16984956898119263347e-01) (49, 6.52563448206720742029e-01) (50, 8.01791568778798868777e-01) (51, 7.83507983071508262718e-01) (52, 5.03169910054665048271e-01) (53, 5.15793829208428311617e-01) (54, -3.86647837717660092238e-01) (55, 7.96454109903909412971e-01) (56, 4.65607524170678410691e-01) (57, 1.04033671894483537024e-01) (58, 4.97936439126341168215e-01) (59, 3.72087145396001517383e-01) (60, 4.33632224099915697391e-01) (61, -3.92330715256110684752e-01) (62, 4.64592282854296934058e-01) (63, -1.16597604677261240669e-01) (64, 6.55490285935285799113e-01) (65, -3.90443147372097509873e-01) (66, 4.57467230595891227729e-01) (67, 6.19667646674679439833e-01) (68, -6.78539489111653737474e-01) (69, 6.49184534588566286573e-01) (70, 4.83578435133506956412e-01) (71, -3.66740525619709323291e-01) (72, 3.88395559286610625449e-01) (73, -1.97554424481485885190e-01) (74, 8.16520137120649303064e-01) (75, -2.76070934486863817092e-01) (76, 4.68469343136360349966e-01) (77, -1.80611719552001059874e+00) (78, 8.18647271794538777812e-01) (79, -3.84444010369353383894e-01) (80, -6.08098282709891968523e-01) (81, 5.33749127376649812327e-01) (82, 5.05361434381976559749e-01) (83, 1.67244427491669116204e-02) (84, 4.94124465409984892084e-01) (85, -2.27336694463752098105e-01) (86, 5.38959789666238253680e-01) (87, -3.18039084488973333720e-01) (88, -9.55387663479343451911e-02) (89, 5.02436206925893968922e-01) (90, 7.31135229181450685410e-01) (91, 2.54478592499001010641e-01) (92, 5.08243632590151594997e-01) (93, 6.53403730434398921645e-01) (94, -5.76692994721821755588e-02) (95, 1.13944102981876391190e-01) (96, 1.49369612748871411628e-02) (97, 6.26843663065237532983e-01) (98, 6.33358836257662427549e-01) (99, 4.01280782173683348013e-01) (100, -3.73428462795339699554e-01) (101, -4.07613901432526681834e-02) (102, 2.20545360586227659483e-02) (103, -3.20963214046006695135e-01) (104, 7.69041318073301893854e-01) (105, 4.29341623781635484125e-01) (25, -1.28568004096844851203e-01) (26, -3.16920876232483772483e-01) (27, -1.39109874611827805113e-01) (28, 8.65915986610429788684e-01) (29, 7.05975980278273906876e-01) (30, 4.81962230019272575010e-01) (31, 4.71537254849629494657e-01) (32, 6.58356417859876308363e-01) (33, -1.35477635433709275858e-01) (34, 4.25616702999542240171e-01) (35, -1.71116298734431460105e-01) (36, -6.84727050449502050444e-02) (37, 6.14899557509351879503e-01) (38, -2.06792440427188445318e-01) (39, 4.73245748226402196401e-01) (40, -1.60470282518106327485e-01) (41, 4.62731156744406235681e-01) (42, 5.85681904789892363028e-02) (43, 8.19378950564307095839e-01) (44, 6.78748688810241862512e-01) (45, -2.34389888902243076485e-01) (46, 9.43607614057760529791e-02) (47, -7.84903579458692046700e-01) (48, 4.42201666352753430811e-01) (49, 6.76016821382576793553e-01) (50, 6.94539919811386963211e-01) (51, 7.09280771825369416028e-01) (52, 4.51975013582165963122e-01) (53, 4.60819181733311378224e-01) (54, -3.49194388000563904484e-01) (55, 6.55632028418569157147e-01) (56, 4.55721159885586535321e-01) (57, 1.00731185690543234568e-01) (58, 4.69674925370471840758e-01) (59, 4.48805379533788018076e-01) (60, 4.82654964986223677936e-01) (61, -2.15984529595969088067e-01) (62, 4.33175193522093382459e-01) (63, 6.31797327723480295347e-01) (64, 8.94188172657985336222e-01) (65, -3.12153646906894566282e-01) (66, 3.48643990227619493538e-01) (67, 1.22968637842536199223e+00) (68, -1.09442846793112780190e-01) (69, 8.53500285654294588156e-01) (70, 4.67956811035842079605e-01) (71, -3.83648161609700055763e-01) (72, 4.59862398488798063134e-01) (73, -2.60206766502929676133e-01) (74, 8.25004769874019827647e-01) (75, -3.60964898219791108236e-01) (76, 3.69949275864933035951e-01) (77, 2.91815655663437700795e-01) (78, 7.00343267706197258882e-01) (79, -3.99133934187747951849e-01) (80, 4.88268968096768229969e-01) (81, 4.66089517274512254996e-01) (82, 4.15354064747856077666e-01) (83, 1.00287682388997789751e+00) (84, 4.23021928768555544043e-01) (85, -2.23282130270074707923e-01) (86, 3.19534152070882093710e-01) (87, -2.95854905811065327370e-01) (88, 5.70011890856843197323e-03) (89, 4.92193957279385363446e-01) (90, 6.53385236138257829985e-01) (91, 2.04958695269191887300e-01) (92, 4.69473621235051319367e-01) (93, 1.04453253104944199237e+00) (94, 5.72947089344724269644e-01) (95, 4.14285769950830662367e-01) (96, -2.11582146863801584535e-01) (97, 7.92140900597409935990e-01) (98, 7.56910332097642690741e-01) (99, 4.35407947596472888474e-01) (100, -2.39754204728219233456e-01) (101, 3.36198471615764993281e-01) (102, -1.34777400460397212001e-01) (103, -2.78240792182782081809e-01) (104, 6.59256974916773819118e-01) (105, 3.99913040409745013104e-01) (25, -2.40436111226596749280e-01) (26, -2.55596070104712858040e-01) (27, -2.28851108353244570015e-01) (28, 6.15257849126209399593e-01) (29, 7.71846435872405867151e-01) (30, 4.23764214989026721803e-01) (31, 5.10078834230693445306e-01) (32, 6.71772267567921299580e-01) (33, 7.12095684084660812685e-02) (34, 4.35496442986806453490e-01) (35, 1.31904971813724559287e-02) (36, 1.51163623006614944444e+00) (37, 9.08414719003953430310e-01) (38, -2.77663681555748609320e-01) (39, 4.30126365650053299472e-01) (40, -7.80638259236188375434e-02) (41, 4.86671656666433249949e-01) (42, -1.76070409562350704835e-01) (43, 6.40122751324519567717e-01) (44, 6.47645374579570276552e-01) (45, -1.58702933879542457118e-01) (46, -1.57749170083746920179e-01) (47, -2.05152814048413401071e-01) (48, 4.59382641065304409000e-01) (49, 6.53031979677308527243e-01) (50, 7.50408795717162679928e-01) (51, 6.49400474364115631865e-01) (52, 5.20542218490581909407e-01) (53, 3.71412255848715455731e-01) (54, -2.97554616701891483377e-01) (55, 7.52243553316617741267e-01) (56, 5.07529944477699390681e-01) (57, -8.98451347358028423740e-02) (58, 4.98013472941984669529e-01) (59, 5.47801878847874013090e-01) (60, 4.85634000787412534184e-01) (61, -3.33084689053439853001e-01) (62, 4.96951916192065135114e-01) (63, -1.71774380164152778994e-01) (64, 7.30130001273186501898e-01) (65, -3.01809905649602250310e-01) (66, 3.69120678356671505504e-01) (67, 5.42729893190028178651e-01) (68, 4.22855388825322975332e-01) (69, 7.75255199328870547859e-01) (70, 4.49879225715383246342e-01) (71, -2.59296871292582720159e-01) (72, 4.16625082873465502065e-01) (73, -1.98399865152726090356e-01) (74, 7.60460238970474100562e-01) (75, -2.43741765400040638623e-01) (76, 5.02913018931696598202e-01) (77, 8.17102615748403038332e-01) (78, 7.45946906835174283756e-01) (79, -2.66142853885067753872e-01) (80, 1.74861233635315527213e-01) (81, 3.90291079581696620515e-01) (82, 4.73791399593671336277e-01) (83, -3.35435603611769939114e-01) (84, 4.28137343471537423767e-01) (85, -3.53374024943515108177e-01) (86, 5.01679950047840272909e-01) (87, -3.10751011713558289440e-01) (88, -8.46280197368906028643e-02) (89, 4.60804362221940710942e-01) (90, 6.63582378345287771104e-01) (91, 1.11493052215519572457e+00) (92, 5.16471521696467927853e-01) (93, 5.90798498143458972187e-01) (94, 2.45992533500222182452e-01) (95, 1.42800859674522551135e-01) (96, 9.24647392239088677934e-02) (97, 6.47767065810345932242e-01) (98, 7.35790819842651711014e-01) (99, 4.82724214037164423008e-01) (100, -1.82495129392228089271e-01) (101, 1.37784551760320028713e+00) (102, 1.37126265886087866930e-01) (103, -2.94694703156463067018e-01) (104, 6.19280816270028955373e-01) (105, 3.46010882956632348506e-01) (25, -3.50122864181559467767e-01) (26, -1.79417769731558485180e-01) (27, 3.44049420547107021040e-01) (28, 7.27185728658213959008e-01) (29, 5.51799489388278496804e-01) (30, 4.73190089575978245495e-01) (31, 5.10877727750513321858e-01) (32, 6.16165186283278987212e-01) (33, -6.64767458817662748594e-02) (34, 4.00634785909614266064e-01) (35, -1.92111030128421025887e-02) (36, 9.62179584810530674766e-01) (37, 7.31640421346205327424e-01) (38, -2.48500461430686880870e-01) (39, 4.46022483447330198025e-01) (40, 1.87977594444945217411e-01) (41, 3.97371505056572260628e-01) (42, -5.50182377464201247119e-02) (43, 6.08425974012215542430e-01) (44, 6.78629519942745673688e-01) (45, -1.38067766494510746345e-01) (46, -8.79806310180853090586e-01) (47, 1.07154402288990957537e+00) (48, 4.33480721303916849418e-01) (49, 6.48153060541255210403e-01) (50, 6.98229965205498848135e-01) (51, 7.60136110746369442204e-01) (52, 4.39651509074499180496e-01) (53, 5.03101155855426473984e-01) (54, -1.86232875425500432609e-01) (55, 7.12236665860627615743e-01) (56, 5.14472299257271115103e-01) (57, -7.13284886382903500490e-03) (58, 5.26649830928513473793e-01) (59, 4.57457089472551536868e-01) (60, 3.55082308788137679390e-01) (61, -2.15932352502842705988e-01) (62, 4.42003479930547504839e-01) (63, 6.35865944483688938504e-02) (64, 8.79706763470893271517e-01) (65, -1.63543207469260848397e-01) (66, 4.31845953018213601915e-01) (67, 7.77630678377571493698e-01) (68, -1.18869674945991696258e-01) (69, 6.01717145976449430123e-01) (70, 3.92051686715626179769e-01) (71, -2.11287029561992495408e-01) (72, 4.11401026463684427181e-01) (73, -1.92897709695754621118e-01) (74, 1.10815104898604510630e+00) (75, -2.03032265110046739043e-01) (76, 4.91087182389759457912e-01) (77, -2.44286365873713703922e-02) (78, 6.69308002718673411557e-01) (79, -2.75610698400895470783e-01) (80, 2.50349280646529559480e-01) (81, 6.67532784484858199292e-01) (82, 3.69571288321552005041e-01) (83, 1.11539592605530679670e+00) (84, 4.97520133859080893046e-01) (85, -3.43834612596256805617e-01) (86, 4.95183634775611780654e-01) (87, -1.92247312893219335361e-01) (88, -1.18092525357299055200e-01) (89, 4.77533685447700806392e-01) (90, 6.62217380369257035966e-01) (91, -4.96048393408998089527e-01) (92, 4.33640832942489340418e-01) (93, 6.09731647683595778808e-01) (94, 3.09076826688947869926e-01) (95, 2.29259908792648015030e-01) (96, 1.65294233209238167204e-01) (97, 7.76339489762977730258e-01) (98, 5.95704479197929015477e-01) (99, 4.70358964907192644844e-01) (100, -1.78370416329758474383e-01) (101, 5.54255483023329276193e-01) (102, 2.87277535734065669892e-01) (103, -2.97127338733899126755e-01) (104, 6.50426092250090626123e-01) (105, 3.96553649326803259179e-01) (25, -3.69911408114648843082e-01) (26, -3.44391677499279236230e-01) (27, -6.73189406858690886359e-01) (28, 8.16587483480571640904e-01) (29, 7.17660289140354734627e-01) (30, 4.17576270090681989089e-01) (31, 4.54291254526129395508e-01) (32, 7.94191405013239259958e-01) (33, 7.63867989342502246020e-02) (34, 4.27050376163540301722e-01) (35, -9.68559098958553799097e-02) (36, -4.99513434362469976868e-01) (37, 5.91510529416526820157e-01) (38, -7.09736228266485968952e-02) (39, 3.77432174404341957974e-01) (40, 2.59505624958213276798e-01) (41, 5.46670496355760260343e-01) (42, 4.99385153849097152001e-01) (43, 8.61645726959561431002e-01) (44, 6.59656359241016954087e-01) (45, -6.85686453132306472646e-02) (46, -3.06730597623114831229e-01) (47, -1.10170856502969136126e-01) (48, 3.40308766638686033268e-01) (49, 7.16919442196938150325e-01) (50, 5.97158066980107093968e-01) (51, 7.01343114416152602075e-01) (52, 3.69832206421747688996e-01) (53, 4.32472225595763037909e-01) (54, -2.15191555981283172416e-01) (55, 6.38522757244943561794e-01) (56, 4.59660801546686981212e-01) (57, 2.84922818814855871583e-01) (58, 3.88883644754507207253e-01) (59, 3.73836805652564496683e-01) (60, 4.91387285510928084609e-01) (61, -2.49684190137086370331e-01) (62, 4.71289244377703808730e-01) (63, 2.41136766612684655398e-01) (64, 8.65862438755852226180e-01) (65, -7.12385253712453647701e-02) (66, 4.92043910255196281778e-01) (67, 1.47560430616859372677e+00) (68, 7.11081118734107953117e-01) (69, 8.37909191031445010900e-01) (70, 4.55691707310763471916e-01) (71, -1.96128225421935725725e-01) (72, 4.76649095616936135933e-01) (73, -3.51863908873392361443e-01) (74, 7.93737184157336073120e-01) (75, -1.96525508270380511178e-01) (76, 3.75765235947189746302e-01) (77, 1.32318615874405853816e-01) (78, 5.98946479387219010704e-01) (79, -4.22705437421066865245e-01) (80, -1.83671355249455170444e+00) (81, 4.20401974588223648066e-01) (82, 4.81874221788464007776e-01) (83, 1.28638295448277895083e+00) (84, 4.78532528769595066898e-01) (85, -2.70834969092365152044e-01) (86, 4.64048108755055088714e-01) (87, -3.49585722217974348425e-01) (88, 1.27852552806499941696e+00) (89, 4.99305644916633872832e-01) (90, 6.09089314393609360110e-01) (91, 4.97525756809575558925e-01) (92, 4.16297346808953638853e-01) (93, 1.07711774243271185547e+00) (94, 7.44800898139658801300e-02) (95, -2.05747552367265024165e-01) (96, 2.39503376597215017485e-01) (97, 8.34734662727153353678e-01) (98, 7.31450491792958845672e-01) (99, 3.76932959810343581886e-01) (100, -3.25534544668497460851e-01) (101, -4.48593562983123972376e-01) (102, -7.98927296887674387449e-01) (103, -1.97021217703277184974e-01) (104, 6.78591027654180667383e-01) (105, 5.08232314615814195768e-01) (25, -2.19706260045298057415e-01) (26, -2.87407707438195270111e-01) (27, -1.79648848405774441694e-01) (28, 6.18612449252852081294e-01) (29, 8.39443076615930650064e-01) (30, 4.12258713783236807604e-01) (31, 3.85343199873552866297e-01) (32, 6.77097609981572867710e-01) (33, -2.03896969672108019367e-01) (34, 5.14817935964385631209e-01) (35, -1.46872148260219326232e-01) (36, -3.95502984626727560613e-01) (37, 4.50637889580165817982e-01) (38, -3.17916389565529533545e-01) (39, 5.11111058063680179231e-01) (40, 1.36926295652822771487e-01) (41, 4.61522690842117888632e-01) (42, -2.39463361738864455308e-01) (43, 6.67184326887792833460e-01) (44, 7.18712902229829975198e-01) (45, -3.25627797475181279818e-01) (46, -8.72655010524103352809e-02) (47, 2.64163632703252604372e-01) (48, 5.52984806956682728440e-01) (49, 6.72464049765555293980e-01) (50, 6.89026113277237506338e-01) (51, 6.49305604009964287826e-01) (52, 4.17657356298807569406e-01) (53, 4.23751245894369854561e-01) (54, -2.69370932659993012059e-01) (55, 5.64153285345879385027e-01) (56, 3.96467667428319292533e-01) (57, -1.52194468656105352800e+00) (58, 4.32904890566269240360e-01) (59, 3.70970541522912644616e-01) (60, 4.95329667694570319192e-01) (61, -2.17981566244537322552e-01) (62, 4.41982620199335818345e-01) (63, -3.92654848707030101895e-01) (64, 6.30483062046361286690e-01) (65, -3.17161237137829121746e-01) (66, 5.33485450947328354587e-01) (67, 7.00057817509696422853e-01) (68, 1.38144467356020900217e-01) (69, 5.22973872832437125524e-01) (70, 3.94320000896971389892e-01) (71, -2.36560852961517326110e-01) (72, 5.40763931595058311430e-01) (73, -3.25352042801126728477e-01) (74, 4.98219674835421122427e-01) (75, -3.01811063474882956825e-01) (76, 4.74332388845746355521e-01) (77, 7.41440943377110091295e-03) (78, 7.18071716987092933948e-01) (79, -2.61931882910127977748e-01) (80, 7.10954361232467718645e-02) (81, 3.16978680615892294270e-01) (82, 5.11705032308049645451e-01) (83, 5.81650253124561000817e+00) (84, 4.24002323025028937664e-01) (85, -2.98583656323114399189e-01) (86, 3.51562330081457152797e-01) (87, -2.50810249087419834257e-01) (88, -1.19776906492469872867e-01) (89, 4.48553209112923401136e-01) (90, 9.27222770930940964895e-01) (91, -3.05862536403063989265e-01) (92, 3.95059196257401323837e-01) (93, 7.12816272794493333009e-01) (94, -1.17143345178047719735e+00) (95, -9.80922723443444111169e-01) (96, 6.66719183355115485590e-01) (97, 6.86486270598371972618e-01) (98, 6.30243570764462801570e-01) (99, 3.94038216130774276991e-01) (100, -2.62066305045406289231e-01) (101, 8.16215263419159842151e-01) (102, 1.50642648196229855806e-01) (103, -2.74219930782875931374e-01) (104, 7.54946774308347001714e-01) (105, 3.52307095469447439928e-01) 
