FANN_FLO_2.1
num_layers=3
learning_rate=0.700000
connection_rate=1.000000
network_type=0
learning_momentum=0.000000
training_algorithm=2
train_error_function=1
train_stop_function=0
cascade_output_change_fraction=0.010000
quickprop_decay=-0.000100
quickprop_mu=1.750000
rprop_increase_factor=1.200000
rprop_decrease_factor=0.500000
rprop_delta_min=0.000000
rprop_delta_max=50.000000
rprop_delta_zero=0.100000
cascade_output_stagnation_epochs=12
cascade_candidate_change_fraction=0.010000
cascade_candidate_stagnation_epochs=12
cascade_max_out_epochs=150
cascade_max_cand_epochs=150
cascade_num_candidate_groups=2
bit_fail_limit=3.49999999999999977796e-01
cascade_candidate_limit=1.00000000000000000000e+03
cascade_weight_multiplier=4.00000000000000022204e-01
cascade_activation_functions_count=10
cascade_activation_functions=3 5 7 8 10 11 14 15 16 17 
cascade_activation_steepnesses_count=4
cascade_activation_steepnesses=2.50000000000000000000e-01 5.00000000000000000000e-01 7.50000000000000000000e-01 1.00000000000000000000e+00 
layer_sizes=25 81 11 
scale_included=0
neurons (num_inputs, activation_function, activation_steepness)=(0, 0, 0.00000000000000000000e+00) (0, 0, 0.00000000000000000000e+00) (0, 0, 0.00000000000000000000e+00) (0, 0, 0.00000000000000000000e+00) (0, 0, 0.00000000000000000000e+00) (0, 0, 0.00000000000000000000e+00) (0, 0, 0.00000000000000000000e+00) (0, 0, 0.00000000000000000000e+00) (0, 0, 0.00000000000000000000e+00) (0, 0, 0.00000000000000000000e+00) (0, 0, 0.00000000000000000000e+00) (0, 0, 0.00000000000000000000e+00) (0, 0, 0.00000000000000000000e+00) (0, 0, 0.00000000000000000000e+00) (0, 0, 0.00000000000000000000e+00) (0, 0, 0.00000000000000000000e+00) (0, 0, 0.00000000000000000000e+00) (0, 0, 0.00000000000000000000e+00) (0, 0, 0.00000000000000000000e+00) (0, 0, 0.00000000000000000000e+00) (0, 0, 0.00000000000000000000e+00) (0, 0, 0.00000000000000000000e+00) (0, 0, 0.00000000000000000000e+00) (0, 0, 0.00000000000000000000e+00) (0, 0, 0.00000000000000000000e+00) (25, 6, 5.00000000000000000000e-01) (25, 6, 5.00000000000000000000e-01) (25, 6, 5.00000000000000000000e-01) (25, 6, 5.00000000000000000000e-01) (25, 6, 5.00000000000000000000e-01) (25, 6, 5.00000000000000000000e-01) (25, 6, 5.00000000000000000000e-01) (25, 6, 5.00000000000000000000e-01) (25, 6, 5.00000000000000000000e-01) (25, 6, 5.00000000000000000000e-01) (25, 6, 5.00000000000000000000e-01) (25, 6, 5.00000000000000000000e-01) (25, 6, 5.00000000000000000000e-01) (25, 6, 5.00000000000000000000e-01) (25, 6, 5.00000000000000000000e-01) (25, 6, 5.00000000000000000000e-01) (25, 6, 5.00000000000000000000e-01) (25, 6, 5.00000000000000000000e-01) (25, 6, 5.00000000000000000000e-01) (25, 6, 5.00000000000000000000e-01) (25, 6, 5.00000000000000000000e-01) (25, 6, 5.00000000000000000000e-01) (25, 6, 5.00000000000000000000e-01) (25, 6, 5.00000000000000000000e-01) (25, 6, 5.00000000000000000000e-01) (25, 6, 5.00000000000000000000e-01) (25, 6, 5.00000000000000000000e-01) (25, 6, 5.00000000000000000000e-01) (25, 6, 5.00000000000000000000e-01) (25, 6, 5.00000000000000000000e-01) (25, 6, 5.00000000000000000000e-01) (25, 6, 5.00000000000000000000e-01) (25, 6, 5.00000000000000000000e-01) (25, 6, 5.00000000000000000000e-01) (25, 6, 5.00000000000000000000e-01) (25, 6, 5.00000000000000000000e-01) (25, 6, 5.00000000000000000000e-01) (25, 6, 5.00000000000000000000e-01) (25, 6, 5.00000000000000000000e-01) (25, 6, 5.00000000000000000000e-01) (25, 6, 5.00000000000000000000e-01) (25, 6, 5.00000000000000000000e-01) (25, 6, 5.00000000000000000000e-01) (25, 6, 5.00000000000000000000e-01) (25, 6, 5.00000000000000000000e-01) (25, 6, 5.00000000000000000000e-01) (25, 6, 5.00000000000000000000e-01) (25, 6, 5.00000000000000000000e-01) (25, 6, 5.00000000000000000000e-01) (25, 6, 5.00000000000000000000e-01) (25, 6, 5.00000000000000000000e-01) (25, 6, 5.00000000000000000000e-01) (25, 6, 5.00000000000000000000e-01) (25, 6, 5.00000000000000000000e-01) (25, 6, 5.00000000000000000000e-01) (25, 6, 5.00000000000000000000e-01) (25, 6, 5.00000000000000000000e-01) (25, 6, 5.00000000000000000000e-01) (25, 6, 5.00000000000000000000e-01) (25, 6, 5.00000000000000000000e-01) (25, 6, 5.00000000000000000000e-01) (25, 6, 5.00000000000000000000e-01) (25, 6, 5.00000000000000000000e-01) (25, 6, 5.00000000000000000000e-01) (25, 6, 5.00000000000000000000e-01) (25, 6, 5.00000000000000000000e-01) (25, 6, 5.00000000000000000000e-01) (25, 6, 5.00000000000000000000e-01) (25, 6, 5.00000000000000000000e-01) (25, 6, 5.00000000000000000000e-01) (25, 6, 5.00000000000000000000e-01) (25, 6, 5.00000000000000000000e-01) (25, 6, 5.00000000000000000000e-01) (25, 6, 5.00000000000000000000e-01) (25, 6, 5.00000000000000000000e-01) (25, 6, 5.00000000000000000000e-01) (25, 6, 5.00000000000000000000e-01) (25, 6, 5.00000000000000000000e-01) (25, 6, 5.00000000000000000000e-01) (25, 6, 5.00000000000000000000e-01) (0, 6, 0.00000000000000000000e+00) (81, 6, 5.00000000000000000000e-01) (81, 6, 5.00000000000000000000e-01) (81, 6, 5.00000000000000000000e-01) (81, 6, 5.00000000000000000000e-01) (81, 6, 5.00000000000000000000e-01) (81, 6, 5.00000000000000000000e-01) (81, 6, 5.00000000000000000000e-01) (81, 6, 5.00000000000000000000e-01) (81, 6, 5.00000000000000000000e-01) (81, 6, 5.00000000000000000000e-01) (0, 6, 0.00000000000000000000e+00) 
connections (connected_to_neuron, weight)=(0, 2.97007562099839306224e-01) (1, 2.88050587891293063958e-01) (2, 3.48560055592036455163e-01) (3, 3.28247993200808552139e-01) (4, 9.25480194823352242395e+00) (5, 6.58993490103893408971e-01) (6, 2.85186891654229834892e-01) (7, 3.78293733468156423427e-01) (8, 2.77255668574131919346e-01) (9, 2.36782627526771233262e-01) (10, 1.23220520022179313990e+00) (11, 4.65546787401141304308e-01) (12, 3.18444183124940716212e-01) (13, 3.57874253808759978934e-01) (14, 2.56179541033426605434e-01) (15, 2.65218128423846677411e-01) (16, 3.75739230910262567154e-01) (17, 7.00391000505688143818e-01) (18, 3.80760250470223937658e-01) (19, 3.40469798047620286763e-01) (20, 3.79808379090982306536e-01) (21, 2.88617131378627878036e-01) (22, 3.07873051031916589171e-01) (23, 3.83539042678195774005e-01) (24, 4.44568230803544905960e-01) (0, 3.42075582127072605476e-02) (1, -1.01578795953046238654e-01) (2, -9.52894220296752331167e-02) (3, -1.59559062862310335751e-01) (4, 9.07291184779793619120e-02) (5, -8.50453164752990736774e-02) (6, -1.06015077892190598408e-01) (7, -4.36350881254291833589e-02) (8, -1.91933326950829187540e-02) (9, -1.46574939533362941929e-02) (10, -1.59257441643103729578e-02) (11, 2.09570376236940664194e-02) (12, -9.87239305726583527001e-02) (13, 1.12251682160327811988e-01) (14, -1.54890277394452491322e-01) (15, 6.95804044786164140740e-03) (16, 4.72514712066023981341e-02) (17, 1.69883116239304271522e-02) (18, -6.24851087358145915835e-05) (19, -5.05552113751177936707e-02) (20, 1.79137087995186183864e-02) (21, -8.72158543145319653522e-02) (22, -1.07970927553254714137e-01) (23, -6.05553609367147430143e-02) (24, -1.16716671892951498468e-01) (0, 2.40779530476448351550e-03) (1, 1.47988184978384510609e-02) (2, -6.09646588566176012014e-02) (3, -1.53581683360703963315e-01) (4, 4.05368421167075942968e-01) (5, 4.54772873163365898286e-01) (6, 7.26093416979529393540e-02) (7, 7.40109579615660234664e-02) (8, 5.92999911561954071160e-02) (9, 8.69923100620519501591e-02) (10, 5.32432111081284964449e-01) (11, 2.81137978833003510104e-01) (12, -1.05914515855326352156e-01) (13, -1.54224178552255397623e-01) (14, 5.48951960340907305080e-02) (15, -1.90059780527014748897e-02) (16, 2.38748289522201003615e-03) (17, 4.35022610096439776850e-01) (18, -5.48705020699616491386e-02) (19, -6.92810032363991024074e-02) (20, 4.48843746729681546126e-03) (21, -4.28612781674199860849e-01) (22, -1.19866027224098184445e-01) (23, -3.73682190653215270948e-02) (24, -8.03409967372060440649e-02) (0, 4.86633248863457323896e-01) (1, 4.44171769509650371521e-01) (2, -2.13150604589117716875e-03) (3, 4.46984629070882488744e-01) (4, -2.73432321669521494201e+00) (5, -2.18695985207467957778e+00) (6, 3.97847592813011630142e-01) (7, 3.55079792051435139122e-01) (8, 2.91803386112226836868e-02) (9, 3.41629412288508460538e-01) (10, 1.64351033703018281074e+01) (11, 2.42330872445812817162e+00) (12, 4.07992434355816779856e-01) (13, 4.11358500211823796544e-01) (14, 3.56620380846010887055e-01) (15, -1.19250876899148536836e+02) (16, 3.29589044469186132069e-01) (17, 2.64322771606585391058e-03) (18, 4.36839782191567604919e-01) (19, 3.76155774340291126911e-01) (20, -9.62715251981351299859e-02) (21, 4.09967562475190561155e-01) (22, 4.82142886984757212954e-01) (23, 3.68054459464409788882e-01) (24, 4.60608097475475652960e-01) (0, -1.59984588586361622942e-02) (1, -9.65883984362713443605e-02) (2, -7.80177105871141668425e-02) (3, 3.21045370170918581421e-02) (4, 3.87176535155720619175e-02) (5, 1.69455664443412257203e-02) (6, 1.91617921031460441972e-02) (7, -2.20296461258983854170e-02) (8, -6.36089559629054446255e-02) (9, 8.40546836931399810044e-02) (10, 2.22637835939629089022e-02) (11, -1.74662043158959889855e-02) (12, -9.28401007449258380833e-02) (13, 7.40363717878255028770e-02) (14, -2.13328753395349013378e-03) (15, -1.82899980546092251477e-02) (16, -6.69607594431022475068e-03) (17, -4.18220365247859993119e-02) (18, 3.31149190700986556513e-02) (19, 8.59706938303445994398e-02) (20, 3.51567366979396236926e-02) (21, 7.84394250843234025483e-02) (22, -1.42412946811037249839e-01) (23, -5.07459311321802539196e-02) (24, -8.75792239428995061834e-02) (0, 3.97714957258892221059e-01) (1, 3.46407198187991594018e-01) (2, 4.64338175886809645387e-01) (3, 4.29315352170652753117e-01) (4, -3.12184212209218969747e+02) (5, 3.61639210945114308871e-01) (6, 5.32891809213249190158e-01) (7, 3.63899545715457128914e-01) (8, 5.97112570232090189570e-01) (9, 4.70755883186724677358e-01) (10, 1.58419846815933840212e+00) (11, 4.71075180302532925403e-01) (12, 3.48919210046803540681e-01) (13, 3.44124791551790543132e-01) (14, 3.32508962412884245818e-01) (15, 1.21115523972458194457e+00) (16, 5.23148660073511129198e-01) (17, 4.73780421567098208868e-01) (18, 3.13117056720019437677e-01) (19, 4.53061211880663838869e-01) (20, 3.77070218759731567992e-01) (21, 4.37068650294649974075e-01) (22, 3.73623696359622337049e-01) (23, 5.16438819973311313838e-01) (24, 3.25991011429366372987e-01) (0, -1.54816470424659374805e-01) (1, 1.14742674644946023033e-02) (2, 3.56977026877937642091e-02) (3, 3.02575609017905373943e-02) (4, -8.53864812894063879289e-02) (5, -4.57291287089621953377e-02) (6, 1.21831129641342857106e-02) (7, -7.43433171762657718507e-02) (8, -8.54234686185520591950e-02) (9, 5.85432844364988380637e-02) (10, 5.20262846613982199440e-03) (11, -1.50596248516848569415e-02) (12, -4.95947772703655836990e-02) (13, -2.04151061048027764044e-02) (14, -6.93819858896918689739e-02) (15, -2.02727440139676556852e-02) (16, -6.12131618286295697828e-02) (17, 1.20709294933253483140e-01) (18, -1.62332833616968576218e-02) (19, -2.39354705118676111542e-02) (20, 2.91354625796439031804e-02) (21, 1.14232798652852185484e-01) (22, -5.18544901040246114521e-02) (23, -5.70459001370016358101e-02) (24, -1.29469151337408515390e-02) (0, -1.86430256915122743999e-01) (1, -2.77528108762619218908e+00) (2, 1.03515276851028592553e+00) (3, 1.82553317656926765267e+02) (4, 3.17251280542671906915e+02) (5, -2.42313654562828695305e+00) (6, 4.79150376464909266705e-01) (7, 3.69484776078140786382e-01) (8, 2.34685848028446475411e+00) (9, 2.85790668036314855271e+02) (10, 2.50115225172987749147e+02) (11, -9.44748724258635874662e-01) (12, 4.34248318043612968609e-01) (13, 4.89554751881905059196e-01) (14, -5.43562502594578322856e+00) (15, -2.78468901247244566832e+01) (16, 2.27208812803142023995e+02) (17, 1.81048279773180964547e+00) (18, 3.07098840093723401967e-01) (19, 1.41094330605270656953e-01) (20, 9.44871039578142002391e-01) (21, 1.42794960729177148551e+02) (22, 2.43620291486428300232e+02) (23, -3.50833180008814693451e-01) (24, 5.66968646516433083526e-01) (0, -1.66535536500220959777e-01) (1, -1.28316726924075336091e-01) (2, -8.29692820340120901212e-02) (3, 3.76807745959470141717e-02) (4, 6.88552437133456152196e-02) (5, -1.46905029230726180689e-01) (6, 7.32026501974824238272e-03) (7, -2.49215492260064092056e-02) (8, -1.05361914763178743382e-01) (9, -1.93423833112686509306e-02) (10, 7.64816029163907420280e-03) (11, -4.62485999003039993660e-02) (12, -2.75569583499504569546e-02) (13, -1.48041079493766380981e-01) (14, 7.72412458468445597970e-03) (15, -1.70449374917644664099e-03) (16, -3.83425295862495699173e-02) (17, -3.64034846372315382124e-02) (18, -1.79308048452621077162e-01) (19, -2.33526593105864675726e-02) (20, -2.75587004851424108298e-02) (21, 7.20491908743504799739e-02) (22, -1.77507329640596298384e-03) (23, -7.11019741411829664379e-02) (24, -4.62860278617081358221e-02) (0, 4.98471828676659955981e-01) (1, 5.32851224054391336971e-01) (2, 3.93196401072457180081e-01) (3, 3.52466247198288173959e-01) (4, 3.37333722215373221776e-01) (5, 4.77648864938896799970e-01) (6, 3.78630417535947116914e-01) (7, 4.40093022067898909100e-01) (8, 4.67002391608846545434e-01) (9, 5.13273243233093534599e-01) (10, 4.03179095046891367016e-01) (11, 4.50451418042931539532e-01) (12, 4.97298768671006363729e-01) (13, 3.57583867056912585447e-01) (14, 3.29057963340813441899e-01) (15, 3.59539032995388530001e-01) (16, 4.73370533688985295484e-01) (17, 4.49563385199646226020e-01) (18, 5.01208835131446761579e-01) (19, 4.82397663814155497342e-01) (20, 4.97253970396112410235e-01) (21, 4.26364766645615178575e-01) (22, 3.47381388849233807559e-01) (23, 3.39974717476073662326e-01) (24, 4.95690513058570814131e-01) (0, 5.24522743943589331295e-01) (1, 3.86709931136118900685e-01) (2, 3.40124751351877196992e-01) (3, 4.96163443956513683375e-01) (4, 5.15555840068725457215e-01) (5, 5.17770383703179182255e-01) (6, 5.35578278386216966034e-01) (7, 5.51828017147528271380e-01) (8, 4.73272339654330465031e-01) (9, 4.49986926048214663787e-01) (10, 4.82531812573978313718e-01) (11, 4.53047621066916761379e-01) (12, 4.44612939746068358549e-01) (13, 3.59085606781659072428e-01) (14, 5.35852262831456926939e-01) (15, 4.16887435952950080598e-01) (16, 4.65827328324775247204e-01) (17, 4.52379292548814704311e-01) (18, 4.09199617191675080186e-01) (19, 4.74149715927150661177e-01) (20, 4.32580576820253137615e-01) (21, 3.55479417000861719345e-01) (22, 3.99786503612887256232e-01) (23, 4.45344591895435515383e-01) (24, 3.31774309802329914199e-01) (0, 5.05307520658134778913e-01) (1, 4.73564239919928797740e-01) (2, 4.23478814073426690356e-01) (3, 4.75151108421456080944e-01) (4, 4.46862735988773795981e+00) (5, 8.69506591794992567124e-01) (6, 5.33270606240131450626e-01) (7, 4.62205932581645329016e-01) (8, 4.44774394091737579338e-01) (9, 4.50709457307116256874e-01) (10, 1.84118530411838099425e+00) (11, 3.40370514057950046549e-01) (12, -8.15780396677770025526e-01) (13, 8.83835853748884819892e-02) (14, 2.99162092804024393189e-01) (15, -2.08640939646242418171e-01) (16, 1.95810975086807753653e-01) (17, 4.81692553192506867088e-01) (18, 2.97542761731403926362e-01) (19, 4.36995811738424444481e-01) (20, -6.93571169300184031670e-01) (21, 2.01691117009479697897e-01) (22, 3.51340259115091257947e-01) (23, 4.21140872941275057340e-01) (24, -1.50136900629853548006e-01) (0, -1.55044605285747372214e-01) (1, 1.49899891971505116323e-02) (2, -8.85695138012678323536e-02) (3, -5.25873231926599141173e-02) (4, -7.96691639348373892293e-02) (5, -5.46457489810912647177e-02) (6, -1.61152468997675740736e-01) (7, -6.82157933631995783141e-02) (8, 2.99837803578974354535e-02) (9, -8.31116248349597769307e-02) (10, -4.89965307432824008493e-03) (11, -1.93228572247217816882e-02) (12, -6.87895497094019939266e-03) (13, -1.60754678452117633070e-01) (14, 1.63204274577431820981e-02) (15, -1.55536142575242002095e-02) (16, -3.39859121763050678333e-02) (17, -1.52462666063236162994e-01) (18, -8.65960769892809706372e-02) (19, -1.20771733056359784064e-01) (20, -7.30088786572098275007e-02) (21, 9.75432412480927990561e-02) (22, 3.28604643782704625155e-03) (23, 5.72327977553429428914e-03) (24, -1.36781528101632826599e-01) (0, 4.98476531770375541619e-01) (1, 4.14956670668271798696e-01) (2, 3.18774645507339027262e-01) (3, 4.00054576209336321124e-01) (4, 5.80603445319949784675e-01) (5, 2.43751981390394056870e-01) (6, 4.20420016063072721213e-01) (7, 5.18912665910486015086e-01) (8, 3.38077483197246009272e-01) (9, 4.02880899866222552674e-01) (10, 4.00809645495987465491e-01) (11, 3.90560198922581036651e-01) (12, 4.66899196649029901707e-01) (13, 3.56672866077378858396e-01) (14, 3.99355721439554223196e-01) (15, 4.24225880766549323653e-01) (16, 4.31612629461596286617e-01) (17, 3.55999201469281545407e-01) (18, 4.16785881098035826398e-01) (19, 4.61936707801583690269e-01) (20, 4.37986122031687241662e-01) (21, 4.17886306013015518257e-01) (22, 5.82363158014026716103e-01) (23, 3.33874279060071610381e-01) (24, 4.49347231051425433090e-01) (0, 5.36422564134771850952e-01) (1, 1.03985809722598229743e-01) (2, 2.62446708357968816472e+01) (3, 1.49945198534483097319e+03) (4, 1.11050385859640914532e+03) (5, 7.64933593744791945346e-02) (6, 3.08338559296595815518e-01) (7, 3.30443749617501669746e-01) (8, 5.22169207817472003086e-01) (9, 1.47969753269778288995e+03) (10, 1.20260956074012916872e+01) (11, -6.41495146715121755676e+00) (12, 5.03825408284422682215e-01) (13, 4.21935703505914916356e-01) (14, 5.29791795208878535384e-01) (15, 1.49823040114040122717e+03) (16, 3.54570816609376970874e+00) (17, 4.27740431335489390552e-01) (18, 4.05128484817005141139e-01) (19, 4.91765031515435435683e-01) (20, 3.90768649720748373344e-01) (21, 1.50000000000000000000e+03) (22, 1.46129059156735053193e+02) (23, 7.35745246012920572909e-01) (24, 1.34324183472853286858e+00) (0, 1.03408691822494583357e-01) (1, 2.41964691820156163615e+00) (2, 2.11940096491726771843e-02) (3, 3.11763723311805407423e-01) (4, -7.96438050957817438302e+01) (5, -4.64230933041961946195e-02) (6, -5.65644137629065929529e-02) (7, 1.38044602430734686394e+00) (8, 6.79093485716786571249e-02) (9, -7.46994326936599861710e+01) (10, -8.14009716491808603678e+01) (11, 2.82408262433106904687e-01) (12, -1.07390669377025651382e-02) (13, -4.86569961396815353627e-01) (14, 5.49018981673826955703e-02) (15, -3.36532673947609453080e+01) (16, -4.30824460474940309496e+01) (17, -1.10450210139716897828e-01) (18, 6.55621110982152616176e-02) (19, -4.16336060630805582239e-02) (20, -1.82222122480282799906e-01) (21, -7.20597601218607852758e+00) (22, -4.05432439713127195091e+01) (23, -4.53545015965741149522e-01) (24, 1.24188081723869636619e-01) (0, 7.99018698735058131855e-03) (1, -8.75783765419798493346e-04) (2, -2.72204599172351340008e-02) (3, -5.78543083261882501445e-02) (4, 4.47740395567771329310e-02) (5, 9.71886456127137900174e-03) (6, -8.10835634223507628615e-02) (7, -7.67936437522984127746e-02) (8, 2.42425953430843652003e-02) (9, -3.03433030167737823046e-02) (10, 1.26587991999291375744e-02) (11, -1.33979283387925834914e-01) (12, -3.33833425438022912690e-02) (13, 5.73622893837843900178e-02) (14, -1.49143602999024793565e-02) (15, 1.18680553987153668966e-02) (16, -3.35062794896900453812e-02) (17, -4.78070120451783847626e-03) (18, -2.83609190392992427387e-02) (19, -1.38579321359779822354e-01) (20, -1.31440428252490387750e-01) (21, -3.77550912533199597987e-02) (22, -9.93726350730476520878e-02) (23, -1.33240339465438339950e-01) (24, -4.71834051174596716405e-02) (0, 5.32091135045956509231e-01) (1, 3.63968637604462574853e-01) (2, 4.26747213498759991879e-01) (3, 5.24124187698547516767e-01) (4, 4.44438620053374588981e-01) (5, 4.00582040294251151558e-01) (6, 4.26215639318547445669e-01) (7, 4.26602562870106893911e-01) (8, 4.65759893074167485860e-01) (9, 3.73405036629655517899e-01) (10, 3.63262670984362656679e-01) (11, 4.36576029046817526424e-01) (12, 4.52498637868867126244e-01) (13, 3.92464314385161605614e-01) (14, 4.29612603758654787445e-01) (15, 5.29685094038037984632e-01) (16, 4.04582473565636091539e-01) (17, 5.49441874136540442386e-01) (18, 3.69848322677726548680e-01) (19, 5.23495104718322612491e-01) (20, 5.09471217487890259967e-01) (21, 4.91692184473683790991e-01) (22, 3.85743022672685065277e-01) (23, 3.49401296355430046603e-01) (24, 4.02568959540667403729e-01) (0, -2.47265410245685757912e-03) (1, 1.73414041688347259074e-01) (2, 1.49699715301939151324e-01) (3, 7.34362992543254300415e+00) (4, 1.03854740491041809491e+02) (5, 1.02910337730914375198e-01) (6, 1.42792255258633371540e-01) (7, 3.84126526232347470513e-02) (8, 1.26732352060643121971e-01) (9, 1.87766479500581340290e-01) (10, -3.49782426781148192418e+00) (11, 3.44562606328762677244e-02) (12, 2.23954698428772587537e-02) (13, 1.54627683034849944255e-01) (14, -7.17977522336775593470e-03) (15, 1.39526455318508794790e+02) (16, 7.20387426327081387134e-02) (17, -3.37683165221637632269e-02) (18, 7.71937926714938698475e-03) (19, 3.65762982938151910706e-03) (20, 1.20021127699353108431e-01) (21, 5.65755975134559996320e-01) (22, -3.78731334259584800916e-03) (23, 1.24525731775778983335e-01) (24, 3.52705744918108965447e-02) (0, 3.18268841263804225239e-01) (1, 3.06048471899711738153e-01) (2, 3.64561659445009789149e-01) (3, 7.94027520096082239931e-01) (4, 5.74461949198951504769e+00) (5, 4.83661131202046068456e-01) (6, 4.86387169778780603657e-01) (7, 3.91817677077912374095e-01) (8, 3.29940613975945540304e-01) (9, 3.84956101339270828632e-01) (10, 3.68263128209743273445e+00) (11, 3.96556050316217101326e-01) (12, 3.01394240700234017361e-01) (13, 3.06826347254742282100e-01) (14, 3.37826914898657792996e-01) (15, 3.01994629705636508099e-01) (16, 2.95391983501201327300e-01) (17, 3.90706413775084748785e-01) (18, 3.16775104684184793946e-01) (19, 2.70083446673110461056e-01) (20, 3.82616808696887356067e-01) (21, 2.78075726537388101534e-01) (22, 3.23369262635914977988e-01) (23, 3.57034849567159362493e-01) (24, 4.32618067745940249047e-01) (0, 4.13125996140523532585e-01) (1, 2.96160176987690149097e-01) (2, 3.81386324986616731536e-01) (3, 4.96109987737381741280e-01) (4, 9.24368928757274943564e+00) (5, 3.81871396018096609382e-01) (6, 3.36722105220515544044e-01) (7, 3.80129971432814295351e-01) (8, 3.05478978641262166605e-01) (9, 3.64300020029963589341e-01) (10, 1.25402864783463452447e+00) (11, 4.83037049817134633845e-01) (12, 3.34723195699422881866e-01) (13, 2.10320039359287669356e-01) (14, 3.83153363231773513853e-01) (15, 3.08433255079632429041e-01) (16, 2.76492969749557171433e-01) (17, 3.02998645101531016710e-01) (18, 4.40554237450507868434e-01) (19, 3.64289780455681333482e-01) (20, 3.56287765395468525309e-01) (21, 1.82254412208271793228e-01) (22, 3.03054355587671020444e-01) (23, 4.37786044718095790351e-01) (24, 6.00629802336703044752e-01) (0, -2.18674047982311513250e-02) (1, -6.79940684830753899748e-02) (2, 5.79043376537841658624e-02) (3, -4.04310958887619739666e-03) (4, 2.04278364548162380543e-02) (5, -1.51218428565178308887e-01) (6, 9.01887238824755355093e-02) (7, 8.42090518081575895026e-02) (8, -5.74880566457132494151e-02) (9, 7.30210309516125810614e-02) (10, 8.20550395978185548307e-02) (11, -5.93979325515202119523e-02) (12, 1.03032407244483370512e-01) (13, -2.09135442173099851682e-02) (14, -1.42693324875959714343e-02) (15, 4.16688145342856558484e-02) (16, 5.54071829563056034162e-02) (17, -6.41989535696578794699e-02) (18, -1.67707904374218320920e-02) (19, 6.95131988132390715718e-02) (20, -1.23459093167723091278e-01) (21, 6.60181455624609114796e-02) (22, -9.76000247077109944760e-02) (23, -9.61190640251965017216e-02) (24, -3.47494005132461883378e-02) (0, 1.28483540716400473913e-01) (1, 1.77164741812193909931e-01) (2, 2.06157337948584318266e-01) (3, 1.81029123496776828128e-01) (4, -7.88683606335438103230e+00) (5, 2.02559436313554108722e-01) (6, 6.43337846576367139440e-02) (7, 1.30573625431176093548e-01) (8, 9.47295969586200437007e-02) (9, 1.59076784292942363663e-01) (10, -4.56222350290722200583e+00) (11, -4.16453067633361595501e-01) (12, 1.54341555464190538505e-01) (13, 2.51019217848011885752e-02) (14, 1.92936301160514911412e-01) (15, 1.07142518368417510866e-01) (16, 2.08802293424887985829e-01) (17, -3.71552365307598109201e-01) (18, 1.11782520416009709119e-01) (19, 7.94441841869011206034e-02) (20, 8.31047152682362344489e-02) (21, 5.62803382244424915681e-02) (22, 2.44088587146349747514e-02) (23, 1.79961425748234482569e-01) (24, 1.15655800215981569012e-01) (0, 4.27899837130933269336e-01) (1, 2.57182094576840547528e-01) (2, 4.09407510640200700269e-01) (3, 6.17333861897041646927e-01) (4, 2.15792695151648938889e+00) (5, 4.03681570518683030535e-01) (6, 3.39275856549570986598e-01) (7, 3.43084265204296690044e-01) (8, 2.83614598583921906361e-01) (9, 3.95446111069680361627e-01) (10, 6.49769375606646049093e-01) (11, 6.51027455314199920977e-01) (12, 2.86543293382075847653e-01) (13, 2.91131915981916011837e-01) (14, 2.73724757805531793142e-01) (15, 4.45047640660936549839e-01) (16, 2.80442011316801687038e-01) (17, 3.93386918840015975540e-01) (18, 3.71540704952054490207e-01) (19, 3.33953961135528387683e-01) (20, 3.47051250519733900379e-01) (21, 2.30366057520973055439e-01) (22, 3.77562553469094008829e-01) (23, 4.36987483720769454010e-01) (24, 5.40892036384593377640e-01) (0, 3.70464679242411054627e-01) (1, 2.53547591889456691572e-01) (2, 4.83658790957826489887e-01) (3, 4.73632393907353788087e-01) (4, 6.38126961154327765335e-01) (5, 3.77020709305863621630e-01) (6, 5.35710097404210938699e-01) (7, 3.49302161815309097914e-01) (8, 3.14888866193463179410e-01) (9, 4.10825466145770701321e-01) (10, 4.05319797045773866362e-01) (11, 2.85209349596063643784e-01) (12, 3.47581024954246475822e-01) (13, 2.91814396641277229438e-01) (14, 4.10402730355000577855e-01) (15, 4.10896003471485915526e-01) (16, 5.00763320740668760322e-01) (17, 2.55641171941746014884e-01) (18, 3.64985212516903079205e-01) (19, 4.66477952730774247936e-01) (20, 4.14151019802012854143e-01) (21, 3.59956721853040284564e-01) (22, 4.35149326858630891568e-01) (23, 3.51789150653723459161e-01) (24, 3.06177492574466858510e-01) (0, 3.17999288795581050437e-02) (1, -1.24494635183223945757e-02) (2, -9.08071400053482996606e-02) (3, -1.65480067602770092305e-01) (4, 8.34252392409202264689e-02) (5, -1.62405415107732098434e-01) (6, -1.82012428313908314684e-03) (7, -8.15996857816669030061e-02) (8, 3.91273722336699450453e-02) (9, 9.21929329422529753035e-02) (10, -5.23114175085199265003e-02) (11, -4.69824788470504933757e-02) (12, 2.58244917518724650951e-02) (13, -1.44155363499809726496e-02) (14, -3.70488125945731341937e-02) (15, -7.58274604184536460405e-02) (16, -5.54888284823930183487e-02) (17, -1.60378618370684761230e-01) (18, -2.38420877034088117552e-02) (19, -8.38030982617196801288e-02) (20, -8.40851164631425118667e-02) (21, 3.46017479551921774972e-02) (22, 1.12105258637889143580e-02) (23, -5.49703461166164489282e-02) (24, -1.92810287993375101268e-01) (0, 5.35528765361185432603e-01) (1, 5.00554731771463701229e-01) (2, 4.75454898266058079148e-01) (3, 3.91132933447844999275e-01) (4, 4.09692949200325839954e-01) (5, 4.72057610710971076173e-01) (6, 5.44889651654313245110e-01) (7, 4.16751731463241459341e-01) (8, 5.45021807261684365642e-01) (9, 4.01228944034809686947e-01) (10, 3.85449522284982137865e-01) (11, 4.49179910135641402569e-01) (12, 3.75958952258275302949e-01) (13, 4.16322430672059262680e-01) (14, 5.41038342715957742968e-01) (15, 3.74218750092328855672e-01) (16, 4.68459317060338442662e-01) (17, 4.74158810669091490553e-01) (18, 5.13292557591790710170e-01) (19, 5.24476381938779323555e-01) (20, 3.85842926025237120680e-01) (21, 3.60132124553557975144e-01) (22, 3.83915170460207955117e-01) (23, 3.80566809462484667570e-01) (24, 5.10381638502452883444e-01) (0, 3.95541155371169017574e-01) (1, 4.56325924722533193822e-01) (2, 4.06398683517240288943e-01) (3, 3.53498948376938182392e-01) (4, 4.23982651985418235174e-01) (5, 4.16852201379278142213e-01) (6, 3.74583499218639259798e-01) (7, 3.25163044400723577620e-01) (8, 5.24977753422863679944e-01) (9, 4.74210199250295116880e-01) (10, 4.33746083592016773434e-01) (11, 4.03171230690116622064e-01) (12, 4.16116695102151767927e-01) (13, 4.54460534449514286237e-01) (14, 3.75088199735034877325e-01) (15, 4.99272950820508709668e-01) (16, 5.36766918049986441197e-01) (17, 4.49887837793713496470e-01) (18, 4.31573300200510823199e-01) (19, 3.17666775125072853303e-01) (20, 3.83464468002070124619e-01) (21, 4.89697181690175342705e-01) (22, 5.08435811614073251974e-01) (23, 4.45585812486406496191e-01) (24, 8.91043798397693542768e-01) (0, 2.02023738051771428736e-01) (1, 7.91679433770062640496e-02) (2, 1.23312425137568973388e-01) (3, 2.24531752949162360933e-01) (4, 1.87567005704037774449e-02) (5, 2.15041100306805482711e-02) (6, 2.75017351536100060350e-02) (7, 6.68812952227478135780e-02) (8, 7.04623090776367450028e-02) (9, 2.03256642587647667897e-01) (10, 9.27269025501369220654e-02) (11, 1.32973972787375133153e-01) (12, 2.50919663160490469256e-01) (13, 1.38166234641720980791e-01) (14, 1.43220555630465068431e-01) (15, 1.49693481413647466738e-01) (16, 2.15935797492777109552e-01) (17, 6.02356212095437049125e-02) (18, 5.64150296146196036928e-02) (19, 1.47150224220444020284e-01) (20, 1.58208125163367047117e-01) (21, 1.91200187859808135027e-01) (22, 1.25802225845041332208e-01) (23, 5.86572768928161486501e-02) (24, 5.79798894114132296052e-02) (0, 3.55513148651216692731e-01) (1, 3.90649546777605272130e-01) (2, 3.76332181949176558522e-01) (3, 6.01006162024656842569e-01) (4, 6.08449423737690286984e-01) (5, 4.36486300391534021159e-01) (6, 3.27726037066577213785e-01) (7, 3.52556380195996998950e-01) (8, 3.77680784026464266834e-01) (9, 2.25705357114417970443e-01) (10, 2.26895606164124213899e-01) (11, 4.51424232891066312678e-01) (12, 3.06725265833478255573e-01) (13, 2.84050444256262912823e-01) (14, 3.48307592530389953378e-01) (15, 3.13087450897785168902e-01) (16, 3.48380271216656489663e-01) (17, 3.54383099181138638833e-01) (18, 2.43257231319667727165e-01) (19, 2.45909924062827384139e-01) (20, 3.68296786460229563787e-01) (21, 4.16268954388648582121e-01) (22, 5.51384571942533097122e-01) (23, 3.92050869858044825911e-01) (24, 5.02672709227434011403e-01) (0, 3.33882176334581226573e-01) (1, 4.28472892980285013920e-01) (2, 2.33428775054331683059e-01) (3, -2.24477136761246100605e+02) (4, 3.27428988916144581012e-01) (5, 2.98508682112311574119e-01) (6, 2.51970091349043356921e-01) (7, 4.28852976837385213571e-01) (8, 1.95780053592555014497e-01) (9, -2.53227751791817667026e+02) (10, 1.27691626642883342413e+01) (11, 6.68028007619239305726e-01) (12, 3.69849885788755494698e-01) (13, 4.42926133053961279540e-01) (14, 3.80231927487508947205e-01) (15, 2.39278091803107543001e+02) (16, 3.43756694690486752641e-01) (17, 7.95117528656684613431e-01) (18, 5.22732207298382323124e-01) (19, 5.65887106611760892783e-01) (20, 3.08081196685329128382e-01) (21, -1.07747599558698767264e-01) (22, 8.65253369176994135969e-01) (23, 4.91300300946579115990e-01) (24, 8.92277378432855261536e-02) (0, -2.31998260925806887300e-01) (1, -8.28695057330245954397e-02) (2, -1.81854609263403244057e-01) (3, 3.37087328151932485998e-01) (4, -2.42896464790284731805e+01) (5, 6.51171504424108871234e-01) (6, -5.21218926532133267071e-02) (7, 1.20973119408700098554e-02) (8, -1.95049787928139206628e-01) (9, 3.08980857289443289204e+00) (10, 3.25852272012502053311e-02) (11, 6.87762728705351295000e-02) (12, -2.06105941791622782056e-02) (13, -2.22360059112970492867e-01) (14, 3.81801422997197215103e-01) (15, 6.11947038309231583497e-01) (16, 5.65020905647964852281e-02) (17, -1.76907511595439381757e-02) (18, -1.01354436658064317456e-01) (19, -2.85523249085658570312e-01) (20, 2.89152559809309761540e-02) (21, 8.29004301459148496001e-01) (22, -9.18036034502500430943e-02) (23, 2.56027109718998779897e-01) (24, -2.17260672919907887879e-01) (0, 5.84375798703681975654e-02) (1, -6.24357864606927659423e-01) (2, -2.26920138475236204956e-01) (3, 7.78246849498744341922e-01) (4, 9.52070708612722995667e+01) (5, 4.16855498782393529833e-01) (6, 4.22623041867707160968e-01) (7, -1.22455745697916329462e+00) (8, 4.11676686612956754807e-01) (9, 2.69602204539524336724e+02) (10, -1.32208205785267409738e+01) (11, 1.10647657120255993313e+00) (12, 2.72559531787355424637e-01) (13, -3.50488379621473145065e+00) (14, 2.96934440544284417030e-01) (15, 5.15160265644436663024e+02) (16, -7.61638230919928787443e+02) (17, -1.30792864131755975921e-01) (18, -4.86164149086418695411e-01) (19, 1.67392696632196330553e-02) (20, 4.20960644305699960288e-01) (21, 6.20936054742443177545e-01) (22, -1.08142100253607941340e+03) (23, 1.90447649620103343082e+00) (24, -2.83115523575688476932e-01) (0, 1.77191812069077997416e-01) (1, 1.78448772341436612265e+00) (2, -5.42008765811293868886e-01) (3, -4.61234137349668671391e+01) (4, -1.18821152172741517639e+00) (5, 2.51607193638981163630e+00) (6, 3.26749596754656368436e-01) (7, 2.57015961064749554055e-01) (8, -1.15159110325702085387e-01) (9, -5.84946242438629155913e+01) (10, 3.45021164670779114658e+01) (11, -7.85834890954570153276e-01) (12, -3.51980621352351308317e-01) (13, -4.49331102307046370559e-01) (14, 5.02053731159198046718e-01) (15, -9.08319011513697205373e+00) (16, -1.34753761529224902915e+02) (17, -2.70433456732036558989e+00) (18, 5.32930240111174277629e-02) (19, -3.75943501356851728090e-01) (20, 4.21437186007155517586e-01) (21, -2.37329308171696368390e+02) (22, -8.26553293882774227086e+01) (23, 4.40661563783037379949e+00) (24, 1.99506193781619239891e-01) (0, 3.94091267980436810170e-01) (1, 6.31640219107650335850e-01) (2, 2.74817690524713886813e-01) (3, 1.20184352431876362299e-01) (4, 2.30882302498957164838e-01) (5, 6.31011468671695663346e-01) (6, 5.33438388658739826020e-01) (7, 4.52363170909191758540e-01) (8, 2.95659823762553841675e-01) (9, 2.82775988428724089907e-01) (10, 3.29526609325807628981e-01) (11, 4.95891239093298519247e-01) (12, 4.33224469615085205909e-01) (13, 4.55140883815796593037e-01) (14, 2.25461688659034570348e-01) (15, 2.78028947922378533164e-01) (16, 3.23415546829559696906e-01) (17, 4.14103251704524111254e-01) (18, 4.84640931213505543607e-01) (19, 3.54236278596458897816e-01) (20, 3.15314566196909062956e-01) (21, 1.53183319162404546487e-01) (22, 3.62894493039407461943e-01) (23, 3.78846834699148926617e-01) (24, 1.41246037430512361155e+00) (0, -1.35574969352325114258e+00) (1, 3.38315695463657917230e-01) (2, 1.72564476551577805630e-01) (3, 6.65521609709186350301e+01) (4, 9.73586495267424112399e+01) (5, -8.06572202711695274147e-01) (6, 2.58741436274814551322e-01) (7, 3.50822245596572990234e-01) (8, 5.32034842017493292410e-01) (9, 3.85398779143541446501e+02) (10, -3.37126516758385541550e+00) (11, -3.07984349390314715578e-01) (12, 1.64997498955658850051e-01) (13, -7.45674670009757889488e+00) (14, 2.99821522026395448357e-01) (15, 4.38558119599563553948e+02) (16, 2.30809488906270204867e-01) (17, 5.21026297008028604907e-01) (18, -2.32310624523018249832e+00) (19, -1.91462187970612807142e+00) (20, 2.54538047802672529052e-01) (21, 2.60454336500339138638e+02) (22, 6.35962404923138713286e+00) (23, 1.60255378491047824341e-02) (24, -3.83741844709093893329e-01) (0, -4.28226102485346968307e-02) (1, 2.07290518525170795738e-02) (2, 1.52399798983420802639e-02) (3, -8.62580160302939547012e-02) (4, 1.16784759130364769464e-02) (5, 1.41613084909673978690e-02) (6, 4.67142105139235139233e-02) (7, 6.77155227268133180774e-02) (8, -8.52180104333309651476e-02) (9, 7.14564865528824477714e-02) (10, 5.05076497933956147790e-02) (11, 2.56286747430618474554e-04) (12, -7.77568088595361611715e-02) (13, -9.05468961478223255401e-02) (14, -1.18386735819563174155e-02) (15, 4.22236517609789283739e-03) (16, 7.69334445374559722231e-02) (17, -9.96904495488806913217e-02) (18, 9.46696788042422805731e-03) (19, 6.26564094421225570297e-02) (20, -4.77317782192114084538e-02) (21, 1.95135303094517362221e-02) (22, -6.33820857619502367464e-03) (23, 4.22011377861628402333e-04) (24, -1.52697679664409047967e-02) (0, 1.83785044821987098018e-01) (1, 1.12539700533597714083e-01) (2, 4.99038443131305076150e-01) (3, -5.02503108410092755309e-02) (4, 2.73481818629609954030e+01) (5, 1.25387146956057460301e-01) (6, 1.56279355774150169323e-01) (7, 2.01131108603363584209e-01) (8, 8.83585030850040503703e-02) (9, 2.04701999343873203285e-01) (10, -1.00479970771239450755e+02) (11, 2.35187416506906915581e-01) (12, 1.65376502351330778584e-01) (13, 1.04306206099214565652e-01) (14, -5.46916542109360803714e-01) (15, 1.32804264375180808289e-01) (16, 2.34706439334754390913e+00) (17, 7.88027079829248522369e-02) (18, 2.21885564582844557746e-01) (19, 2.85900979911133334976e-01) (20, 2.45145842079982662076e-01) (21, 1.37014050008381160772e+00) (22, 2.03899715971562152106e+01) (23, 9.74065831256472336452e-02) (24, 1.49540088258494019424e-01) (0, 2.51103951341344278081e-01) (1, 3.21535060642666403741e-01) (2, 7.59807843023655782311e-01) (3, 9.93971274028061060335e+01) (4, -4.01291377411202347503e+02) (5, 4.76715926373070753019e-01) (6, 5.04371139662986633923e-01) (7, 4.89697255915365503576e-01) (8, 5.01255513230268734404e-01) (9, 4.97468462628918139945e-01) (10, -6.88489932877234764419e+02) (11, 6.44523150527391147646e-02) (12, 4.23142452108598021709e-01) (13, -4.99960343453065170216e-01) (14, 3.25987597636827663994e-01) (15, 1.67227889520420780478e+00) (16, 4.07224699613960572364e-01) (17, 5.54029321005244490550e-01) (18, 4.18267252089036978280e-01) (19, 4.44342236681331104187e-01) (20, 3.60938971711507128326e-01) (21, 1.29296324251102475955e+02) (22, 3.51458898180520618038e-01) (23, 2.95718684820341248809e-01) (24, 1.06639528774988806559e-01) (0, 3.98760363664747208290e-01) (1, 4.73364091656158780808e-01) (2, 3.70764521799927360135e-01) (3, 3.80313849076835186480e-01) (4, 5.20508969319859682301e-01) (5, 4.84996078497945681818e-01) (6, 4.90416927009176051300e-01) (7, 4.85804160540174279070e-01) (8, 4.52330724931180760962e-01) (9, 3.78114550249931624659e-01) (10, 4.07653387301762981654e-01) (11, 4.66795522952521468873e-01) (12, 5.15041634064077213928e-01) (13, 3.78154348005566798285e-01) (14, 4.31933997064024799428e-01) (15, 3.59932003902981301202e-01) (16, 4.08143542959414906690e-01) (17, 4.44171419426929781071e-01) (18, 2.76242743924156097801e-01) (19, 3.14464553439865512896e-01) (20, 4.49062263396163674489e-01) (21, 5.24677842414467465737e-01) (22, 4.67817503386854349756e-01) (23, 4.22496476449672142550e-01) (24, 6.92066265139396952222e-01) (0, -4.45893233002151792577e-02) (1, -1.13975377580599439298e-02) (2, 1.20585049050002363069e-01) (3, -4.41447086144865288859e-02) (4, 1.11525826376510511784e-01) (5, -1.29466245776536509338e-01) (6, -1.47825735005086500440e-01) (7, -2.25354454838710693831e-02) (8, -3.91066004997099314622e-02) (9, -1.05170085012793491919e-02) (10, 8.62853109709502824609e-02) (11, -1.63369506834148719987e-01) (12, -1.59082507707685949505e-01) (13, -7.34507195797882567190e-02) (14, 1.82745799232563663206e-02) (15, -5.81288662650091478290e-02) (16, 6.05295156737928954915e-02) (17, 1.48042420406772380626e-03) (18, -1.60411519922823431195e-01) (19, 1.38046164135020490299e-02) (20, -3.64601137214333043124e-02) (21, -7.70592636850212647781e-02) (22, -1.44684361167703529061e-01) (23, -6.98197819187605789315e-02) (24, -1.60524487092794598819e-01) (0, -8.10256868374456318271e-01) (1, 4.83257190852769857869e-01) (2, 5.13799511099870653830e-01) (3, 6.07675041065179698307e+02) (4, -3.25129910344163249647e+02) (5, 4.44486902325077204434e-01) (6, 1.81731280861623734069e+00) (7, 2.03105971844306907315e+01) (8, -3.91578013014311521189e+00) (9, 2.63654197857023689266e+02) (10, -3.60794681965328607021e+02) (11, -3.55209124295261802207e-01) (12, 8.34587228612060272326e+00) (13, -2.27869132466551160832e+00) (14, -4.69659538187791492092e-01) (15, 6.90317214467766291364e+01) (16, 2.64244781646994567836e+02) (17, -8.64884350264370938000e-01) (18, 2.83887541528168640959e-01) (19, -3.92388626399667561628e+00) (20, 4.44409450031890140842e-01) (21, 4.07986853506519594248e+02) (22, -1.19172703605526621118e+02) (23, -9.88149111406291247306e-01) (24, 1.58758230676084854949e+00) (0, -1.09514220374291690319e-01) (1, -1.95420287801920750104e-01) (2, -1.14782350044804096201e-01) (3, -6.69256959054558980826e-02) (4, 2.87967262336094147190e-02) (5, -7.27332203058314863409e-02) (6, -5.65793752403905836346e-02) (7, 1.06404452178993046141e-02) (8, -6.58362333910061242603e-02) (9, 6.16525484472672524738e-02) (10, -3.67468842921223129427e-02) (11, -3.24036433457194281149e-02) (12, -9.18606582457464210245e-02) (13, -3.72952543737311500993e-02) (14, 1.91056949546089039661e-03) (15, -6.17260844132184530175e-02) (16, 4.06927689423757302234e-02) (17, -1.41525582220351914264e-01) (18, -1.33650075146007941973e-02) (19, -1.71611304827976839105e-02) (20, -4.54573187313053531100e-02) (21, -6.22019878579094034898e-02) (22, -9.85753687186507882023e-02) (23, -1.08848193806037121800e-01) (24, -1.95663932022514149012e-02) (0, 3.75105629763517189890e-02) (1, 6.63722625401410859514e-02) (2, 3.83122172740245278688e-02) (3, 3.50525231430379100028e-02) (4, -5.76378676702185774317e-02) (5, -5.95788334076983103205e-02) (6, 5.09409776356612581383e-02) (7, -3.45186694657421480614e-02) (8, -1.10917775054249712063e-01) (9, -7.94140642869796409276e-02) (10, 7.55032263713502904690e-02) (11, 1.22545047654672775023e-02) (12, 4.54615375426208334630e-02) (13, 8.71746998576075210474e-02) (14, -1.56267496254003573908e-01) (15, 8.56501620997629498078e-03) (16, -7.79711023268521152829e-02) (17, 7.83891240957063223371e-02) (18, 5.24218838957702035208e-02) (19, 1.10443935794337436129e-02) (20, -5.40367937533584030696e-02) (21, 8.52325973367305395056e-02) (22, -1.62896385338285432098e-01) (23, -2.44994024196410614680e-02) (24, -8.44333354951373044051e-02) (0, -1.42577593968067684038e-01) (1, -1.20166577774757463160e-01) (2, 3.63041326953848164649e-01) (3, 4.65026879376518820219e-01) (4, 3.83592326985485287949e-01) (5, 1.31594990209092987943e-01) (6, 2.05534201990597298337e-01) (7, -4.43613604899166305562e-02) (8, -9.59874377033300835160e-02) (9, 3.31532929789745300919e-01) (10, 3.74545520112247065647e-01) (11, 1.42047564220472405383e-01) (12, 2.74167253542217936868e-01) (13, 3.12838490431267046699e-01) (14, 2.17222118138344855165e-01) (15, 2.51056002815193746169e-01) (16, 3.29674151784346280980e-01) (17, 3.52147780526620546304e-01) (18, 1.42768039077563989314e-02) (19, 4.90587284895598219059e-01) (20, 3.76525107388159196997e-01) (21, 3.88588370750844958046e-01) (22, 2.47254419054931784405e-01) (23, 3.20208476065868052896e-01) (24, 1.83115364834105398550e-01) (0, -6.93515399411437982735e+00) (1, -1.90884481652620019432e+00) (2, -1.24708147382548673043e+00) (3, 1.23046062614844785799e+02) (4, 1.45919947756836961617e+02) (5, 3.29711192732860736143e+00) (6, 2.89301415522050853202e-01) (7, -3.20322817723414932090e+00) (8, -1.35518132486680403792e-01) (9, 1.47918913333093342999e+02) (10, 2.78138290193048248966e+02) (11, 4.78717500390280270572e-01) (12, 3.77848945872813257729e-01) (13, -2.00328352428994982404e+00) (14, 8.27933294279170950425e-01) (15, 2.94999413256675957484e+01) (16, 1.88651470475041634245e+02) (17, 8.39531056993051527648e-01) (18, -5.03738967302746232235e+00) (19, -1.38608058063079697675e+00) (20, 1.26383542510977164852e+00) (21, 1.68681058238358474455e+01) (22, -2.92855723031412402690e+01) (23, 4.05562438576437145343e+00) (24, 3.76174971744651420735e-01) (0, -1.64562988281400396362e-01) (1, 5.38336681192650212679e-01) (2, 3.58594205069464655455e-01) (3, 4.32653519913261952468e-01) (4, -2.42684311536257302233e-01) (5, 4.52740611399977788132e-01) (6, 5.20466734682073717266e-01) (7, 4.72899515879004528340e-01) (8, -8.50552819933878961889e-02) (9, 3.97868746180006893631e-01) (10, -9.40906359282953907996e-02) (11, 3.65942186288791493354e-01) (12, 3.78267447526421884962e-01) (13, 3.96108890704062188703e-01) (14, 4.72244599685363974917e-01) (15, 8.04642100982796759645e-01) (16, 5.09875664681190388094e-01) (17, 3.59559656950239170392e-01) (18, -4.91200271740073468596e-02) (19, 4.76087456404019782052e-01) (20, 5.21466377971069802721e-02) (21, 3.10787383765954583481e+00) (22, 4.55258164993057046210e-01) (23, 4.67151485641538521953e-01) (24, 4.38669937389346731305e-01) (0, 4.46091479347285713164e-01) (1, 5.46522763056070282062e-01) (2, 5.18199967955143003806e-01) (3, 4.95125067553925157782e-01) (4, 8.44630343083555279460e-02) (5, 2.45516897627987118469e-01) (6, 5.46447263566627872144e-01) (7, 3.73973205492516058701e-01) (8, 4.30722909769689132897e-01) (9, 4.27592836848802781979e-01) (10, 1.90588060714803331219e-01) (11, 2.52486990240651687500e-01) (12, 4.18008573255844617655e-01) (13, 4.22278600368900802753e-01) (14, 4.49301698465564780527e-01) (15, 5.58981836690468414375e-01) (16, 5.51130611776144641034e-01) (17, 4.60056527634345902023e-01) (18, 5.29544914963659518747e-01) (19, 3.54577844479307624503e-01) (20, 5.39414118872816539252e-01) (21, 4.34151469732930617162e-01) (22, 4.63332841444094645222e-01) (23, 3.95503954569753291004e-01) (24, 4.73506939507893021002e-01) (0, 1.11048531614542131396e-01) (1, -2.23406785077578419474e-02) (2, 8.20581643512976049992e-02) (3, -3.13581500465379900411e-02) (4, 6.92533690998863304955e-02) (5, -5.62415186893054433459e-02) (6, 6.26887372785092378269e-02) (7, 6.73745013253977537149e-02) (8, -5.67161485210809848678e-02) (9, 1.38064335041683129007e-02) (10, 7.56651614079687784287e-02) (11, -5.82926187050647540144e-02) (12, -3.79652612872177774861e-03) (13, 9.63018482433795064424e-02) (14, -7.36917141939806563666e-02) (15, 5.49548368820024016324e-02) (16, 7.05629674969766602227e-03) (17, -5.57560695526227653729e-02) (18, 1.12097568331766248018e-01) (19, 6.63639447741986021612e-02) (20, 8.32534426139854011328e-03) (21, 9.34446938883326666536e-02) (22, -2.24618671743291691001e-02) (23, -9.27764126809056260958e-02) (24, -4.68287940449403465581e-03) (0, -2.32735032636639214976e-02) (1, -2.13384595053815268040e-01) (2, -1.09797839911753056241e-01) (3, -2.27620954162102512308e-01) (4, 6.18914525985030161692e-01) (5, 2.82034630952484738353e-02) (6, -2.01225608334614863848e-01) (7, -9.81391133812259536251e-02) (8, 5.69857409239815204671e-01) (9, -1.32279248324112447266e-01) (10, 5.80087903880378008559e-01) (11, 3.53073718136423853053e-01) (12, -1.17280800602897181117e-01) (13, -9.02553697360044537845e-02) (14, -1.09122470338072333207e-01) (15, -9.57086255049114237314e-02) (16, -1.71841537981320985340e-01) (17, 5.27037355134163498782e-01) (18, -1.45612211241390843153e-01) (19, -1.45941784424403503406e-01) (20, 2.87836423736676401408e-02) (21, -2.31422017987273159756e-01) (22, -1.13602926822794408901e-01) (23, -1.71562673780726343553e-01) (24, -1.75784820341724420945e-02) (0, -1.05499905219650760846e-01) (1, -9.11329686270740124687e-02) (2, 5.97937406559930634264e-02) (3, -3.63645925548673962235e-02) (4, -2.43244451047246901254e-01) (5, -1.94063737410320701071e-02) (6, 9.46340080186434118303e-02) (7, 1.53921745790622970310e-03) (8, 9.57660984361418804456e-02) (9, -1.34489041622544297505e-01) (10, 6.15450162792227750685e+00) (11, -2.18040522278746991269e-02) (12, 7.10160114171350942414e-02) (13, -1.09315538751576686594e-02) (14, -1.58442595136402721023e-02) (15, -1.36972258910828648126e-01) (16, -1.22968539376210203584e-01) (17, 3.42928912725592796584e-02) (18, -5.90654768069292651633e-02) (19, -5.99042667506575338132e-02) (20, 1.34964722653778887440e-02) (21, 3.13820171899037325680e-01) (22, 3.41502814927751880553e-03) (23, -5.93643188525245155129e-02) (24, 3.08435451095358387219e-02) (0, 4.07069995092366521128e-01) (1, 4.96142091012424391039e+00) (2, 5.20704109316635910254e-01) (3, 1.49996600307830567544e+03) (4, 2.07425568796395370930e-01) (5, 3.96853456203578924821e-01) (6, 3.71044460394593655916e-01) (7, 5.04070369672231954894e-01) (8, 4.27211888717344168143e-01) (9, 1.32783652973608127468e+03) (10, 4.37569378828912503021e-01) (11, 5.67599736003743515766e+00) (12, 1.52260328344959794400e+00) (13, 3.04940820976950022203e-01) (14, 2.38879455963363629412e-01) (15, 1.49948499998423471880e+03) (16, 3.92189052286179506979e+00) (17, 5.20961226052978898515e-01) (18, 9.27759330954505828659e-02) (19, -4.19008202402907314887e-01) (20, -1.97433595279943330247e+00) (21, 1.50000000000000000000e+03) (22, 5.26078788654584461604e-01) (23, 5.34607220263806470761e-01) (24, 2.17923750740428801009e+00) (0, 2.77781956750576375370e-01) (1, -1.21340315579431118342e-01) (2, -3.27930797032686197068e-02) (3, 3.25812472618928317125e-01) (4, 3.23848407871666243985e-01) (5, 2.59834928187744118588e-01) (6, 2.71296912524774447295e-01) (7, -6.72946492520159755824e-02) (8, -1.38640998922985120290e-01) (9, 4.29906325962435220678e-01) (10, 2.49741856571090298234e-01) (11, 3.19399238459624090769e-01) (12, 2.63582277320511038088e-01) (13, 5.68385700002829452604e-02) (14, 3.15636750065468207893e-01) (15, 3.24891036724260340307e-01) (16, 3.67926026772613712357e-01) (17, 3.49902618846806567898e-01) (18, 3.62397492784978403346e-01) (19, -8.49474256625334933624e-02) (20, 3.74900609889912583839e-01) (21, 3.68823951893298029869e-01) (22, 3.46428899145533764070e-01) (23, 3.35509133599548703408e-01) (24, -1.61661583265839015056e-01) (0, 4.51619859649786570266e-01) (1, 4.22202412086180478568e-01) (2, 3.51056039931971541890e-01) (3, 7.66410075211526264916e-01) (4, 3.16779251249494198106e+00) (5, 4.78012367172412133698e-01) (6, 5.35001366326363414494e-01) (7, 2.08758863311647197003e-01) (8, 3.90221538069683349104e-01) (9, 3.95161326566466297727e-01) (10, 2.31902645988388345089e+00) (11, 2.63715687288709144109e-01) (12, 2.25260005953221043029e-01) (13, 2.68913516464154955798e-01) (14, 3.02987928472852885431e-01) (15, 2.69959341522474638442e-01) (16, 2.59176223554482831890e-01) (17, 3.77009823255605669434e-01) (18, 2.86731443937591201632e-01) (19, 3.34203414257339126436e-01) (20, 4.38416887541682731566e-01) (21, 2.98821336186642250166e-01) (22, 4.32211021971530051644e-01) (23, 2.84750734857795673172e-01) (24, 5.45211981733076278545e-01) (0, -9.28767451010273636935e-02) (1, -1.98107452206005341111e-01) (2, -8.89212129138098883452e-02) (3, -1.86106202783614185781e-02) (4, -3.92606859214924375223e+00) (5, 4.58766270574501977553e-01) (6, 7.61206390937062549185e-02) (7, -1.28528254046695489254e-01) (8, 7.31526391309419987685e-02) (9, -1.47769185866259838980e-01) (10, 3.55154474202844561148e+00) (11, -8.18286568879535852750e-02) (12, -4.77562812621210655561e-02) (13, -9.96124841695268659070e-02) (14, -5.05591912148416634115e-03) (15, -2.53695883486899775860e+00) (16, -1.37572159996755347816e-02) (17, 1.43612173020944474539e-02) (18, -1.55506289257431762341e-01) (19, -1.13959254977160293065e-01) (20, -9.05774148066492562625e-02) (21, -3.53690692378707405297e+00) (22, -6.38833151011380523387e-02) (23, 4.28914117554156426593e-01) (24, -4.26147622660339384093e-02) (0, 7.21310309083653539153e-02) (1, 2.07905141381819591473e-01) (2, 2.91680932702321094041e-01) (3, 6.00349886094633133915e-01) (4, 1.39410866230592156434e+00) (5, 1.09439332018608892483e+00) (6, 3.33589258211350658812e-01) (7, 3.74768119455580750454e-01) (8, 3.61663472906752769820e-01) (9, 4.71946407699699033156e-01) (10, 2.72837676151170882566e-01) (11, 4.12149409347019601846e-01) (12, 3.94057943206370664413e-01) (13, 2.98109139478940465828e-01) (14, 3.01915311660144292105e-01) (15, 2.93315419874530192157e-01) (16, 3.57571749902971580681e-01) (17, 4.25419676310177075074e-01) (18, 2.89883937825871296212e-01) (19, 3.72699569973067412754e-01) (20, 4.04319042304880860161e-01) (21, 3.30221902553832435956e-01) (22, 3.58403444359038536593e-01) (23, 3.75204379278865907121e-01) (24, 1.58949204297846646838e-01) (0, 5.24928488408069160442e-01) (1, 5.52619397521523114669e-01) (2, 2.85700455650976348210e-01) (3, 1.83567419268039627722e-01) (4, 1.01788419005140920448e-01) (5, 1.71488779463557727833e-01) (6, 4.77700696159951254671e-01) (7, 5.26300462723900186468e-01) (8, 2.23093207464568149545e-01) (9, 2.54474948884571006147e-01) (10, 2.74972770999464766195e-01) (11, 2.97881593329018867777e-01) (12, 6.07331033290839816807e-01) (13, 5.26614565409446178101e-01) (14, 2.77961150356688446728e-01) (15, 2.66028964817778323937e-01) (16, 2.20815740653712400121e-01) (17, 2.65051694587632225009e-01) (18, 4.96755376078148458419e-01) (19, 4.41748707951204300226e-01) (20, 3.28784356894434970364e-01) (21, 2.96669030322940119326e-01) (22, 2.69140474814965335870e-01) (23, 2.78815311662856613051e-01) (24, 8.09494584129097471958e-01) (0, -1.14309510374179712500e+01) (1, 1.49166474241364999109e+00) (2, 2.80356322074691466373e-01) (3, -5.24110227824120116225e+01) (4, 6.15375040014438923208e+02) (5, -1.23045208354846530296e-01) (6, 6.00732295964846521596e-02) (7, 1.06179143462827252353e-01) (8, 4.83015716042036025168e-01) (9, 8.86473793067691246961e+01) (10, 4.21114067373973057329e+02) (11, 1.04967854769200141796e+00) (12, -2.98292900108999503583e-01) (13, -3.11235477944652183524e+00) (14, -8.68711108598145820281e-01) (15, 1.32164357860317863924e+03) (16, -1.63551646627016168623e+02) (17, 1.68956425532350063001e+00) (18, 4.55355738767818207791e-01) (19, -1.33581893415719681062e-03) (20, 1.95267594602656924252e+00) (21, 1.62912809403210758319e+02) (22, -3.57650539172801074983e+02) (23, 3.08906076992896672095e+00) (24, -5.26919263797314751940e+00) (0, 1.57759392976731813718e+01) (1, 3.42994442699685864184e+00) (2, 4.00033093749060597588e-01) (3, -3.39775664619327528726e+02) (4, 4.01116118001033861162e+00) (5, 5.29416966517711973239e-01) (6, -2.74713485435962123660e+00) (7, 7.14292558752501971497e-01) (8, 3.31656263459195355114e-01) (9, -2.39433501337387866670e+02) (10, -1.93333688544096702344e+02) (11, -1.59204526518973932259e-01) (12, 2.02279636744309626595e-01) (13, 2.50245369774710235689e-01) (14, 1.67600916482939482632e-01) (15, -4.44574979544346831517e+02) (16, -2.44392609609674344995e+01) (17, 5.63946949783850071114e-01) (18, 3.75723700595326670637e+00) (19, -2.26136178287009298460e-01) (20, -2.97314420107901078438e+00) (21, -1.33453831097082638024e+01) (22, 7.40234392167641974680e-01) (23, 4.37637774015010305728e-01) (24, 4.16735317617768552534e-01) (0, 7.01398393236074280122e-02) (1, 5.34408699664031330845e-02) (2, 8.61691234112302723025e-02) (3, -5.30467846238913201540e-02) (4, 7.54658656541923322791e-02) (5, 8.27102616933511891606e-02) (6, 6.17523055466566508920e-02) (7, 6.84419633716497333165e-02) (8, 7.66997772579778719360e-02) (9, 1.19691495781485079952e-01) (10, 3.07983227530586808895e-02) (11, 8.09907010147520867172e-02) (12, 2.98712916520990218183e-02) (13, -8.62626595110050353732e-02) (14, -1.50558548470085373783e-01) (15, -9.49017050035662612650e-02) (16, -5.23422828204064480295e-02) (17, -7.25408484337049797031e-02) (18, 5.26495935291205752193e-02) (19, 6.43090667098913520983e-02) (20, -5.31266971371244858813e-02) (21, 6.80972440545580537385e-02) (22, 2.42469026592370476281e-02) (23, -1.02596156958735182374e-01) (24, -6.36558812381552846515e-02) (0, 1.13489412728355248960e-01) (1, -4.60847100361391954527e-04) (2, 6.84449074700576513657e-04) (3, 4.40867425678171942494e-02) (4, 7.25382238627647196738e-02) (5, -9.21267352079471746329e-02) (6, -1.25696099174499743151e-03) (7, 1.89799240782556402629e-02) (8, -8.91341206306843214513e-02) (9, 7.24621390516626689982e-02) (10, -5.64584178534296016183e-02) (11, 1.23380821094941622168e-02) (12, 1.63244781101416630564e-02) (13, -5.84139672613923771616e-02) (14, -2.57920571165756486176e-02) (15, 1.51413893954094307820e-02) (16, 7.56641233080007080680e-02) (17, -2.52806672837450376046e-02) (18, -7.48716016188177430069e-02) (19, 6.78010116443135829600e-02) (20, -2.86842450756928588063e-02) (21, -6.81420114453775704888e-02) (22, 2.94805779007079882259e-02) (23, -1.52897113090411894409e-02) (24, -3.20736137296477735736e-02) (0, 2.91476308519505511452e-01) (1, 2.49201146386752725448e-01) (2, 3.14100735222860028006e-01) (3, 3.48857034018559053479e-01) (4, 3.01176246658091638364e-02) (5, 1.06858971132380312086e-01) (6, 3.50134137748395690704e-01) (7, 2.73812158765830038210e-01) (8, 3.74427219418773715720e-01) (9, 3.27686530532388275994e-01) (10, 1.61805705267951238646e-01) (11, 8.23650389929991566529e-02) (12, 4.41922839161612512893e-01) (13, 3.54056239528765914759e-01) (14, 4.38898314653174026478e-01) (15, 3.77023208519568608921e-01) (16, 4.25400098181763441918e-01) (17, 1.02986284768820032798e-01) (18, 2.24320782833928450417e-01) (19, 3.19997407015882417980e-01) (20, 2.98900530033047562295e-01) (21, 3.66154539363013120656e-01) (22, 3.53326104872162705117e-01) (23, -1.94756632309892097066e-01) (24, -4.91466906231011815831e-02) (0, 4.22936757674528096551e-01) (1, 4.86164595003080290958e-01) (2, 5.35221893350044108928e-01) (3, 4.31949015272548475508e-01) (4, 4.84118172930261714271e-01) (5, 5.11032461882744315496e-01) (6, 3.67591583723057446775e-01) (7, 3.43755861926244687954e-01) (8, 3.56535279012745731642e-01) (9, 3.65450163360479696184e-01) (10, 4.81178566479285640956e-01) (11, 3.23471512804683558606e-01) (12, 4.93677549755056122027e-01) (13, 5.04848182629545005895e-01) (14, 4.61999446385730150322e-01) (15, 3.98341956605445246531e-01) (16, 5.19142631138668542157e-01) (17, 4.47824729566689616611e-01) (18, 3.14474580160169547849e-01) (19, 3.14695584583996212924e-01) (20, 5.05224898986790682542e-01) (21, 5.11371501519460314178e-01) (22, 3.62631340408213598270e-01) (23, 3.70744797747487420114e-01) (24, 6.50358115184461071934e-01) (0, 1.03751761652530263835e-01) (1, 8.65952445467600695483e-02) (2, -9.19233711963358957053e-03) (3, 3.88039036421148342271e-02) (4, -6.26651880058410742924e-02) (5, -3.16094892780194730575e-02) (6, -1.35120150125634858052e-01) (7, 9.24619608300814577184e-02) (8, -3.28151650605290612361e-02) (9, 8.02958105344807465675e-02) (10, 3.72491802238077568399e-02) (11, -8.85594582549215220135e-02) (12, -7.93120689016702240526e-02) (13, 3.30878475680959419081e-02) (14, -1.16093465773269496899e-02) (15, -6.98018216888780934637e-02) (16, -4.03387283006765365312e-02) (17, -1.56586309875052120955e-01) (18, 7.69087363665983125838e-02) (19, -9.24634363100619166564e-02) (20, 1.59611605830641128945e-02) (21, -7.50573076054935339751e-02) (22, -1.37917220911108386744e-02) (23, -1.48194438980856404292e-02) (24, -1.49766032625922168586e-01) (0, 3.55870022350822878821e-01) (1, 4.39036901302102433586e-01) (2, 3.32502696645346151882e-01) (3, 3.67669832992263634353e-01) (4, 1.22814118721972764803e+00) (5, 2.73091315300558856727e-01) (6, 3.09639391970197241921e-01) (7, 2.88979896181906448227e-01) (8, 4.60414509954637229949e-01) (9, 4.54321086288271780429e-01) (10, 3.61595034024230654879e-01) (11, 4.13870976501520493329e-01) (12, 3.51559793026403222260e-01) (13, 3.58173214359334579626e-01) (14, 3.17093343223187829061e-01) (15, 4.84555738859876794500e-01) (16, 4.28900483115779718180e-01) (17, 3.77758033389158365267e-01) (18, 3.48883566261056043967e-01) (19, 4.13692784310105476919e-01) (20, 3.60954113769923534694e-01) (21, 2.51844481491487359737e-01) (22, 4.90738668915969900031e-01) (23, 5.39514977993009625656e-01) (24, 5.11668202380793357698e-01) (0, -3.25426009032299345947e+00) (1, 1.69126694659983589641e-01) (2, 3.36664353896924117837e-01) (3, 4.91504961131280504461e-01) (4, 4.08727821736241281325e-01) (5, -1.17712343804116187362e-01) (6, 4.48526768396748154455e-01) (7, 3.89980168688671025023e-01) (8, 4.00738036376384110238e-01) (9, 5.81099341234789013022e-01) (10, 5.34170191144530126515e-01) (11, 2.96208842150040341235e-01) (12, 3.31232684832776402839e-01) (13, 4.91141396517570716362e-01) (14, 4.95916603936187860846e-01) (15, 9.04553257828212609049e-01) (16, 1.39578757297483457833e+00) (17, 2.86324529207224620642e-01) (18, 1.24217164503539256870e-01) (19, 3.61959963996460742930e-01) (20, 4.20577100856979524401e-01) (21, 6.98896517690120289146e-01) (22, 7.36820841760441824775e-01) (23, 1.81076355052832638215e+00) (24, -5.17339728500735418493e+00) (0, -8.55238381868581032386e-02) (1, -3.63731900676679612006e-02) (2, 2.90153048532153901018e-01) (3, 1.16703964130690596157e+00) (4, -1.17860734342863381130e+02) (5, 4.77420680291487486979e-01) (6, 5.67185726638411602529e-01) (7, 5.59583350103399546072e-01) (8, 5.51102195450363985252e-01) (9, 8.94710086967872908481e-01) (10, 4.31767591246341730926e-01) (11, 6.57136534021442231257e-01) (12, 2.60992201797949963105e-01) (13, 5.51417864114496850125e-02) (14, 5.31203838610220802074e-01) (15, 1.57005450904900882847e+01) (16, 3.04522242219127647900e+00) (17, 1.02300089294632257086e+00) (18, -3.68667394317448682273e+00) (19, -7.36984472425496108666e-03) (20, 3.45313317846201617289e-01) (21, 7.63812334688691807472e-01) (22, 4.10678246362735144270e-01) (23, 5.78726462324002044468e-01) (24, -9.16277242809452219241e-01) (0, 3.91261336141907056785e-01) (1, 4.09485174067068025128e-01) (2, 3.27385241927644121684e-01) (3, 3.94848776840724446924e-01) (4, 3.72618713368525478202e-01) (5, 3.68529202934424593430e-01) (6, 4.68013291244371687494e-01) (7, 4.40962164779347576271e-01) (8, 3.59114999573582449610e-01) (9, 4.87754942724506590501e-01) (10, 2.53828528293147503980e-01) (11, 2.35376301909697077663e-01) (12, 4.69239897088868374020e-01) (13, 5.21171971436471204164e-01) (14, 3.96491659390891371118e-01) (15, 3.88344423820348061405e-01) (16, 5.36322714360581875859e-01) (17, 5.28350041526940872316e-01) (18, 4.28410475421575065447e-01) (19, 4.50140360948925177809e-01) (20, 4.50197489827512842275e-01) (21, 4.71421381412847173564e-01) (22, 3.47733002668833612869e-01) (23, 4.51948224070254367390e-01) (24, 8.04514349658777772056e-01) (0, 7.84713180762176665262e-01) (1, -9.38633676206380607177e-01) (2, 6.23495959858875251069e-02) (3, -1.77991264146059862128e+01) (4, 9.56668863509359965747e+01) (5, 1.66723012580152513129e-01) (6, -1.95597148379729329770e-01) (7, -4.76625525823149320814e-01) (8, -1.09008172074023565457e-01) (9, 4.62765432892140338161e-01) (10, 7.68095023658331257366e+01) (11, 1.27398074452534787460e-01) (12, -2.10326345049889451566e-01) (13, -2.92968369233602074497e-02) (14, 2.46057761815420578122e-01) (15, 2.45020608771642833812e-01) (16, 8.32160194154612398165e-01) (17, 3.18409309567018850018e-01) (18, -2.43606061612470607691e-02) (19, -7.91047897092978791189e-02) (20, -1.67901716095643666060e-01) (21, 8.98075090548583060412e-02) (22, 2.61944298521579943539e+00) (23, 3.00982045918899876469e-01) (24, 5.30117025521581186620e-02) (0, 7.44283284737770473027e-02) (1, 1.93572204305836464977e-02) (2, -3.50444833126739851981e-02) (3, 7.97078371037778926622e-02) (4, 1.41421738302847776331e-02) (5, -3.15866038962891587660e-02) (6, -4.78637922090356313087e-02) (7, 1.09372138745125486309e-02) (8, -7.56518761242043202842e-02) (9, 9.49375830586356994623e-02) (10, 4.06588442853004980448e-02) (11, -2.31894742050459748417e-02) (12, 1.29923747531122887877e-02) (13, -1.81807905186478248327e-02) (14, -3.93274177091166229903e-02) (15, -2.03499000724874680446e-02) (16, -2.16495317210281083831e-02) (17, -1.60695498003304284781e-03) (18, 4.67231233856163410273e-03) (19, 6.73883823545911586628e-02) (20, -7.22748381113913346274e-02) (21, -3.25807571169456702820e-02) (22, -5.07844768686761052767e-02) (23, 2.77409366824451150690e-02) (24, -5.22351381391295277457e-02) (0, -2.29220912855757248672e-02) (1, -4.81468942956011641821e-02) (2, -5.73297977769224101352e-02) (3, -3.39056074403517870852e-02) (4, -4.05574483131471055231e+01) (5, -4.50687992105433810064e-02) (6, -3.57114830633579183328e-02) (7, 9.04499943539863182629e-02) (8, 3.96533288219806726027e-02) (9, -8.85855995695059572625e-02) (10, -3.92249886549942772263e+01) (11, -1.54395295344701866114e-01) (12, 2.61556392838217625918e-02) (13, 2.59306718349711778915e-02) (14, 4.71040411567316061325e-02) (15, 3.35555958379688962223e-02) (16, -3.19442803559561380733e-02) (17, -8.86373516817006851243e-02) (18, -3.07088332400801619637e-02) (19, -3.07783545378616171795e-02) (20, -5.77970270023707502483e-02) (21, 4.01678207055565852923e-03) (22, 3.43528680494062169104e-02) (23, -4.16128867477949249132e-02) (24, -8.58461663686200110446e-02) (0, 5.40989288211306273979e+00) (1, -2.24193764048408600287e-01) (2, -6.61728971997408876859e-01) (3, -2.05512330365238739205e+02) (4, 8.20003045749608759252e+02) (5, 5.32842492351267793538e-01) (6, 9.61057823207677047739e-02) (7, -2.69995276507200365756e+00) (8, 6.90557512969271258818e-01) (9, -5.84037622522456786101e+02) (10, 1.11841601366609165780e+03) (11, -2.09960851401792658599e-01) (12, 1.69710731540055448363e-01) (13, 2.01519367746960109677e-01) (14, -6.00409737435955603857e-01) (15, -8.01875798299154070037e+01) (16, -5.05476576717928338667e+01) (17, 1.31787852006668670946e+00) (18, 2.06095241375129312189e+00) (19, 9.49326362409269819409e-01) (20, 3.39124584103772719335e-01) (21, -5.99876776805290433003e+02) (22, -4.39107608445806533837e+02) (23, 3.52255277994328208635e+00) (24, -1.88998480434953097795e-01) (0, 8.37100347201144012743e-02) (1, 1.02329842112596658410e-01) (2, 2.99650173336710234917e-01) (3, 2.73931397271741761124e-01) (4, 5.44442611063649217762e-01) (5, 3.50487188259719362193e-01) (6, 4.17881336113752444028e-01) (7, 3.91664448295522493737e-01) (8, 4.27299741517250253331e-01) (9, 4.50963228094007684277e-01) (10, 3.96274789339909672137e-01) (11, 4.31891586888082212869e-01) (12, 3.39389478709616054797e-01) (13, 3.72097281660951961779e-01) (14, 2.36548228199261773019e-01) (15, 4.07365084243724195900e-01) (16, 3.98372069712557008714e-01) (17, 3.66709846056322452679e-01) (18, 2.83846930257779739293e-01) (19, 2.47137942528515397456e-01) (20, 2.85503950010849161245e-01) (21, 4.03110915250694978873e-01) (22, 2.50885094215248183325e-01) (23, 4.38880163165960235361e-01) (24, -3.27520046870202863332e+00) (0, -3.30919788864163580411e-02) (1, -1.02802584560070894848e-01) (2, -7.19528240557256865140e-02) (3, -3.59430765867858187379e-02) (4, 1.12353392048702108164e-01) (5, -1.53771914862971592619e-01) (6, -1.13820730973738740849e-02) (7, -1.09866673130238123868e-01) (8, -8.92256659702897192421e-02) (9, 1.04411055018237691749e-01) (10, -5.47358617045798703793e-02) (11, -2.13561874200790813294e-02) (12, 6.73081855147817376128e-02) (13, 9.55845287355876621627e-02) (14, -4.94448179093985654142e-02) (15, 4.09120549202566727298e-02) (16, 1.20290203604206027282e-02) (17, -6.21255012020923425009e-02) (18, -1.42088432297589301045e-01) (19, -1.45256650135398679424e-01) (20, -2.27409548334634517563e-02) (21, 9.13562647488779383531e-02) (22, -1.01225028942603552384e-02) (23, -5.31140776158116334482e-02) (24, -1.07236771634410449350e-01) (0, 7.26374892492192447691e-01) (1, 4.88361123782915851343e-01) (2, 3.35877856820621267797e-01) (3, 2.05081086587456495884e-01) (4, 4.87796302278307836175e-01) (5, 4.02684475475103886843e-01) (6, 2.81839716453837207943e-01) (7, 2.24328015441641603900e-01) (8, 5.03727114166860223676e-01) (9, 4.04694806930830763836e-01) (10, 2.86007063239712755465e-01) (11, 4.52486437849807410227e-01) (12, 2.06171225380120670678e-01) (13, 3.84509976894591154473e-01) (14, 3.66639586382661419872e-01) (15, 3.45691127298590084038e-01) (16, 3.82556609031353744843e-01) (17, 4.61512911144402904196e-01) (18, 3.19662126218122455423e-01) (19, 2.30370559810910591203e-01) (20, 2.92764352827378560029e-01) (21, 3.59017922159012403682e-01) (22, 2.57053807292156044628e-01) (23, 2.79506355023868113818e-01) (24, 2.54610103397052478513e+00) (0, -5.04378048954148561211e-02) (1, 8.32976654425730766995e-01) (2, -5.80916265818376062469e-02) (3, -1.62023945941965408224e+00) (4, -2.38162670197636288094e+01) (5, 2.22276489872791117863e-02) (6, 2.25929462028637978444e-02) (7, 5.39505558766167014895e-01) (8, 9.61422525487349107940e-05) (9, -1.01786710143042729015e+01) (10, -3.54035474726213266194e+01) (11, 2.65186227012340000608e-02) (12, 1.70567693881561427416e-01) (13, -1.18264942061191719730e-02) (14, 7.88475959175629209641e-02) (15, 1.13999355302225151287e-02) (16, 2.76757928576237544060e-02) (17, 6.24020034332199768912e-01) (18, -5.42834534723370034509e-03) (19, 8.74849028177743792689e-02) (20, 1.37972201660100796117e-01) (21, -5.01135312122631335074e-03) (22, -1.48657187504382393151e+00) (23, 1.18027608486005339272e-01) (24, -2.99182677121474574489e-02) (0, -1.60756568965075352651e+01) (1, 6.60180420869995110422e+00) (2, 3.77340316517658924678e-01) (3, -1.93920337450003343882e+00) (4, 1.51764921452158105808e+01) (5, 1.73098637523502435487e-01) (6, -8.22952891245295886646e-02) (7, 5.40000835601162076927e-01) (8, 5.10597996397883432951e-02) (9, -1.98215844803491165749e+01) (10, -3.49318327107102675200e+01) (11, -2.70329397914071234421e-01) (12, -2.68649246571172894971e-01) (13, 8.43070765375469599601e-02) (14, -1.44769789525408171249e-01) (15, 3.85750763516748591542e+01) (16, 1.18569843114435613529e+02) (17, 4.32204858088398591320e+00) (18, -1.84810525394696889556e-01) (19, 2.38632794274615450680e-01) (20, -4.99115037727559662795e-02) (21, 2.25267809719390243117e+02) (22, -1.49848728328368480334e+02) (23, 5.41710557855196506161e-01) (24, -3.51809857536134640288e-01) (0, 3.56338270700308323846e-01) (1, 5.57006563994759007485e-01) (2, 4.00697362614128804736e-01) (3, 5.44487502588339555842e-01) (4, 4.87150970178057696192e-01) (5, 4.02866773950858347852e-01) (6, 5.30124066309228814120e-01) (7, 3.76942005300619609187e-01) (8, 4.06521240809535611138e-01) (9, 1.81845869896848100211e+01) (10, 4.46326921891597505621e-01) (11, 5.09718614273280357096e-01) (12, 4.11671326245200863703e-01) (13, 5.16690035407057157713e-01) (14, 4.65990211102554729994e-01) (15, 2.44919745693079590865e+02) (16, 5.93518618643901652021e-01) (17, 5.84401700928127376677e-01) (18, 3.85398550907647963193e-01) (19, 3.75058128716600269748e-01) (20, 4.34784998062873018210e-01) (21, 1.04582039486596485744e+02) (22, 5.22248039165684296847e-01) (23, 5.61089293947398481954e-01) (24, 2.18107465106671838395e-01) (0, -6.37043505187802061585e-01) (1, -6.30014271754648524926e-01) (2, -2.79566607261288124775e-01) (3, 2.68651387948009079398e-01) (4, -2.33201702269160421110e+02) (5, -8.17662508617336553085e-02) (6, -2.51360361162449030825e-01) (7, -2.09389712157435015083e-01) (8, -2.51874126205405779455e-01) (9, 3.51706030601736641117e+00) (10, -5.09739053015311469608e+01) (11, -3.26474146033181256144e-01) (12, -7.89935692854906612581e-01) (13, -8.84193265366189473653e-01) (14, -1.47251378904868307496e-01) (15, 1.58513186647513959482e-01) (16, -1.10747125175550187315e-01) (17, -2.66975359813352242089e-01) (18, -8.13897796863666700418e-01) (19, -8.32655362113611352548e-01) (20, -1.19077303924014638037e-01) (21, 1.00806993042752267797e+02) (22, -4.72787104259741131074e-01) (23, -3.18197050465486575010e-01) (24, -6.52625380325052462105e-01) (0, 1.59159054830503438049e-01) (1, 2.04373714282437279888e-01) (2, 1.93864492483151268365e-01) (3, 3.56312982640326014749e-01) (4, 3.13792232654682312631e-01) (5, 2.62986710939853318703e-01) (6, 3.53123536252056835494e-01) (7, 3.05499127565701023013e-01) (8, 2.75399848427599125422e-01) (9, 3.69180646603911644110e-01) (10, 3.56210193925680318472e-01) (11, 4.10849885171116757654e-01) (12, 2.69183766210789154893e-01) (13, 2.43813575547162542101e-01) (14, 3.22117118305107863474e-01) (15, 2.78501020711790059359e-01) (16, 3.39027083989714095313e-01) (17, 3.00389792158451796045e-01) (18, 1.94625101190455396249e-01) (19, 1.72640835990135993461e-01) (20, 4.29094114003627513654e-01) (21, 2.44353725566060442365e-01) (22, 2.26611281055567603815e-01) (23, 2.17994644694687211839e-01) (24, 1.10846716978493220473e+00) (25, -4.34514654901725527747e-01) (26, 5.23087038334004161833e-01) (27, 2.48724375806760100716e-01) (28, -3.21241625408652420326e-01) (29, 5.35756350097236766494e-01) (30, -1.42212651289863045712e-01) (31, 3.19757235876220013981e-01) (32, -1.00146283169335631458e-01) (33, 4.97800797397116190357e-01) (34, 5.03065676648642434721e-01) (35, -9.21275379618845396967e-02) (36, -1.89652670918126736721e-01) (37, 3.74578821077587886812e-01) (38, -2.48340636659664215635e-01) (39, -6.78315865827052444370e-02) (40, 6.13935505730890326848e-02) (41, 5.71236038080925379035e-01) (42, 4.81600293178617022694e-01) (43, 1.84590117582849655431e-01) (44, -4.11782048810511946968e-01) (45, -3.79399415077001256336e-01) (46, 5.91795044439240802703e-01) (47, 5.19852822933765779112e-01) (48, -3.13937373430759114612e-01) (49, -4.32915879711371853755e-01) (50, 5.41273012528075025962e-01) (51, 4.91958075171034736606e-01) (52, 5.03725909595992171752e-01) (53, 6.11595993472698773452e-01) (54, -3.21957819958907209834e-01) (55, 5.29711861439279840802e-02) (56, -6.17110020736353279136e-02) (57, -2.11312187153585052946e-02) (58, -3.06526708322329144440e-01) (59, 6.04403072600876306586e-02) (60, -1.41418225881367598529e-01) (61, 5.40561886757178977625e-01) (62, -3.87785611759109208330e-02) (63, -1.00867670545031026808e-01) (64, 4.70003188555790818448e-01) (65, 5.41145323735568672952e-01) (66, 3.24161869013891823510e-01) (67, 5.52190252832856054432e-01) (68, 4.86618504260319828525e-01) (69, 5.49845537606695855537e-01) (70, -9.75492468837270282345e-02) (71, -1.02970261854382544309e-01) (72, 4.92873972705689333829e-01) (73, 4.44276195559237196964e-01) (74, 8.00672984921216079890e-01) (75, 5.32465289239938410759e-01) (76, -1.39695230170458234431e-01) (77, 4.58860206916320012560e-01) (78, -3.27904118522864773677e-01) (79, 4.93503858563701380824e-01) (80, -4.31693761603289760664e-01) (81, -2.71821564430651321786e-02) (82, -1.19480304526412908772e-01) (83, -4.72626436246019552417e-03) (84, 3.19295130010719296898e-01) (85, 4.14747307685231436647e-01) (86, 5.12659678605393520634e-01) (87, 4.82179895942747349658e-01) (88, 5.73284298779817680369e-01) (89, -2.84583980882674225654e-01) (90, 5.13655809520648154454e-01) (91, -2.52252197623310470131e-01) (92, 4.89194453661964678837e-01) (93, 3.26074293737735831922e-01) (94, 3.65776010744828128374e-01) (95, 3.92871626678805374588e-01) (96, 7.20711181305364184668e-02) (97, -8.56980098085838026822e-02) (98, 5.06784368112083716262e-01) (99, 5.46237701682692589067e-01) (100, 1.05473236424868110905e-01) (101, -2.06273682036384298222e-01) (102, -1.54344584915559385196e-01) (103, -7.16067787996177568255e-02) (104, 6.07634036298411103760e-03) (105, 5.19384155335328556724e-01) (25, -2.14268465006970804110e-01) (26, 4.18360931305185868023e-01) (27, 1.32457396179842756823e-01) (28, -3.99973420105496912935e-02) (29, 4.46288297476002016051e-01) (30, 1.23549343306280832132e-03) (31, -1.06393031827432427150e-01) (32, -1.61229169523404922137e-02) (33, 4.45271713950093794843e-01) (34, 3.96400078868942407073e-01) (35, -1.02912441072927102192e-01) (36, -1.48120409343109632472e-01) (37, 4.17641807312609192326e-01) (38, -3.81861955165994748640e-01) (39, 3.72322486357386586708e-02) (40, 1.62950556043934519090e-01) (41, 3.68571397315858417798e-01) (42, 3.82445789611416009368e-01) (43, -1.40199940075915269189e-01) (44, -3.68544977396858319807e-01) (45, -3.07762019574773892927e-01) (46, 3.44854389621677304145e-01) (47, 1.57333205087143157552e-01) (48, -3.54503108730400307014e-01) (49, -2.26398994172239381717e-01) (50, 5.17230800928322520527e-01) (51, 4.23664495349483638531e-01) (52, 3.50661270320968776470e-01) (53, 5.08073285254168172109e-01) (54, -3.41377802431715116072e-01) (55, -6.80872332986462956705e-04) (56, 2.11496776349151927032e-01) (57, -8.79094064764464194761e-02) (58, -6.80328815045045665055e-02) (59, -1.52674596439774240553e-01) (60, 1.99508002318997262892e-01) (61, 4.57853377552012663632e-01) (62, 3.87236971750258396341e-01) (63, 9.67688293781200116472e-03) (64, 4.58749115467624812847e-01) (65, 3.68995893740437119757e-01) (66, 1.75559714712077319376e-01) (67, 5.80069291239752593548e-01) (68, 3.64114690830400544730e-01) (69, 3.22140131890752912103e-01) (70, 1.80069336585602118861e-01) (71, -3.12912894686062023619e-02) (72, 3.25230369212179404315e-01) (73, 4.64406313717989627232e-01) (74, 6.38538580705308667085e-01) (75, -2.07668126295547511573e-01) (76, 1.76789345624604986307e-02) (77, 4.29043166402546638505e-01) (78, -3.09322540605677431813e-01) (79, -3.54745527675230237774e-02) (80, -2.79347945893420046559e-01) (81, -2.06068852905495425443e-01) (82, 6.78803584683493194118e-02) (83, 2.55011969333661769888e-01) (84, 2.68639441425521485751e-01) (85, 4.01744843042586730064e-01) (86, 4.77559558864573574510e-01) (87, 4.75251264607982781829e-01) (88, 5.37496003652524367844e-01) (89, -2.99772270262373075056e-01) (90, -8.15820388898062243133e-02) (91, -1.05089361698040881232e-01) (92, 4.71497489270000680328e-01) (93, 2.26016919652843456534e-01) (94, 3.78750851562899948366e-01) (95, 5.96765961761502039540e-02) (96, 9.72349327513768596498e-02) (97, 4.83702606850603011868e-01) (98, 5.06465207295182850977e-01) (99, 4.84777174378185515824e-01) (100, -1.37122097314040625182e-01) (101, -7.30528412377217523099e-02) (102, -2.85047778765997149308e-02) (103, 4.38330806887079815759e-01) (104, -2.14149383643849111625e-01) (105, 3.47103411020405594467e-01) (25, -2.92889356286932467377e-01) (26, 3.61829419194104162649e-01) (27, 6.53672604541137153289e-02) (28, -1.36200549536364817760e-01) (29, 3.70678489909091690713e-01) (30, -5.07278774506012691825e-02) (31, 5.13292218421252943727e-01) (32, -3.41715069776856616990e-01) (33, 4.52789426564658481489e-01) (34, 3.20436751829978383466e-01) (35, -1.36302582604307331859e-01) (36, -4.60081869704663873333e-02) (37, 3.97907940997426157193e-01) (38, -2.42278717033042018114e-01) (39, 2.26252586391046325853e-02) (40, -3.59496441359874352450e-01) (41, 4.12975364459529536987e-01) (42, 4.51680114852782643720e-01) (43, 3.66467322189849065150e-01) (44, -3.69004142501284437827e-01) (45, -2.65942630742195040838e-01) (46, 4.58943015942623155912e-01) (47, 2.13380454933601998446e-01) (48, -3.11894289920450706877e-01) (49, -3.43611878373553114585e-01) (50, 4.27100298859076021873e-01) (51, 3.11725171642896092816e-01) (52, 4.63823160516616261884e-01) (53, 3.55167429464721240429e-01) (54, -3.43634075991274656747e-01) (55, -1.94186439233247770675e-01) (56, -1.55092058306292646108e+00) (57, -7.30503842317855311972e-02) (58, -7.00107795862028453593e-02) (59, -2.39798098168127138408e-01) (60, -4.12381375281887299633e-02) (61, 5.52525267562339550409e-01) (62, 3.60317569804282700208e-01) (63, 1.03244270033752416627e-01) (64, 3.73699648665782369061e-01) (65, 4.42655015756485081813e-01) (66, 3.41025110497431838130e-01) (67, 5.40767166292855372411e-01) (68, 5.13967743434333490526e-01) (69, 3.97788285175513733893e-01) (70, 1.77094946362650884630e-01) (71, -9.66256519040287753519e-02) (72, 4.27990144478675282880e-01) (73, 5.63839808548889043216e-01) (74, 5.35938219729096165800e-01) (75, 7.36310212964571109140e-01) (76, -4.38076556003022185570e-02) (77, 3.13292530576704808531e-01) (78, -3.73843667128016310386e-01) (79, 9.53532426026489465798e-01) (80, -3.12483712605597319101e-01) (81, -1.79052374622575782848e-01) (82, -9.05477899367512911732e-02) (83, -1.94201114308540645492e-01) (84, 5.68636203487939195789e-01) (85, 5.08067099377421449447e-01) (86, 4.25439332179996076988e-01) (87, 4.22983605904647341767e-01) (88, 4.05016571791126378521e-01) (89, -3.88867296206785950652e-01) (90, 9.34588215962874335752e-02) (91, 6.47022699023099348570e-03) (92, 2.87191860869189741212e-01) (93, 3.14695860328319365617e-01) (94, 3.88271161124594699210e-01) (95, -3.12038545508795776839e-02) (96, 7.41846977943789592791e-02) (97, 5.07844149366797670275e-01) (98, 4.87210463293902107385e-01) (99, 3.54406526596736437540e-01) (100, -9.00860550622693823097e-02) (101, 7.83546999834433682830e-02) (102, -1.78509853052553034425e-02) (103, 1.47374471902308595839e-02) (104, -1.39613819726032678536e-01) (105, 3.92215102721404584862e-01) (25, -2.90459106732802618822e-01) (26, 3.08592017508533600356e-01) (27, 3.24430131003231592146e-01) (28, -3.77143071677431551691e-02) (29, 3.88113290495949503356e-01) (30, -9.83103516495980461753e-02) (31, 5.49146427554251581604e-01) (32, -6.10573045178902608018e-04) (33, 4.35353593655148141117e-01) (34, 4.36950206998956813820e-01) (35, -4.03714494665862178024e-02) (36, -4.40005849099871851338e-02) (37, 3.93131910239021220566e-01) (38, -2.34651060982576681324e-01) (39, 3.94449070784799737943e-02) (40, -1.11456402775241214531e-01) (41, 4.40599757483643938993e-01) (42, 4.44749504570139064796e-01) (43, -3.09657185550493742332e-02) (44, -2.70302297755103171362e-01) (45, -2.87445942147593613836e-01) (46, 4.07143675111664604671e-01) (47, 2.86367514591141236746e-01) (48, -3.60450482463603283367e-01) (49, -2.50810319765439548867e-01) (50, 2.86903559061996549229e-01) (51, 4.26231488827837123878e-01) (52, 3.69076617304456844337e-01) (53, 4.44719945244042291765e-01) (54, -3.22450753639035414544e-01) (55, -2.27063900987600902903e-01) (56, 5.92671208372977709189e-01) (57, -1.29275545961229199055e-01) (58, 4.38497455188685131278e-02) (59, -1.57266437272524400859e-01) (60, 1.58995624619450742765e-01) (61, 2.97045182446949107558e-01) (62, -8.52556752140467694057e-02) (63, 8.91680219706306037564e-02) (64, 4.55426261071336879738e-01) (65, 3.88242885253375857868e-01) (66, 5.10216562878801349612e-02) (67, 3.60466171765129406168e-01) (68, 3.85050603172974126309e-01) (69, 4.66137642151678133207e-01) (70, -1.71988713726361291956e-01) (71, 3.08764468429814989414e-02) (72, 3.28282557670248165138e-01) (73, 5.14878914546721744294e-01) (74, 6.83336670091108766556e-01) (75, 7.99865422217638788460e-01) (76, -5.29947742131014684630e-02) (77, 4.01627184421861793684e-01) (78, -3.45155844672541733953e-01) (79, 5.99929073506215923550e-02) (80, -3.40542468298869360765e-01) (81, -2.04810274160074745620e-01) (82, -6.49706686677123806950e-02) (83, -4.28366215874042208234e-02) (84, 3.22305743685911416652e-01) (85, 3.09837131138526955532e-01) (86, 4.04567213764036370804e-01) (87, 3.45026292149198665626e-01) (88, 4.14459569988800569096e-01) (89, -3.03570248524241637078e-01) (90, 2.07939245519699861253e-01) (91, -7.07440569320845896728e-02) (92, 3.68124984447134151466e-01) (93, 2.55007087064306525725e-01) (94, 3.00703780990745739299e-01) (95, -6.75261019097543879752e-02) (96, 7.79137348875960922268e-02) (97, 3.65155537311645239651e-01) (98, 3.95608246374668348633e-01) (99, 4.54909816870434691172e-01) (100, -1.37924590913988398544e-01) (101, -1.15870269110698656534e-01) (102, -6.41930715998403900180e-02) (103, 4.50343695195050575109e-01) (104, -1.43983213658404107793e-01) (105, 5.18951841184838169596e-01) (25, -3.65381237709378359213e-01) (26, 4.60658765711331241732e-01) (27, -7.90370787658197931913e-02) (28, -1.03559016767244424506e-01) (29, 5.35050887644329953297e-01) (30, -4.46162627306016038031e-02) (31, 3.40768331944591107430e-01) (32, 3.76642238779613600097e-02) (33, 3.84239630441747082035e-01) (34, 4.46525491792495399235e-01) (35, 3.44954880022971185904e-02) (36, -3.75655633097275246102e-02) (37, 3.88845665346895907888e-01) (38, -2.71539379490613019819e-01) (39, 5.90006872240983054612e-02) (40, 3.97370432986584753987e-01) (41, 5.68557527649749538945e-01) (42, 3.57067175227935462711e-01) (43, 1.93512856377866873658e-02) (44, -3.60251445913170931235e-01) (45, -2.69325981371258738051e-01) (46, 4.54660901212622814427e-01) (47, 2.89584537119154439289e-01) (48, -3.53439143387459797641e-01) (49, -3.57137535346745527143e-01) (50, 4.61892614595974637659e-01) (51, 4.55038897465711356105e-01) (52, 4.23198047635953311651e-01) (53, 5.13688536700789732947e-01) (54, -3.53897357982205396087e-01) (55, -1.26903550027862466187e-01) (56, 6.10174515375045523058e-01) (57, -1.16642242302868862081e-01) (58, 1.83635401265781234015e-01) (59, -1.73744575824466618297e-01) (60, 2.84491636246764323381e-01) (61, 3.74532752384237221932e-01) (62, -5.93366858043221437335e-02) (63, 2.27875665141775013423e-02) (64, 3.99155258904939413966e-01) (65, 4.29223801560361828411e-01) (66, 1.20925019392972982191e-02) (67, 3.53021466566370623053e-01) (68, 3.51000820016583947591e-01) (69, 4.45554193635003703555e-01) (70, -5.54819643373743315307e-02) (71, 3.46626255943118521952e-02) (72, 4.56793930237979206588e-01) (73, 4.16516248397675981074e-01) (74, 5.99259879347306512187e-01) (75, -6.34816530914387389117e-01) (76, 4.72575060074757746786e-02) (77, 3.24137256901379011698e-01) (78, -3.19151666425322555476e-01) (79, -5.09857161568325167877e-01) (80, -3.03884252098418294885e-01) (81, -5.89619801280905284080e-02) (82, -3.03353068790843186098e-02) (83, 8.81429917402786616831e-02) (84, 2.87378559876295125441e-01) (85, 4.88468740565288273014e-01) (86, 3.28643041933030621848e-01) (87, 4.72711376618390799464e-01) (88, 4.91767736099695984553e-01) (89, -1.79077035265502726435e-01) (90, 4.45791604039666389259e-01) (91, -1.55088181203806685371e-01) (92, 3.81850541891782135906e-01) (93, 1.96754506101573453658e-02) (94, 4.43373759982005344327e-01) (95, 8.43812376619314380433e-02) (96, 1.47147730899234552293e-01) (97, 4.25577869901578587086e-01) (98, 5.01364624508755296617e-01) (99, 5.00116086421315331201e-01) (100, 3.37249039968949115842e-01) (101, 5.00050653086431401428e-02) (102, 4.00032379736848450746e-02) (103, 4.51601433447459010839e-01) (104, -1.64246016359058416567e-01) (105, 4.03898031954198100113e-01) (25, -3.07369369297724459589e-01) (26, 3.22358770115597881301e-01) (27, 1.29681910369870034838e-01) (28, 7.30338463856993608259e-02) (29, 3.30757536859817569130e-01) (30, 9.61633676036648815666e-03) (31, 5.62235085009224699881e-01) (32, 9.15480591603854421123e-02) (33, 4.97107796539368762545e-01) (34, 3.64281090710880106620e-01) (35, -4.08131025404556077585e-02) (36, 6.46755618888549960177e-02) (37, 3.54967851722554628147e-01) (38, -3.70324768985681895828e-01) (39, 1.12975325574283663732e-02) (40, 2.02432763795446973853e-01) (41, 4.35875242428812426088e-01) (42, 3.19612282219459309385e-01) (43, -8.92053058003421522892e-02) (44, -2.37474011035863935559e-01) (45, -2.07454995180551493572e-01) (46, 3.73455417750330809223e-01) (47, 2.83158049361668273658e-01) (48, -2.40746317464773179617e-01) (49, -3.77688088382654552078e-01) (50, 3.94178024586907149729e-01) (51, 4.12827783285381166856e-01) (52, 4.78789184758903307859e-01) (53, 4.93918026835262480301e-01) (54, -2.28540380740301446449e-01) (55, -1.65760551232226882590e-01) (56, 1.35058094617777291191e-01) (57, 2.50364929251480572425e-01) (58, 7.33521750826300888981e-02) (59, -4.45609673386202428946e-02) (60, 9.23612006504022087228e-02) (61, 4.66993825396761874647e-01) (62, 2.63719917295587927275e-02) (63, 9.25713440462659076235e-02) (64, 3.53150867878200380723e-01) (65, 5.58234697137508617537e-01) (66, -4.36607548789903210373e-02) (67, 3.50868951174362120327e-01) (68, 3.24580180606251156306e-01) (69, 3.56659217279858054006e-01) (70, 2.96447193841836098560e-01) (71, -1.26265835793174741042e-01) (72, 4.09160316156055359205e-01) (73, 3.63725688504346167385e-01) (74, -1.28513304690646961576e-02) (75, 1.00729722438446067656e+00) (76, 8.53285523069751833392e-02) (77, 4.52620550018122236313e-01) (78, -1.97080420108739856611e-01) (79, -1.58115660286441084281e-01) (80, -2.10204318673459955580e-01) (81, -1.74295800042688381337e-01) (82, -8.87570241271214421808e-02) (83, 3.33719205832773146980e-02) (84, -4.15335249794355376718e-01) (85, 3.60335037611060005069e-01) (86, 3.33107642137624337941e-01) (87, 3.41538323911954655454e-01) (88, 3.62691239710371871041e-01) (89, -3.72269929315023784255e-01) (90, -2.35380254896256274622e-01) (91, 1.05270985893430216174e-01) (92, 4.54680506656410021726e-01) (93, 1.92434515118476368034e-01) (94, 4.28215878007068229127e-01) (95, -5.26153694296613155812e-02) (96, 1.09320842973973063328e-02) (97, 5.27427031663142309448e-01) (98, 3.72238643934840185423e-01) (99, 3.90735253702689688815e-01) (100, -5.12714613705396379806e-02) (101, -1.66285840764904546685e-01) (102, -3.25045875877970694146e-02) (103, 5.39386973688222859380e-01) (104, -1.80703705502092332180e-01) (105, 3.88237947592733667612e-01) (25, -3.97442812902173703282e-01) (26, 3.12163778646790068816e-01) (27, 2.23344449650431875476e-01) (28, -5.70423457020858698518e-02) (29, 4.48973894585831423409e-01) (30, -1.42066508611764757974e-01) (31, 3.97007309647606054792e-01) (32, -9.15225286087799350110e-03) (33, 4.44261443419755708284e-01) (34, 5.08837467014090605311e-01) (35, -4.24049948025586875833e-02) (36, -1.14422807500543885495e-01) (37, 4.11383571578389395373e-01) (38, -3.11145788583097215874e-01) (39, -1.16895453175408836621e-01) (40, 1.14420592473242699327e+00) (41, 3.61519682591293911589e-01) (42, 6.20020410000576394083e-01) (43, 4.09053540512797797479e-01) (44, -3.97447506667718775120e-01) (45, -4.00029124608335340252e-01) (46, 4.49163519649358689012e-01) (47, 8.37892281519382331467e-01) (48, -3.54661236387929623692e-01) (49, -3.35172918167219002772e-01) (50, 3.01449655854090392548e-01) (51, 5.25566833729995575020e-01) (52, 4.29803008849903134259e-01) (53, 6.41432525927997376769e-01) (54, -2.72470123329362712283e-01) (55, -2.14146860648305008279e-02) (56, 4.46691667032426020789e-01) (57, -2.92635748875360070242e-02) (58, 8.37191916591246837465e-02) (59, -6.21299203299224903074e-02) (60, 8.43312518105153313686e-02) (61, 3.88066474208001499502e-01) (62, 3.35272988492236953539e-02) (63, -3.83734839977172115244e-01) (64, 4.89303549356838174411e-01) (65, 2.82322163317426100271e-01) (66, -1.07972696096540685118e-01) (67, 3.55505233154755517777e-01) (68, 4.22343266568770969727e-01) (69, 5.52314684773499653403e-01) (70, 7.48787762884820795595e-02) (71, 1.87033403604986163578e-03) (72, 6.10725762967934349135e-01) (73, 3.76527985450379021337e-01) (74, -3.45462889518782845233e-01) (75, 4.02864221033614189338e-01) (76, -7.29871627154821990546e-03) (77, 4.77149395461510028582e-01) (78, -4.13447203030881726971e-01) (79, -3.28152472036722653304e-01) (80, -3.13164402798280561147e-01) (81, -4.73627692510301054329e-02) (82, 2.65446681637511616714e-01) (83, -7.22885015135657851837e-03) (84, 7.16214894207382157809e-01) (85, 3.40698473014029779016e-01) (86, 6.28632257598659371922e-01) (87, 4.75729567535301156589e-01) (88, 3.69593582615123816826e-01) (89, -3.48074668845376744564e-01) (90, 2.37015096215786730260e-01) (91, -2.95637262248544842314e-02) (92, 5.90308388300289532680e-01) (93, -1.01008801992944552417e+00) (94, 3.91916802008763998089e-01) (95, 2.79274944926610757534e-01) (96, -5.77688637449304875915e-01) (97, 5.95333421075375790466e-02) (98, 3.89972681717762448272e-01) (99, 4.26691106866056782398e-02) (100, 5.23750025939792140939e-01) (101, 3.20415826398464997915e-01) (102, -2.54356641937151899124e-02) (103, 4.86239118160514904865e-01) (104, 7.43399891288607783668e-02) (105, 5.63960029537935114696e-01) (25, -1.51879231000684122854e-01) (26, 4.07491173256169736394e-01) (27, 4.32323255101063785855e-01) (28, -1.33681231619628582141e-01) (29, 4.51346486469035912403e-01) (30, -5.01429774962782112691e-02) (31, -2.69880766322479370700e-01) (32, 1.29560131819046353563e-01) (33, 2.70088577155101872140e-01) (34, 4.00876382995866920034e-01) (35, 8.91026116901508756507e-03) (36, 1.05552868833641733115e-01) (37, 4.12538953512031791870e-01) (38, -3.39622423082981517162e-01) (39, -2.12957855336562210113e-02) (40, -2.54717084164622409315e-01) (41, 3.70590330113469923479e-01) (42, 3.52459133866285412306e-01) (43, 3.42983328361762054848e-02) (44, -3.25270476795350260701e-01) (45, -2.64823126650963969198e-01) (46, 3.60184213838876665648e-01) (47, 3.74011830781990239903e-01) (48, -3.40953018416176922845e-01) (49, -2.36114308268235040256e-01) (50, 3.87994354014289666299e-01) (51, 3.68977072724078924981e-01) (52, 3.64651168793700630744e-01) (53, 4.58577237441520291217e-01) (54, -3.28877999318276548202e-01) (55, -2.09641159216312662761e-02) (56, 1.79680951946122186014e-01) (57, 1.81978267207131866323e-01) (58, -9.19976894748620807607e-03) (59, -9.63164960365700678624e-02) (60, -3.70322148405127615778e-01) (61, 3.34213820248093873566e-01) (62, 1.17693219500326712312e-01) (63, -4.31858147452745255723e-02) (64, 3.58600648231291008194e-01) (65, 3.38693018432275394503e-01) (66, -1.30577812806867799011e+00) (67, 3.14720113199261464221e-01) (68, 4.34183194902928948355e-01) (69, 3.95930787014863339035e-01) (70, 2.28999705076638540580e-02) (71, -9.63992451265732186449e-02) (72, 4.62614903337740135392e-01) (73, 4.64432949277428119839e-01) (74, 3.35633770582039525632e-01) (75, -1.38677785047496460180e+00) (76, -6.61195107355503214341e-02) (77, 3.78339577640912416712e-01) (78, -2.41131577463689378282e-01) (79, -7.60957605044708884634e-01) (80, -2.15740107210133424953e-01) (81, -1.92996071777859545815e-01) (82, 1.68238251495715085415e-02) (83, 9.91491912602525740650e-03) (84, 3.96375923526493201265e-01) (85, 3.43912792427016333896e-01) (86, 5.09102245337645475942e-01) (87, 5.01141125447513435809e-01) (88, 3.51652037037959386279e-01) (89, -2.13807764507459419079e-01) (90, 1.16569639701230590156e-01) (91, -2.25741515442270702929e-02) (92, 4.90495353081201346246e-01) (93, 3.79876585859848403537e-01) (94, 4.29744506413238414044e-01) (95, -1.42383552807451851940e-01) (96, -1.40710506346683333900e-01) (97, 4.17771516940918519190e-01) (98, 3.07105103240864929504e-01) (99, 3.79672625766681037796e-01) (100, 1.36725659117185621705e-01) (101, -1.94915710491781260516e-02) (102, -4.63345944136976453653e-02) (103, -7.76475868573202332446e-02) (104, -9.17989156059663830023e-02) (105, 5.24045560609582294909e-01) (25, -3.48950293567366343073e-01) (26, 4.89733916455453666128e-01) (27, 3.16946376784524419534e-01) (28, -7.26067359408307660962e-02) (29, 5.04055324883090016819e-01) (30, 6.17409979162709121603e-02) (31, 4.01660627344950116324e-01) (32, 1.31832326567883434398e-01) (33, 5.02558995638432204345e-01) (34, 5.01029647597812655135e-01) (35, -6.90837074779963450366e-02) (36, 7.27995927901536454135e-03) (37, 5.31634319397882193492e-01) (38, -2.86526580956167509218e-01) (39, -5.00685635919083729672e-02) (40, -3.66942316954336211765e-01) (41, 4.21473917947202625367e-01) (42, 4.96928445705919763498e-01) (43, 2.13429913212623409077e-03) (44, -2.41450478937822926584e-01) (45, -3.59179635884470271900e-01) (46, 4.53019936448336268953e-01) (47, 2.84549840280320209818e-01) (48, -2.56197787433814216929e-01) (49, -3.34841873394579214729e-01) (50, 4.19852306917983753021e-01) (51, 3.08290242859903862449e-01) (52, 4.18652496943060448142e-01) (53, 3.95413164864317823177e-01) (54, -2.19947116368106793116e-01) (55, -1.16690771051265754221e-01) (56, 7.93114353105707992064e-01) (57, 1.34324137932720105715e-01) (58, -2.61207929256247028960e-01) (59, -2.04189442244002761218e-01) (60, -3.53457235798183222464e-01) (61, 3.41544045165906418049e-01) (62, -1.84954942676868391849e-02) (63, -3.83580474384265651677e-02) (64, 4.86069924840508149622e-01) (65, 3.83207291321522536265e-01) (66, 1.76710915830599391008e-01) (67, 4.50294160603090798389e-01) (68, 4.04711379307432284058e-01) (69, 4.30743435350762204905e-01) (70, -3.55714342568714189663e-02) (71, 2.26746768006829690911e-02) (72, 3.63850323449575185908e-01) (73, 4.35362515494183199838e-01) (74, 4.58024469302625247824e-01) (75, 3.89920780406535272267e-01) (76, 1.53177401424903943117e-02) (77, 3.38428613089243657264e-01) (78, -2.79287544606108051326e-01) (79, 1.18024012011320111881e+00) (80, -2.87283383302206429821e-01) (81, -1.94804552553646571911e-02) (82, 9.75825504465597931558e-02) (83, -1.12502381739900663565e-02) (84, 1.93064107395361728159e-01) (85, 3.63467312377502627108e-01) (86, 3.95259829172484034032e-01) (87, 4.61454935082975914451e-01) (88, 3.87347526955084453526e-01) (89, -3.65512577584642617268e-01) (90, 1.65530337261876409061e-01) (91, 1.01991619910095435153e-01) (92, 3.62338924977699816665e-01) (93, -2.49696081004677744586e-01) (94, 4.61830980773207222523e-01) (95, -5.74359456129707665606e-02) (96, -1.04360550508712443540e-02) (97, 4.46692208396392231862e-01) (98, 4.95348015479340320066e-01) (99, 3.87840948341433511271e-01) (100, 2.41297486277567863056e-01) (101, -1.90018407236585973319e-01) (102, -9.28633089680205858762e-02) (103, 5.03943157651850603962e-01) (104, -1.11835420820858177926e-01) (105, 4.19025338528697000040e-01) (25, -3.13570456841135047910e-01) (26, 4.01905984017175088585e-01) (27, 4.79024189715284320901e-01) (28, 2.10054963076842959868e-01) (29, 5.47467098384342709672e-01) (30, -9.62287777744448291628e-02) (31, 5.03693074470223378647e-01) (32, 1.35653533252641650408e-01) (33, 4.16766562679284524595e-01) (34, 4.22409667514550779543e-01) (35, 1.42083958017578185218e-02) (36, -1.52029468953856668201e-02) (37, 4.57139483752691588858e-01) (38, -3.57284833181735594909e-01) (39, -1.97247503918418047586e-02) (40, -2.18376301650652707154e-02) (41, 3.73644202268459235672e-01) (42, 4.73892061852204893313e-01) (43, 1.62174403316381540718e-02) (44, -2.91593939785719347135e-01) (45, -3.45459880897093174479e-01) (46, 5.23289450529920818767e-01) (47, 3.82398171440996859083e-01) (48, -2.30425653364716293003e-01) (49, -3.41693326464864555181e-01) (50, 4.48307602388858195130e-01) (51, 4.50694486236989433348e-01) (52, 3.72473074935662840090e-01) (53, 3.11283357795287651815e-01) (54, -3.00972436990043390459e-01) (55, -2.14251686543809161112e-01) (56, 9.86573708654863823497e-01) (57, -1.32347929439886408121e-01) (58, 2.78969422429783786566e-01) (59, -1.82751967140303062109e-01) (60, 8.86948938361663968832e-02) (61, 4.07901406904908558904e-01) (62, 2.65724450708608493990e-03) (63, 7.57084837174652885983e-02) (64, 3.47979492388951872073e-01) (65, 4.48726145087912198228e-01) (66, -3.40440461641656130776e-02) (67, 3.74147220528405766160e-01) (68, 5.50924496819552800275e-01) (69, 4.70268518598616791504e-01) (70, -3.26113236839870812567e-01) (71, -9.66438563101145453604e-02) (72, 4.78329664399278098319e-01) (73, 5.24188370061446917703e-01) (74, 3.86981475943337649426e-01) (75, 5.22125873261591877394e-01) (76, 5.97678653042233928860e-03) (77, 5.19577975185113616341e-01) (78, -3.37481584859705252555e-01) (79, -1.66640985874596386784e-01) (80, -3.75800309064456383723e-01) (81, -1.04602796672790723798e-01) (82, -8.55727345979112596908e-02) (83, -1.06260350535494901836e-01) (84, 5.34767345660519755057e-01) (85, 5.48135892436235727665e-01) (86, 4.01099586212014358466e-01) (87, 3.42339671097982023440e-01) (88, 4.42320205197696492139e-01) (89, -2.77299311378145785234e-01) (90, -6.87075910226690178551e-02) (91, -3.76626156638856096626e-02) (92, 4.08595739744889829836e-01) (93, 5.95597394724955209178e-01) (94, 4.46707054546610360379e-01) (95, 3.16081050217746489794e-02) (96, 1.24216456613581757717e-01) (97, 3.76538944260700725319e-01) (98, 3.76852031974076906451e-01) (99, 4.54214811080872749027e-01) (100, -4.68130715750831941091e-02) (101, 1.66579824520947883393e-01) (102, -1.24749252879217287227e-01) (103, 4.40162161526587270011e-01) (104, -1.43561217807438301630e-01) (105, 3.46819861006676777304e-01) 
