FANN_FLO_2.1
num_layers=3
learning_rate=0.700000
connection_rate=1.000000
network_type=0
learning_momentum=0.000000
training_algorithm=2
train_error_function=1
train_stop_function=0
cascade_output_change_fraction=0.010000
quickprop_decay=-0.000100
quickprop_mu=1.750000
rprop_increase_factor=1.200000
rprop_decrease_factor=0.500000
rprop_delta_min=0.000000
rprop_delta_max=50.000000
rprop_delta_zero=0.100000
cascade_output_stagnation_epochs=12
cascade_candidate_change_fraction=0.010000
cascade_candidate_stagnation_epochs=12
cascade_max_out_epochs=150
cascade_max_cand_epochs=150
cascade_num_candidate_groups=2
bit_fail_limit=3.49999999999999977796e-01
cascade_candidate_limit=1.00000000000000000000e+03
cascade_weight_multiplier=4.00000000000000022204e-01
cascade_activation_functions_count=10
cascade_activation_functions=3 5 7 8 10 11 14 15 16 17 
cascade_activation_steepnesses_count=4
cascade_activation_steepnesses=2.50000000000000000000e-01 5.00000000000000000000e-01 7.50000000000000000000e-01 1.00000000000000000000e+00 
layer_sizes=162 101 11 
scale_included=0
neurons (num_inputs, activation_function, activation_steepness)=(0, 0, 0.00000000000000000000e+00) (0, 0, 0.00000000000000000000e+00) (0, 0, 0.00000000000000000000e+00) (0, 0, 0.00000000000000000000e+00) (0, 0, 0.00000000000000000000e+00) (0, 0, 0.00000000000000000000e+00) (0, 0, 0.00000000000000000000e+00) (0, 0, 0.00000000000000000000e+00) (0, 0, 0.00000000000000000000e+00) (0, 0, 0.00000000000000000000e+00) (0, 0, 0.00000000000000000000e+00) (0, 0, 0.00000000000000000000e+00) (0, 0, 0.00000000000000000000e+00) (0, 0, 0.00000000000000000000e+00) (0, 0, 0.00000000000000000000e+00) (0, 0, 0.00000000000000000000e+00) (0, 0, 0.00000000000000000000e+00) (0, 0, 0.00000000000000000000e+00) (0, 0, 0.00000000000000000000e+00) (0, 0, 0.00000000000000000000e+00) (0, 0, 0.00000000000000000000e+00) (0, 0, 0.00000000000000000000e+00) (0, 0, 0.00000000000000000000e+00) (0, 0, 0.00000000000000000000e+00) (0, 0, 0.00000000000000000000e+00) (0, 0, 0.00000000000000000000e+00) (0, 0, 0.00000000000000000000e+00) (0, 0, 0.00000000000000000000e+00) (0, 0, 0.00000000000000000000e+00) (0, 0, 0.00000000000000000000e+00) (0, 0, 0.00000000000000000000e+00) (0, 0, 0.00000000000000000000e+00) (0, 0, 0.00000000000000000000e+00) (0, 0, 0.00000000000000000000e+00) (0, 0, 0.00000000000000000000e+00) (0, 0, 0.00000000000000000000e+00) (0, 0, 0.00000000000000000000e+00) (0, 0, 0.00000000000000000000e+00) (0, 0, 0.00000000000000000000e+00) (0, 0, 0.00000000000000000000e+00) (0, 0, 0.00000000000000000000e+00) (0, 0, 0.00000000000000000000e+00) (0, 0, 0.00000000000000000000e+00) (0, 0, 0.00000000000000000000e+00) (0, 0, 0.00000000000000000000e+00) (0, 0, 0.00000000000000000000e+00) (0, 0, 0.00000000000000000000e+00) (0, 0, 0.00000000000000000000e+00) (0, 0, 0.00000000000000000000e+00) (0, 0, 0.00000000000000000000e+00) (0, 0, 0.00000000000000000000e+00) (0, 0, 0.00000000000000000000e+00) (0, 0, 0.00000000000000000000e+00) (0, 0, 0.00000000000000000000e+00) (0, 0, 0.00000000000000000000e+00) (0, 0, 0.00000000000000000000e+00) (0, 0, 0.00000000000000000000e+00) (0, 0, 0.00000000000000000000e+00) (0, 0, 0.00000000000000000000e+00) (0, 0, 0.00000000000000000000e+00) (0, 0, 0.00000000000000000000e+00) (0, 0, 0.00000000000000000000e+00) (0, 0, 0.00000000000000000000e+00) (0, 0, 0.00000000000000000000e+00) (0, 0, 0.00000000000000000000e+00) (0, 0, 0.00000000000000000000e+00) (0, 0, 0.00000000000000000000e+00) (0, 0, 0.00000000000000000000e+00) (0, 0, 0.00000000000000000000e+00) (0, 0, 0.00000000000000000000e+00) (0, 0, 0.00000000000000000000e+00) (0, 0, 0.00000000000000000000e+00) (0, 0, 0.00000000000000000000e+00) (0, 0, 0.00000000000000000000e+00) (0, 0, 0.00000000000000000000e+00) (0, 0, 0.00000000000000000000e+00) (0, 0, 0.00000000000000000000e+00) (0, 0, 0.00000000000000000000e+00) (0, 0, 0.00000000000000000000e+00) (0, 0, 0.00000000000000000000e+00) (0, 0, 0.00000000000000000000e+00) (0, 0, 0.00000000000000000000e+00) (0, 0, 0.00000000000000000000e+00) (0, 0, 0.00000000000000000000e+00) (0, 0, 0.00000000000000000000e+00) (0, 0, 0.00000000000000000000e+00) (0, 0, 0.00000000000000000000e+00) (0, 0, 0.00000000000000000000e+00) (0, 0, 0.00000000000000000000e+00) (0, 0, 0.00000000000000000000e+00) (0, 0, 0.00000000000000000000e+00) (0, 0, 0.00000000000000000000e+00) (0, 0, 0.00000000000000000000e+00) (0, 0, 0.00000000000000000000e+00) (0, 0, 0.00000000000000000000e+00) (0, 0, 0.00000000000000000000e+00) (0, 0, 0.00000000000000000000e+00) (0, 0, 0.00000000000000000000e+00) (0, 0, 0.00000000000000000000e+00) (0, 0, 0.00000000000000000000e+00) (0, 0, 0.00000000000000000000e+00) (0, 0, 0.00000000000000000000e+00) (0, 0, 0.00000000000000000000e+00) (0, 0, 0.00000000000000000000e+00) (0, 0, 0.00000000000000000000e+00) (0, 0, 0.00000000000000000000e+00) (0, 0, 0.00000000000000000000e+00) (0, 0, 0.00000000000000000000e+00) (0, 0, 0.00000000000000000000e+00) (0, 0, 0.00000000000000000000e+00) (0, 0, 0.00000000000000000000e+00) (0, 0, 0.00000000000000000000e+00) (0, 0, 0.00000000000000000000e+00) (0, 0, 0.00000000000000000000e+00) (0, 0, 0.00000000000000000000e+00) (0, 0, 0.00000000000000000000e+00) (0, 0, 0.00000000000000000000e+00) (0, 0, 0.00000000000000000000e+00) (0, 0, 0.00000000000000000000e+00) (0, 0, 0.00000000000000000000e+00) (0, 0, 0.00000000000000000000e+00) (0, 0, 0.00000000000000000000e+00) (0, 0, 0.00000000000000000000e+00) (0, 0, 0.00000000000000000000e+00) (0, 0, 0.00000000000000000000e+00) (0, 0, 0.00000000000000000000e+00) (0, 0, 0.00000000000000000000e+00) (0, 0, 0.00000000000000000000e+00) (0, 0, 0.00000000000000000000e+00) (0, 0, 0.00000000000000000000e+00) (0, 0, 0.00000000000000000000e+00) (0, 0, 0.00000000000000000000e+00) (0, 0, 0.00000000000000000000e+00) (0, 0, 0.00000000000000000000e+00) (0, 0, 0.00000000000000000000e+00) (0, 0, 0.00000000000000000000e+00) (0, 0, 0.00000000000000000000e+00) (0, 0, 0.00000000000000000000e+00) (0, 0, 0.00000000000000000000e+00) (0, 0, 0.00000000000000000000e+00) (0, 0, 0.00000000000000000000e+00) (0, 0, 0.00000000000000000000e+00) (0, 0, 0.00000000000000000000e+00) (0, 0, 0.00000000000000000000e+00) (0, 0, 0.00000000000000000000e+00) (0, 0, 0.00000000000000000000e+00) (0, 0, 0.00000000000000000000e+00) (0, 0, 0.00000000000000000000e+00) (0, 0, 0.00000000000000000000e+00) (0, 0, 0.00000000000000000000e+00) (0, 0, 0.00000000000000000000e+00) (0, 0, 0.00000000000000000000e+00) (0, 0, 0.00000000000000000000e+00) (0, 0, 0.00000000000000000000e+00) (0, 0, 0.00000000000000000000e+00) (0, 0, 0.00000000000000000000e+00) (0, 0, 0.00000000000000000000e+00) (0, 0, 0.00000000000000000000e+00) (0, 0, 0.00000000000000000000e+00) (0, 0, 0.00000000000000000000e+00) (0, 0, 0.00000000000000000000e+00) (0, 0, 0.00000000000000000000e+00) (162, 6, 5.00000000000000000000e-01) (162, 6, 5.00000000000000000000e-01) (162, 6, 5.00000000000000000000e-01) (162, 6, 5.00000000000000000000e-01) (162, 6, 5.00000000000000000000e-01) (162, 6, 5.00000000000000000000e-01) (162, 6, 5.00000000000000000000e-01) (162, 6, 5.00000000000000000000e-01) (162, 6, 5.00000000000000000000e-01) (162, 6, 5.00000000000000000000e-01) (162, 6, 5.00000000000000000000e-01) (162, 6, 5.00000000000000000000e-01) (162, 6, 5.00000000000000000000e-01) (162, 6, 5.00000000000000000000e-01) (162, 6, 5.00000000000000000000e-01) (162, 6, 5.00000000000000000000e-01) (162, 6, 5.00000000000000000000e-01) (162, 6, 5.00000000000000000000e-01) (162, 6, 5.00000000000000000000e-01) (162, 6, 5.00000000000000000000e-01) (162, 6, 5.00000000000000000000e-01) (162, 6, 5.00000000000000000000e-01) (162, 6, 5.00000000000000000000e-01) (162, 6, 5.00000000000000000000e-01) (162, 6, 5.00000000000000000000e-01) (162, 6, 5.00000000000000000000e-01) (162, 6, 5.00000000000000000000e-01) (162, 6, 5.00000000000000000000e-01) (162, 6, 5.00000000000000000000e-01) (162, 6, 5.00000000000000000000e-01) (162, 6, 5.00000000000000000000e-01) (162, 6, 5.00000000000000000000e-01) (162, 6, 5.00000000000000000000e-01) (162, 6, 5.00000000000000000000e-01) (162, 6, 5.00000000000000000000e-01) (162, 6, 5.00000000000000000000e-01) (162, 6, 5.00000000000000000000e-01) (162, 6, 5.00000000000000000000e-01) (162, 6, 5.00000000000000000000e-01) (162, 6, 5.00000000000000000000e-01) (162, 6, 5.00000000000000000000e-01) (162, 6, 5.00000000000000000000e-01) (162, 6, 5.00000000000000000000e-01) (162, 6, 5.00000000000000000000e-01) (162, 6, 5.00000000000000000000e-01) (162, 6, 5.00000000000000000000e-01) (162, 6, 5.00000000000000000000e-01) (162, 6, 5.00000000000000000000e-01) (162, 6, 5.00000000000000000000e-01) (162, 6, 5.00000000000000000000e-01) (162, 6, 5.00000000000000000000e-01) (162, 6, 5.00000000000000000000e-01) (162, 6, 5.00000000000000000000e-01) (162, 6, 5.00000000000000000000e-01) (162, 6, 5.00000000000000000000e-01) (162, 6, 5.00000000000000000000e-01) (162, 6, 5.00000000000000000000e-01) (162, 6, 5.00000000000000000000e-01) (162, 6, 5.00000000000000000000e-01) (162, 6, 5.00000000000000000000e-01) (162, 6, 5.00000000000000000000e-01) (162, 6, 5.00000000000000000000e-01) (162, 6, 5.00000000000000000000e-01) (162, 6, 5.00000000000000000000e-01) (162, 6, 5.00000000000000000000e-01) (162, 6, 5.00000000000000000000e-01) (162, 6, 5.00000000000000000000e-01) (162, 6, 5.00000000000000000000e-01) (162, 6, 5.00000000000000000000e-01) (162, 6, 5.00000000000000000000e-01) (162, 6, 5.00000000000000000000e-01) (162, 6, 5.00000000000000000000e-01) (162, 6, 5.00000000000000000000e-01) (162, 6, 5.00000000000000000000e-01) (162, 6, 5.00000000000000000000e-01) (162, 6, 5.00000000000000000000e-01) (162, 6, 5.00000000000000000000e-01) (162, 6, 5.00000000000000000000e-01) (162, 6, 5.00000000000000000000e-01) (162, 6, 5.00000000000000000000e-01) (162, 6, 5.00000000000000000000e-01) (162, 6, 5.00000000000000000000e-01) (162, 6, 5.00000000000000000000e-01) (162, 6, 5.00000000000000000000e-01) (162, 6, 5.00000000000000000000e-01) (162, 6, 5.00000000000000000000e-01) (162, 6, 5.00000000000000000000e-01) (162, 6, 5.00000000000000000000e-01) (162, 6, 5.00000000000000000000e-01) (162, 6, 5.00000000000000000000e-01) (162, 6, 5.00000000000000000000e-01) (162, 6, 5.00000000000000000000e-01) (162, 6, 5.00000000000000000000e-01) (162, 6, 5.00000000000000000000e-01) (162, 6, 5.00000000000000000000e-01) (162, 6, 5.00000000000000000000e-01) (162, 6, 5.00000000000000000000e-01) (162, 6, 5.00000000000000000000e-01) (162, 6, 5.00000000000000000000e-01) (162, 6, 5.00000000000000000000e-01) (0, 6, 0.00000000000000000000e+00) (101, 6, 5.00000000000000000000e-01) (101, 6, 5.00000000000000000000e-01) (101, 6, 5.00000000000000000000e-01) (101, 6, 5.00000000000000000000e-01) (101, 6, 5.00000000000000000000e-01) (101, 6, 5.00000000000000000000e-01) (101, 6, 5.00000000000000000000e-01) (101, 6, 5.00000000000000000000e-01) (101, 6, 5.00000000000000000000e-01) (101, 6, 5.00000000000000000000e-01) (0, 6, 0.00000000000000000000e+00) 
connections (connected_to_neuron, weight)=(0, -6.74237798528861564940e-01) (1, 6.28743741822591495350e+00) (2, -1.32050951998067701149e-02) (3, -1.36201825259421860359e+00) (4, -8.14188163216500555563e+01) (5, -3.37700092207733817418e+01) (6, 3.61648294731566177784e-01) (7, 2.78647742591236680099e+00) (8, -4.24915632493916395340e-01) (9, 1.11689372682262338943e-01) (10, -1.50405494692499819287e+00) (11, 6.99941742380630893550e-01) (12, 1.12956231861504807767e+00) (13, -1.68518892010779843815e+01) (14, 1.68843885994130871175e+00) (15, 1.46756930764869869543e-01) (16, -2.74621009481707396560e+01) (17, 5.19753302916071691087e-01) (18, 3.26993388852738053885e+00) (19, -4.69010352621297688103e+00) (20, 1.72290127973748354862e+01) (21, -2.47150923695481772313e+01) (22, 2.45966576477879506069e-01) (23, -2.58745770098876803900e+00) (24, -6.73496685127296057516e+00) (25, 9.78109796441644196996e-01) (26, -2.39809175355632788751e+01) (27, 3.33547622738369964335e-01) (28, 2.38385871055146580932e-01) (29, -2.80617379483240831917e+01) (30, 1.77482015035406670567e-01) (31, 8.76733167424010417790e+00) (32, -6.06695404873548588265e-02) (33, -3.85773252454388382304e+00) (34, 1.86685541924978792849e+01) (35, 1.91982797015878219327e+01) (36, 2.68947769812510584231e+00) (37, 1.32467430683629849852e+01) (38, -7.96266997235728024584e-01) (39, 2.83991038708894976139e+01) (40, 1.50547421971646855354e+01) (41, 2.17370988019239241851e+00) (42, 7.37496108343582790212e+00) (43, 8.00051165318599988296e-01) (44, 4.18550413292217982075e+00) (45, 2.27513374692162084756e+00) (46, -4.26400232802819658673e+01) (47, -1.25927947200194552124e+01) (48, 2.76421231289044833090e+00) (49, 3.26639644972773837139e+01) (50, -4.61978099858192479132e+01) (51, -2.28696339330108422416e+01) (52, 2.87810738408000421629e+00) (53, 3.28844392364692197361e+01) (54, 1.14495337737858751126e+01) (55, 1.26658246449763360886e+01) (56, 9.08068544980751966023e+01) (57, 1.11151294077725353304e+01) (58, 3.90840197548507504166e+01) (59, 4.54180731143573979125e+01) (60, -2.72166527449157662488e+01) (61, 3.50088378748691297915e+01) (62, -5.15191470723235767082e+01) (63, -6.11549951957033073313e+01) (64, 3.89924854100625850606e+01) (65, 2.12440850921404100760e+00) (66, 7.35080859964471589052e+00) (67, 8.33139864301792432144e-01) (68, 4.28476927619744074605e+00) (69, 2.32402666217049258535e+00) (70, -4.26619491021823336041e+01) (71, -1.24437704197422220886e+01) (72, 2.76238781471387362387e+00) (73, -7.10040587123708917261e+01) (74, 4.87432549254268288053e+00) (75, 2.03608940852533031318e+01) (76, 6.17532091466721411166e+00) (77, 6.53202585764987446737e+01) (78, 1.64582580406450915689e+01) (79, 1.56232880774478619657e+01) (80, 3.78137647113259873777e+01) (81, -3.82949142776229656260e-01) (82, -1.15175094348443227688e+01) (83, -4.87816035830018748243e+01) (84, 1.68832213778966462314e+01) (85, -1.02063091180746678965e+00) (86, -9.53076792821155827085e+00) (87, 3.52540952670344154285e+00) (88, -7.16134425448752764964e+00) (89, 4.94055654533465027356e+00) (90, -2.86282743292099972621e+01) (91, 2.88825840430043854212e+01) (92, -1.95777585259078446001e+00) (93, -4.39610418894031429460e+00) (94, -3.28500689691681824200e+00) (95, 7.96948316920723792700e-02) (96, 5.13683020330845696577e+00) (97, 2.11621624032825028650e+00) (98, -6.70070851233181663531e-01) (99, 4.39129878479172119921e-01) (100, -1.24610386819995202501e+01) (101, 2.37759716162689258567e+01) (102, 4.18047538087362458015e+00) (103, 2.54726392207754837038e-01) (104, -1.21523714734876620014e+00) (105, 1.50807562521634769270e-01) (106, 1.95510000638333081291e+00) (107, 1.35089829910363654619e+01) (108, 1.70753633265261273166e+00) (109, -2.64840100720413884616e+00) (110, 3.61274450207839492588e-01) (111, 7.96846483742202037204e-03) (112, -1.34513728056845360825e-01) (113, 1.57605972128752602757e+00) (114, 1.93008812213090918952e+00) (115, 2.53054153501429346385e-01) (116, 1.81825440173911306863e-01) (117, -2.68499657032626748432e+00) (118, 5.14122542512533531323e+00) (119, 1.76762145242680812629e+00) (120, -3.18171308439135880342e-01) (121, -8.07271206670776897418e-01) (122, -3.46389649753525752374e+00) (123, -3.19578866506025782712e+00) (124, -5.21935654120598702121e+00) (125, -5.06893707391033343512e-01) (126, -3.95596623064047259177e+00) (127, 1.81098145792787579289e+00) (128, -8.78874332801935231885e+00) (129, 9.10881246228840701917e-01) (130, 8.04879272104660259401e+00) (131, 5.57031557040206060094e+00) (132, -1.42419167304151228493e+00) (133, -2.78529828903318447952e-02) (134, 1.25938921187783603450e+00) (135, 1.01709991774261077069e+00) (136, 2.03193330483530232300e+00) (137, 8.23382098509567406097e+00) (138, -1.07545612264757717291e+00) (139, -2.26401134935287823291e-01) (140, -1.17483200688357825037e+00) (141, -4.73031977888949850541e-01) (142, -3.05837558699101119686e-01) (143, -4.35531852144458775378e-01) (144, -1.04608342381890153661e+01) (145, -6.02828747742386705788e-01) (146, -8.72677572235559750879e-01) (147, -1.35394815520526745622e+00) (148, -1.09113258534509482978e+00) (149, -6.16692693933236557591e-01) (150, -6.69994470006008313590e-01) (151, -5.99893705582973280066e-01) (152, -1.06998501481944408020e+00) (153, -7.42804505994613117892e-01) (154, -5.86513637224832962147e-01) (155, -7.06985573566083158603e-01) (156, -5.37185827461568621288e-01) (157, -7.28141201869362819643e-01) (158, -7.86344955409770784982e-01) (159, -5.62756363528517433714e-01) (160, -1.09636034491857414785e+00) (161, 1.08020007475492819948e-02) (0, 2.50264628048708248631e-01) (1, 4.00081086092067994553e-01) (2, 3.43275116881673003633e-01) (3, 2.22068590560274975454e-01) (4, 2.24593252606702931118e-01) (5, 2.17802844555331082121e-01) (6, 3.25327380689591494356e-01) (7, 2.25730827789737659161e-01) (8, 2.75686216711813703029e-01) (9, 1.88390367901511784909e-01) (10, 1.89418821444640173013e-01) (11, 2.26127570843476705109e-01) (12, 1.92203992536549739256e-01) (13, 2.29713513574690830765e-01) (14, 2.88399522000156449675e-01) (15, 2.17655451367516933336e-01) (16, 2.95775982717285002010e-01) (17, 2.04842747012838943821e-01) (18, 2.55774185324989911106e-01) (19, 2.24970016344876011516e-01) (20, 2.27414316079736472664e-01) (21, 3.08042944495238946168e-01) (22, 2.83862303661929493703e-01) (23, 1.69261725485690239790e-01) (24, 1.96379573118481920435e-01) (25, 2.93903877878737507245e-01) (26, 2.75794942292008515849e-01) (27, 2.27419382691061683355e-01) (28, 1.39366458863409009572e-01) (29, 3.26468165699282275583e-01) (30, 2.64387946742232926578e-01) (31, 2.12955775299883187657e-01) (32, 3.20956661726658265543e-01) (33, -1.12998937118939157820e+00) (34, 3.27838237552308731093e-01) (35, 3.98421351337141349536e-01) (36, 4.09965090625902417454e-01) (37, 3.02192438006451125077e-01) (38, -2.30538204463780982412e-01) (39, 3.87933358855760912487e-01) (40, 4.00324618578334623376e-01) (41, -7.96221766402944730601e-01) (42, 1.94175136114078883409e-01) (43, 2.29360275119252887688e-01) (44, 2.99977859663861368134e-01) (45, 3.08507249851868059487e-01) (46, 1.18627396422751094085e-01) (47, 1.49472716263840538220e-01) (48, 6.10750318720824414420e-01) (49, -2.11112892530241946787e+00) (50, -2.65183501180186853574e-01) (51, 2.39151077601713835108e-01) (52, 6.12009446455339611859e-01) (53, 3.08625744472695195952e-01) (54, 3.45871588625043135945e-01) (55, 2.60742350699093239363e-01) (56, 3.16611478281192848527e-01) (57, 2.49081238344030980736e-01) (58, 7.56736878058898443378e-01) (59, -3.59096233985801371880e-01) (60, -9.70513344794536325644e-02) (61, 2.23799869945550330974e-02) (62, 1.12362668005055432729e+00) (63, 6.10239011160039201975e-01) (64, 3.47381261497077320488e-01) (65, -8.53571567466482106212e-01) (66, 1.74018514181095484972e-01) (67, 3.48760686963513699688e-01) (68, 2.81101999986069772675e-01) (69, 3.10201876958057787270e-01) (70, 1.02016386586554208549e-01) (71, 1.50747436098168235974e-01) (72, 5.34053587570674115348e-01) (73, -1.19618777482912208576e+00) (74, -2.54964326529179552416e-01) (75, 2.48647889374990355149e-01) (76, 4.16063504544244400218e-01) (77, 4.99477248554494934751e-01) (78, 2.31433167499257297361e-01) (79, 3.20151251549563253818e-01) (80, 4.93728613382865444414e-01) (81, -3.08292645574362866867e-01) (82, 2.26857880393143279685e-01) (83, 6.25998163968480403341e-01) (84, 1.99061874465435079129e-01) (85, -9.88951677917953464458e-01) (86, 3.34612747119279962948e-01) (87, 3.55347186302986173256e-01) (88, 2.43505496944419724814e-01) (89, 3.15355569022322673733e-02) (90, 2.87106337772090547400e-01) (91, -6.71281450134275980979e-01) (92, -2.19497100635007907909e-01) (93, 2.22401180716784080404e-01) (94, 1.43056587337596324838e-01) (95, 2.95853293698468466921e-01) (96, 3.95293364321405438222e-02) (97, 1.60779508469058668441e-01) (98, 1.53357753153884807107e-01) (99, 2.04229784558666388472e-01) (100, 2.50286750313847061733e-01) (101, 2.21772348737174329614e-01) (102, 2.65527990084122422765e-01) (103, 2.06188645620841853878e-01) (104, 1.37999921026081218134e-01) (105, 3.36477887438775158380e-01) (106, 2.68208809027883909870e-01) (107, 2.43256815102782769644e-01) (108, 2.89524251932461229586e-01) (109, 2.42476436211671864118e-01) (110, 2.02055794485296119634e-01) (111, 2.88665008027249092581e-01) (112, 2.43174735947956244253e-01) (113, 4.62826901372217380803e-01) (114, 1.92969961658866151488e-01) (115, 2.04081309016938716727e-01) (116, 3.25183389304362802097e-01) (117, 1.60208309591242908931e-01) (118, 4.46251216748007106805e-01) (119, 2.72760579917049994503e-01) (120, 2.36044754396677519681e-01) (121, 2.70833972683146573246e-01) (122, 2.65005435219185458973e-01) (123, 7.18061417437057258883e-02) (124, 3.46747172189079966298e-01) (125, 2.66164088242996643707e-01) (126, 3.36662768618045060709e-01) (127, 3.51116794192127046337e-01) (128, 3.15901034577537598302e-01) (129, 3.72678570435963252283e-01) (130, 2.21298335648120764185e-01) (131, 2.79143446789111460138e-01) (132, 2.55472930748931681411e-01) (133, 4.10957872872194374114e-01) (134, 3.25135643393488327213e-01) (135, 2.02277039085677901031e-01) (136, 3.62001922636608297612e-01) (137, 3.80675869624011398162e-01) (138, 2.51138014826685074254e-01) (139, 3.11433889515493556033e-01) (140, 2.64933316095669613155e-01) (141, 3.06854167563660074070e-01) (142, 2.18266056162723876000e-01) (143, 3.17846766881895670398e-01) (144, 2.74625216214564427109e-01) (145, 2.62107957444922157197e-01) (146, 1.98420728024981563031e-01) (147, 2.68501159128359034867e-01) (148, 2.49394152403094176984e-01) (149, 2.03843521573228630972e-01) (150, 2.95005680534079717248e-01) (151, 3.34935293707104564387e-01) (152, 2.61594693559449198439e-01) (153, 3.84290507276565940220e-01) (154, 3.74467874907568054610e-01) (155, 2.18510518180113438858e-01) (156, 2.73720006507354729486e-01) (157, 2.70152891673734685263e-01) (158, 3.65117040409352222596e-01) (159, 3.71564876438351565646e-01) (160, 3.80384274937301702924e-01) (161, 3.27396513246509035522e-01) (0, 9.67015678012421164844e-02) (1, -1.58129340037366061811e-01) (2, 3.03738310641018083302e-01) (3, 2.77720197082040487491e-01) (4, 6.40686081866705808840e-02) (5, 1.88471093159064739808e-01) (6, 2.46463579827922246723e-01) (7, 1.84480251150699936513e-01) (8, 2.91416693482308530871e-01) (9, 3.54556512781220800612e-01) (10, 3.05122650651574567338e-01) (11, 2.91089190739645953254e-01) (12, 2.40700429184000475047e-01) (13, 1.81899590007096101374e-01) (14, -3.96347820603316469690e-01) (15, 2.71629875838240109065e-01) (16, 2.57848267285265664306e-01) (17, 1.95019330341575480858e-01) (18, 2.88096602108538435427e-01) (19, 1.61506580737164284756e-01) (20, 1.36265790178682705269e-01) (21, 1.53368494409739819506e-01) (22, 3.46281382806954807219e-01) (23, 3.35836112044701207147e-01) (24, 1.63070532412303875747e-01) (25, 2.35860370072260294716e-01) (26, 1.92123507518097147440e-01) (27, 1.46769126121413406860e-01) (28, 1.97992627919841179818e-01) (29, 2.07842206734357215492e-01) (30, 3.52523049013313993783e-01) (31, 2.42331454653026578949e-01) (32, 1.50493031700683205232e-01) (33, 3.25885289196333693962e-01) (34, 1.48213699361590678372e-01) (35, -7.67411598887305590466e-01) (36, -2.06918362270189587493e-01) (37, 2.98507250044463601224e-01) (38, 2.58394174123613207250e-01) (39, -9.45688929042446169149e-01) (40, -1.05128008482367496512e+00) (41, 2.47941048167010347214e-01) (42, 2.75638906706274333658e-01) (43, 2.33314245730341429663e-01) (44, 3.96518572692563242565e-01) (45, -3.18704495089521477880e-01) (46, 1.25384754156853972518e+00) (47, 3.30150754256746248316e+00) (48, -9.93641204632220187420e+00) (49, 3.43165003683968683479e-01) (50, 5.81839833037825271411e-01) (51, 6.72137596175850782210e-02) (52, 3.76640087496925346500e-01) (53, -1.35494278191879957696e+00) (54, -1.43467040274068358130e+00) (55, -9.02251058285094775790e-01) (56, 1.71533471976654999791e-01) (57, 4.92028327431164147487e-01) (58, 4.82990685834158051115e-01) (59, -3.40273109944832008456e-01) (60, 4.63521151326771518875e-01) (61, -1.15370511149731203027e+00) (62, -1.27126242862945790790e+01) (63, -1.79893196159078683216e+00) (64, -3.62006912414095605168e-01) (65, 2.04986785820979927619e-01) (66, 3.61836886454523387613e-01) (67, 2.78346136003442379270e-01) (68, 4.64256137137105173718e-01) (69, -3.29191343741884245855e-01) (70, 1.31307464307334309517e+00) (71, 3.41183237983486042921e+00) (72, -9.93391976750788607831e+00) (73, 3.16453074360469432946e-01) (74, 5.72915860487390959932e-01) (75, 2.19177113651671306993e-01) (76, -1.46413324075377371258e+00) (77, -6.79047155978201200099e-01) (78, 1.94497205586742855088e-01) (79, 2.70641873252464137956e-01) (80, 3.70838455482121076567e-01) (81, 4.11280044053877302801e-01) (82, -1.84450014458940869666e+00) (83, -9.90412421111228802317e+00) (84, -1.08580024458286961142e+00) (85, 2.61166338288958910230e-01) (86, 3.26664298014329890218e-01) (87, 3.48570011920729116994e-01) (88, -2.54274394778624623914e-01) (89, -9.84149521270302307663e-01) (90, -2.87707063251504724377e+00) (91, 2.58213072952228117618e-01) (92, -2.71430603411951298920e-01) (93, 3.80591590449363803561e-01) (94, 1.87581415630038883524e-01) (95, 2.68392714892523864822e-01) (96, 1.04993218481996483660e-01) (97, 1.79310328953566883170e-01) (98, 1.73068320984922779937e-01) (99, 1.68589335990490613026e-01) (100, 2.31912867380302978315e-01) (101, 2.02585354848430626573e-01) (102, 2.68498358113698931682e-01) (103, 2.38299218343730440095e-01) (104, 2.20483578710463590244e-01) (105, 3.48628585731201312559e-01) (106, 1.86695347194163585591e-01) (107, 3.14720272266758804847e-01) (108, 1.83734821136214310222e-01) (109, 3.10633793991074380614e-01) (110, 2.23487353356242895996e-01) (111, 1.59032157650898287038e-01) (112, 3.03509539177688192346e-01) (113, 3.77867860080729200956e-01) (114, 3.67286918640268411629e-01) (115, 3.09713701196653312664e-01) (116, 2.44589947380519312503e-01) (117, 3.05834862433716991870e-01) (118, 2.42674388510515148809e-01) (119, 2.67481898225339354003e-01) (120, 3.12001126810949158674e-01) (121, 2.89698029485591312948e-01) (122, 2.76211204157970569018e-01) (123, 2.88150112814958836438e-01) (124, 2.34173324393029846924e-01) (125, 2.85727800503698337042e-01) (126, 4.67314466124138350178e-01) (127, 2.01075518038120737430e-01) (128, 3.94378693914845090962e-01) (129, 3.40605037095476570475e-01) (130, 3.64810623527072386274e-01) (131, 3.41427648642835979143e-01) (132, 3.67700195096543058781e-01) (133, 3.30610248388431615663e-01) (134, 4.13730531111407284772e-01) (135, 3.87736016954336126794e-01) (136, 3.14813175399314360003e-01) (137, 2.82337600845072200784e-01) (138, 3.73771447691233993371e-01) (139, 3.58889932426547431099e-01) (140, 4.52661135008467829799e-01) (141, 4.54461214345126374159e-01) (142, 4.04943420496580719359e-01) (143, 3.83335466581808781417e-01) (144, 4.34327760814158803093e-01) (145, 3.82617181230281488968e-01) (146, 3.72712028511122950292e-01) (147, 3.62194097736577069746e-01) (148, 3.51840273556189575554e-01) (149, 3.96306267521392474595e-01) (150, 3.91260560851176775188e-01) (151, 4.52177474826361780469e-01) (152, 4.26369133753760620742e-01) (153, 3.13916297106324626576e-01) (154, 3.33284733449618675305e-01) (155, 4.60735326898108310534e-01) (156, 4.56479447511084990285e-01) (157, 2.85585077359576611222e-01) (158, 3.11669478770490060437e-01) (159, 3.85531439288811839106e-01) (160, 2.68351990157805864179e-01) (161, 2.86526322812474587565e-01) (0, 2.73042496593047019360e+01) (1, -1.53449871120881042863e+00) (2, -7.96604178500845172550e+00) (3, -3.82859702954614888881e+01) (4, 1.86659509182844601582e+02) (5, 6.87871610346309392270e-01) (6, -3.40352106109685394131e+02) (7, -1.10901099800473474488e+02) (8, 5.74394038406997764490e-01) (9, -2.46167303813996252160e+00) (10, 3.93025251418723797769e-01) (11, 4.02241611609301386032e-01) (12, 2.73731856408933765579e+02) (13, -1.98340286380263734145e+02) (14, 6.76489757858518947486e-01) (15, 3.12691856478071144920e+02) (16, 5.95184262207969938530e-01) (17, -6.61183884042417968629e+00) (18, 1.49966892095815111929e+01) (19, 3.73196491106570746865e+01) (20, -1.42188212216143966771e+02) (21, 6.46435505262634713119e-01) (22, 5.99391937011355069309e-01) (23, 1.71199879042079118108e+02) (24, 1.42386895700804618770e+01) (25, 4.84004113561016802159e-01) (26, 7.10615477574003335803e+01) (27, -9.68517639470698021853e-01) (28, 4.90621960150944669277e-01) (29, 4.07766437122934576109e+02) (30, 7.33662608805843241555e+00) (31, 4.11336124675318992594e-01) (32, 1.31969619208564466817e+02) (33, 2.28070092458594444906e+02) (34, -6.93348267310389161366e+01) (35, -7.63354580805725504433e+01) (36, -5.94974119249215931404e+01) (37, 8.48610581461659450042e+01) (38, 8.14192423575148382042e+02) (39, 8.73220841465559260541e+02) (40, 1.50000000000000000000e+03) (41, 2.18874721945725497108e+02) (42, -6.80267392044245298166e+01) (43, 9.07678362686588116048e+01) (44, -4.29143048420437178692e+00) (45, -1.18554408322297874179e+02) (46, 1.13204313222509327375e+02) (47, -2.05974926397419210389e+02) (48, -2.01929070710744781536e+02) (49, 1.90762045163823984240e+02) (50, 6.06516939885464466897e+02) (51, -3.02756427526644245063e+02) (52, -5.49495055045619892553e+02) (53, -6.85355743957795766619e+01) (54, -6.61805643602241389090e+02) (55, -3.55598708441546818904e+02) (56, -3.04042179990753197671e+02) (57, -7.37317738059554557140e+01) (58, 6.83396289500848411080e+02) (59, 3.88887321887165057888e+02) (60, 1.70807870598277702356e+02) (61, -1.47500000000000000000e+03) (62, 1.50000000000000000000e+03) (63, 1.48729178435307107975e+03) (64, 1.50000000000000000000e+03) (65, 2.18842366398774203162e+02) (66, -6.80189451371609266062e+01) (67, 9.08322430957509823202e+01) (68, -4.17253648459800086101e+00) (69, -1.18558206971012893405e+02) (70, 1.13256266478639545880e+02) (71, -2.05810510590887304261e+02) (72, -2.01895137365516347927e+02) (73, 2.41265367507112529211e+02) (74, -6.13678825147824369424e+01) (75, -3.98545561169510875743e+01) (76, -2.65031431395820334274e+02) (77, -1.15848955521781576294e+02) (78, 7.53097174006487080078e+01) (79, 1.49979304104198831737e+03) (80, 5.37644696055805525248e+02) (81, -2.63400038290634256555e+02) (82, 1.15956427661902739601e+03) (83, -1.10521629234755005200e+03) (84, 1.48352092447886093396e+03) (85, 1.03704416068755691072e+02) (86, 1.37812436023609990343e+02) (87, -9.19211040493329578638e-02) (88, -1.56374447613998968087e+00) (89, -4.35843376762802776625e+01) (90, -1.79170813030170066327e+01) (91, 6.06039157160178888262e+02) (92, 6.04623794041348332939e+02) (93, -2.55840749013009478574e+01) (94, 7.21760866547897308010e+02) (95, -3.52282704648254082258e+02) (96, -2.26503262951168977679e+01) (97, -2.58900217078378261704e+02) (98, 4.45963795872392210207e-01) (99, -2.10174617330444078789e+02) (100, 4.77303363803919964425e+01) (101, 5.55497381381342734130e+02) (102, 7.55280381195772605452e+01) (103, 1.01716320701805362781e+00) (104, -1.35201640256303279308e+00) (105, -2.94118785442368348981e+01) (106, -9.28385247111554292587e+01) (107, 1.66961332365979785664e+02) (108, -3.86679528278703003252e+02) (109, 7.15298650748642295127e-01) (110, 5.79682342436739883595e-01) (111, -2.90898923548158279573e+02) (112, 2.45467637186879450439e+01) (113, 1.03573887637849071375e+00) (114, -2.20853220182833043239e+00) (115, -2.10214427510773816721e+02) (116, 4.23409976272936749986e-01) (117, 1.13241531042049359712e+02) (118, 6.56241254922890817625e+01) (119, 3.63685696295954763446e-01) (120, -5.83629501280153828446e+00) (121, 4.79876980326463586923e-01) (122, 4.69538600604868605615e+01) (123, 6.08938413281913284436e+01) (124, 8.00310588437611016843e+01) (125, 4.67702341324804820033e+01) (126, 3.47013600195963363149e+01) (127, 7.65681120051289667572e+01) (128, 2.86171532424284542628e+01) (129, 1.65745630100074066604e+02) (130, -3.39782911456891412172e+01) (131, -4.47658742165883367647e+01) (132, -2.79107355301582344964e+01) (133, 3.55948928082439400300e-02) (134, -1.80154170874331668983e+02) (135, -8.04923806052118493426e+01) (136, -3.24779294414857866435e-01) (137, 1.95821453444329468541e-01) (138, -1.02865858331759838507e+02) (139, 3.49158325886566416330e+01) (140, -3.04847761063730153808e+01) (141, -1.23525374714471851689e+02) (142, -1.93732305420698516230e+01) (143, 3.65567339449923756067e-01) (144, 3.98379263531172185253e+01) (145, 2.29944575487874391939e-01) (146, 4.46370455769095826781e+02) (147, 4.17277136346456578586e-01) (148, 7.62135747501834354134e-02) (149, 3.87443975877632962312e-01) (150, 3.16386526015672964185e-01) (151, -1.94719890274470060376e+02) (152, -2.15964860990716402966e+01) (153, 3.68633333304115573537e-01) (154, 4.13519857064012730241e-01) (155, 4.48354508348405345064e-01) (156, 2.74281599327072467265e-01) (157, 5.33796958404145205357e-01) (158, 4.08792293297614572900e-01) (159, 3.75156649799534114287e-01) (160, 4.39690192815931746306e-01) (161, 4.35667188815331896112e-01) (0, 2.60215295261084833545e-01) (1, 2.18106696609507849649e-01) (2, 2.31543179663212250752e-01) (3, 3.43023912073534775757e-01) (4, 3.43397965689623274610e-01) (5, 3.34629921364522631144e-01) (6, 2.14260466548618688787e-01) (7, 2.33928661828001788203e-01) (8, 3.49420880028617431012e-01) (9, 3.39384473380127171804e-01) (10, 3.08020062294924124036e-01) (11, 2.71783705368354722154e-01) (12, 3.31820110925563960258e-01) (13, 3.38374437479965151088e-01) (14, 4.08448288341128951107e-01) (15, 2.75608016971515823457e-01) (16, 2.32753465378503998640e-01) (17, 1.99510997673222501003e-01) (18, 3.88490777620161487071e-01) (19, 2.76830785411617374958e-01) (20, 3.94510460725093992096e-01) (21, 2.55000750331503600599e-01) (22, 3.24079257251549512908e-01) (23, 3.96234372622552843968e-01) (24, 3.66531401532116385411e-01) (25, 4.08896664006433097072e-01) (26, 3.76773184634841273866e-01) (27, 2.59850519323015671791e-01) (28, 2.51187940472165638361e-01) (29, 2.76889318255179539552e-01) (30, 2.63575792860821500607e-01) (31, 3.29387496669294510543e-01) (32, 2.68114607924949788220e-01) (33, 2.99959055600980684098e-01) (34, 2.66994609634289670197e-01) (35, 4.57041119055388189718e-01) (36, 1.15055933385126318846e-01) (37, 2.83347678463454988318e-01) (38, 2.31939543480266352482e-01) (39, 3.48690160943473381749e-01) (40, 4.05926724899795032808e-01) (41, 3.28310685668884105759e-01) (42, 1.83470041319042376227e-01) (43, 3.41374403760978495370e-01) (44, 2.19419696534064095905e-01) (45, 2.08781926952128937813e-01) (46, 2.42507451146171559841e-01) (47, 3.86946664640217652398e-01) (48, 4.16101914306129472276e-01) (49, 1.60368727968784846594e-01) (50, 3.91599903488072775826e-01) (51, 1.91187661889073684529e-01) (52, 5.76269452929545566988e-01) (53, 5.84961032308225270526e-01) (54, 5.94508817519454169087e-01) (55, 6.12294091020894760274e-03) (56, 2.39179684517909441066e-01) (57, 4.54668547931489863689e-01) (58, 1.33902820219109419675e+00) (59, 2.80713112552152199708e-01) (60, 4.37103944415956291447e-01) (61, 1.64055055069705607584e-01) (62, 1.47776773587280252364e+00) (63, 3.84766667914126281325e-01) (64, 4.12891299520397214717e-01) (65, 3.38392751727996654587e-01) (66, 1.48629260077387109762e-01) (67, 2.75915800557678503324e-01) (68, 1.83986366892245067906e-01) (69, 2.89759210370312991767e-01) (70, 3.03664264201452149816e-01) (71, 3.71023723372727265435e-01) (72, 4.27561715652193086168e-01) (73, 3.68944003084875515874e-01) (74, 1.88331540331182489822e-01) (75, 2.53118361226939758701e-01) (76, 4.97715868026563090787e-01) (77, 3.75634451152484893921e-01) (78, 1.40449371459831023889e-01) (79, 1.64962170691524634414e-01) (80, 1.54470070706069773081e+00) (81, 2.15587247779339158393e-01) (82, 1.43309910930821154951e-01) (83, 4.14227997131070169168e-01) (84, 5.14728923117472314530e-01) (85, 2.23218846432144957248e-01) (86, 2.44450948035906473477e-01) (87, 2.05442060686232441657e-01) (88, 3.75978452000871377070e-01) (89, 1.62276594271922897095e-01) (90, 4.28541929030842816406e-01) (91, 3.81919622130897473689e-01) (92, 1.91605545696554468993e-01) (93, 3.35132394153500656753e-01) (94, 2.90805891558929663354e-01) (95, 1.46631102752624864483e-01) (96, -8.98031090036221835149e-01) (97, 2.51486149643168066525e-01) (98, 2.37884503999531093932e-01) (99, 3.41053339902145202789e-01) (100, 3.37322011235377139382e-01) (101, 3.17305646759258930256e-01) (102, 2.78809443973122239591e-01) (103, 3.83375620754322576911e-01) (104, 3.42343732558914370934e-01) (105, 3.43230972690577340600e-01) (106, 3.37036553484489243004e-01) (107, 3.55885789087404535991e-01) (108, 3.10330247432872019520e-01) (109, 1.89736503006518453240e-01) (110, 3.73367127959818578820e-01) (111, 3.08409575594833729184e-01) (112, 2.47917462923938125563e-01) (113, 2.80364496807457619365e-01) (114, 3.53447462326279937539e-01) (115, 2.30603584074774464741e-01) (116, 2.69816366118166783838e-01) (117, 3.04357428097846938186e-01) (118, 3.48057718441533214815e-01) (119, 2.84238196732432391034e-01) (120, 3.37211827968568800262e-01) (121, 3.76442331802051777245e-01) (122, 2.12038149597916225630e-01) (123, 3.22578038428970481633e-01) (124, 4.19562138473201451383e-01) (125, 1.87216445681739424023e-01) (126, 3.20728412410654806219e-01) (127, 3.67594110187982381355e-01) (128, 3.06768878101052577811e-01) (129, 3.11789433887813216550e-01) (130, 3.32269120383913096894e-01) (131, 2.95952667907057653807e-01) (132, 3.29951128042849095579e-01) (133, 3.94774538198420232860e-01) (134, 2.44287452153932632681e-01) (135, 4.16588093336636433595e-01) (136, 3.50636677347501146684e-01) (137, 3.96055904222171795137e-01) (138, 3.89404488328098041805e-01) (139, 2.43076792067408703479e-01) (140, 3.96185182448773709485e-01) (141, 3.53968349630611744949e-01) (142, 3.72948424918049081800e-01) (143, 2.43489037340143821275e-01) (144, 3.94365026728801915112e-01) (145, 3.37622552606350323501e-01) (146, 2.94193093604999900137e-01) (147, 2.51584846450364663095e-01) (148, 4.05261014378340167497e-01) (149, 4.09179823500507577894e-01) (150, 3.39027243780975540144e-01) (151, 3.44499005717950113059e-01) (152, 3.50076434784070023021e-01) (153, 3.66154673048179890582e-01) (154, 3.07114532901611503313e-01) (155, 2.38173162118220677064e-01) (156, 3.93110688302309385644e-01) (157, 3.70415393069713771990e-01) (158, 4.11890968837803184144e-01) (159, 2.89899298577768749219e-01) (160, 2.74021546521933889728e-01) (161, 2.91621985405094430455e-01) (0, 6.07815604990935232088e-01) (1, 6.23540394271341891219e-01) (2, 5.97788127533538937719e-01) (3, 6.47527551808450008153e-01) (4, 5.93800886544309070025e-01) (5, 5.18910754348042124739e-01) (6, 6.21401479953741397999e-01) (7, 5.37100064795234088955e-01) (8, 5.91532989027449662700e-01) (9, 6.32431082531123012203e-01) (10, 7.13944149191231836049e-01) (11, 5.33824346379117242734e-01) (12, 6.45701038377419656022e-01) (13, 6.48556240584545085071e-01) (14, 6.42966484429163265268e-01) (15, 4.78551596193244277444e-01) (16, 5.24105473259475096448e-01) (17, 6.32711958347374259226e-01) (18, 4.78330783567358697184e-01) (19, 5.84509824247796405672e-01) (20, 5.88345003366009589030e-01) (21, 5.69128118198469312716e-01) (22, 5.31999162623859489507e-01) (23, 6.74536029836722339503e-01) (24, 6.69171563627536492014e-01) (25, 5.24409409971362538982e-01) (26, 5.78440878349940956760e-01) (27, 6.45928323453959118972e-01) (28, 6.14111985453795861112e-01) (29, 5.90065130949283145334e-01) (30, 5.03264006873766711614e-01) (31, 5.69220553440543342028e-01) (32, 6.00747459432234509613e-01) (33, 5.39731279079707082502e-01) (34, 6.66022073588338980876e-01) (35, 8.41598133315028973378e-01) (36, 8.30728431027058844549e-01) (37, 1.32240981920816236261e+00) (38, 5.68585185183493768690e-01) (39, 5.45234293601876918167e-01) (40, 6.96879952096241095383e-01) (41, 5.68702688795063915350e-01) (42, 5.42374574638052719955e-01) (43, 5.32659496815957145266e-01) (44, 5.72904618229913786820e-01) (45, 9.82936999747011541650e-01) (46, 4.58375904230114761262e-01) (47, 1.29014303738881075390e+00) (48, 3.60208193357773931442e-01) (49, 7.08090239429779111369e-01) (50, -8.40836940158624979169e-01) (51, 6.02096499115162719917e-01) (52, 6.15428516729620400660e-01) (53, 1.06878565082285970078e+00) (54, 1.64644806306332935897e+00) (55, 6.08303244379344021375e-01) (56, 3.12457968314582501534e+00) (57, 6.91965865836845606118e-01) (58, 2.36054808484301625882e+00) (59, 1.43447973616008255249e+01) (60, 1.80515464345249038169e-01) (61, 1.73020949072359719878e+01) (62, -3.99222915132904265789e+00) (63, 3.34882735917889806654e-01) (64, 1.05314105075505914932e+00) (65, 5.61887285095189037420e-01) (66, 6.74955186492844028123e-01) (67, 6.38609502168452247695e-01) (68, 7.69285158958481818381e-01) (69, 8.12154865810133408388e-01) (70, 5.83398170290225892565e-01) (71, 1.34200097824145192504e+00) (72, 2.86525225784369341753e-01) (73, 4.67712286772019258940e-01) (74, 5.83847219676270734467e-01) (75, 7.11984628114750273120e-01) (76, 9.29399522989593829259e-01) (77, 3.55727290814121266393e+00) (78, 7.34690635004128123065e-01) (79, 1.15317661594469411668e+00) (80, 1.01620428319905542480e+00) (81, 5.43239336916454318427e-01) (82, 6.28842665134488831846e-01) (83, -5.71891898223741090845e-01) (84, 1.12141502046850716212e+00) (85, 5.70528070406662202174e-01) (86, 5.53228404988079236482e-01) (87, 5.83925380031662388802e-01) (88, 7.75819745218123579811e-01) (89, 1.38536131240129414266e+01) (90, 4.92400128006247439494e-01) (91, -1.22221919570916451314e-01) (92, 7.14835613913016310050e-01) (93, 5.31133954589295242954e-01) (94, 6.15213897891299876797e-01) (95, 5.78222899558562652977e-01) (96, 6.85573360844257684299e-01) (97, 5.61806471292789377792e-01) (98, 6.31324601547477493035e-01) (99, 5.21747901947993919514e-01) (100, 6.04151456368529071739e-01) (101, 5.92164945617103199993e-01) (102, 6.40258560899364503882e-01) (103, 6.21281876114954778600e-01) (104, 6.46601676650417900305e-01) (105, 5.06233273583639231674e-01) (106, 4.84321821851181999463e-01) (107, 6.05074983013002776211e-01) (108, 5.10274594407135961838e-01) (109, 5.26000170630503971481e-01) (110, 5.74648400574897411097e-01) (111, 5.62005913552077629447e-01) (112, 6.93892536937206427794e-01) (113, 5.36052870282861526618e-01) (114, 6.20038064050002835081e-01) (115, 6.40121390814638924205e-01) (116, 6.06011694200442430080e-01) (117, 5.30868462529875850819e-01) (118, 5.43097032354322828418e-01) (119, 4.83556007300957380046e-01) (120, 5.93864238508942543504e-01) (121, 5.96758767702258219323e-01) (122, 3.49692974774632570067e-01) (123, 2.81719024344778079527e-01) (124, 5.18692880528902056092e-01) (125, 6.02807590588172570456e-01) (126, 5.25998452602254085164e-01) (127, 6.13390417248696362407e-01) (128, 5.07670301340306329152e-01) (129, 6.61504336184550401079e-01) (130, 6.77614043891953787835e-01) (131, 5.86934772886857025753e-01) (132, 5.37184686903059871455e-01) (133, 5.61065047397629079740e-01) (134, 5.73721015545854196027e-01) (135, 6.97077474934073126889e-01) (136, 6.41073721906625260125e-01) (137, 5.62856256435055879450e-01) (138, 6.37256067008392212969e-01) (139, 6.17779239630837251340e-01) (140, 6.58521859773409712346e-01) (141, 5.51134116567484344529e-01) (142, 6.78284636931610340760e-01) (143, 6.53747971714713882463e-01) (144, 6.05283735488611362996e-01) (145, 5.42384904420175395501e-01) (146, 5.66504283218191684313e-01) (147, 5.17843346933524961706e-01) (148, 6.47670893644776590747e-01) (149, 6.53533155820525957225e-01) (150, 6.19327760775205238275e-01) (151, 5.26301950688868425132e-01) (152, 5.17566762837085692084e-01) (153, 6.76831290351163961105e-01) (154, 5.67938850241960224707e-01) (155, 6.14903738353445028508e-01) (156, 6.43301064721465865048e-01) (157, 6.11943907576502521550e-01) (158, 5.98272198027923751695e-01) (159, 6.60306164738586165441e-01) (160, 5.54095368643263475050e-01) (161, 5.43990216533629777906e-01) (0, 5.27987671819064918743e-01) (1, 5.37693831771612673620e-01) (2, 5.54669456133162430689e-01) (3, 5.19652665555569437394e-01) (4, 5.73762883009744428797e-01) (5, 5.12506723364632432727e-01) (6, 6.12380736228582245317e-01) (7, 4.98823810841547532480e-01) (8, 4.04315700450284420953e-01) (9, 4.94438576755310443822e-01) (10, 4.83192275128123127637e-01) (11, 6.74320052774433187359e-01) (12, 5.07996968114243885317e-01) (13, 3.89758818619869540356e+00) (14, 1.95217931253628873556e+00) (15, 6.01466993960526830065e-01) (16, 4.53603791406983425372e-01) (17, 6.92960447881896701716e-01) (18, 5.15341082444705111953e-01) (19, 7.60336094700768327925e+00) (20, 8.79210028501726803540e-01) (21, 6.14383312186805197186e-01) (22, 6.06376865297232225949e-01) (23, 4.72946638806723829163e-01) (24, 5.21297619737354556158e-01) (25, 4.77556561414827718259e-01) (26, 1.03940604813829073905e+00) (27, 6.01336298724783890890e-01) (28, 6.90916335099420297894e-01) (29, 5.01635684006352722264e-01) (30, 6.43320795068061723754e-01) (31, 4.58570773637566764247e-01) (32, 6.41700436102076277045e-01) (33, 5.64141052863662118000e-01) (34, 8.71848733113182006171e-01) (35, 3.60166581591446330890e+01) (36, 3.41887939006738683645e+00) (37, 8.35182876030396315059e-01) (38, 3.60063343837973377504e+01) (39, 3.55705746558272917213e+00) (40, 5.42111539132143782638e+00) (41, -1.23359410808115299574e+02) (42, 2.00734673429702942249e-01) (43, 7.37405772216845463163e+01) (44, 1.14370222927437097837e+02) (45, 5.92970740944510743553e-01) (46, 8.20437241897486679854e-01) (47, 5.20335495019116689441e-01) (48, -3.08521477516128186380e+01) (49, -1.65885350675665649289e-01) (50, -6.44253395536330231153e+01) (51, 1.70284798142968355705e+02) (52, -9.72166555330986703609e+00) (53, 1.20505565665060544234e+02) (54, 1.75721145402043788408e+02) (55, 2.61224625527194209695e+00) (56, -9.73379040894209168755e+01) (57, -5.24200175217106334458e+02) (58, 3.28117373258911982248e+02) (59, 1.64673733959496537693e+01) (60, -1.46345852727057433640e+02) (61, 1.80963284369701660204e+00) (62, 1.58023417582821039673e+01) (63, -1.12494367628933844117e+02) (64, 2.17120801364308597670e+01) (65, -1.23387237661211784712e+02) (66, 3.72911317635754802069e-01) (67, 7.38272956393886516935e+01) (68, 1.14254162782237798979e+02) (69, 5.95668357760077427088e-01) (70, 8.01171053752802952985e-01) (71, 3.63112926030317695325e-01) (72, -3.08922058540715340769e+01) (73, 8.13282767006294649015e-01) (74, -8.58329432012432107513e+01) (75, -9.48836493065421282544e-01) (76, 1.22031064886532976743e+03) (77, -1.61752086626670887881e+01) (78, 6.53163073156783102746e+00) (79, -1.25934442526281973329e+01) (80, 1.15525652773956011288e+00) (81, -2.79413174219477866700e+00) (82, 6.66727023164798637822e+00) (83, 8.02093032984075726688e+00) (84, 1.81702568817905643073e+01) (85, -5.03670381594543137282e-01) (86, 7.35532907870002805595e-01) (87, 1.19800365902023369102e+01) (88, -8.35716602800019359165e-01) (89, 6.81353896273082404456e-01) (90, -2.52772774299944245513e+02) (91, -2.30192707114634629306e+02) (92, 5.59538989064879088708e-01) (93, -2.25127382604758885520e+00) (94, -5.78244575064268517828e-01) (95, 7.96221641336719727633e+01) (96, 9.00784958612197925731e+01) (97, 4.78561230629796108271e-01) (98, 4.99974668432812519026e-01) (99, 5.76061048743120696081e-01) (100, 7.70872237322556053130e-01) (101, 1.55194939965743941457e+02) (102, 6.45353445782205659143e-01) (103, 6.41846532442849393441e-01) (104, 3.99420232475072023437e-01) (105, 5.04112094217182282740e-01) (106, 5.51017722317642122398e-01) (107, 9.35937019735182502700e+01) (108, 5.80745960063313249044e-01) (109, 5.78032655508716963766e-01) (110, 5.37964459384474236181e-01) (111, 5.42257217274571878818e-01) (112, 5.58986758844434494797e-01) (113, 2.99034880963960303379e-01) (114, 5.26774252720550117957e-01) (115, 5.53207793819607607233e-01) (116, 5.96754163405660009722e-01) (117, 6.40921161367273062304e-01) (118, 5.49451413415810607788e-01) (119, -1.79618188486758718625e+01) (120, 5.56563577277090493212e-01) (121, 4.26765399977958148625e-01) (122, -1.56016625625692011425e+01) (123, 2.97127725146896171093e-01) (124, 5.51690022493310339158e-01) (125, 7.52448954936646430269e-01) (126, 4.35969903717100037976e-01) (127, 7.16815082876913645116e-01) (128, 5.62875328399277421454e+01) (129, 6.23891325998886858706e-01) (130, -3.30312929590797779156e+01) (131, 5.75275261265570270197e-01) (132, 3.86131256930836330721e-01) (133, 6.12212801680648510683e-01) (134, 5.52334044521569977881e-01) (135, 5.27087349643288738399e-01) (136, 4.58375457204169167724e-01) (137, 4.53452770763730694803e-01) (138, 3.02739790499815975000e-01) (139, 6.48081702641762125161e-01) (140, 4.52230080334504902506e-01) (141, 5.26844750809729589491e-01) (142, 4.77209125627851116214e-01) (143, 4.51635698002635421755e-01) (144, 5.59237143604317421541e-01) (145, 6.86542174954998696279e-01) (146, 5.59929427493272124927e-01) (147, 6.02662903118997506091e-01) (148, 4.60941734048715856531e-01) (149, 5.42134506540511429407e-01) (150, 4.42232853382730606295e-01) (151, 4.80381725135757553513e-01) (152, 6.28650819263879445664e-01) (153, 5.43138239286461432798e-01) (154, 4.62422827242639500334e-01) (155, 5.98611759270319621073e-01) (156, 4.51906913913697583229e-01) (157, 5.29907087415243838180e-01) (158, 4.31259761833101828987e-01) (159, 4.63745466851256726848e-01) (160, 4.90070085513797382148e-01) (161, 4.73587720406489609548e-01) (0, 6.59252590468339838559e-01) (1, 5.10794341546721319958e-01) (2, 7.10583984551332648039e-01) (3, 5.87106230665670913993e-01) (4, 5.25363266200690071095e-01) (5, 5.56750986540920367318e-01) (6, 6.29798923054713077896e-01) (7, 6.09596450698541181268e-01) (8, 7.38429368979782285720e-01) (9, 5.56310652881494505095e-01) (10, 5.83083985000259152898e-01) (11, 5.64800674640766775525e-01) (12, 4.69387518725699504074e-01) (13, 7.18144620042961423501e-01) (14, 7.51298128097476869414e-01) (15, 5.10462107348357729819e-01) (16, 6.22422161722023581376e-01) (17, 6.12421117913246271236e-01) (18, 6.44397478738537921039e-01) (19, 5.21677408608112402888e-01) (20, 5.71290159908441785852e-01) (21, 5.72284296623497001910e-01) (22, 6.05270224173895421416e-01) (23, 4.98564453206383983996e-01) (24, 4.46460746100466043806e-01) (25, 5.68656423557951429260e-01) (26, 8.45521668947718296749e-01) (27, 5.54382718729452772521e-01) (28, 6.98368830628872561128e-01) (29, 6.32988042460944755341e-01) (30, -3.64907371239411026931e-01) (31, 6.91238884612667581209e-01) (32, 6.56477781991458786415e-01) (33, 5.73423157307513697845e-01) (34, 6.14712702583631087627e-01) (35, 3.13952738360034011578e-01) (36, 1.34246121143209595772e+00) (37, 2.12401672005432196055e-01) (38, 5.84868439180653898468e-01) (39, 7.30557667946412969684e-01) (40, 6.10654856930547440541e-01) (41, 8.92941517159243502988e+00) (42, 4.79594105935927272899e-01) (43, 1.25284621954003094757e+00) (44, 4.93544271668701628464e-01) (45, 6.54897924251117369288e-01) (46, 5.28938955730302140523e-01) (47, 1.61502658437343438180e+00) (48, 8.81946727360531923523e-01) (49, 3.44985829365573781757e+00) (50, 6.86946080579750872896e-02) (51, 8.13556766935323971701e-01) (52, 2.02354244696912122237e+00) (53, 6.76420531757942811169e+00) (54, 7.46528080148956552087e-01) (55, 5.56452783101418768652e-01) (56, 1.82548044117009222731e+00) (57, -1.31176007285750539921e+00) (58, 4.72503598937095481425e-01) (59, 1.06758381692876724856e+00) (60, 3.19728859576340518345e+00) (61, 3.03429219114954911163e+01) (62, 3.55280402574866105425e+00) (63, 1.39319622580356794472e-01) (64, -2.61024995359363876091e+00) (65, 9.03327212259074308065e+00) (66, 5.00394115305777265057e-01) (67, 1.18986788481512784088e+00) (68, 6.60937129041457294143e-01) (69, 7.51280747092521461461e-01) (70, 5.49460693365437347069e-01) (71, 1.51952995221467812570e+00) (72, 9.30564112688346822821e-01) (73, 2.05691989285287757383e+00) (74, 5.69924359242517608592e-01) (75, 6.43396126197466888819e-01) (76, 6.88055247579664452928e+00) (77, 1.17557172360705797232e+00) (78, 6.85481224781658737832e-01) (79, 6.93423703643253119822e-01) (80, 9.41216220505939754615e-02) (81, 4.41359194916052577362e-01) (82, 4.50057557441189981517e+00) (83, 6.01160641354016922477e-01) (84, 1.91858510418422256727e+00) (85, 1.85598839685218308659e+00) (86, 7.19342027887057255953e-01) (87, 5.98266738833737155012e-01) (88, 5.94315656146774062840e-01) (89, 1.76836230712979602941e+00) (90, 6.50475035928083866743e-01) (91, 2.43932938315590668310e+01) (92, 9.41552609343103696915e+00) (93, 8.63640679425890289700e-01) (94, 7.32888254279913775591e-01) (95, 4.21503788267252710309e-01) (96, 5.57510194273734938086e-01) (97, 6.73817456452184382343e-01) (98, 6.55270371501045501006e-01) (99, 5.55041117411346429655e-01) (100, 3.38181383152033054884e-01) (101, 5.57704981524117626712e-01) (102, 7.49767145155959879865e-01) (103, 5.33695363521406673790e-01) (104, 5.18966929338006699446e-01) (105, 5.01445252424607579300e-01) (106, -1.15885841444184247706e+01) (107, 5.85838343717256071486e-01) (108, 6.34536044567134971395e-01) (109, 6.58922049559547362563e-01) (110, 6.20325456916491657644e-01) (111, 6.70118989007742471564e-01) (112, 5.78028443443876494001e-01) (113, 4.64212597973475082913e-01) (114, 7.45682600065643352849e-01) (115, 5.49144422157865297329e-01) (116, 5.83691546693865803697e-01) (117, 5.61483011582910251924e-01) (118, 5.75320614520775763800e-01) (119, 4.21366715920420575880e-01) (120, 5.97420629350669307733e-01) (121, 5.91649737965868061096e-01) (122, 3.90338545677798964828e-01) (123, -1.25324593448265608764e+00) (124, 5.50265265858114749342e-01) (125, 7.16281812583807120376e+00) (126, 6.23955083931688303522e-01) (127, 1.86538663867485121628e+00) (128, 2.39955852961569471304e+00) (129, 6.10776658289231444421e-01) (130, 6.07229223899008463405e-01) (131, 5.23125085760331343110e-01) (132, 6.29080593328287807076e-01) (133, 5.32564970068292620198e-01) (134, 6.08737109100854989485e-01) (135, 6.84125809009865082366e-01) (136, 6.02002038998303623529e-01) (137, 6.58609681024673432326e-01) (138, 5.91851077709081407896e-01) (139, 5.33982186216067300499e-01) (140, 6.39330651167399510726e-01) (141, 5.01802615195557910610e-01) (142, 5.52240803554168824263e-01) (143, 5.90068202854619805464e-01) (144, 5.05206491789931377845e-01) (145, 5.57724597319833037545e-01) (146, 5.66006751754539294552e-01) (147, 5.89445367536824416099e-01) (148, 6.56265710350908304527e-01) (149, 4.99514274427707294368e-01) (150, 6.42284939415722622158e-01) (151, 6.87803124289197764796e-01) (152, 5.88740534436297480170e-01) (153, 6.75558724055733250680e-01) (154, 5.55662606247069756904e-01) (155, 6.78606981739502623796e-01) (156, 6.21097005927237932887e-01) (157, 6.59550319867459267087e-01) (158, 6.93093422993429020273e-01) (159, 5.38246275517995087512e-01) (160, 5.61946478626494605457e-01) (161, 5.76567604799867239329e-01) (0, -2.11966146035074992637e-01) (1, -2.25001507697830838151e-01) (2, -5.78064845636947974294e-02) (3, -1.10125706679128201881e-01) (4, -6.45167864141126395916e-02) (5, -1.47302536264188793647e-01) (6, -1.90435413304438694304e-01) (7, -1.57001903408624715608e-01) (8, -2.69803774526092832176e-01) (9, -5.71227620866760210649e-02) (10, -1.67619259442001206084e-01) (11, -1.85269105268324490998e-01) (12, -2.07718755557374262777e-01) (13, -1.31491492622160588422e-01) (14, -1.72469310553243354578e-01) (15, -1.19307499244166947960e-01) (16, -1.94609144776104386887e-01) (17, -2.26435786999723581703e-01) (18, -8.25581433392459373977e-02) (19, -4.74768698045404877184e-02) (20, -2.68861634151246586821e-01) (21, -2.14130062545454219469e-01) (22, -8.91938761802671259415e-02) (23, -1.66705690177074983271e-01) (24, -2.44136316931372943095e-01) (25, -1.49007131072735055088e-01) (26, -2.18826934284715723944e-01) (27, -5.24634560570344452013e-02) (28, -1.53816611914304429698e-01) (29, -7.60650762235257071886e-02) (30, -1.33923850164165969545e-01) (31, -7.42865445823060188690e-02) (32, -9.94944963501102203063e-02) (33, -1.49514564264071087019e-01) (34, -1.81195580947495660240e-01) (35, -5.87601111345083318427e-02) (36, -3.82777267716514435492e-01) (37, -5.08248395972483030247e-02) (38, -2.23220250371101963660e-01) (39, -2.38688677788325781526e-01) (40, -1.27619877952190791115e-01) (41, -1.27852179832456003261e-01) (42, -1.87178894750201191277e-01) (43, -2.54604398039997015246e-01) (44, -1.44109323403162487010e-01) (45, -1.38586563654250843891e-01) (46, -1.54573689457075863496e-01) (47, -1.61707757303332450016e-01) (48, -2.70710706309051807317e-01) (49, -1.80418683296145965222e-01) (50, 4.22983098379078492624e-01) (51, -2.76257316577934730617e-01) (52, -9.80476822900612499101e-02) (53, -3.72387389141417224359e-01) (54, -2.16348739935465189665e-01) (55, -3.18423009140627266689e-01) (56, -9.44292005432699060874e-02) (57, -4.09731591118095817006e-01) (58, 8.21924604087753557513e-02) (59, -1.51796373623576208445e+00) (60, 1.87505747097506086929e-01) (61, -2.38067633036564352267e+00) (62, 1.52684946406925703410e-01) (63, -2.19170551196886082002e-01) (64, -3.20546589122550074080e-01) (65, -1.94289103872773122328e-01) (66, -2.53884494177420705352e-01) (67, -1.52271806029504686020e-01) (68, -1.91191009959501750926e-01) (69, -2.77907674796882886437e-01) (70, -1.80843475516932306046e-01) (71, -1.21736211964702578658e-01) (72, -1.18472300068116292993e-01) (73, -9.76145674343217445434e-02) (74, 5.64066507428036989502e-01) (75, -2.08950060448405611213e-01) (76, 5.40523606099711020900e-02) (77, -3.10892550900422559579e-01) (78, -1.38718441121682661832e-01) (79, -2.12977852202312328833e-01) (80, -8.45005704445833949467e-02) (81, -7.00249628864900580671e-02) (82, -4.34996519365095579701e+00) (83, 1.43622158033878510874e-01) (84, -1.23849783050193271161e-01) (85, -9.70322840269792208368e-02) (86, -2.42520080638712831611e-01) (87, -1.11755258322977446550e-01) (88, -1.99225773789351856546e-01) (89, -3.81210547073608907453e-01) (90, -1.01609644981024233035e-01) (91, 4.77058107888972751653e-02) (92, -1.37678198802218570984e-01) (93, -1.26473548311314076820e-01) (94, -1.93245812122613658257e-01) (95, -1.47568997535289153644e-01) (96, -1.63483786535694564090e-01) (97, -1.75529694689664589324e-01) (98, -7.51506467402382055676e-02) (99, -2.45707554860724097789e-01) (100, -1.68925056348070173895e-01) (101, -2.02449405898242951185e-01) (102, -8.64594626774937702329e-02) (103, -1.70580344894837393488e-01) (104, -1.84340443747198018398e-01) (105, -1.06439672595808054734e-01) (106, -8.23719639582308760239e-02) (107, -2.04638118959241999129e-01) (108, -2.09338837167654279181e-01) (109, -1.28009333907313616052e-01) (110, -1.90016021241775107109e-01) (111, -2.31417679596980840895e-01) (112, -2.20422262353297537807e-01) (113, -7.90138400638451393609e-02) (114, -1.06984146476896760380e-01) (115, -2.42195045133077518917e-01) (116, -1.82335386305764901582e-01) (117, -8.87927354741745444855e-02) (118, -6.98867989648367521349e-02) (119, -7.41485716845493789129e-03) (120, -1.32951058347700740159e-01) (121, -1.60548678511962028548e-01) (122, -7.95637438006069896979e-02) (123, -1.86869747370164485112e-01) (124, 3.59082784115172942707e-02) (125, -2.20470283442782216676e-01) (126, -2.91146489800510090140e-02) (127, -1.06666406019786330628e-01) (128, -1.69720906381302938382e-01) (129, -1.23537257367908465122e-01) (130, -4.44491233872771063229e-02) (131, -3.80835388498999630191e-02) (132, -1.83894559961495313027e-01) (133, -6.12114234835250264899e-02) (134, -1.50741480704320696127e-01) (135, -1.36534966055328971235e-01) (136, -1.51990618566808538548e-01) (137, -1.77354632182284727149e-01) (138, -7.57342127598396169796e-02) (139, -7.67693085543034448026e-02) (140, -5.15320008347157354489e-02) (141, -2.08058356816512218801e-01) (142, -3.86022090903726453059e-02) (143, -2.21873132456829574854e-01) (144, -1.00014566184747244471e-01) (145, -1.20502363789384683845e-01) (146, -1.87227859320205247684e-01) (147, -1.50819175292471480826e-02) (148, -1.71696465317235008596e-01) (149, -7.50376849649327937186e-02) (150, -6.00547163961285060396e-02) (151, -6.84602987822986175370e-02) (152, -2.20535476543992858822e-01) (153, -1.00095215709348525635e-01) (154, -1.80079288055533609514e-01) (155, -3.30332564402808295800e-02) (156, -8.60821618088244144840e-02) (157, -2.92035107558825564322e-02) (158, -8.22606501405084844514e-02) (159, -2.15833045508703968984e-01) (160, -1.01216934766420185721e-01) (161, -1.40632792034399017878e-01) (0, -5.68755420906024711236e-02) (1, -1.09916516778425427114e-01) (2, -1.77306999175417173698e-01) (3, -1.70837322701515109680e-01) (4, -2.11622819379205212575e-01) (5, -1.14314364896428669049e-01) (6, -1.39556829800544512921e-01) (7, -6.71579436165791743285e-02) (8, -1.75040062931284601255e-01) (9, -1.62432089270531293534e-01) (10, -7.09481589212128116451e-02) (11, -1.94489186721110568490e-01) (12, -1.64749897886724755436e-01) (13, -1.45514652056352444820e-01) (14, -9.37292853107665746570e-02) (15, -1.28385698147099130972e-01) (16, -1.47541791456639065361e-01) (17, -2.33329869481745583171e-01) (18, -1.61572214753923332209e-01) (19, -1.65818097247859896903e-01) (20, -1.00132772356067892283e-01) (21, -1.75107871088356237266e-01) (22, -5.85445405568078697245e-02) (23, -2.14005305414766949790e-01) (24, -2.06332790269422028384e-01) (25, -9.28208063944130079559e-02) (26, -2.51879455573772392807e-01) (27, -4.09597209489209052036e-02) (28, -1.17287412584516970160e-01) (29, -8.29011271246433284476e-02) (30, -9.83497610929195270613e-02) (31, -9.80284544879672925521e-02) (32, -1.97292128836156377414e-01) (33, -5.52206387321052191708e-02) (34, -2.61502838903467760279e-01) (35, -1.13495486128781936097e-01) (36, -1.44867507001251200061e-01) (37, -1.56916091007198943430e-01) (38, -1.63420413018104171421e-01) (39, -1.94703615755921349839e-01) (40, -1.66529283088802382284e-01) (41, -1.84044069798352721845e-01) (42, -1.60228163643406446015e-01) (43, -1.03603379205016610243e-01) (44, -6.26419705936926557444e-02) (45, -2.57657166790054348304e-01) (46, -3.10607598323073386126e-01) (47, -2.48457290458907631425e-01) (48, -1.48802545122488111273e-01) (49, -1.69972874930057443743e-01) (50, -4.63273203934243676949e-02) (51, -2.45924268061423367815e-01) (52, -2.20402344957625027921e-02) (53, -1.56608474052260776554e-01) (54, -1.65715322847658247385e-01) (55, -3.47357816772498662061e-01) (56, -1.85646695299118480449e-01) (57, -2.31564871998293986266e+00) (58, -1.02123328275029318091e-01) (59, -6.70421138592575349691e-01) (60, 7.56648982372604972380e-02) (61, -4.71582453829003545032e-01) (62, 6.01145189693695278232e-02) (63, -1.35198572691077434360e-01) (64, -2.91133884432553391441e-01) (65, -1.50698914380433562910e-01) (66, -7.49767801599987848693e-02) (67, -1.90127113238123729433e-01) (68, -2.08711661178828722374e-01) (69, -2.65265282463119644873e-01) (70, -2.86499411958899830033e-01) (71, -2.75292966741549183229e-01) (72, -1.12959239832744140486e-01) (73, -1.14087514943003079382e-01) (74, -6.72580439130291835026e-02) (75, -2.01454525505009612862e-01) (76, -6.77127742321822628790e-02) (77, -2.84989285898847088951e-01) (78, -1.28779737532331069877e-02) (79, -9.85233193846237198521e-02) (80, -1.73796691635272310128e-01) (81, -3.02360599187417727896e-02) (82, -7.86006353986423045299e-01) (83, 3.25752937725192551199e-02) (84, -2.65077687044112386694e-01) (85, -1.40951748700722828689e-01) (86, -1.72030870825580967098e-01) (87, -1.55964805085245517002e-01) (88, -5.99155815301689875785e-02) (89, -4.80146507251910603653e-01) (90, -2.01106018978379486040e-01) (91, -1.26932361663557202736e-01) (92, -2.66462992618362704000e-01) (93, -1.35398155732233599347e-01) (94, -1.41858559169614428797e-01) (95, -1.01242699191683119264e-01) (96, -3.31372258455327473037e-01) (97, -1.62860778281757156982e-01) (98, -9.32775493170621694539e-02) (99, -2.23248775974709434688e-01) (100, -1.15940137407855692331e-01) (101, -2.59363285796789744264e-01) (102, -1.85930160443788572433e-01) (103, -1.73768976191287338739e-01) (104, -7.88595797258108688332e-02) (105, -2.29066049922280579043e-01) (106, -3.99882689799004945042e-02) (107, -2.21104159932059257665e-01) (108, -2.23485527144663714827e-01) (109, -8.06081171287268000158e-02) (110, -9.41911632330156844972e-02) (111, -1.20687158751746292928e-01) (112, -1.76457460658484333038e-01) (113, -4.95868053576722991882e-02) (114, -2.36733397977655496414e-01) (115, -1.34084682680737171667e-01) (116, -1.84404308942909711533e-01) (117, -1.18816619438441212209e-01) (118, -2.86814956086141360780e-02) (119, -1.51460811472349993201e-01) (120, -2.28710740433110598646e-01) (121, -8.27730777018426677749e-02) (122, -1.85515748912360556311e-01) (123, -1.81398454439258782767e-01) (124, -1.53968660226556364190e-01) (125, -6.26052390623990512308e-02) (126, -5.25477080221900955115e-02) (127, -1.88477147427953212189e-01) (128, -1.80202346620682657408e-01) (129, -1.44519396651637238582e-01) (130, -1.37733157737376210594e-01) (131, -2.08181841749181029133e-01) (132, -7.82002036617928109052e-02) (133, -6.29141073455726923536e-02) (134, -1.59588464323686063384e-01) (135, -1.13830506148735743910e-01) (136, -2.14824930078416742596e-01) (137, -1.51274548856613066938e-01) (138, -9.80189836412672377275e-02) (139, -1.97040257730634327249e-01) (140, -1.57631595110239941526e-01) (141, -1.38739289614189020838e-01) (142, -2.53542773521198028241e-01) (143, -1.00853945695402291705e-01) (144, -1.78184255078396330818e-01) (145, -2.47077342554940682096e-01) (146, -1.71640675703907036320e-01) (147, -9.94681202178646917123e-02) (148, -1.48843292592525572315e-01) (149, -2.09769909714519142696e-01) (150, -2.53797346104786436527e-01) (151, -1.34077715278719866721e-01) (152, -2.26538583494396761342e-01) (153, -1.82112689693733648122e-01) (154, -8.89513078222071151835e-02) (155, -1.35932876496406535027e-01) (156, -2.08977589160949106528e-01) (157, -1.16651138751541635918e-01) (158, -2.55890382234931712535e-01) (159, -1.48748745197689324904e-01) (160, -1.86943684974751028749e-01) (161, -1.30751030768166048857e-01) (0, 2.51779318590973855141e-01) (1, 2.17952186460364932818e-01) (2, 2.91372111321728077815e-01) (3, 2.48948959276977133115e-01) (4, 3.93092243582273848101e-01) (5, 3.52317803343834334839e-01) (6, 3.50114329623609610298e-01) (7, 3.34979135429567143056e-01) (8, 2.07486246931913642655e-01) (9, 2.56513962426838493247e-01) (10, 2.51639939193223194369e-01) (11, 2.15522127641947724985e-01) (12, 2.18547217164235862974e-01) (13, 3.26920785039416406104e-01) (14, 2.39438289604238740971e-01) (15, 3.27869866895889483516e-01) (16, 2.97013678735191577474e-01) (17, 3.83531274148380507683e-01) (18, 3.95287601126714627231e-01) (19, 3.34229121497406800323e-01) (20, 2.84212921307746557709e-01) (21, 2.09945912338673074116e-01) (22, 3.99261841293620300952e-01) (23, 3.18314447132949429609e-01) (24, 3.28711863466268960909e-01) (25, 2.95054806815917780582e-01) (26, 2.24870678616700098162e-01) (27, 3.68953975216354868039e-01) (28, 3.90313322957684449843e-01) (29, 3.51184277645235853882e-01) (30, 3.17552515861690753951e-01) (31, 3.55804363484759689218e-01) (32, 3.28138673822223614351e-01) (33, 2.81068140136966737597e-01) (34, 3.31406860704795025452e-01) (35, 3.46426692206220798731e-01) (36, 2.87405845575209650811e-01) (37, -4.55704440616052641744e-01) (38, 2.84806407465725219819e-01) (39, 3.90835146603800476228e-01) (40, 2.44960280658265056042e-01) (41, 2.96380093014557810527e-01) (42, 1.81914179857501051574e-01) (43, 2.61125908150430574572e-01) (44, 2.18950776416365622268e-01) (45, 2.54004558102319810686e-01) (46, 2.63668792562901876941e-01) (47, 3.25900947715574929031e-01) (48, 2.59911828743247697027e-01) (49, 4.09215694619965097978e-01) (50, 1.55527872248207882366e-01) (51, 2.89240160510947308392e-01) (52, 1.17149445777439423222e-01) (53, 3.32487208904210740368e-01) (54, 1.90607196239491821776e-01) (55, 1.29964247754343148467e-01) (56, 4.13572909468066018945e-01) (57, -2.61190976565078258886e+00) (58, -6.80814188710375134406e-01) (59, 2.41602404523883401710e-01) (60, 1.25142514432818363623e+00) (61, 1.06699723917897199010e-01) (62, 1.17752554205113124652e+00) (63, 1.59103342452824259023e-01) (64, -2.25411800330370226675e-01) (65, 3.96679600394089670878e-01) (66, 2.00695040907391569762e-01) (67, 2.77007640256641485266e-01) (68, 3.34682317483733338115e-01) (69, 2.64099819139670122237e-01) (70, 1.51588538902219238658e-01) (71, 3.55885839130217263016e-01) (72, 3.91453580068378326207e-01) (73, 4.44843474539678762625e-01) (74, 2.09492037819224291573e-01) (75, 1.97607604065567127316e-01) (76, 6.25216854557692269800e-01) (77, 1.87281948862908942388e-01) (78, 4.99272941738212905349e-01) (79, 8.84357610819573071448e-03) (80, -4.45687132232676530563e-01) (81, 2.93903894312279756473e-01) (82, 2.71435087043561396047e-01) (83, 3.54260649574013541940e-01) (84, 2.41993721039026443709e-01) (85, 3.97554429174104662081e-01) (86, 2.34759749437692871732e-01) (87, 3.36013251023178804999e-01) (88, 2.61998796329157956908e-01) (89, 2.36676841999621488666e-02) (90, 2.64117098826818275104e-01) (91, 8.72649502001542898277e-01) (92, 3.24755702912909061109e-01) (93, 2.32100435862875320581e-01) (94, 3.50442451844819868878e-01) (95, 1.18270054531353391303e-01) (96, -1.38736185075068463313e-01) (97, 2.00089439809424368688e-01) (98, 3.11529231316299559662e-01) (99, 3.89328759291824755273e-01) (100, 2.80529591948445233829e-01) (101, 3.35957474618833074054e-01) (102, 3.62194820138569573142e-01) (103, 2.56261592637688773166e-01) (104, 2.04979537483824941768e-01) (105, 3.41758166753929726323e-01) (106, 2.99267326086409324315e-01) (107, 3.72872481642515907208e-01) (108, 3.16637152986243008979e-01) (109, 2.42503986468699611612e-01) (110, 3.39896563937980566994e-01) (111, 3.92811457196677149550e-01) (112, 2.38756585408078120247e-01) (113, 3.19736893869993654693e-01) (114, 2.14042259286306491006e-01) (115, 3.05291060068606401323e-01) (116, 2.72620811358023629190e-01) (117, 3.16355670518330578389e-01) (118, 2.96377988307536477386e-01) (119, 3.73825206266391096843e-01) (120, 3.77689061728077812852e-01) (121, 2.69528076592714160853e-01) (122, 3.77444518648887894496e-01) (123, 3.42556387924902783215e-01) (124, 3.76820589612603118468e-01) (125, 3.95708397173251569257e-01) (126, 2.31461681282866177378e-01) (127, 3.53165449790408481068e-01) (128, 3.56351262933877310779e-01) (129, 3.37959395295309883434e-01) (130, 3.37630812904881727476e-01) (131, 3.08398027158907905854e-01) (132, 3.31900362032608642338e-01) (133, 2.88380000624528065600e-01) (134, 3.17795829760925907514e-01) (135, 3.43529879668505511159e-01) (136, 2.41904766213246635864e-01) (137, 2.36808927054466655804e-01) (138, 3.02386155865091266204e-01) (139, 3.59605449409864552646e-01) (140, 2.87967589689297309707e-01) (141, 2.47582430070805825650e-01) (142, 3.68042484215650667068e-01) (143, 3.43516342456754664170e-01) (144, 3.32284268505540436589e-01) (145, 3.74081747242078654914e-01) (146, 2.32113206022438789411e-01) (147, 2.06093497912021139662e-01) (148, 2.47003554920177087473e-01) (149, 2.77160015681753246763e-01) (150, 3.57760388421422881322e-01) (151, 2.53864728716430010369e-01) (152, 3.46888758578776823516e-01) (153, 3.42317721545202180433e-01) (154, 3.69278591094774233383e-01) (155, 2.66644351899129772310e-01) (156, 2.88012394085865375271e-01) (157, 3.79433040038976598929e-01) (158, 2.17294051225350365319e-01) (159, 2.53863420700504716088e-01) (160, 3.14432965950724230275e-01) (161, 3.49263378048916384166e-01) (0, 2.70318231713813750261e-01) (1, 1.71573042538892855946e-01) (2, 2.14859055661302617013e-01) (3, 1.99284920282379873768e-01) (4, 3.08226611924361015848e-01) (5, 2.47067586004662609334e-01) (6, 2.16334993097456712574e-01) (7, 2.21979259788730454162e-01) (8, 2.16584800604544713831e-01) (9, 3.03154373516488440110e-01) (10, 2.51329491900446622132e-01) (11, 1.99223734860165202498e-01) (12, 2.35607007268382212528e-01) (13, 2.10437182972015190963e-01) (14, 1.86790342888107085972e-01) (15, 2.81141329792603755777e-01) (16, 2.31010042578266960867e-01) (17, 2.47376211400467921342e-01) (18, 1.73239796339322682517e-01) (19, 2.29542585682491584453e-01) (20, 2.61159854032477656283e-01) (21, 3.34754114983866757349e-01) (22, 3.72525444124070126417e-01) (23, 2.58139031876078839378e-01) (24, 1.73042220229252585728e-01) (25, 2.79836291413911364412e-01) (26, 2.56213660679360855088e-01) (27, 2.10062622950234784147e-01) (28, 3.24059753773798420173e-01) (29, 2.13455102259067108772e-01) (30, 1.93537641569233032079e-01) (31, 2.25426532491819708870e-01) (32, 2.04800609972458524943e-01) (33, 2.56407746775809963768e-01) (34, 2.51616546833846488340e-01) (35, 1.93664186250965292269e-01) (36, 1.42225511960534956035e-01) (37, 2.56198901889214847305e-01) (38, 2.26864887027290629273e-01) (39, 2.86055832449278124585e-01) (40, 3.75326888110021406053e-01) (41, 7.17620923631380747132e-02) (42, 2.83616389793008627507e-01) (43, 2.34877497901818249604e-01) (44, 2.09537510421918315995e-01) (45, 1.31104612252735452937e-01) (46, -1.14222882378888068722e+00) (47, 2.17893127130923042190e-01) (48, 3.29139689624125653111e-01) (49, 2.34524730268143910550e-01) (50, 3.76895401024509135723e-01) (51, 1.25428325607073176684e-01) (52, 4.92230488843877600491e-01) (53, 2.47974706724175653072e-01) (54, 3.06171013115985268804e-01) (55, 2.95647776492699354556e-01) (56, 2.12559305020143279874e-01) (57, 6.41077536440027628828e-01) (58, 3.38835678848846480471e-02) (59, -1.09482432001674201416e+00) (60, 4.91657820868338424347e-01) (61, 1.40571379388789857723e-02) (62, 1.13238040627305824870e+00) (63, 2.98809251386058238875e-01) (64, 2.48147778237201188656e-01) (65, 1.19526699136991418349e-01) (66, 3.10489486616700949284e-01) (67, 3.37311078807024433690e-01) (68, 2.16331977990315837967e-01) (69, 1.98406802020096167949e-01) (70, -1.26428215641570007577e+00) (71, 1.16686206089908067751e-01) (72, 2.87175024568850523199e-01) (73, 1.66835419665671974565e-01) (74, 2.55125728963515319148e-01) (75, 2.71779485641089502135e-01) (76, 2.80497484792807560972e-01) (77, 9.30880901822252887490e-02) (78, 2.47079471952684065483e-01) (79, 3.84881416168115719767e-01) (80, -1.58273692044803460099e-01) (81, 2.45685195227451358413e-01) (82, 8.79898177213880305914e-02) (83, 4.40091811916839770191e-01) (84, 7.80576787644989555925e-02) (85, 9.14263751594368706543e-02) (86, 1.42831808544567756547e-01) (87, 2.70055517288433799550e-01) (88, 2.29979525955163965900e-01) (89, -8.43221589895577494644e-02) (90, 3.26914438370183635385e-01) (91, 4.48102315757478997238e-01) (92, 1.41507561166663214935e-01) (93, 2.25253294706899059863e-01) (94, 3.05988166389844662429e-01) (95, 2.56431790320699071195e-01) (96, 2.11108546103738053956e-01) (97, 3.33834252246743401482e-01) (98, 1.94775283511733121600e-01) (99, 3.02323157116400509370e-01) (100, 2.03971831336858394623e-01) (101, 2.34515259234029327384e-01) (102, 1.44743259707807797598e-01) (103, 2.91528167348447386775e-01) (104, 2.67459081650000651820e-01) (105, 2.50619006794754406453e-01) (106, 2.60538678470963069866e-01) (107, 3.36877506780632551830e-01) (108, 3.21743679881191568803e-01) (109, 3.38747273972748008664e-01) (110, 3.20554877866066068037e-01) (111, 1.76412937781268736037e-01) (112, 1.79006369065675241536e-01) (113, 3.92058299553561973028e-01) (114, 2.15823353889118885185e-01) (115, 2.29102647352172977824e-01) (116, 1.90998842072545610415e-01) (117, 2.62144718873736359832e-01) (118, 3.75487551419233289707e-01) (119, 3.03731538936148848240e-01) (120, 2.90996252735742200191e-01) (121, 2.76647304276074201823e-01) (122, 2.80668911147065491818e-01) (123, 1.78154286329016559032e-01) (124, 3.34407637901886767295e-01) (125, 3.14295667874031403599e-01) (126, 3.55406710936762848529e-01) (127, 2.32776711509862704874e-01) (128, 2.88100776865595709086e-01) (129, 3.48620584448991965854e-01) (130, 2.06384201497970071193e-01) (131, 3.79428578450807962863e-01) (132, 3.00319391730540841134e-01) (133, 2.46114243889458794712e-01) (134, 2.81738136883699641366e-01) (135, 1.77837333626518878660e-01) (136, 3.34090248758728725065e-01) (137, 1.85049551157741271057e-01) (138, 1.53551683380200643114e-01) (139, 3.27545733497588864580e-01) (140, 1.77093827921041974127e-01) (141, 3.25163461171520951076e-01) (142, 1.51258689961509595889e-01) (143, 1.86256663361276719737e-01) (144, 3.46610078898509754719e-01) (145, 2.54665701221138407462e-01) (146, 2.85397285209347428836e-01) (147, 3.89185804270372082136e-01) (148, 3.16879441941207151689e-01) (149, 2.67732156181139269169e-01) (150, 2.52047348636444068504e-01) (151, 2.11318174501667982446e-01) (152, 2.26040676214277369560e-01) (153, 2.18394656756954047561e-01) (154, 2.86549045501412080750e-01) (155, 2.12846697210519242294e-01) (156, 1.55635510832004497761e-01) (157, 2.31100028497009168937e-01) (158, 2.61256412119490022405e-01) (159, 2.68002943402078919188e-01) (160, 2.47566262846509899109e-01) (161, 3.18765352314554439861e-01) (0, 2.89457638729959387813e-01) (1, 3.76865809707138010864e-01) (2, 2.26614957724852739140e-01) (3, 2.37636452201282821761e-01) (4, 2.22982274999911744828e-01) (5, 1.97796868655340296606e-01) (6, 2.64453592534492298860e-01) (7, 2.31130182083668422877e-01) (8, 3.53924123614056507225e-01) (9, 3.00523999747902392787e-01) (10, 2.01461778075686964717e-01) (11, 3.54965881894020396370e-01) (12, 3.35594633908009365442e-01) (13, 3.69712821150819159755e-01) (14, 2.21353087375578239104e-01) (15, 2.78400270547400074950e-01) (16, 3.63233203717281238898e-01) (17, 3.73175603812841150120e-01) (18, 2.24047037648341551552e-01) (19, 3.00528345054060008756e-01) (20, 1.76982718227602087158e-01) (21, 2.52669930089903960191e-01) (22, 3.58186870047617733626e-01) (23, 2.40341034087949101394e-01) (24, 2.84667224788374140232e-01) (25, 3.93729150342810252372e-01) (26, 2.79027516969086619714e-01) (27, 2.10391691709433059643e-01) (28, 2.87003215374873166255e-01) (29, 3.74249234683449394367e-01) (30, 2.27960028298566569349e-01) (31, 2.33030170496362570853e-01) (32, 3.28715890850040604043e-01) (33, 2.86403929893916886495e-01) (34, 2.84783895279339005491e-01) (35, 2.33017659533278492789e-01) (36, -5.02406548855738988024e-01) (37, 4.02248399202864370672e-01) (38, 2.08229945284564621488e-01) (39, 6.71410589778265454175e-02) (40, 2.80620029223671130225e-01) (41, 1.99730500816756112448e-01) (42, 1.86512815123074632284e-01) (43, 2.12803068393313615791e-01) (44, 3.11787232704229977376e-01) (45, 1.86706269577907035817e-01) (46, 2.35311990038726631669e-01) (47, 3.63626108691044669374e-01) (48, 2.63470426754503661559e-01) (49, 2.71106723758063217211e-01) (50, 3.90267867953971503425e-01) (51, 3.74963905563306609814e-01) (52, 4.77153265190824071862e-01) (53, 3.21320164968618593448e-01) (54, -2.67488176841100544490e-01) (55, -1.14580621574622114334e-02) (56, -1.40152905566212709898e-01) (57, 5.43353087173909177210e-01) (58, 8.26779343353793216842e-01) (59, 1.97254286030251260731e-02) (60, 7.08928509960328079309e-01) (61, 8.79089480324886309200e-04) (62, -4.49999551765087657529e-01) (63, 3.56686533434066199710e-01) (64, 4.12906996177529961312e-01) (65, 1.82092249631338937155e-01) (66, 3.02091474001884296996e-01) (67, 2.19145077103221147530e-01) (68, 4.64737273700305597579e-01) (69, 2.73229899302891598989e-01) (70, 1.88400213972897856429e-01) (71, 1.97434970363918188552e-01) (72, 3.89826801226883512541e-01) (73, 2.53812359532186448963e-01) (74, 2.69305422975437414035e-01) (75, 3.86354321195599592631e-01) (76, 4.71950245470314888596e-01) (77, 8.41990905745256812409e-02) (78, -2.07564429163441865889e-01) (79, 3.93113172902783802876e-01) (80, 1.79385154724008233362e-01) (81, 2.89387462305468856627e-01) (82, -4.53068791726806974207e-01) (83, 3.34435181185660623804e-01) (84, 4.02853212222747336657e-01) (85, 2.13855925015614234397e-01) (86, 2.76556959214084796539e-01) (87, 5.29715797064457483145e-01) (88, 1.82979346111798946151e-01) (89, 7.98091956140413970322e-03) (90, 3.48583451555752654727e-01) (91, 2.99064476459101502570e-01) (92, 2.44019421064704311597e-01) (93, 2.18021499158191300882e-01) (94, 2.25076821117673187000e-01) (95, 3.15135162234585153307e-01) (96, -6.19265263877952221172e-01) (97, 3.38369022247276607374e-01) (98, 2.64833932703977370515e-01) (99, 2.07350308041373637691e-01) (100, 2.29955198907374425144e-01) (101, 2.91894535348288297616e-01) (102, 2.50824587372084517600e-01) (103, 2.23012981901381968086e-01) (104, 3.74206393063221731676e-01) (105, 2.91526120147903522462e-01) (106, 2.44903614718078560530e-01) (107, 3.22797488565529144822e-01) (108, 2.37098940323539564279e-01) (109, 2.14205270882788817444e-01) (110, 2.56476007205031386604e-01) (111, 2.90760926267561448100e-01) (112, 3.02185902047787557922e-01) (113, 4.34609505518885330666e-01) (114, 3.11657718899715163730e-01) (115, 2.28389597608761485414e-01) (116, 3.63455716624514424407e-01) (117, 2.13093081524599409216e-01) (118, 2.51982104642669624273e-01) (119, 3.46365087713008612536e-01) (120, 2.30474298408383571068e-01) (121, 2.89695450101190965508e-01) (122, 2.83722064666468709593e-01) (123, 3.41208827368782108280e-01) (124, 4.61813997183670887914e-01) (125, 2.61502677087862844818e-01) (126, 4.22115962366029329189e-01) (127, 3.54007340311572271663e-01) (128, 1.93176729542266778505e-01) (129, 2.77498508944293398315e-01) (130, 1.99347299188550597382e-01) (131, 3.20811771848844073940e-01) (132, 5.68595634025512941534e-01) (133, 3.25548939609396792427e-01) (134, 3.22367195357741609385e-01) (135, 4.25337272115389297689e-01) (136, 3.24896887900199105026e-01) (137, 3.75425421858617880400e-01) (138, 3.31308126581334294602e-01) (139, 3.72397917351948937181e-01) (140, 4.12125832662104452098e-01) (141, 3.66017549629916838505e-01) (142, 2.83676483577939897440e-01) (143, 3.13241088772341913504e-01) (144, 3.13885151587212529734e-01) (145, 3.78721809044095969465e-01) (146, 3.50066026854663314705e-01) (147, 3.25086343202718619505e-01) (148, 2.06979105007276675821e-01) (149, 3.52934975196478151194e-01) (150, 3.55190801394373090183e-01) (151, 2.65285491436919651509e-01) (152, 2.19923760090467684813e-01) (153, 2.36245998100755971727e-01) (154, 3.92044216179567139857e-01) (155, 3.60183278714674259824e-01) (156, 3.16835349957675538324e-01) (157, 3.67620105554820830740e-01) (158, 3.36698214849223909084e-01) (159, 3.18749484406774530321e-01) (160, 2.33671471991529877688e-01) (161, 3.26357759285841819707e-01) (0, -2.35996220164490982940e-01) (1, -2.14230073351376754109e-01) (2, -4.84375495069420750061e-02) (3, -1.11432909779286298813e-01) (4, -2.24125108864624611460e-01) (5, -1.17842291952785713227e-01) (6, -1.64995268196770239477e-01) (7, -1.27943345151181109287e-01) (8, -1.28884856916914619651e-01) (9, -1.70891400758810541038e-01) (10, -1.82579113680572502343e-01) (11, -6.68086667028785913258e-02) (12, -5.94503157117396915932e-02) (13, -2.48747189758942693905e-01) (14, -8.55880313572041917514e-02) (15, -1.13119623448635367446e-01) (16, -1.24952997227864626151e-01) (17, -6.55725449937110266285e-02) (18, -1.52186434662550551522e-01) (19, -1.41069889457214381334e-01) (20, -2.46406534404563892782e-01) (21, -1.35906284087317669185e-01) (22, -1.23532658761654173807e-01) (23, -2.31954019151767859563e-01) (24, -1.96949259748768784606e-01) (25, -1.99380679875354599462e-01) (26, -6.51819444859103314105e-02) (27, -2.61220932900165014878e-01) (28, -9.14649410696093678741e-02) (29, -1.96139744704594276570e-01) (30, -1.00635540105689133550e-01) (31, -8.68313866593036914887e-02) (32, -2.12784506750229612804e-01) (33, -1.04585514356490119625e-01) (34, -1.58946136967828943742e-01) (35, -1.39846712240070225608e-01) (36, -2.32790899471455647873e-01) (37, 3.92877122589358251936e-01) (38, -5.07120045141372585706e-02) (39, -2.26696116762585109239e-01) (40, -1.13922173289656494810e-01) (41, -1.57255199101616394142e-01) (42, -2.60567481949550150411e-01) (43, -1.48266721477646690186e-01) (44, -1.34300750750308006687e-01) (45, -6.89345442645978301321e-02) (46, -3.72340380517482583134e-01) (47, -9.61397791092240827648e-02) (48, -2.68096580310095353172e-02) (49, -2.61283481332663214403e-01) (50, -1.30746933852859792413e-01) (51, -3.19106951588487952609e-01) (52, 1.06522036645151238488e-01) (53, -2.79528803342478426863e-01) (54, -2.04978818480848701267e-01) (55, -2.76524943000047651598e-01) (56, -2.11513214151783895955e-01) (57, 4.60248347272724900314e-01) (58, 2.12878436219232813897e+00) (59, -3.76492311708775950763e-01) (60, 1.48840817075857917429e-01) (61, -4.22475412225282953571e-01) (62, 7.09221729614546547715e-01) (63, -1.49415342176862114831e-01) (64, -6.04477908752271808623e-01) (65, -1.46422054913689148048e-01) (66, -1.40873450174559322612e-01) (67, -1.70398089995522361573e-01) (68, -1.25851218658691366148e-01) (69, -1.26868843375964879261e-01) (70, -3.01288022963047352754e-01) (71, -1.14191425759061021550e-01) (72, -1.85661542336486351523e-01) (73, -2.03721462581010870352e-01) (74, -1.48789869930045615121e-01) (75, -1.30464281561523370856e-01) (76, -7.86634768901789405149e-02) (77, -1.49745879767573808472e-01) (78, -1.88611939548448931392e-01) (79, 4.30015838035217479174e-01) (80, 4.12794501036202188260e-01) (81, -1.39417461936148123769e-01) (82, -3.20594241520064771045e-01) (83, -2.14857704768848176147e-02) (84, -2.19999787521964806913e-01) (85, -1.61494523838413506223e-01) (86, -1.89440431838536732512e-01) (87, -1.29676449052561704178e-01) (88, -1.97974516398049610322e-01) (89, -2.46875278378558493664e-01) (90, -9.34346678287304444055e-02) (91, -9.79641976156280791521e-02) (92, -1.25048875718308805105e-01) (93, -1.56806635266521610106e-01) (94, -6.81358186329490689292e-02) (95, -6.55775511512672881764e-02) (96, -1.44884798873113562756e-01) (97, -2.15209884301472836876e-01) (98, -2.52186421864634857659e-01) (99, -1.72900973321203910160e-01) (100, -1.02220843778308340122e-01) (101, -1.63719570519356649729e-01) (102, -1.55289997141972613282e-01) (103, -4.85690102734567946685e-02) (104, -2.48603010682209135673e-01) (105, -2.49680860173928625967e-01) (106, -1.41020006736064434927e-01) (107, -1.31301284671000384474e-01) (108, -1.47052947911290865513e-01) (109, -1.96147691788332662055e-01) (110, -5.24181004115160872892e-02) (111, -1.14899908057431138220e-01) (112, -1.66804420705786354828e-01) (113, -1.39929166606603178069e-01) (114, -1.10821853395901476214e-01) (115, -9.59508199136797912399e-02) (116, -1.03966659378190051655e-01) (117, -2.07571897864729765226e-01) (118, -1.38960059033824856467e-01) (119, -3.12497293126015804332e-02) (120, -9.37306332438779254979e-02) (121, -4.68871769080097325344e-02) (122, -2.14323136010827725029e-01) (123, -1.56255881230411480809e-01) (124, -1.82498948910162328563e-01) (125, -6.02325930198137210470e-02) (126, -7.34778135508321328384e-02) (127, -1.98647733350426042298e-01) (128, -2.25556655314059134598e-01) (129, -1.00743664061371002161e-01) (130, -7.55323093082896912520e-02) (131, 1.83053404952124576521e-02) (132, -3.85732529993074429314e-03) (133, -1.60902346886919872526e-01) (134, -3.90892477733225940373e-02) (135, -2.54008581249956177928e-01) (136, -1.66246631515202275553e-01) (137, -1.38527585711772205368e-01) (138, -1.06101499396928075636e-01) (139, -1.88678586871411126114e-02) (140, -7.40360092530034097358e-02) (141, -1.41271517353678793816e-01) (142, -9.61161080301920905944e-02) (143, -2.15970618376188777665e-01) (144, -3.83234493478510074294e-02) (145, -1.48269526665340684035e-01) (146, -2.13879566375773239040e-01) (147, -9.10840540330101894329e-02) (148, -1.74517265590375530993e-01) (149, -1.49249530809953345756e-01) (150, -1.35537621622399323540e-01) (151, -2.46606505523111696476e-01) (152, -1.73555739968633326864e-01) (153, -7.12354378925804804235e-02) (154, -7.34161639879811617204e-02) (155, -7.21122668938603272881e-02) (156, -1.23387191628690981449e-01) (157, -1.96120036014735127372e-01) (158, -5.00522954079785156734e-02) (159, -1.43759633618658538845e-01) (160, -1.00028103001351759138e-01) (161, -1.32740639264289972399e-01) (0, 2.88176820631110663928e-01) (1, -1.28540747646375186353e-01) (2, 4.04062733714824207087e-01) (3, -1.67744260365250558165e-01) (4, -1.22207615364417460091e-01) (5, -2.44454607822945063633e-01) (6, -7.89395012144431529322e-02) (7, -1.99205205156206571759e-01) (8, -2.69836313831846807965e-01) (9, -9.97447446232263279509e-02) (10, -6.40725597152572573512e-02) (11, -1.51925185816989855025e-01) (12, -1.08327884100546403823e-01) (13, -1.41617021470870130262e-01) (14, -2.95567679938980309995e-01) (15, -8.88066228562673781743e-02) (16, -1.98125881493358357854e-01) (17, -2.64541323915992387938e-01) (18, -1.73419317969147640524e-01) (19, -1.33668611904539796909e-01) (20, -2.96235459978151705052e-01) (21, -1.65366134554522453692e-01) (22, -1.90140524882392303319e-01) (23, -7.48626327570159344482e-02) (24, -2.16633078193465083983e-01) (25, -4.63912643089281900854e-02) (26, -7.06743494665655613840e-02) (27, -2.22819089492126948260e-01) (28, -1.79652943460111486074e-01) (29, -9.50018046719158099078e-02) (30, -9.76337921791546464734e-02) (31, -6.33163043617663290341e-02) (32, -2.47175853635688363985e-01) (33, -1.09557648786654832085e-01) (34, 2.10634006574065668627e-01) (35, 4.27240069122395149659e-01) (36, 6.65114155438237680817e-02) (37, 3.28387167050472272845e-01) (38, 2.00205133843710775254e-01) (39, 3.20777433749260154627e-01) (40, -3.06968044956687936137e-03) (41, 2.65096632815601918054e-01) (42, -2.76364139099222361207e-01) (43, -1.68276654197450442618e-01) (44, -2.26695636573047282214e-01) (45, -1.79587864266271601821e-01) (46, 5.49035878547426303697e-01) (47, 4.56639158928017374617e-01) (48, 5.10131936702060140298e-01) (49, -1.09843619543935039351e-01) (50, -2.18962468605307269964e-01) (51, -2.02196484419509880937e+00) (52, 4.14122187119113638332e-01) (53, 3.13034499487662543071e-01) (54, 8.42153266350670753893e-02) (55, 2.64152072671880455701e-01) (56, -3.29274751078833319284e-02) (57, 1.44148396317682303547e+00) (58, 1.22046646187649425741e+01) (59, 1.02584633639374631087e-01) (60, 4.29648472229071209938e-01) (61, 9.71989388401247322857e-02) (62, 1.71643900358753764834e-01) (63, 5.96900656052418931985e-01) (64, 1.94147159464992724587e-01) (65, 2.39342061854598525672e-01) (66, -2.47352844853506892431e-01) (67, -1.37343959523912234610e-01) (68, -1.41485849681110970044e-01) (69, -9.02909049257002160882e-02) (70, 5.65407389470334975634e-01) (71, 4.74165047907452397169e-01) (72, 5.61078738602922788559e-01) (73, -6.92864902936857096627e-01) (74, -1.66302080498878568360e-01) (75, 4.20986157783441228286e-01) (76, 2.90816475523630879607e-01) (77, 1.41953188537642799316e-01) (78, -1.24656549157844305509e-02) (79, 2.70242275019908551048e-01) (80, 3.91531226599992454585e-01) (81, 3.39384625936078654362e-01) (82, 3.79851761259604514542e-01) (83, 1.07112946546756271360e+00) (84, -9.20241027902808372829e-02) (85, -1.47517778537363558611e-01) (86, -2.49998194669354439901e-01) (87, -1.42806813813275534919e-01) (88, 2.06425974191551592218e-01) (89, 2.44757629808068893906e-01) (90, 5.89474992565648059362e-01) (91, -4.76286734484897389397e-01) (92, -2.62992977633651814351e-01) (93, -4.77223868162215195121e-02) (94, 3.93562352774478652062e-01) (95, 2.59542513907560445929e-01) (96, -7.66010057292355051040e-01) (97, -1.54450751505680772269e-01) (98, -2.04288348232001509830e-01) (99, -1.81620888274136804696e-01) (100, -2.75253940832471177824e-01) (101, -1.83858526504230790355e-01) (102, -1.23887402427257570237e-01) (103, -1.79058436519732272485e-01) (104, -9.46185418659774013506e-02) (105, -2.52377726117848755205e-01) (106, -1.83675879210536990849e-01) (107, -1.73481274187495843053e-01) (108, -1.38320853598080079072e-01) (109, -1.53699314698141548119e-01) (110, -2.66589102127041399637e-01) (111, -2.13193154803459350433e-01) (112, -2.55597398329609315493e-01) (113, -1.43144204366688759800e-01) (114, -2.11449796973528003630e-01) (115, -7.90305424792708544057e-02) (116, -2.15972879359987185444e-01) (117, -1.35844667655467876699e-01) (118, -6.31169462062141778391e-02) (119, -6.94858132637886372063e-02) (120, -1.42638658275224844418e-01) (121, -2.33109867493769606916e-01) (122, -2.34627134622284960752e-01) (123, -1.26505898220121509867e-01) (124, -6.40819636139060844204e-02) (125, -2.04208462290915382376e-01) (126, -1.63650733723351565763e-01) (127, -1.98871607215230450372e-01) (128, -1.82349011222295798174e-01) (129, -2.52966898539440598892e-01) (130, -4.32814162557533937958e-02) (131, -9.49049709396584395549e-02) (132, -9.35993537020171767482e-02) (133, -8.75433357785455751321e-02) (134, -2.38303135026647322503e-01) (135, -1.98805353867829159853e-01) (136, -5.92209726166863376084e-02) (137, -1.46466002624821373113e-01) (138, -4.38312837286452400276e-02) (139, -9.86791707204181939295e-02) (140, -2.07277190286334012104e-01) (141, -2.40558230647227422327e-01) (142, -2.39270835848926888278e-01) (143, -2.11056410423132057019e-01) (144, -1.30569209779544032068e-01) (145, -2.08163123638462649323e-01) (146, -2.41966514775502017365e-01) (147, -9.76665466723072861477e-02) (148, -1.11396225858288983046e-01) (149, -1.21044135637521033111e-01) (150, -1.29146572556350730521e-01) (151, -2.13021864197590199419e-01) (152, -1.12448952927708872851e-01) (153, -1.16925415672804761114e-01) (154, -2.50487289619087449832e-01) (155, -1.28796203008697957015e-01) (156, -1.03694578850198018682e-01) (157, -2.23510663674006487822e-01) (158, -2.38915754366251509300e-01) (159, -2.01823622615338010844e-01) (160, -2.06372754865811275371e-01) (161, -8.95357184065450756316e-02) (0, 7.32482731289648025808e-01) (1, 6.58868766221798978222e+02) (2, 6.38215421394657478338e-01) (3, 4.07852327652427337767e+00) (4, -5.33767841923527157633e+02) (5, 4.73009371584965032653e-01) (6, 6.56915646433803290805e-01) (7, -3.95612379591395608713e+02) (8, 4.58659952324748654284e-01) (9, 7.81883513718577227714e-01) (10, -5.81109251839553380137e+01) (11, -1.54290363988409438889e+02) (12, -3.86032197008346372513e+02) (13, 7.44047355718617950515e+02) (14, -5.44146576228405933762e+01) (15, -3.38599310153608541896e+02) (16, -8.88093300853885025958e+00) (17, 2.35887965816925657236e+02) (18, -2.84460632498305926674e+02) (19, 3.92406826096984161723e+02) (20, 6.57298267542680378028e+02) (21, 4.20073329712469190067e-01) (22, 6.16828244452404028664e-01) (23, -3.58817328271182248045e+02) (24, -7.32830447035373140352e+02) (25, 3.72885232385520237752e-01) (26, 7.49522616980744828652e+02) (27, 7.67697647155634266269e-01) (28, 1.02335610069518153864e+02) (29, -3.38126299384295862183e+02) (30, -1.47231233663724168537e+02) (31, 9.02099196382962986718e+01) (32, 5.77759451431872548710e+02) (33, 5.05396865015795597742e+01) (34, 9.42368785330949343404e+00) (35, 1.16773554869222402885e+03) (36, 3.22364062870700163188e+00) (37, -1.34777196796696774328e+00) (38, -3.37512222171533835535e+02) (39, 1.58161307070477157311e+01) (40, 8.54714101322666564009e-01) (41, -2.41910902548668182988e+01) (42, 1.66837356973814706862e+02) (43, 3.03979451491700729093e+02) (44, 2.37681731219336938921e+02) (45, 1.50340435107936968961e+02) (46, -7.74716101037089810433e+00) (47, 7.55670172167012424325e+02) (48, 1.83488528544334847936e+01) (49, 1.46247772084401481152e+03) (50, 1.22179795217711642863e+02) (51, -1.70902803651934249274e+02) (52, 1.94078776428136706045e+02) (53, -3.13042043527124235425e+02) (54, 1.50000000000000000000e+03) (55, 1.20515020843458842137e+02) (56, -3.82209448733838826229e+02) (57, 2.17235520173002214506e+02) (58, -3.38817496274928714683e+02) (59, 4.32891088155157319761e+02) (60, 5.96671041120754011899e+02) (61, -9.75618066485360600382e+02) (62, 1.49177556118123698070e+03) (63, 1.44855710799843166114e+02) (64, -4.12031515985190708307e+01) (65, -2.41064027164218224186e+01) (66, 1.66786568746345977843e+02) (67, 3.03856464146839698515e+02) (68, 2.37833401891336393419e+02) (69, 1.50181831327965369383e+02) (70, -7.70792395816867248470e+00) (71, 7.55676159952769012307e+02) (72, 1.83795188555745561132e+01) (73, 7.27435101562878969617e+01) (74, 3.08416478607091789854e+02) (75, -3.99078535837997563362e+01) (76, 6.92752750060521634623e+02) (77, -1.23247167202239126027e+02) (78, 9.39377200002393664136e+01) (79, -3.83912267975869610837e+02) (80, -1.87114168159643554645e+02) (81, -4.62044184629118532825e+01) (82, 1.67765106624418052661e+02) (83, 9.09515737322401776055e+01) (84, -4.91602623637790969724e+00) (85, 3.21995009595931833246e+02) (86, 5.45132227254582986120e+01) (87, 7.14457425479446186500e+01) (88, 2.92848486263687505016e+02) (89, 4.34782006045844809705e+02) (90, 4.06253729648451553658e+02) (91, 1.50000000000000000000e+03) (92, -1.38055466931166989752e+02) (93, 2.53058502597688431024e+02) (94, -1.09327896828054178968e+02) (95, 1.01002087558989842364e+02) (96, 4.14908559387895820691e+02) (97, 1.21546290110549179531e+02) (98, 3.66294825650789412919e-01) (99, -6.46175056140849193298e+01) (100, -1.36695265443237502723e+02) (101, 2.64524774949177015060e+02) (102, 7.15922771589300510620e-01) (103, -2.49080627506880574629e+02) (104, -3.01612548550533654534e-01) (105, 4.88810916121046489025e+02) (106, -3.14797271686477927233e+02) (107, 3.56358421542644180136e+02) (108, 1.05661861191180889818e+02) (109, 4.66392358345260160668e-01) (110, 6.25250334065047153054e-01) (111, 6.01335441257377922852e-01) (112, 4.20738782432913682729e-01) (113, 4.43249664161535938955e-01) (114, 2.05567635719101474479e+02) (115, 5.55544174951539848628e-01) (116, 4.41191957458095029843e-01) (117, -1.54479683481810099011e+02) (118, -5.72940387615519512110e+02) (119, 6.34126179870559747442e-01) (120, 2.55072314417412997045e+02) (121, 5.36746799948950470416e-01) (122, -4.93431168370869954742e+01) (123, 3.56428008970623508844e+01) (124, 1.21524352680533340276e+02) (125, -2.03012119194276692724e+02) (126, 5.04289819910106089651e+01) (127, 6.87164903133091939935e+01) (128, 3.25730301752925655023e+01) (129, 1.16964849000479209629e+00) (130, -1.14470107745610278016e+02) (131, 5.58347514826746604832e-01) (132, 2.16115293731233037988e+01) (133, 1.36190153298415765448e+02) (134, 3.31133242844246140635e+01) (135, 2.13739368428529360244e+02) (136, -2.10829860762678038100e+02) (137, -7.89859436734979567518e+01) (138, 9.00274893548584920211e-01) (139, 5.61522160693752270255e-01) (140, 5.06738616169157496394e-01) (141, 5.32042533100684278402e-01) (142, -4.99861364107691130698e+00) (143, 1.99662963296908458233e+02) (144, 2.36030298562290158371e-01) (145, 5.50389377003335567018e-01) (146, 6.40830102075001017958e-01) (147, 4.52293327109360931981e-01) (148, -1.67945360967289125664e-01) (149, 6.25137074692649674645e-01) (150, 4.09903156217861552868e-01) (151, 6.17039921605839092322e-01) (152, 3.97773832971009710935e-01) (153, 8.62114502079175615279e+00) (154, 5.66101730208316777926e-01) (155, 4.50345070384260914853e-01) (156, 7.84857743103501315218e-01) (157, 4.38922336528853040960e-01) (158, -8.45304244277402389018e-02) (159, 7.08422183537574134959e-01) (160, -2.50145086062885923184e+02) (161, 5.50713671411206084905e-01) (0, 1.01640329171029786259e+00) (1, -3.71961088133242016862e-03) (2, 1.35154502260475652520e+02) (3, -4.73757331142866777718e-01) (4, -6.43619453104201966198e+00) (5, -4.79120819274411289257e+01) (6, -1.39115760997145856970e-02) (7, -2.83887928028768554700e-01) (8, -6.45686339005369447364e+00) (9, 4.07810413861523168855e-01) (10, 1.05245872610916535450e+00) (11, 4.45376154244765132262e+01) (12, 1.20879406416218260212e+00) (13, 1.86117745749476100059e+01) (14, -1.65345921529236875358e+02) (15, 2.88987661866293155111e-01) (16, 9.80833760340330873539e-01) (17, 2.14834744199717680990e-01) (18, 1.41339188115073466356e+00) (19, -5.25717314956601882159e+01) (20, -7.84848888662997090648e+00) (21, 1.04001210318018483258e-01) (22, 2.50010106417683786173e-01) (23, 7.03339038738464011891e-02) (24, 3.43087928998053612872e+01) (25, 2.49376299066881274014e-01) (26, -3.27947911337324029546e+01) (27, 2.66120511710985996334e-01) (28, 3.18937281522159776781e-01) (29, 3.29240174345827474323e-01) (30, 7.69903591673038700804e+00) (31, 6.60026791399688783635e-01) (32, -8.15436584342031238748e+01) (33, 4.01434598352426608159e+00) (34, 1.03905426570642376305e+01) (35, 2.59889635978007653705e+01) (36, 5.22735541024113015141e+00) (37, 5.30083425026468049168e+01) (38, 3.07783271038608354786e+01) (39, 1.24338421176714675198e+00) (40, 3.00941438722726495314e+00) (41, 1.59983010282093474075e+01) (42, 1.91039322398667152925e+01) (43, -3.48644569254287306492e+00) (44, 2.42365224707879427513e+01) (45, -4.26654961535184096277e+00) (46, -6.03831406020952332625e+00) (47, 8.65043296400377670352e+01) (48, 1.76836577580966469725e+01) (49, 1.26960367932717772987e+02) (50, -1.31961042913700268286e+01) (51, 5.94290830956813493913e+01) (52, 6.89439675264480200667e+01) (53, 