FANN_FLO_2.1
num_layers=3
learning_rate=0.700000
connection_rate=1.000000
network_type=0
learning_momentum=0.000000
training_algorithm=2
train_error_function=1
train_stop_function=0
cascade_output_change_fraction=0.010000
quickprop_decay=-0.000100
quickprop_mu=1.750000
rprop_increase_factor=1.200000
rprop_decrease_factor=0.500000
rprop_delta_min=0.000000
rprop_delta_max=50.000000
rprop_delta_zero=0.100000
cascade_output_stagnation_epochs=12
cascade_candidate_change_fraction=0.010000
cascade_candidate_stagnation_epochs=12
cascade_max_out_epochs=150
cascade_min_out_epochs=50
cascade_max_cand_epochs=150
cascade_min_cand_epochs=50
cascade_num_candidate_groups=2
bit_fail_limit=3.49999994039535522461e-01
cascade_candidate_limit=1.00000000000000000000e+03
cascade_weight_multiplier=4.00000005960464477539e-01
cascade_activation_functions_count=10
cascade_activation_functions=3 5 7 8 10 11 14 15 16 17 
cascade_activation_steepnesses_count=4
cascade_activation_steepnesses=2.50000000000000000000e-01 5.00000000000000000000e-01 7.50000000000000000000e-01 1.00000000000000000000e+00 
layer_sizes=147 121 11 
scale_included=0
neurons (num_inputs, activation_function, activation_steepness)=(0, 0, 0.00000000000000000000e+00) (0, 0, 0.00000000000000000000e+00) (0, 0, 0.00000000000000000000e+00) (0, 0, 0.00000000000000000000e+00) (0, 0, 0.00000000000000000000e+00) (0, 0, 0.00000000000000000000e+00) (0, 0, 0.00000000000000000000e+00) (0, 0, 0.00000000000000000000e+00) (0, 0, 0.00000000000000000000e+00) (0, 0, 0.00000000000000000000e+00) (0, 0, 0.00000000000000000000e+00) (0, 0, 0.00000000000000000000e+00) (0, 0, 0.00000000000000000000e+00) (0, 0, 0.00000000000000000000e+00) (0, 0, 0.00000000000000000000e+00) (0, 0, 0.00000000000000000000e+00) (0, 0, 0.00000000000000000000e+00) (0, 0, 0.00000000000000000000e+00) (0, 0, 0.00000000000000000000e+00) (0, 0, 0.00000000000000000000e+00) (0, 0, 0.00000000000000000000e+00) (0, 0, 0.00000000000000000000e+00) (0, 0, 0.00000000000000000000e+00) (0, 0, 0.00000000000000000000e+00) (0, 0, 0.00000000000000000000e+00) (0, 0, 0.00000000000000000000e+00) (0, 0, 0.00000000000000000000e+00) (0, 0, 0.00000000000000000000e+00) (0, 0, 0.00000000000000000000e+00) (0, 0, 0.00000000000000000000e+00) (0, 0, 0.00000000000000000000e+00) (0, 0, 0.00000000000000000000e+00) (0, 0, 0.00000000000000000000e+00) (0, 0, 0.00000000000000000000e+00) (0, 0, 0.00000000000000000000e+00) (0, 0, 0.00000000000000000000e+00) (0, 0, 0.00000000000000000000e+00) (0, 0, 0.00000000000000000000e+00) (0, 0, 0.00000000000000000000e+00) (0, 0, 0.00000000000000000000e+00) (0, 0, 0.00000000000000000000e+00) (0, 0, 0.00000000000000000000e+00) (0, 0, 0.00000000000000000000e+00) (0, 0, 0.00000000000000000000e+00) (0, 0, 0.00000000000000000000e+00) (0, 0, 0.00000000000000000000e+00) (0, 0, 0.00000000000000000000e+00) (0, 0, 0.00000000000000000000e+00) (0, 0, 0.00000000000000000000e+00) (0, 0, 0.00000000000000000000e+00) (0, 0, 0.00000000000000000000e+00) (0, 0, 0.00000000000000000000e+00) (0, 0, 0.00000000000000000000e+00) (0, 0, 0.00000000000000000000e+00) (0, 0, 0.00000000000000000000e+00) (0, 0, 0.00000000000000000000e+00) (0, 0, 0.00000000000000000000e+00) (0, 0, 0.00000000000000000000e+00) (0, 0, 0.00000000000000000000e+00) (0, 0, 0.00000000000000000000e+00) (0, 0, 0.00000000000000000000e+00) (0, 0, 0.00000000000000000000e+00) (0, 0, 0.00000000000000000000e+00) (0, 0, 0.00000000000000000000e+00) (0, 0, 0.00000000000000000000e+00) (0, 0, 0.00000000000000000000e+00) (0, 0, 0.00000000000000000000e+00) (0, 0, 0.00000000000000000000e+00) (0, 0, 0.00000000000000000000e+00) (0, 0, 0.00000000000000000000e+00) (0, 0, 0.00000000000000000000e+00) (0, 0, 0.00000000000000000000e+00) (0, 0, 0.00000000000000000000e+00) (0, 0, 0.00000000000000000000e+00) (0, 0, 0.00000000000000000000e+00) (0, 0, 0.00000000000000000000e+00) (0, 0, 0.00000000000000000000e+00) (0, 0, 0.00000000000000000000e+00) (0, 0, 0.00000000000000000000e+00) (0, 0, 0.00000000000000000000e+00) (0, 0, 0.00000000000000000000e+00) (0, 0, 0.00000000000000000000e+00) (0, 0, 0.00000000000000000000e+00) (0, 0, 0.00000000000000000000e+00) (0, 0, 0.00000000000000000000e+00) (0, 0, 0.00000000000000000000e+00) (0, 0, 0.00000000000000000000e+00) (0, 0, 0.00000000000000000000e+00) (0, 0, 0.00000000000000000000e+00) (0, 0, 0.00000000000000000000e+00) (0, 0, 0.00000000000000000000e+00) (0, 0, 0.00000000000000000000e+00) (0, 0, 0.00000000000000000000e+00) (0, 0, 0.00000000000000000000e+00) (0, 0, 0.00000000000000000000e+00) (0, 0, 0.00000000000000000000e+00) (0, 0, 0.00000000000000000000e+00) (0, 0, 0.00000000000000000000e+00) (0, 0, 0.00000000000000000000e+00) (0, 0, 0.00000000000000000000e+00) (0, 0, 0.00000000000000000000e+00) (0, 0, 0.00000000000000000000e+00) (0, 0, 0.00000000000000000000e+00) (0, 0, 0.00000000000000000000e+00) (0, 0, 0.00000000000000000000e+00) (0, 0, 0.00000000000000000000e+00) (0, 0, 0.00000000000000000000e+00) (0, 0, 0.00000000000000000000e+00) (0, 0, 0.00000000000000000000e+00) (0, 0, 0.00000000000000000000e+00) (0, 0, 0.00000000000000000000e+00) (0, 0, 0.00000000000000000000e+00) (0, 0, 0.00000000000000000000e+00) (0, 0, 0.00000000000000000000e+00) (0, 0, 0.00000000000000000000e+00) (0, 0, 0.00000000000000000000e+00) (0, 0, 0.00000000000000000000e+00) (0, 0, 0.00000000000000000000e+00) (0, 0, 0.00000000000000000000e+00) (0, 0, 0.00000000000000000000e+00) (0, 0, 0.00000000000000000000e+00) (0, 0, 0.00000000000000000000e+00) (0, 0, 0.00000000000000000000e+00) (0, 0, 0.00000000000000000000e+00) (0, 0, 0.00000000000000000000e+00) (0, 0, 0.00000000000000000000e+00) (0, 0, 0.00000000000000000000e+00) (0, 0, 0.00000000000000000000e+00) (0, 0, 0.00000000000000000000e+00) (0, 0, 0.00000000000000000000e+00) (0, 0, 0.00000000000000000000e+00) (0, 0, 0.00000000000000000000e+00) (0, 0, 0.00000000000000000000e+00) (0, 0, 0.00000000000000000000e+00) (0, 0, 0.00000000000000000000e+00) (0, 0, 0.00000000000000000000e+00) (0, 0, 0.00000000000000000000e+00) (0, 0, 0.00000000000000000000e+00) (0, 0, 0.00000000000000000000e+00) (0, 0, 0.00000000000000000000e+00) (0, 0, 0.00000000000000000000e+00) (0, 0, 0.00000000000000000000e+00) (0, 0, 0.00000000000000000000e+00) (0, 0, 0.00000000000000000000e+00) (0, 0, 0.00000000000000000000e+00) (0, 0, 0.00000000000000000000e+00) (0, 0, 0.00000000000000000000e+00) (147, 6, 5.00000000000000000000e-01) (147, 6, 5.00000000000000000000e-01) (147, 6, 5.00000000000000000000e-01) (147, 6, 5.00000000000000000000e-01) (147, 6, 5.00000000000000000000e-01) (147, 6, 5.00000000000000000000e-01) (147, 6, 5.00000000000000000000e-01) (147, 6, 5.00000000000000000000e-01) (147, 6, 5.00000000000000000000e-01) (147, 6, 5.00000000000000000000e-01) (147, 6, 5.00000000000000000000e-01) (147, 6, 5.00000000000000000000e-01) (147, 6, 5.00000000000000000000e-01) (147, 6, 5.00000000000000000000e-01) (147, 6, 5.00000000000000000000e-01) (147, 6, 5.00000000000000000000e-01) (147, 6, 5.00000000000000000000e-01) (147, 6, 5.00000000000000000000e-01) (147, 6, 5.00000000000000000000e-01) (147, 6, 5.00000000000000000000e-01) (147, 6, 5.00000000000000000000e-01) (147, 6, 5.00000000000000000000e-01) (147, 6, 5.00000000000000000000e-01) (147, 6, 5.00000000000000000000e-01) (147, 6, 5.00000000000000000000e-01) (147, 6, 5.00000000000000000000e-01) (147, 6, 5.00000000000000000000e-01) (147, 6, 5.00000000000000000000e-01) (147, 6, 5.00000000000000000000e-01) (147, 6, 5.00000000000000000000e-01) (147, 6, 5.00000000000000000000e-01) (147, 6, 5.00000000000000000000e-01) (147, 6, 5.00000000000000000000e-01) (147, 6, 5.00000000000000000000e-01) (147, 6, 5.00000000000000000000e-01) (147, 6, 5.00000000000000000000e-01) (147, 6, 5.00000000000000000000e-01) (147, 6, 5.00000000000000000000e-01) (147, 6, 5.00000000000000000000e-01) (147, 6, 5.00000000000000000000e-01) (147, 6, 5.00000000000000000000e-01) (147, 6, 5.00000000000000000000e-01) (147, 6, 5.00000000000000000000e-01) (147, 6, 5.00000000000000000000e-01) (147, 6, 5.00000000000000000000e-01) (147, 6, 5.00000000000000000000e-01) (147, 6, 5.00000000000000000000e-01) (147, 6, 5.00000000000000000000e-01) (147, 6, 5.00000000000000000000e-01) (147, 6, 5.00000000000000000000e-01) (147, 6, 5.00000000000000000000e-01) (147, 6, 5.00000000000000000000e-01) (147, 6, 5.00000000000000000000e-01) (147, 6, 5.00000000000000000000e-01) (147, 6, 5.00000000000000000000e-01) (147, 6, 5.00000000000000000000e-01) (147, 6, 5.00000000000000000000e-01) (147, 6, 5.00000000000000000000e-01) (147, 6, 5.00000000000000000000e-01) (147, 6, 5.00000000000000000000e-01) (147, 6, 5.00000000000000000000e-01) (147, 6, 5.00000000000000000000e-01) (147, 6, 5.00000000000000000000e-01) (147, 6, 5.00000000000000000000e-01) (147, 6, 5.00000000000000000000e-01) (147, 6, 5.00000000000000000000e-01) (147, 6, 5.00000000000000000000e-01) (147, 6, 5.00000000000000000000e-01) (147, 6, 5.00000000000000000000e-01) (147, 6, 5.00000000000000000000e-01) (147, 6, 5.00000000000000000000e-01) (147, 6, 5.00000000000000000000e-01) (147, 6, 5.00000000000000000000e-01) (147, 6, 5.00000000000000000000e-01) (147, 6, 5.00000000000000000000e-01) (147, 6, 5.00000000000000000000e-01) (147, 6, 5.00000000000000000000e-01) (147, 6, 5.00000000000000000000e-01) (147, 6, 5.00000000000000000000e-01) (147, 6, 5.00000000000000000000e-01) (147, 6, 5.00000000000000000000e-01) (147, 6, 5.00000000000000000000e-01) (147, 6, 5.00000000000000000000e-01) (147, 6, 5.00000000000000000000e-01) (147, 6, 5.00000000000000000000e-01) (147, 6, 5.00000000000000000000e-01) (147, 6, 5.00000000000000000000e-01) (147, 6, 5.00000000000000000000e-01) (147, 6, 5.00000000000000000000e-01) (147, 6, 5.00000000000000000000e-01) (147, 6, 5.00000000000000000000e-01) (147, 6, 5.00000000000000000000e-01) (147, 6, 5.00000000000000000000e-01) (147, 6, 5.00000000000000000000e-01) (147, 6, 5.00000000000000000000e-01) (147, 6, 5.00000000000000000000e-01) (147, 6, 5.00000000000000000000e-01) (147, 6, 5.00000000000000000000e-01) (147, 6, 5.00000000000000000000e-01) (147, 6, 5.00000000000000000000e-01) (147, 6, 5.00000000000000000000e-01) (147, 6, 5.00000000000000000000e-01) (147, 6, 5.00000000000000000000e-01) (147, 6, 5.00000000000000000000e-01) (147, 6, 5.00000000000000000000e-01) (147, 6, 5.00000000000000000000e-01) (147, 6, 5.00000000000000000000e-01) (147, 6, 5.00000000000000000000e-01) (147, 6, 5.00000000000000000000e-01) (147, 6, 5.00000000000000000000e-01) (147, 6, 5.00000000000000000000e-01) (147, 6, 5.00000000000000000000e-01) (147, 6, 5.00000000000000000000e-01) (147, 6, 5.00000000000000000000e-01) (147, 6, 5.00000000000000000000e-01) (147, 6, 5.00000000000000000000e-01) (147, 6, 5.00000000000000000000e-01) (147, 6, 5.00000000000000000000e-01) (147, 6, 5.00000000000000000000e-01) (147, 6, 5.00000000000000000000e-01) (0, 6, 0.00000000000000000000e+00) (121, 6, 5.00000000000000000000e-01) (121, 6, 5.00000000000000000000e-01) (121, 6, 5.00000000000000000000e-01) (121, 6, 5.00000000000000000000e-01) (121, 6, 5.00000000000000000000e-01) (121, 6, 5.00000000000000000000e-01) (121, 6, 5.00000000000000000000e-01) (121, 6, 5.00000000000000000000e-01) (121, 6, 5.00000000000000000000e-01) (121, 6, 5.00000000000000000000e-01) (0, 6, 0.00000000000000000000e+00) 
connections (connected_to_neuron, weight)=(0, 1.92900061607360839844e-01) (1, 3.18756389617919921875e+00) (2, 5.46516418457031250000e-01) (3, -1.89259719848632812500e+00) (4, -4.65720796585083007812e+00) (5, 2.62005186080932617188e+00) (6, 4.57073068618774414062e+00) (7, 3.32134628295898437500e+00) (8, 3.43155860900878906250e-01) (9, 2.54208147525787353516e-01) (10, 8.65789592266082763672e-01) (11, -2.15416550636291503906e+00) (12, -1.08915138244628906250e+00) (13, -2.23322081565856933594e+00) (14, -1.87027789652347564697e-02) (15, 6.10252380371093750000e+00) (16, 2.22012236714363098145e-01) (17, 7.37966299057006835938e-01) (18, -2.93475389480590820312e-01) (19, -2.61888831853866577148e-01) (20, 1.23685228824615478516e+00) (21, 5.36283254623413085938e+00) (22, 1.53863877058029174805e-01) (23, -4.89942103624343872070e-01) (24, -3.76246720552444458008e-01) (25, -4.88155364990234375000e-01) (26, 3.34044170379638671875e+00) (27, -6.22070908546447753906e-01) (28, -2.18800020217895507812e+00) (29, -6.55237972736358642578e-01) (30, 3.60379981994628906250e+00) (31, 5.33918762207031250000e+00) (32, 1.04267930984497070312e+00) (33, -9.86989080905914306641e-01) (34, 2.15911340713500976562e+00) (35, -1.09651994705200195312e+00) (36, 5.14802038669586181641e-01) (37, 1.21590244770050048828e+00) (38, -9.75750160217285156250e+00) (39, 1.01597321033477783203e+00) (40, -8.71019124984741210938e-01) (41, -1.71839475631713867188e+00) (42, 3.02850055694580078125e+00) (43, 2.28915405273437500000e+00) (44, 9.79014110565185546875e+00) (45, 3.46143412590026855469e+00) (46, 1.69005855917930603027e-01) (47, -4.21415239572525024414e-01) (48, -4.92901295423507690430e-01) (49, -4.59667474031448364258e-01) (50, 3.21840953826904296875e+00) (51, -6.82704448699951171875e-01) (52, -2.18783760070800781250e+00) (53, -6.56268656253814697266e-01) (54, 3.67422604560852050781e+00) (55, 5.33179283142089843750e+00) (56, 1.10732507705688476562e+00) (57, -1.11316978931427001953e+00) (58, -4.04752343893051147461e-02) (59, 3.41642647981643676758e-01) (60, 9.31712053716182708740e-03) (61, -2.58160430908203125000e+02) (62, -2.38378356933593750000e+02) (63, 3.48519921302795410156e+00) (64, 1.42455980181694030762e-01) (65, 5.99155998229980468750e+00) (66, 5.87809644639492034912e-02) (67, 3.88314392089843750000e+02) (68, -1.67603302001953125000e+02) (69, -5.46730697154998779297e-01) (70, 4.88423816859722137451e-02) (71, 7.68836885690689086914e-02) (72, 8.27311128377914428711e-02) (73, 1.43636138916015625000e+02) (74, 2.21132878214120864868e-02) (75, 3.29913869500160217285e-02) (76, 1.40108093619346618652e-01) (77, 9.68486294150352478027e-02) (78, 6.03496015071868896484e-01) (79, 2.67320037841796875000e+02) (80, -1.43553359985351562500e+02) (81, -6.27244651317596435547e-01) (82, -3.03493998944759368896e-02) (83, 1.81343127042055130005e-03) (84, 1.02157309651374816895e-01) (85, 1.25516310334205627441e-01) (86, 1.04507908225059509277e-01) (87, -1.92113239318132400513e-02) (88, 1.05999000370502471924e-01) (89, -3.48666496574878692627e-02) (90, 3.55397276580333709717e-02) (91, -1.81162369251251220703e+00) (92, -2.54668444395065307617e-01) (93, 8.54093134403228759766e-02) (94, 5.47401644289493560791e-02) (95, -8.66094946861267089844e-01) (96, 7.50387972220778465271e-03) (97, 1.54696181416511535645e-01) (98, -1.57843076158314943314e-03) (99, -3.62735576927661895752e-02) (100, 1.62415523082017898560e-02) (101, -3.76017168164253234863e-02) (102, -1.42504591494798660278e-02) (103, -3.19929838180541992188e+00) (104, 1.59169305115938186646e-02) (105, 6.80985674262046813965e-02) (106, 9.95790734887123107910e-02) (107, -2.31839045882225036621e-02) (108, 2.26426627486944198608e-02) (109, -2.50293575227260589600e-02) (110, 2.00565531849861145020e-02) (111, 6.30850419402122497559e-02) (112, 8.75403136014938354492e-02) (113, 1.30377307534217834473e-01) (114, 7.87639897316694259644e-03) (115, 6.85179531574249267578e-02) (116, 7.61497318744659423828e-02) (117, 4.47364151477813720703e-02) (118, 7.27865323424339294434e-02) (119, 5.21716885268688201904e-02) (120, 3.35467197000980377197e-02) (121, 1.41254486516118049622e-02) (122, 9.30848419666290283203e-02) (123, -1.29092127084732055664e-01) (124, -7.24787861108779907227e-02) (125, 7.30461105704307556152e-02) (126, -7.53908082842826843262e-02) (127, -3.68344597518444061279e-03) (128, 1.59930631518363952637e-01) (129, 1.07763454318046569824e-01) (130, 1.26844346523284912109e-01) (131, -8.18581320345401763916e-03) (132, 1.62197083234786987305e-01) (133, 1.35971879959106445312e+00) (134, -3.09602152556180953979e-02) (135, -1.13655701279640197754e-01) (136, 7.62030333280563354492e-02) (137, 1.41597762703895568848e-01) (138, 7.79575631022453308105e-02) (139, -8.39746519923210144043e-02) (140, -6.56324625015258789062e-02) (141, -1.20356278494000434875e-02) (142, 4.42426092922687530518e-02) (143, 1.03800371289253234863e-01) (144, -5.26872277259826660156e-02) (145, -2.37312801182270050049e-02) (146, -4.07125335186719894409e-03) (0, 6.08257532119750976562e-01) (1, 4.99613404273986816406e-01) (2, -7.93463230133056640625e-01) (3, 4.92916822433471679688e-01) (4, 2.05820953369140625000e+02) (5, 6.86772465705871582031e-01) (6, 6.85305893421173095703e-01) (7, 8.91689896583557128906e-01) (8, 5.12199342250823974609e-01) (9, 5.02491056919097900391e-01) (10, 6.36530578136444091797e-01) (11, 4.27904099225997924805e-01) (12, 8.96307945251464843750e-01) (13, 5.14804244041442871094e-01) (14, -6.98550283908843994141e-01) (15, 9.62471084594726562500e+01) (16, 5.96710979938507080078e-01) (17, 4.16903138160705566406e-01) (18, 4.29767549037933349609e-01) (19, 1.81372976303100585938e+00) (20, 9.10736858844757080078e-01) (21, 7.52395153045654296875e-01) (22, 6.14262223243713378906e-01) (23, 4.50629562139511108398e-01) (24, 4.23732906579971313477e-01) (25, 7.17809796333312988281e-01) (26, 6.69168233871459960938e-01) (27, 1.12822778522968292236e-01) (28, 3.39514076709747314453e-01) (29, 5.53887248039245605469e-01) (30, 4.39871579408645629883e-01) (31, 1.70107424259185791016e+00) (32, 1.20565021038055419922e+00) (33, 3.45502316951751708984e-01) (34, 5.66458702087402343750e-01) (35, 5.62634170055389404297e-01) (36, 5.28933644294738769531e-01) (37, -6.93613243103027343750e+00) (38, 3.79449576139450073242e-01) (39, 2.83604907989501953125e+00) (40, 6.12390136718750000000e+02) (41, 7.67835259437561035156e-01) (42, 1.62200188636779785156e+00) (43, 3.74488025903701782227e-01) (44, 5.14496704101562500000e+02) (45, 1.51401305198669433594e+00) (46, 5.43289422988891601562e-01) (47, 4.53492671251296997070e-01) (48, 5.36465644836425781250e-01) (49, 8.51463675498962402344e-01) (50, 5.66621005535125732422e-01) (51, 3.72518822550773620605e-02) (52, 4.59924221038818359375e-01) (53, 5.68211495876312255859e-01) (54, 5.04867076873779296875e-01) (55, 1.87358999252319335938e+00) (56, 1.09875011444091796875e+00) (57, 3.37960243225097656250e-01) (58, 5.67640900611877441406e-01) (59, 1.09694063663482666016e+00) (60, 4.43983137607574462891e-01) (61, 4.39354747533798217773e-01) (62, -3.82058044433593750000e+02) (63, 5.35879611968994140625e-01) (64, 4.99926686286926269531e-01) (65, 9.07372236251831054688e-01) (66, 5.19644975662231445312e-01) (67, 6.23491287231445312500e-01) (68, -6.43915222167968750000e+02) (69, 3.71788263320922851562e-01) (70, 4.92585092782974243164e-01) (71, 4.45001065731048583984e-01) (72, 7.25587785243988037109e-01) (73, 5.69120705127716064453e-01) (74, 4.57484215497970581055e-01) (75, -2.67634779214859008789e-01) (76, 4.91548717021942138672e-01) (77, 5.82890331745147705078e-01) (78, 5.27627229690551757812e-01) (79, 4.07364994287490844727e-01) (80, 4.87494915723800659180e-01) (81, 4.94186997413635253906e-01) (82, 5.24987876415252685547e-01) (83, 4.86115634441375732422e-01) (84, 5.05720198154449462891e-01) (85, 4.20653164386749267578e-01) (86, 4.62021321058273315430e-01) (87, 4.58187013864517211914e-01) (88, 4.44642335176467895508e-01) (89, 4.44076418876647949219e-01) (90, 5.09268760681152343750e-01) (91, 4.67674016952514648438e-01) (92, 4.56735163927078247070e-01) (93, 4.01942610740661621094e-01) (94, 4.09078180789947509766e-01) (95, 4.78847533464431762695e-01) (96, 6.01661443710327148438e-01) (97, 5.53033590316772460938e-01) (98, 4.20830756425857543945e-01) (99, 5.70453405380249023438e-01) (100, 5.31706154346466064453e-01) (101, 5.07559895515441894531e-01) (102, 6.09686374664306640625e-01) (103, 5.25776505470275878906e-01) (104, 4.87701952457427978516e-01) (105, 4.82292115688323974609e-01) (106, 5.73430299758911132812e-01) (107, 5.39402186870574951172e-01) (108, 4.45553213357925415039e-01) (109, 5.92803180217742919922e-01) (110, 5.25471448898315429688e-01) (111, 6.14818513393402099609e-01) (112, 4.90942060947418212891e-01) (113, 4.66440558433532714844e-01) (114, 4.70374941825866699219e-01) (115, 4.76258993148803710938e-01) (116, 4.62851613759994506836e-01) (117, 5.33321380615234375000e-01) (118, 5.41168630123138427734e-01) (119, 4.60380762815475463867e-01) (120, 5.59255599975585937500e-01) (121, 4.76893782615661621094e-01) (122, 4.79376733303070068359e-01) (123, 4.00818675756454467773e-01) (124, 4.85125124454498291016e-01) (125, 5.51206111907958984375e-01) (126, 5.01690328121185302734e-01) (127, 4.71527189016342163086e-01) (128, 5.23623585700988769531e-01) (129, 5.65086126327514648438e-01) (130, 4.25568014383316040039e-01) (131, 4.98865127563476562500e-01) (132, 4.93159979581832885742e-01) (133, 4.71549630165100097656e-01) (134, 4.19705837965011596680e-01) (135, 5.19534468650817871094e-01) (136, 5.17370700836181640625e-01) (137, 5.71808040142059326172e-01) (138, 4.71440821886062622070e-01) (139, 5.51479160785675048828e-01) (140, 5.32356441020965576172e-01) (141, 3.95623564720153808594e-01) (142, 5.18401205539703369141e-01) (143, 4.09784287214279174805e-01) (144, 4.59270596504211425781e-01) (145, 4.08108949661254882812e-01) (146, 5.28311192989349365234e-01) (0, 2.98712790012359619141e-01) (1, 4.02684777975082397461e-01) (2, 4.84097063541412353516e-01) (3, 3.23595911264419555664e-01) (4, -3.63429570198059082031e+00) (5, 1.03973495960235595703e+00) (6, -3.83064337074756622314e-03) (7, 2.51313626766204833984e-01) (8, 2.94558219611644744873e-02) (9, 1.12792825698852539062e+00) (10, 3.13439160585403442383e-01) (11, 4.07512873411178588867e-01) (12, 1.33996009826660156250e-02) (13, -7.08157539367675781250e-01) (14, -1.17472074925899505615e-02) (15, 1.48666133880615234375e+01) (16, 3.50203007459640502930e-01) (17, 2.27546170353889465332e-01) (18, 3.18253964185714721680e-01) (19, 1.14448405802249908447e-01) (20, 6.60403966903686523438e-01) (21, 1.51922971010208129883e-01) (22, 2.51707047224044799805e-01) (23, 8.19968819618225097656e-01) (24, 2.80152201652526855469e-01) (25, 2.68550395965576171875e-01) (26, -1.63518846035003662109e+00) (27, 7.17501688003540039062e+00) (28, 6.05934739112854003906e-01) (29, 1.84217941761016845703e+00) (30, 3.25938194990158081055e-01) (31, -6.63420915603637695312e+00) (32, 9.76777523756027221680e-02) (33, 2.30998978018760681152e-01) (34, 2.24479064345359802246e-01) (35, 4.18601125478744506836e-01) (36, 3.77396374940872192383e-01) (37, 4.04349416494369506836e-01) (38, 4.37065392732620239258e-01) (39, -9.01076889038085937500e+00) (40, 1.51822894811630249023e-01) (41, 5.57927465438842773438e+00) (42, -1.20429539680480957031e+00) (43, 2.53448188304901123047e-01) (44, -1.13171367645263671875e+01) (45, 1.07277207076549530029e-01) (46, 2.15118616819381713867e-01) (47, 7.60329365730285644531e-01) (48, 3.22678565979003906250e-01) (49, 1.28689154982566833496e-01) (50, -1.56104481220245361328e+00) (51, 7.16711187362670898438e+00) (52, 6.95554196834564208984e-01) (53, 1.85398960113525390625e+00) (54, 3.31671267747879028320e-01) (55, -6.60151243209838867188e+00) (56, 1.10196031630039215088e-01) (57, 2.24112764000892639160e-01) (58, 3.81862491369247436523e-01) (59, 1.90279632806777954102e-01) (60, 3.17033380270004272461e-01) (61, 3.97056788206100463867e-01) (62, 8.20897340774536132812e-01) (63, 3.73905718326568603516e-01) (64, 3.65501105785369873047e-01) (65, 2.51189380884170532227e-01) (66, 3.60973596572875976562e-01) (67, 3.90447169542312622070e-01) (68, 1.20762407779693603516e+00) (69, 3.66107136011123657227e-01) (70, 2.41925597190856933594e-01) (71, 3.30945789813995361328e-01) (72, 3.61983239650726318359e-01) (73, 3.06030988693237304688e-01) (74, 4.15419936180114746094e-01) (75, 3.62709432840347290039e-01) (76, 2.96275079250335693359e-01) (77, 2.67536073923110961914e-01) (78, 3.51216375827789306641e-01) (79, 2.49701499938964843750e-01) (80, 3.61411333084106445312e-01) (81, 2.77290672063827514648e-01) (82, 2.63083726167678833008e-01) (83, 2.38411292433738708496e-01) (84, 3.96418422460556030273e-01) (85, 4.27040338516235351562e-01) (86, 3.93578320741653442383e-01) (87, 2.82965242862701416016e-01) (88, 2.42879942059516906738e-01) (89, 3.56801956892013549805e-01) (90, 3.41745287179946899414e-01) (91, 3.24706882238388061523e-01) (92, 2.96336352825164794922e-01) (93, 3.27878445386886596680e-01) (94, 2.72376209497451782227e-01) (95, 2.87380099296569824219e-01) (96, 2.32166126370429992676e-01) (97, 4.01688516139984130859e-01) (98, 2.83295035362243652344e-01) (99, 3.85458439588546752930e-01) (100, 3.27807247638702392578e-01) (101, 2.74814069271087646484e-01) (102, 3.15237104892730712891e-01) (103, 3.27428042888641357422e-01) (104, 3.48046064376831054688e-01) (105, 2.74374186992645263672e-01) (106, 2.21294075250625610352e-01) (107, 2.72992849349975585938e-01) (108, 3.83030027151107788086e-01) (109, 3.71361166238784790039e-01) (110, 2.90052324533462524414e-01) (111, 2.39681005477905273438e-01) (112, 2.65332341194152832031e-01) (113, 3.13874691724777221680e-01) (114, 2.86623567342758178711e-01) (115, 3.02794933319091796875e-01) (116, 3.12422394752502441406e-01) (117, 2.48641073703765869141e-01) (118, 3.67917418479919433594e-01) (119, 3.49080801010131835938e-01) (120, 4.12088155746459960938e-01) (121, 2.75868028402328491211e-01) (122, 2.41961821913719177246e-01) (123, 3.07480216026306152344e-01) (124, 3.95318478345870971680e-01) (125, 2.92035400867462158203e-01) (126, 3.65487247705459594727e-01) (127, 4.34302508831024169922e-01) (128, 2.73233443498611450195e-01) (129, 3.91991257667541503906e-01) (130, 4.15989905595779418945e-01) (131, 3.51525992155075073242e-01) (132, 2.31940463185310363770e-01) (133, 2.81727194786071777344e-01) (134, 2.48064547777175903320e-01) (135, 4.16380584239959716797e-01) (136, 3.84620606899261474609e-01) (137, 2.68694341182708740234e-01) (138, 2.73083299398422241211e-01) (139, 3.31091612577438354492e-01) (140, 2.78862059116363525391e-01) (141, 3.28753173351287841797e-01) (142, 3.93647074699401855469e-01) (143, 2.99255877733230590820e-01) (144, 2.20217153429985046387e-01) (145, 4.32373851537704467773e-01) (146, 3.35908263921737670898e-01) (0, 2.46045231819152832031e-01) (1, 2.89393067359924316406e-01) (2, 8.79293084144592285156e-01) (3, -4.68024574220180511475e-02) (4, -3.32043671607971191406e+00) (5, 9.29435372352600097656e-01) (6, 2.34417751431465148926e-01) (7, 2.39509910345077514648e-01) (8, 6.15615323185920715332e-02) (9, 4.18714076280593872070e-01) (10, 3.76193165779113769531e-01) (11, 3.04712533950805664062e-01) (12, -2.32702898979187011719e+00) (13, -6.11292496323585510254e-02) (14, 3.27489703893661499023e-01) (15, 1.24717366695404052734e+00) (16, 3.48916083574295043945e-01) (17, 2.96588271856307983398e-01) (18, 2.99319058656692504883e-01) (19, 4.09928224980831146240e-02) (20, 4.12576079368591308594e-01) (21, 3.35249572992324829102e-01) (22, 1.29563003778457641602e-01) (23, 5.46635031700134277344e-01) (24, 4.10023748874664306641e-01) (25, 6.89770132303237915039e-02) (26, -1.52175664901733398438e-01) (27, 1.28501355648040771484e+00) (28, 4.24000859260559082031e-01) (29, 3.93486261367797851562e-01) (30, 3.72210621833801269531e-01) (31, -2.40597271919250488281e+00) (32, 6.91109448671340942383e-02) (33, 3.24539721012115478516e-01) (34, 1.52693063020706176758e-01) (35, 3.52160781621932983398e-01) (36, 3.17167848348617553711e-01) (37, 1.88778138160705566406e+00) (38, 3.70182037353515625000e-01) (39, -1.52299404144287109375e-01) (40, -3.06345033645629882812e+00) (41, 1.07876214981079101562e+01) (42, -2.79969739913940429688e+00) (43, 1.51291298866271972656e+00) (44, -5.80348205566406250000e+00) (45, 3.02765518426895141602e-01) (46, -6.19417335838079452515e-03) (47, 4.92257207632064819336e-01) (48, 4.52038705348968505859e-01) (49, 1.38272285461425781250e-01) (50, -2.48781919479370117188e-01) (51, 1.31664931774139404297e+00) (52, 4.37795937061309814453e-01) (53, 4.36548352241516113281e-01) (54, 2.31461167335510253906e-01) (55, -2.53363633155822753906e+00) (56, 1.40424862504005432129e-01) (57, 4.41518068313598632812e-01) (58, 1.53553485870361328125e-01) (59, -7.76867941021919250488e-02) (60, 1.86393991112709045410e-01) (61, 2.43663638830184936523e-01) (62, 8.37000191211700439453e-01) (63, 4.36292678117752075195e-01) (64, 1.61630496382713317871e-01) (65, 1.30296647548675537109e-01) (66, 2.20252245664596557617e-01) (67, 2.02969685196876525879e-01) (68, 3.47060704231262207031e+00) (69, 4.52263116836547851562e-01) (70, 1.08013868331909179688e-01) (71, 1.92753463983535766602e-01) (72, 1.19416356086730957031e-01) (73, 1.73181727528572082520e-01) (74, 2.74764150381088256836e-01) (75, 3.11763495206832885742e-01) (76, 2.64752984046936035156e-01) (77, 1.39075964689254760742e-01) (78, 2.65965998172760009766e-01) (79, 2.74362385272979736328e-01) (80, 3.96723955869674682617e-01) (81, 3.94278585910797119141e-01) (82, 2.57472127676010131836e-01) (83, 4.29623693227767944336e-01) (84, 3.61247271299362182617e-01) (85, 1.97450011968612670898e-01) (86, 4.40602421760559082031e-01) (87, 3.93562108278274536133e-01) (88, 2.62951910495758056641e-01) (89, 1.55600965023040771484e-01) (90, 3.99210304021835327148e-01) (91, 3.35367709398269653320e-01) (92, 2.91826754808425903320e-01) (93, 2.57379651069641113281e-01) (94, 3.12745571136474609375e-01) (95, 3.68848830461502075195e-01) (96, 1.55196011066436767578e-01) (97, 2.75612682104110717773e-01) (98, 2.92649865150451660156e-01) (99, 3.17214548587799072266e-01) (100, 2.77318567037582397461e-01) (101, 2.51782357692718505859e-01) (102, 2.88273423910140991211e-01) (103, 2.74837076663970947266e-01) (104, 3.16181898117065429688e-01) (105, 3.12531381845474243164e-01) (106, 3.19465339183807373047e-01) (107, 4.00792360305786132812e-01) (108, 2.79630482196807861328e-01) (109, 1.74173146486282348633e-01) (110, 3.62756460905075073242e-01) (111, 3.48417401313781738281e-01) (112, 2.40260064601898193359e-01) (113, 2.49410003423690795898e-01) (114, 3.71602714061737060547e-01) (115, 4.44504886865615844727e-01) (116, 4.27989155054092407227e-01) (117, 2.55547910928726196289e-01) (118, 3.81714582443237304688e-01) (119, 2.71978437900543212891e-01) (120, 4.02257561683654785156e-01) (121, 2.23338931798934936523e-01) (122, 3.37616831064224243164e-01) (123, 2.59946912527084350586e-01) (124, 2.60235756635665893555e-01) (125, 3.00407022237777709961e-01) (126, 3.64980995655059814453e-01) (127, 2.95597285032272338867e-01) (128, 2.35075086355209350586e-01) (129, 1.79915055632591247559e-01) (130, 2.91783422231674194336e-01) (131, 1.52925893664360046387e-01) (132, 2.95117646455764770508e-01) (133, 2.20730334520339965820e-01) (134, 1.81174606084823608398e-01) (135, 4.34017241001129150391e-01) (136, 2.35736012458801269531e-01) (137, 2.62056708335876464844e-01) (138, 3.77804964780807495117e-01) (139, 3.85498911142349243164e-01) (140, 3.33617210388183593750e-01) (141, 1.72302871942520141602e-01) (142, 3.38005244731903076172e-01) (143, 2.41443693637847900391e-01) (144, 3.87090712785720825195e-01) (145, 1.33730605244636535645e-01) (146, 1.05318009853363037109e-01) (0, 2.35896781086921691895e-01) (1, 2.03059092164039611816e-01) (2, 1.13497212529182434082e-01) (3, 4.19851690530776977539e-01) (4, 2.56205618381500244141e-01) (5, 1.05816566944122314453e+00) (6, 1.09906232357025146484e+00) (7, -1.06209911406040191650e-01) (8, 3.31582635641098022461e-01) (9, 1.93912124633789062500e+00) (10, 2.96081423759460449219e-01) (11, 2.68328547477722167969e-01) (12, 4.97365631163120269775e-02) (13, -6.68233454227447509766e-01) (14, 2.76410770416259765625e+00) (15, -9.08738040924072265625e+00) (16, 3.11607718467712402344e-01) (17, 2.16476574540138244629e-01) (18, 3.69261085987091064453e-01) (19, 2.76976287364959716797e-01) (20, 6.92149639129638671875e-01) (21, 4.70024114474654197693e-03) (22, 7.05340951681137084961e-02) (23, 4.26702886819839477539e-01) (24, 3.46144735813140869141e-01) (25, 6.76847547292709350586e-02) (26, -1.63251403719186782837e-02) (27, 1.71220636367797851562e+00) (28, 1.05278959274291992188e+01) (29, 4.33214855194091796875e+00) (30, 3.15239101648330688477e-01) (31, -4.19634962081909179688e+00) (32, -4.77658510208129882812e+00) (33, 1.96840718388557434082e-01) (34, -9.26856175065040588379e-02) (35, 2.16058179736137390137e-01) (36, 1.75333037972450256348e-01) (37, 5.03141619265079498291e-02) (38, 1.77618518471717834473e-01) (39, -7.84355163574218750000e+00) (40, 1.16447782516479492188e+00) (41, 2.74876708984375000000e+01) (42, -1.24369293451309204102e-01) (43, 1.42089855670928955078e+00) (44, -3.92430210113525390625e+00) (45, -1.10525369644165039062e+00) (46, -1.03726498782634735107e-02) (47, 3.29807341098785400391e-01) (48, 3.53009700775146484375e-01) (49, 1.24982616398483514786e-03) (50, -2.21068244427442550659e-02) (51, 1.54945850372314453125e+00) (52, 1.04838304519653320312e+01) (53, 4.42081308364868164062e+00) (54, 1.33092299103736877441e-01) (55, -4.22762298583984375000e+00) (56, -4.86916923522949218750e+00) (57, 1.53808444738388061523e-01) (58, 6.82342052459716796875e-02) (59, -2.97953796386718750000e+00) (60, 2.93130755424499511719e-01) (61, 4.83516752719879150391e-02) (62, 1.23847450256347656250e+02) (63, 2.56485670804977416992e-01) (64, 1.34065032005310058594e-01) (65, -2.08320066332817077637e-01) (66, 2.65337973833084106445e-01) (67, 1.58207222819328308105e-01) (68, 7.23484725952148437500e+01) (69, 2.00023457407951354980e-01) (70, 2.12159410119056701660e-01) (71, 7.83697888255119323730e-02) (72, 1.25590384006500244141e-01) (73, 5.86397573351860046387e-02) (74, 1.65771052241325378418e-01) (75, 3.67578387260437011719e-01) (76, 8.92436206340789794922e-02) (77, 1.31799295544624328613e-01) (78, 8.53541046380996704102e-02) (79, 8.29548910260200500488e-02) (80, 2.94060677289962768555e-01) (81, 1.47424682974815368652e-01) (82, 1.31183192133903503418e-01) (83, 9.98816341161727905273e-02) (84, 1.44419074058532714844e-01) (85, 1.47520139813423156738e-01) (86, 2.01905846595764160156e-01) (87, 3.36965501308441162109e-01) (88, 2.35267162322998046875e-01) (89, 1.19596108794212341309e-01) (90, 3.14345687627792358398e-01) (91, 2.60313451290130615234e-01) (92, 2.01855286955833435059e-01) (93, 1.59581974148750305176e-01) (94, 3.52016240358352661133e-01) (95, 3.40364426374435424805e-01) (96, 2.04393342137336730957e-01) (97, 2.95133709907531738281e-01) (98, 2.19067364931106567383e-01) (99, 3.33142906427383422852e-01) (100, 3.43165457248687744141e-01) (101, 3.40781539678573608398e-01) (102, 1.01721204817295074463e-01) (103, 2.70584553480148315430e-01) (104, 1.70860961079597473145e-01) (105, 1.74809917807579040527e-01) (106, 1.51068478822708129883e-01) (107, 1.48004382848739624023e-01) (108, 1.76890060305595397949e-01) (109, 3.29551726579666137695e-01) (110, 2.90602743625640869141e-01) (111, 2.09529757499694824219e-01) (112, 1.67187973856925964355e-01) (113, 2.26784661412239074707e-01) (114, 2.86416262388229370117e-01) (115, 1.22746177017688751221e-01) (116, 1.10648073256015777588e-01) (117, 9.53758209943771362305e-02) (118, 3.91559898853302001953e-01) (119, 3.67442280054092407227e-01) (120, 2.51665055751800537109e-01) (121, 3.39890569448471069336e-01) (122, 2.91952818632125854492e-01) (123, 3.12906533479690551758e-01) (124, 3.52628737688064575195e-01) (125, 2.48106911778450012207e-01) (126, 2.53072887659072875977e-01) (127, 2.33802706003189086914e-01) (128, 3.55611801147460937500e-01) (129, 2.61546283960342407227e-01) (130, 1.49249702692031860352e-01) (131, 3.13166230916976928711e-01) (132, 2.18266874551773071289e-01) (133, 1.85777321457862854004e-01) (134, 2.27268069982528686523e-01) (135, 2.90823519229888916016e-01) (136, 3.38462918996810913086e-01) (137, 3.30533653497695922852e-01) (138, 3.18416118621826171875e-01) (139, 3.50301116704940795898e-01) (140, 3.60325038433074951172e-01) (141, 2.49063208699226379395e-01) (142, 3.88070076704025268555e-01) (143, 1.37830302119255065918e-01) (144, 1.12329281866550445557e-01) (145, 1.93522244691848754883e-01) (146, 1.17396309971809387207e-01) (0, 1.50674015283584594727e-01) (1, 2.49524921178817749023e-01) (2, 1.99963167309761047363e-01) (3, 1.85144990682601928711e-01) (4, 2.62665092945098876953e-01) (5, 6.41327142715454101562e-01) (6, 1.99822142720222473145e-01) (7, 1.92550107836723327637e-01) (8, 2.92144834995269775391e-01) (9, 6.56243920326232910156e-01) (10, 2.59717017412185668945e-01) (11, 1.24008886516094207764e-01) (12, 2.20385983586311340332e-01) (13, 2.85314351320266723633e-01) (14, 1.49161800742149353027e-01) (15, 3.33928674459457397461e-01) (16, 1.60359159111976623535e-01) (17, 2.00315937399864196777e-01) (18, 1.40466973185539245605e-01) (19, 2.74924099445343017578e-01) (20, 1.54571786522865295410e-01) (21, 2.97488182783126831055e-01) (22, 2.19375014305114746094e-01) (23, 5.63781023025512695312e-01) (24, 2.52251148223876953125e-01) (25, 2.58074164390563964844e-01) (26, 2.57191866636276245117e-01) (27, 3.62501144409179687500e-01) (28, 1.64302185177803039551e-01) (29, 1.18091754615306854248e-01) (30, 1.26837790012359619141e-01) (31, 2.33050525188446044922e-01) (32, 2.93769985437393188477e-01) (33, 2.74428039789199829102e-01) (34, 2.17154696583747863770e-01) (35, 2.51064211130142211914e-01) (36, 2.85817027091979980469e-01) (37, 2.19696000218391418457e-01) (38, 9.01950299739837646484e-02) (39, 2.94672131538391113281e-01) (40, 7.41725638508796691895e-02) (41, 1.34424030780792236328e-01) (42, 7.04717695713043212891e-01) (43, 3.95151555538177490234e-01) (44, 2.06047371029853820801e-01) (45, 3.21305692195892333984e-01) (46, 2.20402330160140991211e-01) (47, 7.24722027778625488281e-01) (48, 1.72151327133178710938e-01) (49, 2.07820862531661987305e-01) (50, 2.37738937139511108398e-01) (51, 2.67381459474563598633e-01) (52, 2.63377577066421508789e-01) (53, 1.07163660228252410889e-01) (54, 1.78671464323997497559e-01) (55, 1.88857123255729675293e-01) (56, 1.54607117176055908203e-01) (57, 2.15716227889060974121e-01) (58, 1.37757867574691772461e-01) (59, 2.05308645963668823242e-01) (60, 2.92497634887695312500e-01) (61, 4.22132372856140136719e-01) (62, 1.77871137857437133789e-01) (63, 2.24840372800827026367e-01) (64, 1.87203288078308105469e-01) (65, 2.65211820602416992188e-01) (66, 1.82158187031745910645e-01) (67, 2.84596294164657592773e-01) (68, 2.48065575957298278809e-01) (69, 2.95683234930038452148e-01) (70, 2.88950115442276000977e-01) (71, 2.75468796491622924805e-01) (72, 2.78659045696258544922e-01) (73, 3.40402275323867797852e-01) (74, 2.91309028863906860352e-01) (75, 2.45007634162902832031e-01) (76, 1.85432106256484985352e-01) (77, 1.64437621831893920898e-01) (78, 1.82360574603080749512e-01) (79, 9.08725619316101074219e-01) (80, 3.58250081539154052734e-01) (81, 9.74894016981124877930e-02) (82, 1.87433645129203796387e-01) (83, 3.00706058740615844727e-01) (84, 2.19664409756660461426e-01) (85, 3.73243689537048339844e-01) (86, 3.22052896022796630859e-01) (87, 2.35084608197212219238e-01) (88, 1.62350207567214965820e-01) (89, 1.52184963226318359375e-01) (90, 2.78622001409530639648e-01) (91, 3.13922137022018432617e-01) (92, 2.39819034934043884277e-01) (93, 2.54977703094482421875e-01) (94, 2.36354544758796691895e-01) (95, 3.25380921363830566406e-01) (96, 3.44273388385772705078e-01) (97, 3.03296089172363281250e-01) (98, 3.46298754215240478516e-01) (99, 2.95712888240814208984e-01) (100, 3.17894876003265380859e-01) (101, 2.26791545748710632324e-01) (102, 2.35922634601593017578e-01) (103, 3.06927114725112915039e-01) (104, 1.52149498462677001953e-01) (105, 1.75802782177925109863e-01) (106, 1.67747974395751953125e-01) (107, 2.11378872394561767578e-01) (108, 3.10680031776428222656e-01) (109, 2.46631354093551635742e-01) (110, 1.76624760031700134277e-01) (111, 2.59350091218948364258e-01) (112, 2.52831399440765380859e-01) (113, 1.83686405420303344727e-01) (114, 1.56108170747756958008e-01) (115, 3.13012152910232543945e-01) (116, 2.87776172161102294922e-01) (117, 3.15250158309936523438e-01) (118, 2.24049031734466552734e-01) (119, 3.12139123678207397461e-01) (120, 3.01197499036788940430e-01) (121, 1.46505951881408691406e-01) (122, 2.61925995349884033203e-01) (123, 2.31598138809204101562e-01) (124, 2.47222259640693664551e-01) (125, 1.58709108829498291016e-01) (126, 2.05489382147789001465e-01) (127, 2.94588774442672729492e-01) (128, 3.07525575160980224609e-01) (129, 1.68753579258918762207e-01) (130, 2.47588247060775756836e-01) (131, 2.91819542646408081055e-01) (132, 2.50963896512985229492e-01) (133, 3.05924564599990844727e-01) (134, 2.23911508917808532715e-01) (135, 2.77881741523742675781e-01) (136, 1.75765633583068847656e-01) (137, 2.61453956365585327148e-01) (138, 1.39249473810195922852e-01) (139, 2.85411745309829711914e-01) (140, 2.09307715296745300293e-01) (141, 1.50663793087005615234e-01) (142, 2.23155900835990905762e-01) (143, 2.97090560197830200195e-01) (144, 1.76449313759803771973e-01) (145, 2.18802124261856079102e-01) (146, 2.63347536325454711914e-01) (0, -1.37849941849708557129e-01) (1, -1.82359158992767333984e-01) (2, 1.00831940770149230957e-01) (3, -1.90400257706642150879e-01) (4, -6.12807989120483398438e-01) (5, -1.16375006735324859619e-01) (6, 1.50830066204071044922e+00) (7, 8.26252717524766921997e-03) (8, -3.05571436882019042969e-01) (9, -2.22357749938964843750e-01) (10, -2.23637327551841735840e-01) (11, -2.04479277133941650391e-01) (12, 3.07024028152227401733e-02) (13, -1.09688289463520050049e-01) (14, -4.52543079853057861328e-01) (15, -1.54249799251556396484e+00) (16, -1.69949270784854888916e-02) (17, -2.85439848899841308594e-01) (18, -1.90894588828086853027e-01) (19, -2.71874517202377319336e-01) (20, -5.22855520248413085938e-01) (21, 7.61019736528396606445e-02) (22, -1.51326343417167663574e-01) (23, -2.20486566424369812012e-01) (24, -2.89885044097900390625e-01) (25, 2.45533920824527740479e-02) (26, -4.06990557909011840820e-01) (27, -4.57579851150512695312e-01) (28, -2.24211946129798889160e-01) (29, -1.90994843840599060059e-01) (30, -1.14954680204391479492e-01) (31, -2.19341826438903808594e+00) (32, -1.43441155552864074707e-01) (33, 1.22899338603019714355e-01) (34, -7.16929808259010314941e-02) (35, -1.06132715940475463867e-01) (36, -2.39525452256202697754e-01) (37, 2.28113746643066406250e+00) (38, 1.93465352058410644531e-01) (39, -1.74514740705490112305e-01) (40, -2.00429677963256835938e+00) (41, -1.93238377571105957031e+00) (42, -2.54695510864257812500e+00) (43, 2.14025998115539550781e+00) (44, 1.64229559898376464844e+00) (45, -1.83396920561790466309e-01) (46, -2.15664327144622802734e-01) (47, -2.47854337096214294434e-01) (48, -2.84603476524353027344e-01) (49, -3.45135331153869628906e-02) (50, -4.15309756994247436523e-01) (51, -3.73427152633666992188e-01) (52, -1.63004308938980102539e-01) (53, -1.79485991597175598145e-01) (54, -1.61632150411605834961e-01) (55, -2.12633204460144042969e+00) (56, -5.97042031586170196533e-02) (57, 1.50522932410240173340e-01) (58, 2.47653741389513015747e-02) (59, -1.95838287472724914551e-01) (60, -1.26869395375251770020e-01) (61, 3.02776861935853958130e-02) (62, -5.62359951436519622803e-03) (63, 2.74491775780916213989e-02) (64, -1.20758555829524993896e-01) (65, -1.81675449013710021973e-01) (66, -1.13687366247177124023e-02) (67, -1.56719475984573364258e-01) (68, 5.84898069500923156738e-02) (69, 7.57518708705902099609e-02) (70, 8.13860222697257995605e-02) (71, -1.37330830097198486328e-01) (72, -1.48751810193061828613e-01) (73, -2.06384330987930297852e-01) (74, -1.61464169621467590332e-01) (75, 4.46955971419811248779e-02) (76, -6.71453177928924560547e-02) (77, -5.32701835036277770996e-02) (78, -7.02642798423767089844e-02) (79, -6.17854669690132141113e-02) (80, -2.02901549637317657471e-02) (81, -1.23631991446018218994e-01) (82, -6.03128001093864440918e-02) (83, -1.85829326510429382324e-02) (84, -2.59963050484657287598e-02) (85, -1.15924306213855743408e-01) (86, -4.99811470508575439453e-02) (87, 1.29657117649912834167e-02) (88, -7.51907676458358764648e-02) (89, -1.08605876564979553223e-01) (90, 3.38319577276706695557e-02) (91, 4.12503108382225036621e-02) (92, 3.93710695207118988037e-02) (93, -6.16140328347682952881e-02) (94, 2.36227046698331832886e-02) (95, 5.53676113486289978027e-02) (96, -2.99116130918264389038e-02) (97, -1.66755449026823043823e-02) (98, 8.19719396531581878662e-03) (99, -9.00627598166465759277e-02) (100, -8.93341302871704101562e-02) (101, -7.47117549180984497070e-02) (102, 4.54394565895199775696e-03) (103, 8.38052928447723388672e-02) (104, -2.89330482482910156250e-02) (105, -9.42790601402521133423e-03) (106, 5.43844774365425109863e-02) (107, 9.51203182339668273926e-02) (108, -6.00857436656951904297e-02) (109, -1.11608635634183883667e-02) (110, 4.49746400117874145508e-02) (111, -1.14645101130008697510e-01) (112, -1.18838526308536529541e-01) (113, 7.07496628165245056152e-02) (114, -2.67669484019279479980e-02) (115, 7.43646733462810516357e-03) (116, 4.11181524395942687988e-02) (117, 2.77451123110949993134e-03) (118, -4.94619905948638916016e-02) (119, -5.88717386126518249512e-02) (120, 1.65506973862648010254e-02) (121, 5.26039265096187591553e-02) (122, 6.23095482587814331055e-02) (123, 5.19895628094673156738e-02) (124, -1.21280953288078308105e-01) (125, -2.93625630438327789307e-02) (126, 3.88728268444538116455e-02) (127, -8.97613260895013809204e-03) (128, 5.89690543711185455322e-02) (129, -8.45266357064247131348e-02) (130, 7.85336270928382873535e-02) (131, -1.19201742112636566162e-01) (132, -2.47717425227165222168e-02) (133, -3.72584648430347442627e-02) (134, -1.32166638970375061035e-01) (135, -8.58987122774124145508e-02) (136, -6.90325796604156494141e-02) (137, 3.50674055516719818115e-03) (138, -1.03533647954463958740e-01) (139, -4.20438684523105621338e-03) (140, -4.23206202685832977295e-03) (141, 1.29873808473348617554e-02) (142, 2.99978088587522506714e-02) (143, -1.05353062972426414490e-02) (144, 1.45437242463231086731e-02) (145, -9.28207859396934509277e-02) (146, -8.24503451585769653320e-02) (0, 9.20268073678016662598e-02) (1, 1.28795102238655090332e-01) (2, -9.80814769864082336426e-02) (3, -2.23079442977905273438e-01) (4, 8.79907906055450439453e-01) (5, 3.06934155523777008057e-02) (6, 4.55696927383542060852e-03) (7, -3.27177703380584716797e-01) (8, 4.94825661182403564453e-01) (9, -1.67447581887245178223e-01) (10, -6.57656975090503692627e-03) (11, 2.01613139361143112183e-02) (12, 2.97036021947860717773e-02) (13, -5.51299214363098144531e-01) (14, -2.37317621707916259766e-01) (15, -1.13461732864379882812e-01) (16, 9.18651968240737915039e-02) (17, -5.28540201485157012939e-02) (18, -8.94688069820404052734e-02) (19, 6.51179492473602294922e-01) (20, -3.25910635292530059814e-02) (21, 5.64771220088005065918e-02) (22, 4.35206443071365356445e-01) (23, 1.73991054296493530273e-01) (24, -4.20608893036842346191e-02) (25, -9.15936753153800964355e-02) (26, -2.99851685762405395508e-01) (27, -2.11571946740150451660e-01) (28, 4.63810451328754425049e-02) (29, -5.25366105139255523682e-02) (30, -8.21994468569755554199e-02) (31, 8.27404037117958068848e-02) (32, 8.44532549381256103516e-02) (33, 2.85610020160675048828e-01) (34, 1.05008892714977264404e-01) (35, 2.46016141027212142944e-02) (36, -8.89893248677253723145e-03) (37, -3.95626723766326904297e-01) (38, -3.34398269653320312500e-01) (39, -5.23669794201850891113e-02) (40, 9.26917850971221923828e-01) (41, 6.87651515007019042969e-01) (42, 1.87847003340721130371e-01) (43, -1.07550692558288574219e+00) (44, 1.78473845124244689941e-01) (45, -1.60836115479469299316e-01) (46, 4.76216226816177368164e-01) (47, 1.23405143618583679199e-01) (48, 1.21830634772777557373e-01) (49, -7.57251605391502380371e-02) (50, -2.76876240968704223633e-01) (51, -3.13339769840240478516e-01) (52, 1.56708564609289169312e-02) (53, -3.73190715909004211426e-02) (54, -7.08825066685676574707e-02) (55, 1.24178357422351837158e-01) (56, -8.39668512344360351562e-02) (57, 3.04272413253784179688e-01) (58, 3.48719917237758636475e-02) (59, 1.20302379131317138672e-01) (60, 1.76533628255128860474e-02) (61, -1.52232915163040161133e-01) (62, -4.01628532409667968750e+01) (63, 1.46603146567940711975e-02) (64, 8.34821015596389770508e-02) (65, 4.22297185286879539490e-03) (66, -4.97055761516094207764e-02) (67, -1.22837126255035400391e-01) (68, -1.69183921813964843750e+01) (69, -7.88580849766731262207e-02) (70, -3.10336309485137462616e-03) (71, -2.13637985289096832275e-02) (72, 8.74032229185104370117e-02) (73, -2.91837751865386962891e-01) (74, -1.50801718235015869141e-01) (75, 1.88646577298641204834e-02) (76, -5.58220036327838897705e-02) (77, 1.79696083068847656250e-02) (78, -3.15228034742176532745e-03) (79, -2.03495651483535766602e-01) (80, -9.41158160567283630371e-02) (81, -5.85693009197711944580e-02) (82, -9.00546647608280181885e-03) (83, -2.33287289738655090332e-02) (84, -7.20166116952896118164e-02) (85, 4.54704202711582183838e-02) (86, -3.17042842507362365723e-02) (87, -5.62745705246925354004e-02) (88, 5.97039312124252319336e-02) (89, -7.18138143420219421387e-02) (90, -9.36535522341728210449e-02) (91, 5.13694435358047485352e-02) (92, -7.48033970594406127930e-02) (93, 2.21008285880088806152e-02) (94, -1.79428216069936752319e-02) (95, -1.26655742526054382324e-01) (96, -2.25705914199352264404e-02) (97, 1.07431359589099884033e-01) (98, -4.46695499122142791748e-02) (99, -1.22141212224960327148e-01) (100, -5.39647229015827178955e-02) (101, -9.04747247695922851562e-02) (102, 5.83398491144180297852e-02) (103, -3.44839803874492645264e-02) (104, -6.21447823941707611084e-02) (105, 6.15993067622184753418e-02) (106, -5.71220889687538146973e-02) (107, 1.47040106821805238724e-03) (108, 3.83254922926425933838e-02) (109, -1.51822445914149284363e-02) (110, 1.64620000869035720825e-02) (111, -7.39090815186500549316e-02) (112, 4.32052053511142730713e-02) (113, -4.84664775431156158447e-02) (114, 3.27550582587718963623e-02) (115, 6.46828413009643554688e-02) (116, -5.36333434283733367920e-02) (117, -8.04805755615234375000e-02) (118, -1.12384535372257232666e-01) (119, -9.94827374815940856934e-02) (120, -7.61542245745658874512e-02) (121, -9.72559005022048950195e-02) (122, -2.14158505201339721680e-01) (123, -1.67205482721328735352e-02) (124, 1.55194138642400503159e-04) (125, -9.94848757982254028320e-02) (126, 1.47221852093935012817e-02) (127, 1.53125450015068054199e-03) (128, -9.08111315220594406128e-03) (129, -9.27220061421394348145e-02) (130, -7.35748410224914550781e-02) (131, 1.90301910042762756348e-02) (132, 1.90683566033840179443e-02) (133, 1.11535347998142242432e-01) (134, -7.70561024546623229980e-02) (135, -1.30521571263670921326e-02) (136, 2.41229739040136337280e-02) (137, -2.81806234270334243774e-02) (138, -9.40635278820991516113e-02) (139, -5.57880997657775878906e-02) (140, -1.76441874355077743530e-02) (141, -6.26893341541290283203e-03) (142, -1.44452108070254325867e-02) (143, -6.24243617057800292969e-02) (144, -1.03728815913200378418e-01) (145, -3.24878841638565063477e-02) (146, -1.29840131849050521851e-02) (0, -1.48633271455764770508e-01) (1, -6.08080700039863586426e-02) (2, -8.97392690181732177734e-01) (3, -1.08814842998981475830e-01) (4, 8.95506083965301513672e-01) (5, 5.09213507175445556641e-01) (6, 5.72733357548713684082e-02) (7, -5.29568910598754882812e-01) (8, 6.40278458595275878906e-02) (9, -2.19279546290636062622e-02) (10, -1.32724205031991004944e-02) (11, -5.56883290410041809082e-02) (12, -1.59496754407882690430e-01) (13, -6.54458582401275634766e-01) (14, -2.18314081430435180664e-02) (15, -6.43746912479400634766e-01) (16, -1.91666796803474426270e-01) (17, -9.68152880668640136719e-02) (18, -1.31232917308807373047e-01) (19, 5.61307489871978759766e-01) (20, 3.86557430028915405273e-01) (21, -2.60865360498428344727e-01) (22, 6.42703995108604431152e-02) (23, -1.00482717156410217285e-01) (24, 2.46151108294725418091e-02) (25, -4.45928471162915229797e-03) (26, -1.15685388445854187012e-01) (27, -6.65387094020843505859e-01) (28, -8.68823304772377014160e-02) (29, -1.88101142644882202148e-01) (30, -2.07585111260414123535e-01) (31, 4.96567189693450927734e-02) (32, -1.68723076581954956055e-01) (33, -6.43772110342979431152e-02) (34, -7.87051767110824584961e-02) (35, -1.41959488391876220703e-01) (36, -1.55265927314758300781e-01) (37, -5.57222425937652587891e-01) (38, -1.07504856586456298828e+00) (39, -1.59612268209457397461e-01) (40, 6.70011818408966064453e-01) (41, 5.31063854694366455078e-01) (42, 1.25569188594818115234e+00) (43, 4.93051499128341674805e-01) (44, -1.51249006390571594238e-01) (45, -1.35703468322753906250e+00) (46, 2.55239289253950119019e-02) (47, -3.38655188679695129395e-02) (48, 1.04140890762209892273e-02) (49, -3.28391604125499725342e-02) (50, -2.45063558220863342285e-01) (51, -6.48158371448516845703e-01) (52, -1.15142889320850372314e-01) (53, -2.53315389156341552734e-01) (54, -6.52411058545112609863e-02) (55, 1.40393003821372985840e-01) (56, -4.40575554966926574707e-02) (57, -7.70519301295280456543e-02) (58, -9.51350852847099304199e-02) (59, 3.20358611643314361572e-02) (60, 9.44266840815544128418e-02) (61, -5.71260154247283935547e-02) (62, -2.18083324432373046875e+01) (63, -2.53389626741409301758e-01) (64, 7.84009471535682678223e-02) (65, 3.92990782856941223145e-02) (66, -7.23803117871284484863e-02) (67, -6.99234977364540100098e-02) (68, -5.11385583877563476562e+00) (69, -2.31704473495483398438e-01) (70, 4.85618896782398223877e-02) (71, 8.04757978767156600952e-03) (72, -9.31728556752204895020e-02) (73, 1.26719549298286437988e-01) (74, -9.54102799296379089355e-02) (75, -1.78723722696304321289e-01) (76, 2.45167817920446395874e-02) (77, -1.15853376686573028564e-01) (78, 3.67313511669635772705e-02) (79, 5.51999062299728393555e-02) (80, -3.59568856656551361084e-02) (81, -2.47242078185081481934e-01) (82, -4.10983264446258544922e-02) (83, -2.74132248014211654663e-02) (84, -8.83696749806404113770e-02) (85, -3.90451252460479736328e-02) (86, -9.70920771360397338867e-02) (87, 2.65138018876314163208e-02) (88, 1.73496361821889877319e-02) (89, -1.98967363685369491577e-02) (90, -3.67183946073055267334e-02) (91, 1.95050574839115142822e-02) (92, 3.44883576035499572754e-02) (93, 1.79865310201421380043e-07) (94, 4.88684251904487609863e-02) (95, 2.07362081855535507202e-02) (96, 8.72062966227531433105e-02) (97, -7.36772874370217323303e-03) (98, -8.54758918285369873047e-02) (99, 2.86192223429679870605e-02) (100, 6.05657510459423065186e-02) (101, 2.61458009481430053711e-02) (102, -9.61697846651077270508e-02) (103, 4.53786440193653106689e-02) (104, 6.93162009119987487793e-02) (105, 3.99205088615417480469e-02) (106, -1.05324469506740570068e-01) (107, -3.09337731450796127319e-02) (108, 1.05834297835826873779e-01) (109, 6.73332437872886657715e-02) (110, -1.06680691242218017578e-01) (111, 1.53461145237088203430e-02) (112, 8.88947322964668273926e-02) (113, -3.10468897223472595215e-02) (114, -1.30314469337463378906e-01) (115, -1.33058026432991027832e-01) (116, -4.15874607861042022705e-02) (117, -7.64872953295707702637e-02) (118, 4.32048104703426361084e-02) (119, -1.26451671123504638672e-01) (120, -5.09056784212589263916e-02) (121, -4.96051870286464691162e-02) (122, 3.55821065604686737061e-02) (123, -9.96935963630676269531e-02) (124, 4.13782969117164611816e-02) (125, 4.87243756651878356934e-02) (126, 3.01819872111082077026e-02) (127, 3.93100976943969726562e-02) (128, 8.56168121099472045898e-02) (129, 1.10289745032787322998e-01) (130, -2.19658482819795608521e-02) (131, 4.27225977182388305664e-02) (132, 6.17778599262237548828e-02) (133, 7.15856347233057022095e-03) (134, -5.57019114494323730469e-02) (135, -4.96891215443611145020e-02) (136, -5.98522741347551345825e-03) (137, 8.19869339466094970703e-03) (138, 9.15412511676549911499e-03) (139, -7.41817802190780639648e-02) (140, 3.32946069538593292236e-02) (141, 3.20753939449787139893e-02) (142, 2.63251438736915588379e-02) (143, 2.07791593857109546661e-03) (144, -8.29178616404533386230e-02) (145, 2.54942514002323150635e-02) (146, 5.25247538462281227112e-03) (0, 1.33908927440643310547e-01) (1, -1.25785127282142639160e-01) (2, 7.44566857814788818359e-01) (3, -6.99296072125434875488e-02) (4, 2.62472838163375854492e-01) (5, 1.78635269403457641602e-01) (6, 1.09810404479503631592e-01) (7, -1.80664047598838806152e-01) (8, 1.57773748040199279785e-01) (9, -7.66905099153518676758e-02) (10, 2.22019851207733154297e-02) (11, 7.25520588457584381104e-03) (12, 5.55456541478633880615e-02) (13, 3.42717021703720092773e-02) (14, 1.19066119194030761719e-01) (15, 1.93835985660552978516e+00) (16, -1.83066297322511672974e-02) (17, 2.49923067167401313782e-03) (18, 9.26332399249076843262e-02) (19, 2.37254351377487182617e-01) (20, 1.92873701453208923340e-01) (21, 3.21205370128154754639e-02) (22, -9.33291111141443252563e-03) (23, 6.97753019630908966064e-03) (24, -7.72775486111640930176e-02) (25, -5.68576343357563018799e-02) (26, 6.37830570340156555176e-02) (27, 1.44333565235137939453e+00) (28, -1.65822170674800872803e-02) (29, -3.81130538880825042725e-02) (30, 8.11696872115135192871e-02) (31, 8.09281319379806518555e-02) (32, -7.38393440842628479004e-02) (33, -1.04256503283977508545e-01) (34, 6.12661661580204963684e-03) (35, 6.92401587963104248047e-01) (36, -3.10317516326904296875e-01) (37, 6.57462418079376220703e-01) (38, 1.98584958910942077637e-01) (39, -7.36924111843109130859e-02) (40, 2.78379142284393310547e-01) (41, 2.54769682884216308594e-01) (42, 3.43774706125259399414e-01) (43, -2.04275678843259811401e-02) (44, 2.67739556729793548584e-02) (45, -3.50425958633422851562e-01) (46, 1.30508780479431152344e-01) (47, -1.25210015103220939636e-02) (48, -4.10703681409358978271e-02) (49, 9.49981734156608581543e-02) (50, 1.59708246588706970215e-01) (51, 1.37338185310363769531e+00) (52, -8.41557886451482772827e-03) (53, 1.21275633573532104492e-01) (54, 1.41967639327049255371e-01) (55, 1.65628194808959960938e-01) (56, 9.31548625230789184570e-02) (57, -1.30166158080101013184e-01) (58, 1.22502772137522697449e-03) (59, 4.84357364475727081299e-02) (60, -6.41411021351814270020e-02) (61, 1.15822464227676391602e-01) (62, -1.28110527992248535156e-01) (63, -4.69650886952877044678e-02) (64, -1.98613852262496948242e-02) (65, 1.33542910218238830566e-01) (66, 1.35017171502113342285e-01) (67, -8.09027347713708877563e-03) (68, -3.21449749171733856201e-02) (69, -7.73348435759544372559e-02) (70, 4.10535484552383422852e-02) (71, 1.01908929646015167236e-01) (72, 1.24034240841865539551e-01) (73, -4.90107052028179168701e-02) (74, -5.56268803775310516357e-02) (75, -4.96159866452217102051e-02) (76, 1.02639749646186828613e-01) (77, 1.60735920071601867676e-01) (78, 5.06148301064968109131e-02) (79, -8.52005556225776672363e-02) (80, 4.58001978695392608643e-02) (81, -6.16590455174446105957e-02) (82, 2.46872939169406890869e-03) (83, -7.27435201406478881836e-03) (84, 8.93298387527465820312e-02) (85, -7.36957043409347534180e-03) (86, 7.45005160570144653320e-02) (87, 1.07239469885826110840e-01) (88, -3.05664539337158203125e-03) (89, -1.99799938127398490906e-03) (90, -4.57388050854206085205e-02) (91, 7.10852667689323425293e-02) (92, -5.37063963711261749268e-02) (93, 5.33187724649906158447e-02) (94, 6.78299441933631896973e-02) (95, -6.49887546896934509277e-02) (96, -9.73028317093849182129e-03) (97, 1.42339738085865974426e-02) (98, 3.80310527980327606201e-02) (99, -8.41682404279708862305e-02) (100, 5.09364195168018341064e-02) (101, 9.96993407607078552246e-02) (102, 6.46075308322906494141e-02) (103, 3.37762981653213500977e-02) (104, 8.45818296074867248535e-02) (105, 4.14423123002052307129e-02) (106, 7.18407258391380310059e-02) (107, 2.37588770687580108643e-02) (108, 2.69061848521232604980e-02) (109, 9.90351438522338867188e-02) (110, 5.77084645628929138184e-02) (111, 2.44057662785053253174e-02) (112, 1.36782303452491760254e-01) (113, -6.65269717574119567871e-02) (114, 2.16074357740581035614e-03) (115, 1.12756848335266113281e-01) (116, 8.62895976752042770386e-03) (117, -4.21985192224383354187e-03) (118, 4.42346259951591491699e-02) (119, 1.02750696241855621338e-01) (120, 1.93441472947597503662e-02) (121, 1.11784234642982482910e-01) (122, -1.52221284806728363037e-02) (123, 8.15503820776939392090e-02) (124, -2.55187191069126129150e-02) (125, 1.35595053434371948242e-01) (126, 8.59412327408790588379e-02) (127, 1.09208328649401664734e-02) (128, 2.61759124696254730225e-02) (129, -2.42952778935432434082e-02) (130, 8.02451893687248229980e-02) (131, -6.40608444809913635254e-02) (132, -2.79106851667165756226e-02) (133, 1.57133955508470535278e-02) (134, 3.77232432365417480469e-02) (135, 9.26965996623039245605e-02) (136, 1.00191414356231689453e-01) (137, -6.01111799478530883789e-02) (138, 4.65408945456147193909e-03) (139, 1.99046954512596130371e-02) (140, -8.74633714556694030762e-02) (141, 1.04403056204319000244e-01) (142, 1.20715171098709106445e-01) (143, -6.20505586266517639160e-02) (144, -4.60844002664089202881e-02) (145, 2.19497624784708023071e-02) (146, 1.29102021455764770508e-01) (0, -1.58887475728988647461e-01) (1, -1.09784729778766632080e-01) (2, -4.01253730058670043945e-01) (3, -1.86012730002403259277e-01) (4, -3.23861598968505859375e-01) (5, -7.09025189280509948730e-02) (6, -1.05734094977378845215e-01) (7, -1.58395558595657348633e-01) (8, -2.30005756020545959473e-01) (9, -8.57439413666725158691e-02) (10, -2.56939642131328582764e-02) (11, -2.50272512435913085938e-01) (12, -3.15813630819320678711e-01) (13, -2.66855001449584960938e-01) (14, -8.15423205494880676270e-02) (15, -4.52454894781112670898e-01) (16, -1.89988911151885986328e-01) (17, -6.66278600692749023438e-01) (18, -1.21362976729869842529e-01) (19, -3.69033664464950561523e-01) (20, -1.84038698673248291016e-01) (21, -2.26632729172706604004e-02) (22, -3.05132508277893066406e-01) (23, -1.24558918178081512451e-01) (24, -1.35743245482444763184e-01) (25, -2.08411887288093566895e-01) (26, -2.45201289653778076172e-01) (27, -3.20279300212860107422e-01) (28, -4.21253621578216552734e-01) (29, -2.57283300161361694336e-01) (30, -3.35970014333724975586e-01) (31, -6.07199706137180328369e-02) (32, -2.24721774458885192871e-01) (33, -5.84994107484817504883e-02) (34, -2.32714027166366577148e-01) (35, -1.06032609939575195312e-01) (36, -6.87019526958465576172e-01) (37, -5.14915466308593750000e-01) (38, -2.47834339737892150879e-01) (39, -3.34991961717605590820e-02) (40, -9.23200547695159912109e-02) (41, -3.95831197500228881836e-01) (42, -8.60102176666259765625e-02) (43, -8.96491482853889465332e-03) (44, -1.02552890777587890625e-01) (45, -1.22389778494834899902e-01) (46, -3.54644626379013061523e-01) (47, -2.04001337289810180664e-01) (48, -2.39317655563354492188e-01) (49, -8.82281139492988586426e-02) (50, -2.93032407760620117188e-01) (51, -2.27795392274856567383e-01) (52, -3.28000932931900024414e-01) (53, -1.28420367836952209473e-01) (54, -3.17464232444763183594e-01) (55, -7.39815980195999145508e-02) (56, -2.12268218398094177246e-01) (57, -6.29043281078338623047e-02) (58, -9.74937230348587036133e-02) (59, -9.33918878436088562012e-02) (60, -4.46514710783958435059e-02) (61, 3.97561676800251007080e-02) (62, -5.35046219825744628906e-01) (63, -2.58498817682266235352e-01) (64, -6.29224479198455810547e-02) (65, -3.16868051886558532715e-02) (66, -1.08795233070850372314e-01) (67, -5.49742691218852996826e-02) (68, -1.10835418105125427246e-01) (69, -7.75433406233787536621e-02) (70, -5.92331513762474060059e-02) (71, -1.21220797300338745117e-01) (72, -1.45780384540557861328e-01) (73, 1.83394607156515121460e-02) (74, -9.43701639771461486816e-02) (75, -4.48463074862957000732e-02) (76, -2.04315498471260070801e-01) (77, -8.08028876781463623047e-02) (78, -4.16118837893009185791e-02) (79, 8.02384130656719207764e-03) (80, -6.22092336416244506836e-02) (81, -3.60454738140106201172e-01) (82, -1.42242312431335449219e-01) (83, -4.23930548131465911865e-02) (84, -3.94450984895229339600e-02) (85, -9.28640887141227722168e-02) (86, -6.02190867066383361816e-02) (87, 5.14543661847710609436e-03) (88, 9.97081957757472991943e-03) (89, -9.43857803940773010254e-02) (90, -1.15081958472728729248e-01) (91, -2.82191429287195205688e-02) (92, -1.37501612305641174316e-01) (93, -2.71473545581102371216e-02) (94, -8.47920551896095275879e-02) (95, 1.16931218653917312622e-02) (96, -6.79422393441200256348e-02) (97, -2.02061198651790618896e-02) (98, -2.41181515157222747803e-02) (99, -1.31397590041160583496e-01) (100, -3.48481386899948120117e-02) (101, -1.43363982439041137695e-01) (102, 1.15580940619111061096e-02) (103, -9.29355174303054809570e-02) (104, -1.57303750514984130859e-01) (105, -1.15023232996463775635e-01) (106, 1.64993423968553543091e-02) (107, -9.74063947796821594238e-02) (108, -8.34544152021408081055e-02) (109, -6.52403235435485839844e-02) (110, -1.35256126523017883301e-01) (111, -1.74324408173561096191e-01) (112, -9.74822044372558593750e-02) (113, -1.23408935964107513428e-01) (114, -4.84631173312664031982e-02) (115, -9.46899056434631347656e-02) (116, -4.62185628712177276611e-02) (117, -1.18218123912811279297e-01) (118, -1.14422000944614410400e-01) (119, -2.82959677278995513916e-02) (120, -6.93169310688972473145e-02) (121, -5.85102513432502746582e-02) (122, -1.10838435590267181396e-01) (123, -1.67877361178398132324e-01) (124, -1.54475376009941101074e-01) (125, -1.25165842473506927490e-02) (126, 2.21755243837833404541e-02) (127, -3.60476580681279301643e-04) (128, -5.16279228031635284424e-02) (129, -4.72982265055179595947e-02) (130, -1.03116728365421295166e-01) (131, -1.22002892196178436279e-01) (132, -5.43466489762067794800e-03) (133, -1.37121006846427917480e-01) (134, -3.97228375077247619629e-02) (135, -1.65101602673530578613e-01) (136, -3.30078154802322387695e-02) (137, -8.68139341473579406738e-02) (138, -8.40619802474975585938e-02) (139, -1.59183800220489501953e-01) (140, -1.01990014314651489258e-01) (141, -7.27957934141159057617e-02) (142, -1.07226461172103881836e-01) (143, -1.17757087573409080505e-02) (144, -3.66114564239978790283e-02) (145, -1.96898341178894042969e-01) (146, -2.88782715797424316406e-01) (0, -1.49825438857078552246e-01) (1, 2.20830750465393066406e+00) (2, -8.07487368583679199219e-01) (3, 4.60490703582763671875e-01) (4, 7.46236979961395263672e-01) (5, 2.18280464410781860352e-01) (6, -1.32768404483795166016e+00) (7, -1.07394665479660034180e-01) (8, 7.36257061362266540527e-02) (9, 1.93298369646072387695e-01) (10, 3.41108441352844238281e-01) (11, 1.44265264272689819336e-01) (12, -1.21738642454147338867e-01) (13, -4.89456504583358764648e-02) (14, -1.03897213935852050781e+00) (15, -1.31064391136169433594e+00) (16, -1.36277303099632263184e-01) (17, 3.52421164512634277344e-01) (18, 1.85197144746780395508e-01) (19, 6.07858180999755859375e-01) (20, 1.25567808747291564941e-01) (21, -3.19152683019638061523e-01) (22, 1.08164317905902862549e-01) (23, 5.62059700489044189453e-01) (24, 3.63533347845077514648e-01) (25, -1.42184644937515258789e-01) (26, -1.18989020586013793945e-01) (27, -9.44024085998535156250e-01) (28, 1.46575525403022766113e-01) (29, -1.88253834843635559082e-01) (30, -9.66399535536766052246e-02) (31, -3.23005169630050659180e-02) (32, 5.74953377246856689453e-01) (33, -5.35525560379028320312e-01) (34, 3.37689608335494995117e-01) (35, -9.33545082807540893555e-02) (36, 7.07879841327667236328e-01) (37, 6.13995045423507690430e-02) (38, -6.80755853652954101562e-01) (39, 4.08226668834686279297e-01) (40, 8.57300996780395507812e-01) (41, 1.81956720352172851562e+00) (42, 3.13455790281295776367e-01) (43, 8.01531910896301269531e-01) (44, -1.00952291488647460938e+00) (45, -1.24730539321899414062e+00) (46, -2.98478137701749801636e-02) (47, 3.64303082227706909180e-01) (48, 4.15781199932098388672e-01) (49, -1.10477268695831298828e-01) (50, -7.30565264821052551270e-02) (51, -9.25922632217407226562e-01) (52, 2.05425202846527099609e-01) (53, -1.61773726344108581543e-01) (54, -1.59702047705650329590e-01) (55, -2.83355172723531723022e-02) (56, 4.48556423187255859375e-01) (57, -4.68456685543060302734e-01) (58, 2.22137682139873504639e-02) (59, 5.50275295972824096680e-02) (60, -2.78979893773794174194e-02) (61, 1.66600208282470703125e+01) (62, -1.31390783935785293579e-02) (63, 5.34340679645538330078e-01) (64, -8.92426148056983947754e-02) (65, 6.47900477051734924316e-02) (66, 2.91909370571374893188e-02) (67, 1.68054327368736267090e-01) (68, 3.44064146280288696289e-01) (69, 4.62409257888793945312e-01) (70, -5.52675351500511169434e-02) (71, -1.13911842927336692810e-02) (72, -5.16622550785541534424e-02) (73, 2.80356049537658691406e-01) (74, 5.99273414611816406250e+01) (75, 2.09421403706073760986e-02) (76, 2.36938707530498504639e-02) (77, -4.03510481119155883789e-02) (78, 3.76669578254222869873e-02) (79, 1.16512174606323242188e+01) (80, 8.36806011199951171875e+00) (81, -1.03938005864620208740e-01) (82, 9.93304997682571411133e-02) (83, 9.55387651920318603516e-02) (84, 6.49776235222816467285e-02) (85, 2.29305494576692581177e-02) (86, -6.65911436080932617188e-02) (87, 5.82064799964427947998e-02) (88, -9.46011021733283996582e-02) (89, 5.71856386959552764893e-02) (90, 2.88542136549949645996e-02) (91, -5.43254911899566650391e-02) (92, -5.13336993753910064697e-02) (93, 2.09679156541824340820e-02) (94, -2.06140037626028060913e-02) (95, 7.28791207075119018555e-02) (96, -7.80152529478073120117e-02) (97, 3.58685463666915893555e-01) (98, -8.39027836918830871582e-02) (99, 6.04401063174009323120e-03) (100, 2.27462034672498703003e-02) (101, 9.91349108517169952393e-03) (102, 9.76203233003616333008e-02) (103, 5.44607341289520263672e-02) (104, 3.04583646357059478760e-03) (105, 6.40051960945129394531e-02) (106, -3.41404881328344345093e-03) (107, -1.13558501005172729492e-01) (108, -2.09345240145921707153e-02) (109, 1.11791957169771194458e-02) (110, 2.71753165870904922485e-02) (111, 2.44198255240917205811e-02) (112, 7.49427601695060729980e-02) (113, 8.02191440016031265259e-03) (114, -3.82837243378162384033e-02) (115, 5.64061962068080902100e-02) (116, -1.55858427286148071289e-01) (117, 1.20569393038749694824e-02) (118, 8.59205946326255798340e-02) (119, -5.97832724452018737793e-02) (120, -4.29881096351891756058e-04) (121, 1.87529716640710830688e-02) (122, 7.22514763474464416504e-02) (123, -7.90678933262825012207e-02) (124, -7.89625048637390136719e-02) (125, -2.48502213507890701294e-02) (126, 6.22733123600482940674e-02) (127, 6.38835653662681579590e-02) (128, -4.96764406561851501465e-02) (129, -4.72988076508045196533e-02) (130, 3.10253381030634045601e-06) (131, 5.44649772346019744873e-02) (132, 2.62969476170837879181e-03) (133, 5.59184961020946502686e-02) (134, 7.51749053597450256348e-02) (135, 9.96212586760520935059e-02) (136, 7.78031945228576660156e-02) (137, 3.10735660605132579803e-03) (138, -8.78702774643898010254e-02) (139, -9.99867171049118041992e-02) (140, -3.16865295171737670898e-02) (141, 1.05559125542640686035e-01) (142, 9.25261434167623519897e-03) (143, -2.60416399687528610229e-02) (144, -3.01175005733966827393e-02) (145, 7.79034048318862915039e-02) (146, 6.08040988445281982422e-02) (0, 2.89336293935775756836e-01) (1, 3.42511922121047973633e-01) (2, -5.99187202751636505127e-02) (3, 3.88890981674194335938e-01) (4, -2.10990216583013534546e-02) (5, 5.46341180801391601562e-01) (6, -1.68476943969726562500e+01) (7, 2.57041096687316894531e-01) (8, 1.78993508219718933105e-01) (9, 3.18262100219726562500e-01) (10, 3.78210067749023437500e-01) (11, 4.44545716047286987305e-01) (12, 2.70636647939682006836e-01) (13, 4.76344466209411621094e-01) (14, 4.11595791578292846680e-01) (15, 3.65437054634094238281e+00) (16, 3.01760673522949218750e-01) (17, 3.00722807645797729492e-01) (18, 2.42552444338798522949e-01) (19, 1.95114672183990478516e-01) (20, -1.77737027406692504883e-02) (21, 3.16358268260955810547e-01) (22, 3.17756384611129760742e-01) (23, 2.79683679342269897461e-01) (24, 3.61861914396286010742e-01) (25, 2.64051616191864013672e-01) (26, 3.82826238870620727539e-01) (27, 1.72805535793304443359e+00) (28, 4.59679454565048217773e-01) (29, 3.07589888572692871094e-01) (30, 3.33821982145309448242e-01) (31, 2.17062339186668395996e-01) (32, 3.63499075174331665039e-01) (33, 5.90138256549835205078e-01) (34, 2.38842487335205078125e-01) (35, 4.34033244848251342773e-01) (36, 3.66322994232177734375e-01) (37, -3.35883833467960357666e-02) (38, 7.30872079730033874512e-02) (39, 2.45599344372749328613e-01) (40, -1.41550569534301757812e+01) (41, -1.24279212951660156250e+01) (42, -1.82340946197509765625e+01) (43, 3.93272519111633300781e-01) (44, -3.35526490211486816406e+00) (45, 3.63763958215713500977e-01) (46, 3.19797426462173461914e-01) (47, 2.49371469020843505859e-01) (48, 2.90908038616180419922e-01) (49, 3.23934555053710937500e-01) (50, 3.26239734888076782227e-01) (51, 1.68045914173126220703e+00) (52, 3.49665611982345581055e-01) (53, 3.84557366371154785156e-01) (54, 3.35100084543228149414e-01) (55, 1.41534015536308288574e-01) (56, 2.07735091447830200195e-01) (57, 5.49589216709136962891e-01) (58, 2.64651060104370117188e-01) (59, 3.26049029827117919922e-01) (60, 3.40886831283569335938e-01) (61, 3.36818575859069824219e-01) (62, 3.70028674602508544922e-01) (63, 3.13961803913116455078e-01) (64, 3.95915061235427856445e-01) (65, 2.37259134650230407715e-01) (66, 2.86189496517181396484e-01) (67, 3.07503521442413330078e-01) (68, 3.17998081445693969727e-01) (69, 2.98711389303207397461e-01) (70, 3.56915026903152465820e-01) (71, 3.32859456539154052734e-01) (72, 3.75592321157455444336e-01) (73, 3.73896718025207519531e-01) (74, 3.75141769647598266602e-01) (75, 3.88286232948303222656e-01) (76, 3.08049768209457397461e-01) (77, 2.46916174888610839844e-01) (78, 3.39599788188934326172e-01) (79, 3.64133656024932861328e-01) (80, 3.93134087324142456055e-01) (81, 4.23920691013336181641e-01) (82, 4.14247393608093261719e-01) (83, 3.77458810806274414062e-01) (84, 3.78094822168350219727e-01) (85, 3.13657701015472412109e-01) (86, 3.20978552103042602539e-01) (87, 4.23934131860733032227e-01) (88, 3.38851988315582275391e-01) (89, 3.20140361785888671875e-01) (90, 3.55198860168457031250e-01) (91, 4.47673946619033813477e-01) (92, 4.37132120132446289062e-01) (93, 2.60044157505035400391e-01) (94, 3.15563559532165527344e-01) (95, 4.41035211086273193359e-01) (96, 2.85359740257263183594e-01) (97, 3.32963079214096069336e-01) (98, 3.58357280492782592773e-01) (99, 3.10263276100158691406e-01) (100, 3.54978084564208984375e-01) (101, 4.41391259431838989258e-01) (102, 3.76899480819702148438e-01) (103, 3.52544933557510375977e-01) (104, 3.71112942695617675781e-01) (105, 3.10495465993881225586e-01) (106, 4.33329969644546508789e-01) (107, 4.55873966217041015625e-01) (108, 3.59009236097335815430e-01) (109, 3.81687551736831665039e-01) (110, 3.94694805145263671875e-01) (111, 4.28479284048080444336e-01) (112, 3.37330788373947143555e-01) (113, 3.22407633066177368164e-01) (114, 3.71364951133728027344e-01) (115, 2.95912384986877441406e-01) (116, 3.90602707862854003906e-01) (117, 4.22634214162826538086e-01) (118, 2.78601348400115966797e-01) (119, 2.94715225696563720703e-01) (120, 3.08146417140960693359e-01) (121, 3.45869332551956176758e-01) (122, 2.75542169809341430664e-01) (123, 3.00475001335144042969e-01) (124, 3.37499260902404785156e-01) (125, 3.01318764686584472656e-01) (126, 4.56290334463119506836e-01) (127, 3.85794460773468017578e-01) (128, 3.59296590089797973633e-01) (129, 3.10754686594009399414e-01) (130, 4.46352034807205200195e-01) (131, 2.46219798922538757324e-01) (132, 2.87383705377578735352e-01) (133, 3.60518187284469604492e-01) (134, 3.08531939983367919922e-01) (135, 4.27739441394805908203e-01) (136, 4.34842348098754882812e-01) (137, 3.19079637527465820312e-01) (138, 4.00079727172851562500e-01) (139, 3.27816635370254516602e-01) (140, 4.69749838113784790039e-01) (141, 3.14562350511550903320e-01) (142, 3.43395978212356567383e-01) (143, 3.43557357788085937500e-01) (144, 3.65889668464660644531e-01) (145, 4.42668616771697998047e-01) (146, 3.86640846729278564453e-01) (0, 4.73333001136779785156e-02) (1, 5.10612666606903076172e-01) (2, 5.63893675804138183594e-01) (3, 2.68108248710632324219e-01) (4, -3.69946025311946868896e-02) (5, -1.16893172264099121094e+00) (6, 4.56930458545684814453e-01) (7, 1.35953158140182495117e-01) (8, 7.29629471898078918457e-02) (9, 6.60016536712646484375e-02) (10, -1.40484543517231941223e-02) (11, -1.15496896207332611084e-01) (12, -2.45331805199384689331e-02) (13, 7.86089105531573295593e-04) (14, 1.83015853166580200195e-01) (15, 4.98066067695617675781e-01) (16, 8.18753838539123535156e-02) (17, 5.11018455028533935547e-01) (18, 5.13603448867797851562e-01) (19, 2.96244807541370391846e-02) (20, 1.43156319856643676758e-01) (21, 3.16548973321914672852e-01) (22, -4.70349155366420745850e-02) (23, -3.21943908929824829102e-02) (24, -1.43006250262260437012e-01) (25, 1.06518082320690155029e-02) (26, 4.64698493480682373047e-01) (27, 3.40973913669586181641e-01) (28, -1.07269465923309326172e+00) (29, -3.13230715692043304443e-02) (30, 3.17563638091087341309e-02) (31, 2.85232752561569213867e-01) (32, -6.14323951303958892822e-02) (33, 3.57710778713226318359e-01) (34, -7.97998681664466857910e-02) (35, 4.94321912527084350586e-01) (36, 4.11364436149597167969e-01) (37, 5.37988364696502685547e-01) (38, 5.30314207077026367188e-01) (39, -3.15652191638946533203e-01) (40, -4.28040958940982818604e-02) (41, 5.33339902758598327637e-02) (42, -3.52364718914031982422e-01) (43, 4.70831960439682006836e-01) (44, 3.48462522029876708984e-01) (45, -7.01927363872528076172e-01) (46, -4.90520745515823364258e-02) (47, 1.12794741988182067871e-01) (48, -1.38907462358474731445e-01) (49, 9.96514260768890380859e-02) (50, 4.29209768772125244141e-01) (51, 3.80581915378570556641e-01) (52, -1.09376513957977294922e+00) (53, -2.23551858216524124146e-02) (54, 1.25124379992485046387e-01) (55, 2.05929070711135864258e-01) (56, 7.70246163010597229004e-02) (57, 3.68094861507415771484e-01) (58, 6.48369714617729187012e-02) (59, -8.36585648357868194580e-03) (60, 3.33891361951828002930e-02) (61, -4.40575927495956420898e-02) (62, -3.27053725719451904297e-01) (63, 6.42639771103858947754e-02) (64, 4.32626949623227119446e-03) (65, 1.43282324075698852539e-01) (66, -4.42759990692138671875e-02) (67, 7.50674828886985778809e-02) (68, -7.16457319259643554688e+00) (69, -6.46459590643644332886e-03) (70, 1.07110723853111267090e-01) (71, -5.01269809901714324951e-02) (72, 1.26565876416862010956e-03) (73, -1.33417882025241851807e-02) (74, 9.06935632228851318359e-02) (75, 7.24442582577466964722e-03) (76, 5.75195513665676116943e-02) (77, -5.29990717768669128418e-02) (78, -2.37516257911920547485e-02) (79, 7.09443390369415283203e-02) (80, 9.71686691045761108398e-02) (81, -6.99489173712208867073e-05) (82, -1.78029593080282211304e-02) (83, -6.75968825817108154297e-02) (84, 4.55325618386268615723e-02) (85, -2.85453647375106811523e-02) (86, -3.44725027680397033691e-02) (87, 2.78670098632574081421e-02) (88, 2.25842874497175216675e-02) (89, -4.22888770699501037598e-02) (90, 4.09751720726490020752e-02) (91, -4.03090193867683410645e-02) (92, -4.10440713167190551758e-02) (93, -5.55142899975180625916e-03) (94, -8.71889293193817138672e-02) (95, 2.64695305377244949341e-02) (96, -4.00303043425083160400e-02) (97, -6.36959373950958251953e-02) (98, 1.72137301415205001831e-02) (99, 5.10265044867992401123e-02) (100, 3.73394861817359924316e-02) (101, -1.11466916278004646301e-02) (102, 7.66729786992073059082e-02) (103, 9.64110195636749267578e-02) (104, 2.79727932065725326538e-02) (105, 7.69523298367857933044e-03) (106, -1.90741848200559616089e-02) (107, -5.98871819674968719482e-02) (108, 1.21970446780323982239e-02) (109, -1.10093345865607261658e-02) (110, 9.69983860850334167480e-02) (111, 3.67285683751106262207e-02) (112, 7.98427537083625793457e-02) (113, -3.22319529950618743896e-02) (114, 8.11745133250951766968e-03) (115, 3.32215242087841033936e-02) (116, 6.67389705777168273926e-02) (117, 8.47867205739021301270e-02) (118, -4.51800152659416198730e-02) (119, -6.27939077094197273254e-03) (120, -9.79734361171722412109e-02) (121, 1.29292979836463928223e-01) (122, 3.38409803807735443115e-02) (123, -2.27640513330698013306e-02) (124, -3.98224331438541412354e-02) (125, 7.57529139518737792969e-02) (126, -7.49477595090866088867e-02) (127, 3.99910612031817436218e-04) (128, 9.74298268556594848633e-02) (129, 4.86945696175098419189e-02) (130, 3.65820270963013172150e-03) (131, 5.73064349591732025146e-02) (132, -4.09948378801345825195e-02) (133, -3.46320569515228271484e-02) (134, 3.40701229870319366455e-02) (135, 4.10858318209648132324e-02) (136, 5.53943924605846405029e-02) (137, 8.27091485261917114258e-02) (138, 7.48734921216964721680e-02) (139, -3.81014347076416015625e-02) (140, -3.60734537243843078613e-02) (141, 5.17686679959297180176e-02) (142, 9.48056727647781372070e-02) (143, -4.97253872454166412354e-02) (144, -5.11852353811264038086e-02) (145, 7.18881050124764442444e-03) (146, 6.41212835907936096191e-02) (0, -8.06474834680557250977e-02) (1, -1.22630827128887176514e-01) (2, 1.15917250514030456543e-01) (3, -1.66383594274520874023e-01) (4, -1.66846424341201782227e-01) (5, 1.09590046107769012451e-01) (6, -2.69281715154647827148e-01) (7, -5.11328168213367462158e-02) (8, -1.76709279417991638184e-01) (9, -9.94893833994865417480e-02) (10, -3.06665990501642227173e-02) (11, -8.36050212383270263672e-02) (12, -1.54177755117416381836e-01) (13, -1.16566598415374755859e-01) (14, -2.31328547000885009766e-01) (15, -1.87476545572280883789e-01) (16, -1.18437193334102630615e-01) (17, -2.26494103670120239258e-01) (18, -1.23246528208255767822e-01) (19, -1.83235153555870056152e-01) (20, 4.89830747246742248535e-02) (21, -1.25050961971282958984e-01) (22, -2.12977543473243713379e-01) (23, -2.31495782732963562012e-01) (24, -7.63518214225769042969e-02) (25, -1.00768595933914184570e-01) (26, -8.76004174351692199707e-02) (27, -2.27590039372444152832e-01) (28, -1.98020353913307189941e-01) (29, -1.77949979901313781738e-01) (30, -1.07953324913978576660e-01) (31, -6.45704567432403564453e-02) (32, -7.56741464138031005859e-02) (33, -4.48629707098007202148e-02) (34, -2.58252114057540893555e-01) (35, -1.10727876424789428711e-01) (36, -1.72442734241485595703e-01) (37, 9.68649312853813171387e-02) (38, -1.95105001330375671387e-01) (39, -3.33086885511875152588e-02) (40, 3.39640974998474121094e-02) (41, -2.35012009739875793457e-01) (42, 1.39115639030933380127e-02) (43, 1.85096208006143569946e-02) (44, -8.03642794489860534668e-02) (45, -5.70406876504421234131e-02) (46, -8.63132104277610778809e-02) (47, -1.23463839292526245117e-01) (48, -2.37160578370094299316e-01) (49, -1.74279615283012390137e-01) (50, -9.23333391547203063965e-02) (51, -6.86496272683143615723e-02) (52, -1.83417752385139465332e-01) (53, -7.04530328512191772461e-02) (54, -9.42680314183235168457e-02) (55, -5.59234842658042907715e-02) (56, -1.09574019908905029297e-01) (57, -4.65009175240993499756e-02) (58, -8.32015946507453918457e-02) (59, -9.06127169728279113770e-02) (60, -1.71602606773376464844e-01) (61, -6.08865991234779357910e-02) (62, -1.62181541323661804199e-01) (63, -2.06219315528869628906e-01) (64, -1.22441828250885009766e-01) (65, -1.00739471614360809326e-01) (66, -9.17669087648391723633e-02) (67, -1.94400548934936523438e-01) (68, -8.80189538002014160156e-02) (69, -1.39698591083288192749e-02) (70, -1.93576022982597351074e-01) (71, -9.45857316255569458008e-02) (72, -2.01410561800003051758e-01) (73, -2.40974351763725280762e-02) (74, -1.63052186369895935059e-01) (75, -1.59080684185028076172e-01) (76, -7.63561427593231201172e-02) (77, -3.63313555717468261719e-02) (78, -6.54300898313522338867e-02) (79, -1.51359848678112030029e-02) (80, -1.29761323332786560059e-01) (81, -1.15158520638942718506e-01) (82, -8.35428833961486816406e-02) (83, -1.12610399723052978516e-01) (84, -9.35382768511772155762e-02) (85, -5.34822233021259307861e-02) (86, -1.65376588702201843262e-01) (87, -1.15217387676239013672e-01) (88, -1.48780018091201782227e-01) (89, -4.80955885723233222961e-03) (90, -2.08290129899978637695e-01) (91, -7.28570744395256042480e-02) (92, -1.00780501961708068848e-01) (93, -1.13270968198776245117e-01) (94, -5.31643070280551910400e-02) (95, -1.93188324570655822754e-01) (96, -1.21175823733210563660e-02) (97, -1.30868300795555114746e-01) (98, -1.05313532054424285889e-01) (99, -7.54607766866683959961e-02) (100, -1.46616160869598388672e-01) (101, -1.69401705265045166016e-01) (102, -1.59773662686347961426e-01) (103, -6.92054778337478637695e-02) (104, -1.92348018288612365723e-01) (105, -1.40711337327957153320e-01) (106, -4.85101416707038879395e-02) (107, -2.38562822341918945312e-02) (108, -9.21752974390983581543e-02) (109, -1.17554537951946258545e-01) (110, -2.17828545719385147095e-02) (111, -5.61139658093452453613e-02) (112, -1.93789184093475341797e-01) (113, -1.24493278563022613525e-01) (114, -2.04068809747695922852e-01) (115, -3.90499457716941833496e-02) (116, -2.28190481662750244141e-01) (117, -1.51440292596817016602e-01) (118, -1.57761663198471069336e-01) (119, -1.36086151003837585449e-01) (120, -1.76179766654968261719e-01) (121, -1.56906455755233764648e-01) (122, -4.63787689805030822754e-02) (123, -2.07460243254899978638e-02) (124, -8.97783115506172180176e-02) (125, -9.12086367607116699219e-02) (126, -7.55254924297332763672e-03) (127, -6.99784457683563232422e-02) (128, -2.39776484668254852295e-02) (129, -1.65775716304779052734e-01) (130, -7.51954838633537292480e-02) (131, -1.67764782905578613281e-01) (132, -1.26253724098205566406e-01) (133, -8.64764153957366943359e-02) (134, -5.35243712365627288818e-02) (135, -7.87844732403755187988e-02) (136, -1.87626585364341735840e-01) (137, -1.11548863351345062256e-01) (138, -1.05517335236072540283e-01) (139, -8.71339887380599975586e-02) (140, -1.56725004315376281738e-01) (141, -1.58590838313102722168e-01) (142, -8.70745331048965454102e-02) (143, -1.49983957409858703613e-01) (144, -6.73364251852035522461e-02) (145, -9.00324806571006774902e-02) (146, -1.83106303215026855469e-01) (0, 3.46612095832824707031e-01) (1, 2.25208446383476257324e-01) (2, 1.38573467731475830078e+00) (3, 2.29719221591949462891e-01) (4, -2.16417741775512695312e+00) (5, 6.05940389633178710938e+00) (6, -1.52084255218505859375e+01) (7, 2.54394680261611938477e-01) (8, 7.99051113426685333252e-03) (9, -2.86529034376144409180e-01) (10, 2.76512742042541503906e-01) (11, -2.99084901809692382812e-01) (12, -9.56064581871032714844e-01) (13, 9.06169235706329345703e-01) (14, 7.09453150629997253418e-02) (15, -5.38572645187377929688e+00) (16, 3.62787872552871704102e-01) (17, 2.85247713327407836914e-01) (18, 4.42587167024612426758e-01) (19, -5.51164031028747558594e-01) (20, 6.16068392992019653320e-02) (21, 3.16941142082214355469e-01) (22, -1.05074957013130187988e-01) (23, -4.30727124214172363281e-01) (24, 2.86802072077989578247e-02) (25, -4.44316267967224121094e-01) (26, -1.93352365493774414062e+00) (27, -3.01230144500732421875e+00) (28, 3.79908770322799682617e-01) (29, 4.78445678949356079102e-01) (30, -3.24494552612304687500e+00) (31, -5.48383355140686035156e-01) (32, 4.88530814647674560547e-01) (33, 3.42253208160400390625e-01) (34, 2.56080538034439086914e-01) (35, -4.68862712383270263672e-01) (36, 7.90403261780738830566e-02) (37, 1.69890069961547851562e+00) (38, 3.03347826004028320312e-01) (39, 3.58198165893554687500e-01) (40, -9.31687641143798828125e+00) (41, 1.75737133026123046875e+01) (42, -8.30702686309814453125e+00) (43, 2.87364139556884765625e+01) (44, -1.16245496273040771484e+00) (45, 3.41784745454788208008e-01) (46, 1.31144477054476737976e-02) (47, -3.94577741622924804688e-01) (48, -1.01215541362762451172e-01) (49, -4.03312027454376220703e-01) (50, -2.12142467498779296875e+00) (51, -2.89642286300659179688e+00) (52, 3.80223304033279418945e-01) (53, 3.48906725645065307617e-01) (54, -3.31079530715942382812e+00) (55, -5.50247251987457275391e-01) (56, 4.35468852519989013672e-01) (57, 3.56643140316009521484e-01) (58, 3.09522032737731933594e-01) (59, 3.34334790706634521484e-01) (60, 2.06569790840148925781e-01) (61, 3.19946169853210449219e-01) (62, 9.27539467811584472656e-01) (63, 3.87389063835144042969e-01) (64, 3.25430899858474731445e-01) (65, 2.83471405506134033203e-01) (66, -3.02393347024917602539e-01) (67, 3.74859362840652465820e-01) (68, 2.05322670936584472656e+00) (69, 5.66908419132232666016e-01) (70, 2.85799831151962280273e-01) (71, 3.67578625679016113281e-01) (72, -4.91087466478347778320e-01) (73, 2.97355204820632934570e-01) (74, 3.35704535245895385742e-01) (75, 2.25727996826171875000e+01) (76, 2.55464881658554077148e-01) (77, 2.15672910213470458984e-01) (78, 3.67965579032897949219e-01) (79, 3.86898070573806762695e-01) (80, 3.89604449272155761719e-01) (81, 3.38334023952484130859e-01) (82, 3.15459519624710083008e-01) (83, 4.56932097673416137695e-01) (84, 3.82479548454284667969e-01) (85, 4.35049772262573242188e-01) (86, 2.95438736677169799805e-01) (87, 3.38783383369445800781e-01) (88, 2.75843918323516845703e-01) (89, 3.66848886013031005859e-01) (90, 2.17314213514328002930e-01) (91, 2.96787708997726440430e-01) (92, 2.00403124094009399414e-01) (93, 4.05700773000717163086e-01) (94, 4.55177456140518188477e-01) (95, 3.61965894699096679688e-01) (96, 3.10199379920959472656e-01) (97, 3.44073444604873657227e-01) (98, 3.35103541612625122070e-01) (99, 3.74615669250488281250e-01) (100, 3.65335792303085327148e-01) (101, 3.64230692386627197266e-01) (102, 3.80780130624771118164e-01) (103, 2.61049419641494750977e-01) (104, 1.63719773292541503906e-01) (105, 1.99905529618263244629e-01) (106, 2.85110682249069213867e-01) (107, 2.57896810770034790039e-01) (108, 2.56123363971710205078e-01) (109, 4.10739779472351074219e-01) (110, 4.49015945196151733398e-01) (111, 3.50655198097229003906e-01) (112, 3.38842451572418212891e-01) (113, 2.78455555438995361328e-01) (114, -3.56313019990921020508e-01) (115, -3.19234699010848999023e-01) (116, -4.57359313964843750000e-01) (117, 3.81466686725616455078e-01) (118, 4.36721652746200561523e-01) (119, 3.42168956995010375977e-01) (120, 3.32448661327362060547e-01) (121, 4.04675006866455078125e-01) (122, 3.21388810873031616211e-01) (123, 3.43084454536437988281e-01) (124, 3.61146241426467895508e-01) (125, 3.09339344501495361328e-01) (126, 4.60226267576217651367e-01) (127, 2.96605497598648071289e-01) (128, 2.49458670616149902344e-01) (129, 2.45068043470382690430e-01) (130, 4.62319552898406982422e-01) (131, 3.65976452827453613281e-01) (132, 3.47804665565490722656e-01) (133, 3.17001998424530029297e-01) (134, 4.26129311323165893555e-01) (135, 3.93781632184982299805e-01) (136, 3.11107933521270751953e-01) (137, 2.22216680645942687988e-01) (138, 2.35663697123527526855e-01) (139, 3.39946389198303222656e-01) (140, 2.52867579460144042969e-01) (141, 3.75662356615066528320e-01) (142, 3.53807717561721801758e-01) (143, 3.73943805694580078125e-01) (144, 2.11846739053726196289e-01) (145, 4.14857566356658935547e-01) (146, 2.76750475168228149414e-01) (0, -3.45907777547836303711e-01) (1, 8.90276581048965454102e-03) (2, -4.26246166229248046875e-01) (3, -6.21572099626064300537e-02) (4, 3.24915528297424316406e+00) (5, -3.35579663515090942383e-01) (6, -1.53703063726425170898e-01) (7, 2.30619348585605621338e-02) (8, 1.75103098154067993164e-01) (9, -1.76745861768722534180e-01) (10, -6.53526186943054199219e-02) (11, -1.61266490817070007324e-01) (12, 7.18978941440582275391e-02) (13, 3.29040139913558959961e-01) (14, -1.64375531673431396484e+00) (15, 1.62107431888580322266e+00) (16, -2.32269167900085449219e-01) (17, -3.32607984542846679688e-01) (18, -3.36503893136978149414e-01) (19, 7.06058204174041748047e-01) (20, -8.44712197780609130859e-01) (21, -6.08561821281909942627e-02) (22, -6.10751844942569732666e-02) (23, 2.39807087928056716919e-02) (24, 2.20588967204093933105e-01) (25, 1.12399652600288391113e-01) (26, 2.37168490886688232422e-01) (27, 5.03478288650512695312e-01) (28, -3.38975936174392700195e-01) (29, -6.94626629352569580078e-01) (30, -8.04549157619476318359e-02) (31, -8.88533145189285278320e-02) (32, 1.30018927156925201416e-02) (33, 4.42922174930572509766e-01) (34, 1.89423084259033203125e-01) (35, -7.94236660003662109375e-01) (36, -1.02881669998168945312e-01) (37, -2.54246681928634643555e-01) (38, -5.09218037128448486328e-01) (39, -2.02814891934394836426e-01) (40, 6.34929835796356201172e-01) (41, 1.36762952804565429688e+00) (42, -4.54563014209270477295e-02) (43, -4.18081849813461303711e-01) (44, -2.18820497393608093262e-01) (45, -5.08244097232818603516e-01) (46, -1.47272478789091110229e-02) (47, -3.93572412431240081787e-02) (48, 1.86279967427253723145e-01) (49, 2.65277266502380371094e-01) (50, 3.52299064397811889648e-01) (51, 5.46144664287567138672e-01) (52, -3.12326729297637939453e-01) (53, -7.20416486263275146484e-01) (54, -1.34416580200195312500e-01) (55, 2.76241404935717582703e-03) (56, -1.40320241451263427734e-01) (57, 4.02676314115524291992e-01) (58, -1.61039546132087707520e-01) (59, -1.26992821693420410156e-01) (60, -8.14928337931632995605e-02) (61, -9.29112657904624938965e-02) (62, -1.61149177551269531250e+01) (63, 4.65793490409851074219e-01) (64, -3.43250744044780731201e-02) (65, -8.96565988659858703613e-02) (66, -7.48298317193984985352e-02) (67, -1.27054467797279357910e-01) (68, -8.34175869822502136230e-02) (69, -9.55216139554977416992e-02) (70, -9.76611375808715820312e-02) (71, -4.72651757299900054932e-02) (72, 2.47144177556037902832e-01) (73, -1.88187628984451293945e-01) (74, -6.65621608495712280273e-02) (75, -1.95572331547737121582e-01) (76, -1.74824386835098266602e-01) (77, -1.24259874224662780762e-01) (78, -1.12990006804466247559e-01) (79, -1.38259083032608032227e-01) (80, -1.41730591654777526855e-01) (81, 1.43741384148597717285e-01) (82, 2.93762564659118652344e-01) (83, 3.53902667760848999023e-01) (84, 4.10310149192810058594e-01) (85, -2.77152080088853836060e-02) (86, -9.60538256913423538208e-03) (87, 6.67780041694641113281e-02) (88, 3.47461104393005371094e-01) (89, 5.13178229331970214844e-01) (90, -9.82154011726379394531e-02) (91, 3.29040527343750000000e-01) (92, 3.88991236686706542969e-01) (93, 4.49488401412963867188e-01) (94, -7.88603350520133972168e-02) (95, 1.31894975900650024414e-01) (96, 3.51995021104812622070e-01) (97, 4.16131407022476196289e-01) (98, -8.20426493883132934570e-02) (99, 2.18771006911993026733e-02) (100, 6.20890319347381591797e-01) (101, 3.17816250026226043701e-02) (102, -1.70480813831090927124e-02) (103, 4.38148051500320434570e-01) (104, 3.63137125968933105469e-01) (105, 4.77938830852508544922e-01) (106, -5.50139788538217544556e-03) (107, 3.21529984474182128906e-01) (108, 4.01480913162231445312e-01) (109, 4.13843423128128051758e-01) (110, 5.81994988024234771729e-02) (111, 3.84027487598359584808e-03) (112, 4.85854744911193847656e-01) (113, 3.37807834148406982422e-01) (114, -1.85095980763435363770e-01) (115, -1.66330665349960327148e-01) (116, -9.44084599614143371582e-02) (117, -8.65671187639236450195e-02) (118, -9.22544524073600769043e-02) (119, 6.14463649690151214600e-02) (120, -1.92923188209533691406e-01) (121, -1.04836106300354003906e-01) (122, -8.45159143209457397461e-02) (123, -8.65520834922790527344e-02) (124, -2.66190171241760253906e-02) (125, -1.04618236422538757324e-01) (126, -1.39939248561859130859e-01) (127, -7.84438624978065490723e-02) (128, -1.02858737111091613770e-01) (129, -7.42560103535652160645e-02) (130, -2.15509772300720214844e-01) (131, -1.11645929515361785889e-01) (132, -1.06849238276481628418e-01) (133, -8.94700884819030761719e-02) (134, -1.78329035639762878418e-01) (135, -3.76129657030105590820e-01) (136, -1.12239137291908264160e-01) (137, -1.18822358548641204834e-01) (138, -7.58313462138175964355e-02) (139, -6.18689171969890594482e-02) (140, 2.33444347977638244629e-02) (141, -1.01320669054985046387e-01) (142, -1.49716377258300781250e-01) (143, 2.20208661630749702454e-03) (144, -1.09770700335502624512e-01) (145, -1.74419060349464416504e-01) (146, -1.72070667147636413574e-01) (0, 2.67759710550308227539e-01) (1, 4.30004805326461791992e-01) (2, 1.04623150825500488281e+00) (3, 2.18325003981590270996e-01) (4, -8.32240700721740722656e-01) (5, 8.74221086502075195312e-01) (6, 3.40017288923263549805e-01) (7, 2.80714660882949829102e-01) (8, 3.81071418523788452148e-01) (9, 5.29217779636383056641e-01) (10, 2.47272163629531860352e-01) (11, 4.08864945173263549805e-01) (12, 4.35897260904312133789e-02) (13, 2.05386579036712646484e-01) (14, 5.29600286483764648438e+00) (15, 8.14813137054443359375e+00) (16, 2.22882762551307678223e-01) (17, 3.98447096347808837891e-01) (18, 3.78820419311523437500e-01) (19, -5.64441680908203125000e-01) (20, -1.95615634322166442871e-01) (21, 3.99646520614624023438e-01) (22, 3.20470213890075683594e-01) (23, -2.30351185798645019531e+00) (24, 3.91703873872756958008e-01) (25, 2.51951627433300018311e-02) (26, 1.19868659973144531250e+00) (27, 8.96479320526123046875e+00) (28, 4.43473696708679199219e-01) (29, 2.92673015594482421875e+00) (30, 3.56156766414642333984e-01) (31, -9.59481906890869140625e+00) (32, 2.88338661193847656250e-01) (33, 2.83064693212509155273e-01) (34, 2.66262203454971313477e-01) (35, 3.17584067583084106445e-01) (36, 4.36996787786483764648e-01) (37, 1.97000062465667724609e+00) (38, 4.27026361227035522461e-01) (39, -1.10328376293182373047e+00) (40, -2.24501538276672363281e+00) (41, 1.13232564926147460938e+01) (42, -1.13488578796386718750e+01) (43, 6.45841777324676513672e-01) (44, -2.89092903137207031250e+01) (45, 4.40289676189422607422e-02) (46, 3.10665309429168701172e-01) (47, -2.41233158111572265625e+00) (48, 3.78076463937759399414e-01) (49, 2.01429128646850585938e-01) (50, 1.16472256183624267578e+00) (51, 9.00671195983886718750e+00) (52, 4.54156816005706787109e-01) (53, 2.91557645797729492188e+00) (54, 2.74123072624206542969e-01) (55, -9.52044773101806640625e+00) (56, 3.49030196666717529297e-01) (57, 4.52429771423339843750e-01) (58, 4.41814094781875610352e-01) (59, -4.71501499414443969727e-01) (60, 4.18733417987823486328e-01) (61, 3.82368564605712890625e-01) (62, 7.16057556152343750000e+02) (63, 3.32257658243179321289e-01) (64, 3.62211734056472778320e-01) (65, 2.51203000545501708984e-01) (66, 4.00837719440460205078e-01) (67, 3.35735082626342773438e-01) (68, 8.32582763671875000000e+02) (69, 4.97743606567382812500e-01) (70, 3.88262361288070678711e-01) (71, 3.71657937765121459961e-01) (72, 3.14948350191116333008e-01) (73, 2.60857194662094116211e-01) (74, 4.09539639949798583984e-01) (75, 4.08566147089004516602e-01) (76, 2.54879564046859741211e-01) (77, 4.21954870223999023438e-01) (78, 3.28738123178482055664e-01) (79, 4.22612100839614868164e-01) (80, 4.67805236577987670898e-01) (81, 2.11287260055541992188e-01) (82, 3.27027410268783569336e-01) (83, 4.09928441047668457031e-01) (84, 4.16698008775711059570e-01) (85, 3.85651320219039916992e-01) (86, 3.18127334117889404297e-01) (87, 4.08424258232116699219e-01) (88, 3.68749737739562988281e-01) (89, 2.98617154359817504883e-01) (90, 3.39624315500259399414e-01) (91, 3.19101244211196899414e-01) (92, 4.25617724657058715820e-01) (93, 2.94159114360809326172e-01) (94, 3.82286906242370605469e-01) (95, 3.71790736913681030273e-01) (96, 3.39981764554977416992e-01) (97, 2.92254418134689331055e-01) (98, 4.89843815565109252930e-01) (99, 4.51358526945114135742e-01) (100, 3.59318107366561889648e-01) (101, 4.16056603193283081055e-01) (102, 3.84101897478103637695e-01) (103, 4.70500320196151733398e-01) (104, 3.97906988859176635742e-01) (105, 3.14807265996932983398e-01) (106, 3.48407000303268432617e-01) (107, 4.32842880487442016602e-01) (108, 3.19790750741958618164e-01) (109, 4.68201458454132080078e-01) (110, 4.09799695014953613281e-01) (111, 2.52549380064010620117e-01) (112, 2.51556307077407836914e-01) (113, 4.54185485839843750000e-01) (114, 4.08196419477462768555e-01) (115, 4.81518745422363281250e-01) (116, 3.73878419399261474609e-01) (117, 4.58937793970108032227e-01) (118, 4.17564183473587036133e-01) (119, 3.11182022094726562500e-01) (120, 3.15034300088882446289e-01) (121, 4.69318687915802001953e-01) (122, 3.74121099710464477539e-01) (123, 4.73472923040390014648e-01) (124, 2.95235395431518554688e-01) (125, 2.88793921470642089844e-01) (126, 3.68002742528915405273e-01) (127, 3.89127910137176513672e-01) (128, 2.96634703874588012695e-01) (129, 3.57511103153228759766e-01) (130, 3.82091522216796875000e-01) (131, 3.86186659336090087891e-01) (132, 2.89420723915100097656e-01) (133, 2.70906507968902587891e-01) (134, 3.87699306011199951172e-01) (135, 4.89848732948303222656e-01) (136, 3.56061935424804687500e-01) (137, 2.81413525342941284180e-01) (138, 4.49980407953262329102e-01) (139, 4.15696501731872558594e-01) (140, 