FANN_FLO_2.1
num_layers=3
learning_rate=0.700000
connection_rate=1.000000
network_type=0
learning_momentum=0.000000
training_algorithm=2
train_error_function=1
train_stop_function=0
cascade_output_change_fraction=0.010000
quickprop_decay=-0.000100
quickprop_mu=1.750000
rprop_increase_factor=1.200000
rprop_decrease_factor=0.500000
rprop_delta_min=0.000000
rprop_delta_max=50.000000
rprop_delta_zero=0.100000
cascade_output_stagnation_epochs=12
cascade_candidate_change_fraction=0.010000
cascade_candidate_stagnation_epochs=12
cascade_max_out_epochs=150
cascade_min_out_epochs=50
cascade_max_cand_epochs=150
cascade_min_cand_epochs=50
cascade_num_candidate_groups=2
bit_fail_limit=3.49999994039535522461e-01
cascade_candidate_limit=1.00000000000000000000e+03
cascade_weight_multiplier=4.00000005960464477539e-01
cascade_activation_functions_count=10
cascade_activation_functions=3 5 7 8 10 11 14 15 16 17 
cascade_activation_steepnesses_count=4
cascade_activation_steepnesses=2.50000000000000000000e-01 5.00000000000000000000e-01 7.50000000000000000000e-01 1.00000000000000000000e+00 
layer_sizes=147 121 11 
scale_included=0
neurons (num_inputs, activation_function, activation_steepness)=(0, 0, 0.00000000000000000000e+00) (0, 0, 0.00000000000000000000e+00) (0, 0, 0.00000000000000000000e+00) (0, 0, 0.00000000000000000000e+00) (0, 0, 0.00000000000000000000e+00) (0, 0, 0.00000000000000000000e+00) (0, 0, 0.00000000000000000000e+00) (0, 0, 0.00000000000000000000e+00) (0, 0, 0.00000000000000000000e+00) (0, 0, 0.00000000000000000000e+00) (0, 0, 0.00000000000000000000e+00) (0, 0, 0.00000000000000000000e+00) (0, 0, 0.00000000000000000000e+00) (0, 0, 0.00000000000000000000e+00) (0, 0, 0.00000000000000000000e+00) (0, 0, 0.00000000000000000000e+00) (0, 0, 0.00000000000000000000e+00) (0, 0, 0.00000000000000000000e+00) (0, 0, 0.00000000000000000000e+00) (0, 0, 0.00000000000000000000e+00) (0, 0, 0.00000000000000000000e+00) (0, 0, 0.00000000000000000000e+00) (0, 0, 0.00000000000000000000e+00) (0, 0, 0.00000000000000000000e+00) (0, 0, 0.00000000000000000000e+00) (0, 0, 0.00000000000000000000e+00) (0, 0, 0.00000000000000000000e+00) (0, 0, 0.00000000000000000000e+00) (0, 0, 0.00000000000000000000e+00) (0, 0, 0.00000000000000000000e+00) (0, 0, 0.00000000000000000000e+00) (0, 0, 0.00000000000000000000e+00) (0, 0, 0.00000000000000000000e+00) (0, 0, 0.00000000000000000000e+00) (0, 0, 0.00000000000000000000e+00) (0, 0, 0.00000000000000000000e+00) (0, 0, 0.00000000000000000000e+00) (0, 0, 0.00000000000000000000e+00) (0, 0, 0.00000000000000000000e+00) (0, 0, 0.00000000000000000000e+00) (0, 0, 0.00000000000000000000e+00) (0, 0, 0.00000000000000000000e+00) (0, 0, 0.00000000000000000000e+00) (0, 0, 0.00000000000000000000e+00) (0, 0, 0.00000000000000000000e+00) (0, 0, 0.00000000000000000000e+00) (0, 0, 0.00000000000000000000e+00) (0, 0, 0.00000000000000000000e+00) (0, 0, 0.00000000000000000000e+00) (0, 0, 0.00000000000000000000e+00) (0, 0, 0.00000000000000000000e+00) (0, 0, 0.00000000000000000000e+00) (0, 0, 0.00000000000000000000e+00) (0, 0, 0.00000000000000000000e+00) (0, 0, 0.00000000000000000000e+00) (0, 0, 0.00000000000000000000e+00) (0, 0, 0.00000000000000000000e+00) (0, 0, 0.00000000000000000000e+00) (0, 0, 0.00000000000000000000e+00) (0, 0, 0.00000000000000000000e+00) (0, 0, 0.00000000000000000000e+00) (0, 0, 0.00000000000000000000e+00) (0, 0, 0.00000000000000000000e+00) (0, 0, 0.00000000000000000000e+00) (0, 0, 0.00000000000000000000e+00) (0, 0, 0.00000000000000000000e+00) (0, 0, 0.00000000000000000000e+00) (0, 0, 0.00000000000000000000e+00) (0, 0, 0.00000000000000000000e+00) (0, 0, 0.00000000000000000000e+00) (0, 0, 0.00000000000000000000e+00) (0, 0, 0.00000000000000000000e+00) (0, 0, 0.00000000000000000000e+00) (0, 0, 0.00000000000000000000e+00) (0, 0, 0.00000000000000000000e+00) (0, 0, 0.00000000000000000000e+00) (0, 0, 0.00000000000000000000e+00) (0, 0, 0.00000000000000000000e+00) (0, 0, 0.00000000000000000000e+00) (0, 0, 0.00000000000000000000e+00) (0, 0, 0.00000000000000000000e+00) (0, 0, 0.00000000000000000000e+00) (0, 0, 0.00000000000000000000e+00) (0, 0, 0.00000000000000000000e+00) (0, 0, 0.00000000000000000000e+00) (0, 0, 0.00000000000000000000e+00) (0, 0, 0.00000000000000000000e+00) (0, 0, 0.00000000000000000000e+00) (0, 0, 0.00000000000000000000e+00) (0, 0, 0.00000000000000000000e+00) (0, 0, 0.00000000000000000000e+00) (0, 0, 0.00000000000000000000e+00) (0, 0, 0.00000000000000000000e+00) (0, 0, 0.00000000000000000000e+00) (0, 0, 0.00000000000000000000e+00) (0, 0, 0.00000000000000000000e+00) (0, 0, 0.00000000000000000000e+00) (0, 0, 0.00000000000000000000e+00) (0, 0, 0.00000000000000000000e+00) (0, 0, 0.00000000000000000000e+00) (0, 0, 0.00000000000000000000e+00) (0, 0, 0.00000000000000000000e+00) (0, 0, 0.00000000000000000000e+00) (0, 0, 0.00000000000000000000e+00) (0, 0, 0.00000000000000000000e+00) (0, 0, 0.00000000000000000000e+00) (0, 0, 0.00000000000000000000e+00) (0, 0, 0.00000000000000000000e+00) (0, 0, 0.00000000000000000000e+00) (0, 0, 0.00000000000000000000e+00) (0, 0, 0.00000000000000000000e+00) (0, 0, 0.00000000000000000000e+00) (0, 0, 0.00000000000000000000e+00) (0, 0, 0.00000000000000000000e+00) (0, 0, 0.00000000000000000000e+00) (0, 0, 0.00000000000000000000e+00) (0, 0, 0.00000000000000000000e+00) (0, 0, 0.00000000000000000000e+00) (0, 0, 0.00000000000000000000e+00) (0, 0, 0.00000000000000000000e+00) (0, 0, 0.00000000000000000000e+00) (0, 0, 0.00000000000000000000e+00) (0, 0, 0.00000000000000000000e+00) (0, 0, 0.00000000000000000000e+00) (0, 0, 0.00000000000000000000e+00) (0, 0, 0.00000000000000000000e+00) (0, 0, 0.00000000000000000000e+00) (0, 0, 0.00000000000000000000e+00) (0, 0, 0.00000000000000000000e+00) (0, 0, 0.00000000000000000000e+00) (0, 0, 0.00000000000000000000e+00) (0, 0, 0.00000000000000000000e+00) (0, 0, 0.00000000000000000000e+00) (0, 0, 0.00000000000000000000e+00) (0, 0, 0.00000000000000000000e+00) (0, 0, 0.00000000000000000000e+00) (0, 0, 0.00000000000000000000e+00) (0, 0, 0.00000000000000000000e+00) (0, 0, 0.00000000000000000000e+00) (0, 0, 0.00000000000000000000e+00) (0, 0, 0.00000000000000000000e+00) (0, 0, 0.00000000000000000000e+00) (0, 0, 0.00000000000000000000e+00) (0, 0, 0.00000000000000000000e+00) (0, 0, 0.00000000000000000000e+00) (0, 0, 0.00000000000000000000e+00) (0, 0, 0.00000000000000000000e+00) (147, 6, 5.00000000000000000000e-01) (147, 6, 5.00000000000000000000e-01) (147, 6, 5.00000000000000000000e-01) (147, 6, 5.00000000000000000000e-01) (147, 6, 5.00000000000000000000e-01) (147, 6, 5.00000000000000000000e-01) (147, 6, 5.00000000000000000000e-01) (147, 6, 5.00000000000000000000e-01) (147, 6, 5.00000000000000000000e-01) (147, 6, 5.00000000000000000000e-01) (147, 6, 5.00000000000000000000e-01) (147, 6, 5.00000000000000000000e-01) (147, 6, 5.00000000000000000000e-01) (147, 6, 5.00000000000000000000e-01) (147, 6, 5.00000000000000000000e-01) (147, 6, 5.00000000000000000000e-01) (147, 6, 5.00000000000000000000e-01) (147, 6, 5.00000000000000000000e-01) (147, 6, 5.00000000000000000000e-01) (147, 6, 5.00000000000000000000e-01) (147, 6, 5.00000000000000000000e-01) (147, 6, 5.00000000000000000000e-01) (147, 6, 5.00000000000000000000e-01) (147, 6, 5.00000000000000000000e-01) (147, 6, 5.00000000000000000000e-01) (147, 6, 5.00000000000000000000e-01) (147, 6, 5.00000000000000000000e-01) (147, 6, 5.00000000000000000000e-01) (147, 6, 5.00000000000000000000e-01) (147, 6, 5.00000000000000000000e-01) (147, 6, 5.00000000000000000000e-01) (147, 6, 5.00000000000000000000e-01) (147, 6, 5.00000000000000000000e-01) (147, 6, 5.00000000000000000000e-01) (147, 6, 5.00000000000000000000e-01) (147, 6, 5.00000000000000000000e-01) (147, 6, 5.00000000000000000000e-01) (147, 6, 5.00000000000000000000e-01) (147, 6, 5.00000000000000000000e-01) (147, 6, 5.00000000000000000000e-01) (147, 6, 5.00000000000000000000e-01) (147, 6, 5.00000000000000000000e-01) (147, 6, 5.00000000000000000000e-01) (147, 6, 5.00000000000000000000e-01) (147, 6, 5.00000000000000000000e-01) (147, 6, 5.00000000000000000000e-01) (147, 6, 5.00000000000000000000e-01) (147, 6, 5.00000000000000000000e-01) (147, 6, 5.00000000000000000000e-01) (147, 6, 5.00000000000000000000e-01) (147, 6, 5.00000000000000000000e-01) (147, 6, 5.00000000000000000000e-01) (147, 6, 5.00000000000000000000e-01) (147, 6, 5.00000000000000000000e-01) (147, 6, 5.00000000000000000000e-01) (147, 6, 5.00000000000000000000e-01) (147, 6, 5.00000000000000000000e-01) (147, 6, 5.00000000000000000000e-01) (147, 6, 5.00000000000000000000e-01) (147, 6, 5.00000000000000000000e-01) (147, 6, 5.00000000000000000000e-01) (147, 6, 5.00000000000000000000e-01) (147, 6, 5.00000000000000000000e-01) (147, 6, 5.00000000000000000000e-01) (147, 6, 5.00000000000000000000e-01) (147, 6, 5.00000000000000000000e-01) (147, 6, 5.00000000000000000000e-01) (147, 6, 5.00000000000000000000e-01) (147, 6, 5.00000000000000000000e-01) (147, 6, 5.00000000000000000000e-01) (147, 6, 5.00000000000000000000e-01) (147, 6, 5.00000000000000000000e-01) (147, 6, 5.00000000000000000000e-01) (147, 6, 5.00000000000000000000e-01) (147, 6, 5.00000000000000000000e-01) (147, 6, 5.00000000000000000000e-01) (147, 6, 5.00000000000000000000e-01) (147, 6, 5.00000000000000000000e-01) (147, 6, 5.00000000000000000000e-01) (147, 6, 5.00000000000000000000e-01) (147, 6, 5.00000000000000000000e-01) (147, 6, 5.00000000000000000000e-01) (147, 6, 5.00000000000000000000e-01) (147, 6, 5.00000000000000000000e-01) (147, 6, 5.00000000000000000000e-01) (147, 6, 5.00000000000000000000e-01) (147, 6, 5.00000000000000000000e-01) (147, 6, 5.00000000000000000000e-01) (147, 6, 5.00000000000000000000e-01) (147, 6, 5.00000000000000000000e-01) (147, 6, 5.00000000000000000000e-01) (147, 6, 5.00000000000000000000e-01) (147, 6, 5.00000000000000000000e-01) (147, 6, 5.00000000000000000000e-01) (147, 6, 5.00000000000000000000e-01) (147, 6, 5.00000000000000000000e-01) (147, 6, 5.00000000000000000000e-01) (147, 6, 5.00000000000000000000e-01) (147, 6, 5.00000000000000000000e-01) (147, 6, 5.00000000000000000000e-01) (147, 6, 5.00000000000000000000e-01) (147, 6, 5.00000000000000000000e-01) (147, 6, 5.00000000000000000000e-01) (147, 6, 5.00000000000000000000e-01) (147, 6, 5.00000000000000000000e-01) (147, 6, 5.00000000000000000000e-01) (147, 6, 5.00000000000000000000e-01) (147, 6, 5.00000000000000000000e-01) (147, 6, 5.00000000000000000000e-01) (147, 6, 5.00000000000000000000e-01) (147, 6, 5.00000000000000000000e-01) (147, 6, 5.00000000000000000000e-01) (147, 6, 5.00000000000000000000e-01) (147, 6, 5.00000000000000000000e-01) (147, 6, 5.00000000000000000000e-01) (147, 6, 5.00000000000000000000e-01) (147, 6, 5.00000000000000000000e-01) (147, 6, 5.00000000000000000000e-01) (147, 6, 5.00000000000000000000e-01) (147, 6, 5.00000000000000000000e-01) (0, 6, 0.00000000000000000000e+00) (121, 6, 5.00000000000000000000e-01) (121, 6, 5.00000000000000000000e-01) (121, 6, 5.00000000000000000000e-01) (121, 6, 5.00000000000000000000e-01) (121, 6, 5.00000000000000000000e-01) (121, 6, 5.00000000000000000000e-01) (121, 6, 5.00000000000000000000e-01) (121, 6, 5.00000000000000000000e-01) (121, 6, 5.00000000000000000000e-01) (121, 6, 5.00000000000000000000e-01) (0, 6, 0.00000000000000000000e+00) 
connections (connected_to_neuron, weight)=(0, 2.86667644977569580078e-02) (1, 6.49442613124847412109e-01) (2, 5.00338554382324218750e-01) (3, 6.73574864864349365234e-01) (4, 4.15185213088989257812e+00) (5, -2.04346036911010742188e+00) (6, 4.30080443620681762695e-02) (7, 4.01721484959125518799e-02) (8, 5.88230013847351074219e-01) (9, 6.96784928441047668457e-02) (10, 1.31346553564071655273e-01) (11, 6.08631074428558349609e-01) (12, 5.31477451324462890625e-01) (13, 6.06450736522674560547e-01) (14, 5.61107695102691650391e-01) (15, 1.78138267993927001953e+00) (16, 5.21476119756698608398e-02) (17, 6.37466847896575927734e-01) (18, 6.37050867080688476562e-01) (19, 1.85280370712280273438e+00) (20, 7.74331986904144287109e-01) (21, 9.15574282407760620117e-02) (22, 6.01288080215454101562e-01) (23, -2.42675933986902236938e-02) (24, 5.73121309280395507812e-01) (25, 4.85855370759963989258e-01) (26, 6.59489810466766357422e-01) (27, 7.15918183326721191406e-01) (28, 1.01903483271598815918e-01) (29, 3.03449779748916625977e-01) (30, 1.70246616005897521973e-01) (31, 4.97760891914367675781e-01) (32, 6.28969013690948486328e-01) (33, 6.71036124229431152344e-01) (34, 6.66652679443359375000e-01) (35, 1.99300721287727355957e-01) (36, 5.65735042095184326172e-01) (37, 4.97648209333419799805e-01) (38, 7.76421010494232177734e-01) (39, 3.12476038932800292969e-01) (40, 3.57262802124023437500e+00) (41, -1.21488866806030273438e+01) (42, 9.73651504516601562500e+00) (43, -3.68282310664653778076e-02) (44, 1.22230097651481628418e-01) (45, 1.98198720812797546387e-01) (46, 5.46564459800720214844e-01) (47, -2.87697575986385345459e-02) (48, 5.82132279872894287109e-01) (49, 4.89809960126876831055e-01) (50, 5.31796336174011230469e-01) (51, 7.92227089405059814453e-01) (52, 3.08820046484470367432e-02) (53, 3.84229868650436401367e-01) (54, 2.28195190429687500000e-01) (55, 5.23321449756622314453e-01) (56, 5.97640573978424072266e-01) (57, 6.53676807880401611328e-01) (58, 6.14639222621917724609e-01) (59, 6.34532511234283447266e-01) (60, 5.10026812553405761719e-01) (61, 8.03391356021165847778e-03) (62, 3.04186018183827400208e-03) (63, -8.40065836906433105469e-01) (64, 2.19167564064264297485e-02) (65, 6.27938508987426757812e-01) (66, 5.41587889194488525391e-01) (67, 6.51866719126701354980e-02) (68, -2.25479856133460998535e-01) (69, -3.21534663438796997070e-01) (70, 8.37045013904571533203e-02) (71, 4.88865792751312255859e-01) (72, 5.24827241897583007812e-01) (73, 4.44521792232990264893e-02) (74, 1.63872875273227691650e-02) (75, -1.12632527947425842285e-01) (76, 5.59926986694335937500e-01) (77, 6.19509935379028320312e-01) (78, 4.92835611104965209961e-01) (79, -1.91183406859636306763e-02) (80, 1.31608963012695312500e-01) (81, -2.93149685859680175781e+00) (82, 4.68299627304077148438e-01) (83, 5.35278618335723876953e-01) (84, 5.50884187221527099609e-01) (85, 6.56681954860687255859e-01) (86, 5.76223433017730712891e-01) (87, 5.59852719306945800781e-01) (88, 6.24301791191101074219e-01) (89, 5.14757335186004638672e-01) (90, 5.31180381774902343750e-01) (91, 5.09573340415954589844e-01) (92, 5.80422341823577880859e-01) (93, 5.20904302597045898438e-01) (94, 6.35143458843231201172e-01) (95, 6.31097376346588134766e-01) (96, 4.87128227949142456055e-01) (97, 5.54156541824340820312e-01) (98, 5.61672389507293701172e-01) (99, 5.14427363872528076172e-01) (100, 4.66166883707046508789e-01) (101, 4.73933875560760498047e-01) (102, 5.43715178966522216797e-01) (103, 5.52927136421203613281e-01) (104, 5.61400473117828369141e-01) (105, 6.21958196163177490234e-01) (106, 5.80828428268432617188e-01) (107, 6.39988720417022705078e-01) (108, 5.89410483837127685547e-01) (109, 6.20566785335540771484e-01) (110, 4.75355595350265502930e-01) (111, 5.70892453193664550781e-01) (112, 5.11866271495819091797e-01) (113, 4.84594017267227172852e-01) (114, 6.37452185153961181641e-01) (115, 6.01599872112274169922e-01) (116, 4.78582084178924560547e-01) (117, 5.60091853141784667969e-01) (118, 5.00055015087127685547e-01) (119, 6.43048286437988281250e-01) (120, 6.12976431846618652344e-01) (121, 5.72098553180694580078e-01) (122, 4.89942252635955810547e-01) (123, 5.31343817710876464844e-01) (124, 6.31918609142303466797e-01) (125, 4.66151535511016845703e-01) (126, 5.02956986427307128906e-01) (127, 6.51483654975891113281e-01) (128, 5.59390783309936523438e-01) (129, 6.03808820247650146484e-01) (130, 5.12326538562774658203e-01) (131, 5.66021978855133056641e-01) (132, 6.15014731884002685547e-01) (133, 5.88384687900543212891e-01) (134, 6.48888766765594482422e-01) (135, 5.17690539360046386719e-01) (136, 5.57714879512786865234e-01) (137, 5.74888586997985839844e-01) (138, 4.93943989276885986328e-01) (139, 4.86200779676437377930e-01) (140, 5.38027584552764892578e-01) (141, 5.12259066104888916016e-01) (142, 5.92231988906860351562e-01) (143, 5.89448392391204833984e-01) (144, 5.36180615425109863281e-01) (145, 5.79135596752166748047e-01) (146, 5.30344784259796142578e-01) (0, 5.22564053535461425781e-01) (1, 3.68296533823013305664e-01) (2, 1.33502888679504394531e+00) (3, 7.43380129337310791016e-01) (4, 1.94629386067390441895e-01) (5, 7.71217465400695800781e-01) (6, 2.45722985267639160156e+00) (7, 2.03298168182373046875e+01) (8, 1.99192807078361511230e-01) (9, 5.13767302036285400391e-01) (10, 5.83227336406707763672e-01) (11, 6.34224712848663330078e-01) (12, 4.57229465246200561523e-01) (13, 3.20292502641677856445e-01) (14, 1.55923068523406982422e-01) (15, 2.45709848403930664062e+00) (16, 6.28798902034759521484e-01) (17, 5.28796613216400146484e-01) (18, 9.46540653705596923828e-01) (19, 2.24142059683799743652e-01) (20, 1.65520417690277099609e+00) (21, 5.48229551315307617188e+00) (22, 7.31574445962905883789e-02) (23, 5.37735223770141601562e-01) (24, 5.75510680675506591797e-01) (25, 5.95395028591156005859e-01) (26, -7.35511481761932373047e-01) (27, 1.32779276371002197266e+00) (28, 5.05328953266143798828e-01) (29, 6.03813588619232177734e-01) (30, 5.12095868587493896484e-01) (31, 5.38281619548797607422e-01) (32, 9.55537140369415283203e-01) (33, 4.71218526363372802734e-01) (34, 1.15278649330139160156e+00) (35, -3.44292253255844116211e-01) (36, 4.49789375066757202148e-01) (37, 1.07097935676574707031e+00) (38, 1.89004325866699218750e+00) (39, 1.25376248359680175781e+00) (40, 8.87066796422004699707e-02) (41, 2.30310410261154174805e-01) (42, 5.84933578968048095703e-01) (43, 4.30478954315185546875e+00) (44, 2.52253580093383789062e+00) (45, 1.34986705780029296875e+01) (46, 1.41336157917976379395e-01) (47, 5.44016122817993164062e-01) (48, 5.20872890949249267578e-01) (49, 5.29653251171112060547e-01) (50, -6.15729033946990966797e-01) (51, 1.42208755016326904297e+00) (52, 6.00388228893280029297e-01) (53, 4.90424603223800659180e-01) (54, 4.39919501543045043945e-01) (55, 4.52741026878356933594e-01) (56, 9.61918473243713378906e-01) (57, 5.28231859207153320312e-01) (58, 5.19387602806091308594e-01) (59, 4.26092207431793212891e-01) (60, 4.90418523550033569336e-01) (61, 6.37230038642883300781e-01) (62, 6.28725409507751464844e-01) (63, 5.15584886074066162109e-01) (64, 4.56056743860244750977e-01) (65, 5.24305582046508789062e-01) (66, 6.13935530185699462891e-01) (67, 4.94017422199249267578e-01) (68, 5.03808915615081787109e-01) (69, 9.09492492675781250000e-01) (70, 5.50626814365386962891e-01) (71, 4.64721351861953735352e-01) (72, 4.61347460746765136719e-01) (73, 5.65608680248260498047e-01) (74, 5.05391478538513183594e-01) (75, 5.86053431034088134766e-01) (76, 4.75057601928710937500e-01) (77, 4.67949569225311279297e-01) (78, 5.41634678840637207031e-01) (79, 5.25008797645568847656e-01) (80, 5.51326274871826171875e-01) (81, 4.66610372066497802734e-01) (82, 4.67400938272476196289e-01) (83, 4.53461647033691406250e-01) (84, 5.47173321247100830078e-01) (85, 5.12416839599609375000e-01) (86, 4.75925296545028686523e-01) (87, 5.36746084690093994141e-01) (88, 5.95154523849487304688e-01) (89, 5.48322737216949462891e-01) (90, 5.39740264415740966797e-01) (91, 6.38798296451568603516e-01) (92, 5.34709930419921875000e-01) (93, 4.52776968479156494141e-01) (94, 4.61232036352157592773e-01) (95, 5.47388136386871337891e-01) (96, 5.58891773223876953125e-01) (97, 6.37787342071533203125e-01) (98, 6.08552992343902587891e-01) (99, 5.67236542701721191406e-01) (100, 6.13497197628021240234e-01) (101, 5.10866343975067138672e-01) (102, 5.95255076885223388672e-01) (103, 4.77962762117385864258e-01) (104, 4.50638771057128906250e-01) (105, 4.52716976404190063477e-01) (106, 4.60200816392898559570e-01) (107, 4.70828503370285034180e-01) (108, 4.67941194772720336914e-01) (109, 5.53130328655242919922e-01) (110, 5.57268500328063964844e-01) (111, 5.59518039226531982422e-01) (112, 6.03155314922332763672e-01) (113, 5.71790814399719238281e-01) (114, 5.58547079563140869141e-01) (115, 5.06122112274169921875e-01) (116, 6.34024083614349365234e-01) (117, 5.87883651256561279297e-01) (118, 5.91118395328521728516e-01) (119, 5.83192765712738037109e-01) (120, 4.86981809139251708984e-01) (121, 4.81592237949371337891e-01) (122, 5.72207808494567871094e-01) (123, 5.72598874568939208984e-01) (124, 4.86417174339294433594e-01) (125, 5.83738863468170166016e-01) (126, 4.69513505697250366211e-01) (127, 5.98643243312835693359e-01) (128, 5.72024881839752197266e-01) (129, 6.27165377140045166016e-01) (130, 5.15047729015350341797e-01) (131, 5.37238538265228271484e-01) (132, 4.88045424222946166992e-01) (133, 4.58680957555770874023e-01) (134, 5.68980753421783447266e-01) (135, 4.94765132665634155273e-01) (136, 4.66298013925552368164e-01) (137, 5.77349364757537841797e-01) (138, 5.18570661544799804688e-01) (139, 4.86154407262802124023e-01) (140, 4.80318278074264526367e-01) (141, 6.23359858989715576172e-01) (142, 6.01746261119842529297e-01) (143, 6.37948930263519287109e-01) (144, 5.44964373111724853516e-01) (145, 5.08066058158874511719e-01) (146, 4.93522942066192626953e-01) (0, 3.22031021118164062500e-01) (1, 4.05194550752639770508e-01) (2, 4.07814592123031616211e-01) (3, 2.58066028356552124023e-01) (4, 2.71266132593154907227e-01) (5, 2.69277840852737426758e-01) (6, 3.82887631654739379883e-01) (7, 3.74660164117813110352e-01) (8, 2.44758650660514831543e-01) (9, 3.43490839004516601562e-01) (10, 3.91243636608123779297e-01) (11, 2.40283489227294921875e-01) (12, 4.10187959671020507812e-01) (13, 4.01182472705841064453e-01) (14, 3.27753812074661254883e-01) (15, 3.89679282903671264648e-01) (16, 4.34591054916381835938e-01) (17, 2.93933600187301635742e-01) (18, 2.36114069819450378418e-01) (19, 2.86332607269287109375e-01) (20, 3.35722297430038452148e-01) (21, 3.50989967584609985352e-01) (22, 3.17344427108764648438e-01) (23, 3.83529752492904663086e-01) (24, 4.07604485750198364258e-01) (25, 3.03517341613769531250e-01) (26, 3.29921066761016845703e-01) (27, 4.47581708431243896484e-01) (28, 4.25989449024200439453e-01) (29, 3.92268419265747070312e-01) (30, 4.33161854743957519531e-01) (31, 2.71561175584793090820e-01) (32, 3.40347319841384887695e-01) (33, 4.54567611217498779297e-01) (34, 3.13933372497558593750e-01) (35, 3.99463981389999389648e-01) (36, 2.13003560900688171387e-01) (37, 2.42193162441253662109e-01) (38, 4.30381387472152709961e-01) (39, 2.79085278511047363281e-01) (40, 3.20670783519744873047e-01) (41, 3.94822776317596435547e-01) (42, 2.85638540983200073242e-01) (43, 3.29097807407379150391e-01) (44, 3.23192626237869262695e-01) (45, 3.38823437690734863281e-01) (46, 3.80253553390502929688e-01) (47, 3.15767556428909301758e-01) (48, 2.43685171008110046387e-01) (49, 3.98139238357543945312e-01) (50, 3.57000291347503662109e-01) (51, 3.94146203994750976562e-01) (52, 3.57509672641754150391e-01) (53, 2.72148489952087402344e-01) (54, 2.73761510848999023438e-01) (55, 2.85875946283340454102e-01) (56, 3.07818144559860229492e-01) (57, 3.96447598934173583984e-01) (58, 2.66302973031997680664e-01) (59, 3.15540909767150878906e-01) (60, 3.20331841707229614258e-01) (61, 2.61840641498565673828e-01) (62, 3.77900123596191406250e-01) (63, 2.81575858592987060547e-01) (64, 2.45866686105728149414e-01) (65, 2.65275627374649047852e-01) (66, 4.22099441289901733398e-01) (67, 2.58627146482467651367e-01) (68, 2.83173441886901855469e-01) (69, 3.83342891931533813477e-01) (70, 2.97221183776855468750e-01) (71, 3.79568606615066528320e-01) (72, 2.69982904195785522461e-01) (73, 3.35123151540756225586e-01) (74, 2.76442259550094604492e-01) (75, 3.69970411062240600586e-01) (76, 2.57538050413131713867e-01) (77, 2.35275074839591979980e-01) (78, 3.82279396057128906250e-01) (79, 2.88767784833908081055e-01) (80, 2.24863141775131225586e-01) (81, 3.74741971492767333984e-01) (82, 3.85671198368072509766e-01) (83, 3.47978144884109497070e-01) (84, 3.61316323280334472656e-01) (85, 4.21763598918914794922e-01) (86, 4.29641783237457275391e-01) (87, 2.73196697235107421875e-01) (88, 3.51401627063751220703e-01) (89, 2.66026258468627929688e-01) (90, 3.67990195751190185547e-01) (91, 4.23922896385192871094e-01) (92, 3.01355034112930297852e-01) (93, 3.29654037952423095703e-01) (94, 2.40379273891448974609e-01) (95, 3.20990324020385742188e-01) (96, 3.74508678913116455078e-01) (97, 2.37476557493209838867e-01) (98, 3.35270285606384277344e-01) (99, 2.34465643763542175293e-01) (100, 3.71470451354980468750e-01) (101, 4.10369575023651123047e-01) (102, 3.96128863096237182617e-01) (103, 4.20077532529830932617e-01) (104, 3.43825340270996093750e-01) (105, 2.45988249778747558594e-01) (106, 3.40582996606826782227e-01) (107, 3.94209504127502441406e-01) (108, 2.69504189491271972656e-01) (109, 3.31432849168777465820e-01) (110, 2.41635903716087341309e-01) (111, 2.72833675146102905273e-01) (112, 2.36323654651641845703e-01) (113, 4.02400553226470947266e-01) (114, 3.90596508979797363281e-01) (115, 3.66463690996170043945e-01) (116, 3.96443456411361694336e-01) (117, 3.84364783763885498047e-01) (118, 4.08966630697250366211e-01) (119, 3.17629814147949218750e-01) (120, 4.24876987934112548828e-01) (121, 3.46741497516632080078e-01) (122, 3.10858964920043945312e-01) (123, 2.95538246631622314453e-01) (124, 2.45705842971801757812e-01) (125, 3.21018874645233154297e-01) (126, 3.83304089307785034180e-01) (127, 3.89516711235046386719e-01) (128, 3.24634015560150146484e-01) (129, 2.96127885580062866211e-01) (130, 3.92189502716064453125e-01) (131, 2.62782484292984008789e-01) (132, 2.76570171117782592773e-01) (133, 3.60884964466094970703e-01) (134, 2.52647608518600463867e-01) (135, 3.92062753438949584961e-01) (136, 3.82495254278182983398e-01) (137, 3.64075720310211181641e-01) (138, 3.55415254831314086914e-01) (139, 4.21784102916717529297e-01) (140, 2.70184993743896484375e-01) (141, 3.71674895286560058594e-01) (142, 2.58132159709930419922e-01) (143, 2.75810837745666503906e-01) (144, 3.46545279026031494141e-01) (145, 4.22878623008728027344e-01) (146, 4.06267404556274414062e-01) (0, -1.31395369768142700195e-01) (1, -9.14605259895324707031e-02) (2, -6.30281195044517517090e-02) (3, -1.97912771254777908325e-02) (4, 3.85037541389465332031e-01) (5, -1.17522366344928741455e-01) (6, -1.33566454052925109863e-01) (7, -2.11702391505241394043e-01) (8, -1.58470466732978820801e-01) (9, -2.45873350650072097778e-02) (10, -7.42175281047821044922e-02) (11, -1.59674569964408874512e-01) (12, -1.84340998530387878418e-01) (13, -1.78263083100318908691e-01) (14, -1.38569533824920654297e-01) (15, -1.04482688009738922119e-01) (16, -1.39230355620384216309e-01) (17, -8.56814011931419372559e-02) (18, -1.09299838542938232422e-01) (19, 2.91009634733200073242e-01) (20, -1.11699901521205902100e-01) (21, -1.79666519165039062500e-01) (22, -6.01355843245983123779e-02) (23, -1.14218898117542266846e-01) (24, -1.35997250676155090332e-01) (25, -1.02336287498474121094e-01) (26, -6.57739788293838500977e-02) (27, -4.64490763843059539795e-02) (28, -1.94947719573974609375e-01) (29, -7.76726752519607543945e-02) (30, -1.11219011247158050537e-01) (31, -1.01675584912300109863e-01) (32, -1.74222573637962341309e-01) (33, -1.57206162810325622559e-01) (34, -1.48595452308654785156e-01) (35, -1.50426775217056274414e-01) (36, -9.80185046792030334473e-02) (37, -9.62308868765830993652e-02) (38, -1.72647401690483093262e-01) (39, -1.55904471874237060547e-01) (40, -1.36708483099937438965e-01) (41, 4.66735392808914184570e-01) (42, -1.44590020179748535156e-01) (43, -8.91217961907386779785e-02) (44, -1.73675164580345153809e-01) (45, -1.15531489253044128418e-01) (46, -4.92570511996746063232e-02) (47, -9.76430550217628479004e-02) (48, -1.58799067139625549316e-01) (49, -1.33368045091629028320e-01) (50, -3.56955043971538543701e-02) (51, -7.19935307279229164124e-03) (52, -1.01326867938041687012e-01) (53, -6.65789693593978881836e-02) (54, -1.55074551701545715332e-01) (55, -2.10133776068687438965e-01) (56, -1.96819618344306945801e-01) (57, -2.96919438987970352173e-02) (58, -8.13562944531440734863e-02) (59, -1.14921875298023223877e-01) (60, -7.61226341128349304199e-02) (61, -1.83682203292846679688e-01) (62, -2.12010324001312255859e-01) (63, -3.63290496170520782471e-02) (64, -1.12824134528636932373e-01) (65, -1.21488273143768310547e-01) (66, -1.86587780714035034180e-01) (67, -1.61103859543800354004e-01) (68, -1.87613591551780700684e-01) (69, -1.67122676968574523926e-01) (70, -1.52536094188690185547e-01) (71, -1.39664128422737121582e-01) (72, -1.71093553304672241211e-01) (73, -5.50595596432685852051e-02) (74, -2.20581099390983581543e-01) (75, -9.76124480366706848145e-02) (76, -1.50769546627998352051e-01) (77, -3.90571393072605133057e-02) (78, -4.50432747602462768555e-02) (79, -8.36471542716026306152e-02) (80, -1.52182355523109436035e-01) (81, -4.36263680458068847656e-02) (82, -1.34751990437507629395e-01) (83, -2.16649547219276428223e-01) (84, -1.29249483346939086914e-01) (85, -7.21301063895225524902e-02) (86, -2.08884969353675842285e-01) (87, -7.52424225211143493652e-02) (88, -7.80173167586326599121e-02) (89, -7.60071501135826110840e-02) (90, -1.90627411007881164551e-01) (91, -1.59568682312965393066e-01) (92, -3.66471633315086364746e-02) (93, -1.82710066437721252441e-01) (94, -1.64227887988090515137e-01) (95, -1.30688011646270751953e-01) (96, -9.30946096777915954590e-02) (97, -1.46114304661750793457e-01) (98, -8.22586193680763244629e-02) (99, -6.93447366356849670410e-02) (100, -9.79982018470764160156e-02) (101, -1.99603393673896789551e-01) (102, -1.71090438961982727051e-01) (103, -4.23838645219802856445e-02) (104, -3.27337160706520080566e-02) (105, -1.62877455353736877441e-01) (106, -1.58546045422554016113e-01) (107, -1.63841024041175842285e-01) (108, -1.69349685311317443848e-01) (109, -1.59587219357490539551e-01) (110, -3.80437523126602172852e-02) (111, -8.82757827639579772949e-02) (112, -1.99348762631416320801e-01) (113, -1.47302195429801940918e-01) (114, -8.00095573067665100098e-02) (115, -1.03396229445934295654e-01) (116, -1.94226816296577453613e-01) (117, -6.36908262968063354492e-02) (118, -1.53431430459022521973e-01) (119, -4.70404252409934997559e-02) (120, -1.14492423832416534424e-01) (121, -1.15604825317859649658e-01) (122, -1.85653924942016601562e-01) (123, -1.30182892084121704102e-01) (124, -7.31111541390419006348e-02) (125, -1.20141409337520599365e-01) (126, -3.14185284078121185303e-02) (127, -1.40998557209968566895e-01) (128, -4.07639890909194946289e-02) (129, -9.38378199934959411621e-02) (130, -1.84849813580513000488e-01) (131, -1.09488673508167266846e-01) (132, -6.60750567913055419922e-02) (133, -1.30736500024795532227e-01) (134, -1.26377597451210021973e-01) (135, -7.40736126899719238281e-02) (136, -6.81239143013954162598e-02) (137, -6.50876611471176147461e-02) (138, -2.08458736538887023926e-01) (139, -2.11980119347572326660e-01) (140, -1.98065370321273803711e-01) (141, -2.24788948893547058105e-01) (142, -7.50520899891853332520e-02) (143, -1.67671993374824523926e-01) (144, -1.43107339739799499512e-01) (145, -1.32818400859832763672e-01) (146, -4.94044646620750427246e-02) (0, 3.47133725881576538086e-01) (1, -1.77146136760711669922e-01) (2, -1.84461534023284912109e-01) (3, -7.06148967146873474121e-02) (4, 4.06110554933547973633e-01) (5, -1.26643097028136253357e-02) (6, -5.32335452735424041748e-02) (7, -1.53545469045639038086e-01) (8, 3.02116751670837402344e-01) (9, -1.34827733039855957031e-01) (10, -1.72014877200126647949e-01) (11, -1.71696711331605911255e-02) (12, -1.98302701115608215332e-01) (13, -3.63465910777449607849e-03) (14, -1.32268235087394714355e-01) (15, -7.80136659741401672363e-02) (16, 3.92599463462829589844e-01) (17, -1.08439750969409942627e-01) (18, -1.73454284667968750000e-01) (19, 3.64626049995422363281e-01) (20, -1.18750207126140594482e-01) (21, -2.08557486534118652344e-01) (22, 3.44924896955490112305e-01) (23, -1.06240279972553253174e-01) (24, -1.79295837879180908203e-01) (25, -8.13018158078193664551e-02) (26, -1.65261045098304748535e-01) (27, -8.25305506587028503418e-02) (28, 2.64180123805999755859e-01) (29, -5.31956553459167480469e-02) (30, -1.32484719157218933105e-01) (31, -7.85390734672546386719e-02) (32, -2.38304704427719116211e-01) (33, -9.97448414564132690430e-02) (34, 2.19339221715927124023e-01) (35, -1.24411955475807189941e-02) (36, -1.52607396245002746582e-01) (37, -7.26216360926628112793e-02) (38, -1.55513212084770202637e-01) (39, -1.03300020098686218262e-01) (40, 2.35104203224182128906e-01) (41, 3.74771475791931152344e-01) (42, -2.33595725148916244507e-02) (43, -1.89801141619682312012e-01) (44, -1.06250576674938201904e-01) (45, -1.77992194890975952148e-01) (46, 3.80659013986587524414e-01) (47, -1.40216976404190063477e-01) (48, -4.72529977560043334961e-02) (49, -2.09233388304710388184e-01) (50, -3.11395339667797088623e-02) (51, -1.17373429238796234131e-01) (52, 2.60738700628280639648e-01) (53, -7.94228240847587585449e-02) (54, -4.25142571330070495605e-02) (55, -1.56787753105163574219e-01) (56, -1.82201653718948364258e-01) (57, -2.06287682056427001953e-01) (58, -5.87311461567878723145e-02) (59, -1.11325979232788085938e-01) (60, -2.86736581474542617798e-02) (61, -1.93795055150985717773e-01) (62, -1.94465070962905883789e-01) (63, -4.36821989715099334717e-02) (64, -5.75250089168548583984e-02) (65, -1.52393057942390441895e-01) (66, -4.46628406643867492676e-02) (67, -1.65187135338783264160e-01) (68, -1.96577653288841247559e-01) (69, -2.13142260909080505371e-01) (70, -1.77154481410980224609e-01) (71, -2.12365567684173583984e-01) (72, -1.16822004318237304688e-01) (73, -1.76642447710037231445e-01) (74, -1.81267663836479187012e-01) (75, -1.63910344243049621582e-01) (76, -1.36629924178123474121e-01) (77, -2.08027750253677368164e-01) (78, -1.63806155323982238770e-01) (79, -1.46430879831314086914e-01) (80, -2.07677364349365234375e-01) (81, -1.17802582681179046631e-01) (82, -1.11822664737701416016e-01) (83, -1.72219008207321166992e-01) (84, -2.05013118684291839600e-02) (85, -1.43620282411575317383e-01) (86, -1.14666864275932312012e-01) (87, -1.55627146363258361816e-01) (88, -1.22222803533077239990e-01) (89, -1.59622669219970703125e-01) (90, -7.38461762666702270508e-02) (91, -1.55911073088645935059e-01) (92, -1.31962686777114868164e-01) (93, -4.81547676026821136475e-02) (94, -1.77430793642997741699e-01) (95, -1.76359742879867553711e-01) (96, -2.01025411486625671387e-01) (97, -2.24877148866653442383e-01) (98, -1.39501363039016723633e-01) (99, -1.92315965890884399414e-01) (100, -2.23860770463943481445e-01) (101, -9.61178243160247802734e-02) (102, -1.74844175577163696289e-01) (103, -1.15214206278324127197e-01) (104, -4.90793623030185699463e-02) (105, -1.28448814153671264648e-01) (106, -9.57778096199035644531e-02) (107, -1.64387792348861694336e-01) (108, -1.07261955738067626953e-01) (109, -2.09644213318824768066e-01) (110, -1.21575437486171722412e-01) (111, -7.46279954910278320312e-02) (112, -1.30585014820098876953e-01) (113, -2.01850891113281250000e-01) (114, -3.27657982707023620605e-02) (115, -1.39811068773269653320e-01) (116, -1.32793799042701721191e-01) (117, -1.26379206776618957520e-01) (118, -7.63114392757415771484e-02) (119, -3.12038827687501907349e-02) (120, -6.63555487990379333496e-02) (121, -1.26013353466987609863e-01) (122, -1.67425245046615600586e-01) (123, -1.77265524864196777344e-01) (124, -1.53114050626754760742e-01) (125, -1.21186055243015289307e-01) (126, -1.32574304938316345215e-01) (127, -1.30285456776618957520e-01) (128, -1.18726730346679687500e-01) (129, -4.60537932813167572021e-02) (130, -9.45825576782226562500e-02) (131, -1.14780634641647338867e-01) (132, -1.12836509943008422852e-01) (133, -4.20903451740741729736e-02) (134, -2.02654868364334106445e-01) (135, -1.38528630137443542480e-01) (136, -1.43670603632926940918e-01) (137, -7.61820152401924133301e-02) (138, -8.24048593640327453613e-02) (139, -2.25922256708145141602e-01) (140, -6.03687018156051635742e-02) (141, -1.77794679999351501465e-01) (142, -8.01832973957061767578e-02) (143, -1.71305030584335327148e-01) (144, -1.59528225660324096680e-01) (145, -8.49266350269317626953e-02) (146, -8.30972790718078613281e-02) (0, 4.01201546192169189453e-01) (1, -2.05027401447296142578e-01) (2, -1.52226656675338745117e-01) (3, 3.93577754497528076172e-01) (4, 2.51472562551498413086e-01) (5, 4.45403218269348144531e-01) (6, 2.54230380058288574219e-01) (7, 2.67645567655563354492e-01) (8, 2.71660268306732177734e-01) (9, 4.02080327272415161133e-01) (10, 3.62560302019119262695e-01) (11, 4.06649440526962280273e-01) (12, 2.56823897361755371094e-01) (13, 3.75988662242889404297e-01) (14, 3.56880336999893188477e-01) (15, -6.21213018894195556641e-02) (16, 2.84678280353546142578e-01) (17, -1.40419557690620422363e-01) (18, -5.08584007620811462402e-02) (19, 3.86128008365631103516e-01) (20, 4.11708325147628784180e-01) (21, 3.39357048273086547852e-01) (22, 2.98855960369110107422e-01) (23, 4.10307884216308593750e-01) (24, 3.24957668781280517578e-01) (25, 3.61972123384475708008e-01) (26, 3.75396519899368286133e-01) (27, 4.05087560415267944336e-01) (28, 2.43114575743675231934e-01) (29, 3.12984675168991088867e-01) (30, 3.36242169141769409180e-01) (31, 3.97946268320083618164e-01) (32, 3.04568976163864135742e-01) (33, 4.12416368722915649414e-01) (34, 3.49966138601303100586e-01) (35, 4.06449973583221435547e-01) (36, -4.41637821495532989502e-02) (37, -8.24019908905029296875e-02) (38, -2.42169555276632308960e-02) (39, 2.95340597629547119141e-01) (40, 3.08148324489593505859e-01) (41, 4.25799280405044555664e-01) (42, 2.77141690254211425781e-01) (43, 3.39410156011581420898e-01) (44, -1.48587062954902648926e-01) (45, 3.63890469074249267578e-01) (46, 2.60693669319152832031e-01) (47, 3.49111318588256835938e-01) (48, 2.62097805738449096680e-01) (49, 2.45763063430786132812e-01) (50, 3.07396292686462402344e-01) (51, 2.60989695787429809570e-01) (52, 3.84497255086898803711e-01) (53, 3.87857496738433837891e-01) (54, 4.24111336469650268555e-01) (55, 2.69356191158294677734e-01) (56, 2.71368652582168579102e-01) (57, 3.28380733728408813477e-01) (58, 4.19355005025863647461e-01) (59, 3.14903110265731811523e-01) (60, 4.27576661109924316406e-01) (61, 3.07067543268203735352e-01) (62, 2.73040622472763061523e-01) (63, 3.09409052133560180664e-01) (64, 3.06441873311996459961e-01) (65, 4.12170976400375366211e-01) (66, 2.32796728610992431641e-01) (67, 2.97851860523223876953e-01) (68, 3.39606761932373046875e-01) (69, 4.04780507087707519531e-01) (70, 3.58747512102127075195e-01) (71, 4.11282509565353393555e-01) (72, 3.33610028028488159180e-01) (73, 3.91536772251129150391e-01) (74, 3.02673101425170898438e-01) (75, 4.30713474750518798828e-01) (76, 3.25931906700134277344e-01) (77, 3.53417307138442993164e-01) (78, 3.03633779287338256836e-01) (79, 3.64242106676101684570e-01) (80, 3.68377327919006347656e-01) (81, 3.93874198198318481445e-01) (82, 3.73276025056838989258e-01) (83, 3.25373440980911254883e-01) (84, 3.14657956361770629883e-01) (85, 3.51951986551284790039e-01) (86, 3.66360276937484741211e-01) (87, 3.94492655992507934570e-01) (88, 2.60406553745269775391e-01) (89, 3.56404632329940795898e-01) (90, 2.79014170169830322266e-01) (91, 2.36222386360168457031e-01) (92, 2.43239656090736389160e-01) (93, 3.32411855459213256836e-01) (94, 3.24822992086410522461e-01) (95, 3.20682555437088012695e-01) (96, 3.11056882143020629883e-01) (97, 3.31467002630233764648e-01) (98, 3.89965683221817016602e-01) (99, 2.31450423598289489746e-01) (100, 3.14941078424453735352e-01) (101, 3.22522729635238647461e-01) (102, 4.18790966272354125977e-01) (103, 2.27625876665115356445e-01) (104, 2.91520982980728149414e-01) (105, 3.06662470102310180664e-01) (106, 4.04452472925186157227e-01) (107, 4.00274723768234252930e-01) (108, 2.42815852165222167969e-01) (109, 2.96509325504302978516e-01) (110, 3.39911907911300659180e-01) (111, 3.98470729589462280273e-01) (112, 2.46473267674446105957e-01) (113, 2.85439848899841308594e-01) (114, 3.05720895528793334961e-01) (115, 3.37724715471267700195e-01) (116, 4.14691299200057983398e-01) (117, 2.44107797741889953613e-01) (118, 3.09516817331314086914e-01) (119, 2.51929163932800292969e-01) (120, 3.77806752920150756836e-01) (121, 3.63939255475997924805e-01) (122, 2.64973253011703491211e-01) (123, 3.97639960050582885742e-01) (124, 2.74130612611770629883e-01) (125, 3.66394907236099243164e-01) (126, 2.96092361211776733398e-01) (127, 3.62016528844833374023e-01) (128, 2.75161415338516235352e-01) (129, 2.62416779994964599609e-01) (130, 3.71231704950332641602e-01) (131, 3.67401927709579467773e-01) (132, 3.62238973379135131836e-01) (133, 3.66851717233657836914e-01) (134, 3.70901316404342651367e-01) (135, 2.31064558029174804688e-01) (136, 2.50817865133285522461e-01) (137, 3.50370615720748901367e-01) (138, 4.07692819833755493164e-01) (139, 2.70453453063964843750e-01) (140, 2.26947233080863952637e-01) (141, 3.23483377695083618164e-01) (142, 2.46228769421577453613e-01) (143, 2.50013530254364013672e-01) (144, 3.87173146009445190430e-01) (145, 3.24666827917098999023e-01) (146, 3.65033060312271118164e-01) (0, -6.36560022830963134766e-01) (1, 2.22445335388183593750e+01) (2, 5.58265113830566406250e+00) (3, -2.23183479309082031250e+01) (4, 6.79721221923828125000e+01) (5, 6.60664825439453125000e+01) (6, 1.96259975433349609375e+01) (7, 3.13334312438964843750e+01) (8, 2.05524120330810546875e+01) (9, 2.83559703826904296875e+00) (10, -1.15079326629638671875e+01) (11, 5.15582504272460937500e+01) (12, 8.98169937133789062500e+01) (13, 7.39576005935668945312e+00) (14, 1.85474029541015625000e+02) (15, 6.48868286132812500000e+02) (16, -6.34301483631134033203e-01) (17, 1.08464565277099609375e+01) (18, 2.70694026947021484375e+01) (19, 3.60186843872070312500e+01) (20, -1.20249893188476562500e+02) (21, 2.06556892395019531250e+01) (22, 2.91726255416870117188e+00) (23, -1.68291645050048828125e+01) (24, -4.20720458030700683594e-01) (25, 1.00294675827026367188e+01) (26, 2.60210285186767578125e+01) (27, 4.73543815612792968750e+01) (28, 6.22301006317138671875e+00) (29, 1.36616230010986328125e+01) (30, 4.37622928619384765625e+00) (31, -5.37813663482666015625e+00) (32, 3.04067564010620117188e+00) (33, 1.77514743804931640625e+01) (34, 1.04062728881835937500e+02) (35, -1.60837936401367187500e+01) (36, 5.64387321472167968750e+01) (37, 2.64090180397033691406e+00) (38, 6.76003570556640625000e+01) (39, -9.22365570068359375000e+01) (40, 1.29697980880737304688e+01) (41, 7.18496627807617187500e+01) (42, -7.44310684204101562500e+01) (43, 7.41627044677734375000e+01) (44, -2.57828918457031250000e+02) (45, 5.33035354614257812500e+01) (46, 2.91817808151245117188e+00) (47, -1.68504409790039062500e+01) (48, -3.04122745990753173828e-01) (49, 1.00466194152832031250e+01) (50, 2.58897075653076171875e+01) (51, 4.73256111145019531250e+01) (52, 6.12409305572509765625e+00) (53, 1.37268085479736328125e+01) (54, 4.53481864929199218750e+00) (55, -5.38087177276611328125e+00) (56, 2.98269605636596679688e+00) (57, 1.78346004486083984375e+01) (58, 2.67147153615951538086e-01) (59, 4.13430124521255493164e-01) (60, -1.33277624845504760742e-01) (61, -2.77508697509765625000e+01) (62, -4.20333976745605468750e+01) (63, 1.80019798278808593750e+01) (64, 4.60568331182003021240e-02) (65, 1.47671654820442199707e-01) (66, -3.31164665222167968750e+01) (67, -1.93201637268066406250e+01) (68, -6.44997954368591308594e-01) (69, -1.48345069885253906250e+01) (70, -1.75502514839172363281e+00) (71, 7.23668606951832771301e-04) (72, 1.54064254760742187500e+02) (73, -2.28652858734130859375e+00) (74, -5.00031242370605468750e+01) (75, -2.11464360356330871582e-01) (76, 7.16297149658203125000e-01) (77, 9.58304256200790405273e-02) (78, -1.96553363800048828125e+01) (79, -3.06059092283248901367e-01) (80, 9.82958078384399414062e-01) (81, 2.84986376762390136719e-01) (82, 6.58955350518226623535e-02) (83, 1.03400819003582000732e-01) (84, 3.07462476193904876709e-02) (85, 8.12341272830963134766e-02) (86, 1.78028181195259094238e-01) (87, 1.84009805321693420410e-01) (88, 2.32571840286254882812e-01) (89, 5.76027035713195800781e-01) (90, 5.50116039812564849854e-03) (91, 1.75014451146125793457e-01) (92, 1.64176728576421737671e-02) (93, 6.56367838382720947266e-02) (94, 1.36413276195526123047e-01) (95, 5.60768991708755493164e-02) (96, 1.44353076815605163574e-01) (97, 1.60741195082664489746e-01) (98, 1.44640058279037475586e-01) (99, 1.75732180476188659668e-01) (100, 9.09089595079421997070e-02) (101, 7.06713646650314331055e-02) (102, 1.28491908311843872070e-01) (103, 6.15551136434078216553e-02) (104, 6.31600320339202880859e-02) (105, 4.40587513148784637451e-02) (106, 4.79139983654022216797e-02) (107, 1.21596291661262512207e-01) (108, 2.82885544002056121826e-02) (109, 1.48503735661506652832e-01) (110, 1.20292469859123229980e-01) (111, 4.37075756490230560303e-02) (112, 6.04034103453159332275e-02) (113, 3.09334751218557357788e-02) (114, 6.26582503318786621094e-02) (115, 6.69837966561317443848e-02) (116, 5.84282353520393371582e-02) (117, 6.90082013607025146484e-02) (118, -7.47052580118179321289e-03) (119, 6.07637614011764526367e-02) (120, 5.11633232235908508301e-02) (121, 4.15931418538093566895e-02) (122, 3.12221492640674114227e-03) (123, 3.61637994647026062012e-02) (124, 6.41159191727638244629e-02) (125, -2.30667646974325180054e-02) (126, 1.10617212951183319092e-01) (127, -7.58146820589900016785e-03) (128, 1.44787862896919250488e-01) (129, 5.92135973274707794189e-02) (130, -4.59744548425078392029e-03) (131, 5.13850636780261993408e-02) (132, -2.04533785581588745117e-02) (133, 1.31342589855194091797e-01) (134, 1.24906726181507110596e-01) (135, 2.02429443597793579102e-02) (136, 4.83131408691406250000e-03) (137, -1.65926385670900344849e-03) (138, 1.50197684764862060547e-01) (139, 3.50353606045246124268e-02) (140, 1.49787068367004394531e-01) (141, 6.94943070411682128906e-02) (142, 3.58211249113082885742e-02) (143, 1.27966832369565963745e-02) (144, 1.13698117434978485107e-01) (145, 1.36207237839698791504e-01) (146, 7.98460394144058227539e-02) (0, -2.05261349678039550781e-01) (1, -1.87385782599449157715e-01) (2, 3.50743651390075683594e-01) (3, -9.24475565552711486816e-02) (4, -1.15645162761211395264e-01) (5, -1.32531132549047470093e-02) (6, -4.50062565505504608154e-02) (7, -3.69962602853775024414e-02) (8, -2.10349187254905700684e-01) (9, -1.66740976274013519287e-02) (10, -1.08210526406764984131e-01) (11, -1.22572332620620727539e-01) (12, -9.88124161958694458008e-02) (13, -1.75323128700256347656e-01) (14, -6.50309026241302490234e-02) (15, 3.04951518774032592773e-01) (16, -1.65059342980384826660e-01) (17, -1.08796529471874237061e-01) (18, -5.51486155018210411072e-03) (19, -9.18376669287681579590e-02) (20, -5.68684339523315429688e-02) (21, -1.80569171905517578125e-01) (22, -1.33165627717971801758e-01) (23, -2.00385808944702148438e-01) (24, -2.03682690858840942383e-01) (25, -1.90335407853126525879e-01) (26, -1.31656721234321594238e-01) (27, -1.38462558388710021973e-01) (28, -4.44255098700523376465e-02) (29, -1.58536404371261596680e-01) (30, -9.85338687896728515625e-02) (31, -4.12752218544483184814e-02) (32, -1.48166909813880920410e-01) (33, -1.74040511250495910645e-01) (34, -1.69902577996253967285e-01) (35, -2.23719537258148193359e-01) (36, -2.20106899738311767578e-01) (37, 2.35769525170326232910e-01) (38, -2.40963697433471679688e-02) (39, -9.69234630465507507324e-02) (40, -8.06203708052635192871e-02) (41, -9.58283469080924987793e-02) (42, -6.98338299989700317383e-02) (43, -1.15310639142990112305e-01) (44, 3.93332183361053466797e-01) (45, -1.44501209259033203125e-01) (46, -1.55460491776466369629e-01) (47, -7.22477398812770843506e-03) (48, -2.16467566788196563721e-02) (49, -1.37758687138557434082e-01) (50, -8.68095904588699340820e-02) (51, -3.14804278314113616943e-02) (52, -9.91449132561683654785e-02) (53, -1.72272980213165283203e-01) (54, -8.65390598773956298828e-02) (55, -1.03910453617572784424e-01) (56, -1.79119080305099487305e-01) (57, -1.98434934020042419434e-01) (58, -7.55171477794647216797e-02) (59, -1.86910420656204223633e-01) (60, -1.34129792451858520508e-01) (61, -1.50029569864273071289e-01) (62, -2.15820536017417907715e-01) (63, -7.14306458830833435059e-02) (64, -1.20996184647083282471e-01) (65, -1.44676446914672851562e-01) (66, -4.23185527324676513672e-02) (67, -9.50197726488113403320e-02) (68, -1.48248374462127685547e-01) (69, -7.26748034358024597168e-02) (70, -7.51676037907600402832e-02) (71, -2.14024007320404052734e-01) (72, -1.89641147851943969727e-01) (73, -1.27995148301124572754e-01) (74, -1.43793269991874694824e-01) (75, -9.33315325528383255005e-03) (76, -6.41713812947273254395e-02) (77, -5.36838844418525695801e-02) (78, -8.01534354686737060547e-02) (79, -4.68906909227371215820e-02) (80, -1.75930023193359375000e-01) (81, -9.84424352645874023438e-02) (82, -1.38977602124214172363e-01) (83, -5.53392991423606872559e-02) (84, -1.01737201213836669922e-01) (85, -2.03730449080467224121e-01) (86, -1.39986410737037658691e-01) (87, -3.87215539813041687012e-02) (88, -1.89745098352432250977e-01) (89, -1.93813174962997436523e-01) (90, -2.09915041923522949219e-01) (91, -1.31999224424362182617e-01) (92, -1.25799998641014099121e-01) (93, -2.00488656759262084961e-01) (94, -1.78874269127845764160e-01) (95, -2.20815867185592651367e-01) (96, -1.29805266857147216797e-01) (97, -2.21972689032554626465e-01) (98, -1.18772290647029876709e-01) (99, -5.62708601355552673340e-02) (100, -8.41256231069564819336e-02) (101, -1.59523174166679382324e-01) (102, -3.62315103411674499512e-02) (103, -4.63027060031890869141e-02) (104, -6.08941800892353057861e-02) (105, -1.50774374604225158691e-01) (106, -6.73750042915344238281e-02) (107, -9.35015231370925903320e-02) (108, -1.71427920460700988770e-01) (109, -9.70722585916519165039e-02) (110, -1.38989105820655822754e-01) (111, -1.09977781772613525391e-01) (112, -2.03181356191635131836e-01) (113, -4.94974181056022644043e-02) (114, -1.39664992690086364746e-01) (115, -7.78587162494659423828e-02) (116, -2.24755063652992248535e-01) (117, -5.11820837855339050293e-02) (118, -9.09298509359359741211e-02) (119, -1.86029106378555297852e-01) (120, -2.16522485017776489258e-01) (121, -7.17618465423583984375e-02) (122, -9.09701436758041381836e-02) (123, -1.16674289107322692871e-01) (124, -4.51906844973564147949e-02) (125, -3.99622246623039245605e-02) (126, -1.10430255532264709473e-01) (127, -1.46522998809814453125e-01) (128, -3.48751246929168701172e-02) (129, -1.98676183819770812988e-01) (130, -1.78998962044715881348e-01) (131, -9.25798937678337097168e-02) (132, -1.31780549883842468262e-01) (133, -1.86954155564308166504e-01) (134, -1.04894667863845825195e-01) (135, -1.62149712443351745605e-01) (136, -1.05155184864997863770e-01) (137, -1.45206466317176818848e-01) (138, -2.27178528904914855957e-01) (139, -4.81121167540550231934e-02) (140, -2.13805988430976867676e-01) (141, -1.37696579098701477051e-01) (142, -1.31026685237884521484e-01) (143, -1.88516318798065185547e-01) (144, -1.57310038805007934570e-01) (145, -4.22223135828971862793e-02) (146, -4.37024012207984924316e-02) (0, -1.38864055275917053223e-01) (1, -7.93078020215034484863e-02) (2, -9.33268442749977111816e-02) (3, -2.45503168553113937378e-02) (4, -2.99031138420104980469e-02) (5, -1.10152669250965118408e-01) (6, -1.28829255700111389160e-01) (7, -1.47667258977890014648e-01) (8, -2.00085058808326721191e-01) (9, -1.28751605749130249023e-01) (10, -2.31971800327301025391e-01) (11, -6.32210820913314819336e-02) (12, -1.91374197602272033691e-01) (13, -1.76431149244308471680e-01) (14, 6.70018866658210754395e-02) (15, -1.07219377532601356506e-02) (16, -9.03778970241546630859e-02) (17, -1.94395408034324645996e-01) (18, -1.22405000030994415283e-01) (19, 7.29033490642905235291e-04) (20, -6.48975819349288940430e-02) (21, -4.76860031485557556152e-02) (22, -2.41492718458175659180e-01) (23, -7.42392167448997497559e-02) (24, -1.83411352336406707764e-02) (25, -1.34527936577796936035e-01) (26, -1.47393465042114257812e-01) (27, -1.53035372495651245117e-01) (28, -5.19082881510257720947e-02) (29, -1.75364106893539428711e-01) (30, -1.82502567768096923828e-01) (31, -1.79955542087554931641e-01) (32, -8.58168527483940124512e-02) (33, -8.39109271764755249023e-02) (34, -1.71387165784835815430e-01) (35, -4.95324470102787017822e-02) (36, -2.06814005970954895020e-01) (37, -2.16020852327346801758e-01) (38, -1.60745456814765930176e-01) (39, -6.18912205100059509277e-02) (40, -1.64698332548141479492e-01) (41, -9.84540432691574096680e-02) (42, -1.90838649868965148926e-01) (43, -1.27566888928413391113e-01) (44, -1.14595010876655578613e-01) (45, -2.05160677433013916016e-01) (46, -1.98571562767028808594e-01) (47, -1.96955293416976928711e-01) (48, -1.45675316452980041504e-01) (49, -8.95747691392898559570e-02) (50, -1.68777346611022949219e-01) (51, -1.56292766332626342773e-01) (52, -1.00631251931190490723e-01) (53, -1.82927578687667846680e-01) (54, -3.05254310369491577148e-02) (55, -1.11408092081546783447e-01) (56, -1.66075244545936584473e-01) (57, -2.16793239116668701172e-01) (58, -9.89204794168472290039e-02) (59, -1.56532734632492065430e-01) (60, -1.56756758689880371094e-01) (61, -7.01203495264053344727e-02) (62, -1.24083839356899261475e-01) (63, -2.04236030578613281250e-01) (64, -1.32359609007835388184e-01) (65, -1.65552020072937011719e-01) (66, -2.05171573907136917114e-02) (67, -9.03928503394126892090e-02) (68, -1.71304419636726379395e-01) (69, -1.77639812231063842773e-01) (70, -2.89581213146448135376e-02) (71, -1.35240569710731506348e-01) (72, -1.27959102392196655273e-01) (73, -1.98238670825958251953e-01) (74, -6.36911243200302124023e-02) (75, -2.62205325998365879059e-03) (76, -1.82263374328613281250e-01) (77, -2.20581486821174621582e-01) (78, -2.34307497739791870117e-01) (79, -1.02824889123439788818e-01) (80, -9.07430127263069152832e-02) (81, -1.76070421934127807617e-01) (82, -9.05756875872611999512e-02) (83, -1.75564765930175781250e-01) (84, -1.90840840339660644531e-01) (85, -1.22040025889873504639e-01) (86, -7.29568228125572204590e-02) (87, -8.13537463545799255371e-02) (88, -1.12136654555797576904e-01) (89, -1.41535058617591857910e-01) (90, -2.10327446460723876953e-01) (91, -7.74470791220664978027e-02) (92, -1.92146778106689453125e-01) (93, -1.05713985860347747803e-01) (94, -4.96974550187587738037e-02) (95, -1.00913994014263153076e-01) (96, -5.25415800511837005615e-02) (97, -5.90714477002620697021e-02) (98, -1.86772406101226806641e-01) (99, -1.98810815811157226562e-01) (100, -2.18269586563110351562e-01) (101, -1.87267273664474487305e-01) (102, -1.04744583368301391602e-01) (103, -1.23377732932567596436e-01) (104, -1.59400194883346557617e-01) (105, -1.39691889286041259766e-01) (106, -1.40674769878387451172e-01) (107, -1.07437424361705780029e-01) (108, -1.30965307354927062988e-01) (109, -1.37708768248558044434e-01) (110, -1.92069619894027709961e-01) (111, -1.86438113451004028320e-01) (112, -1.15701399743556976318e-01) (113, -5.06816767156124114990e-02) (114, -1.30039557814598083496e-01) (115, -7.45785161852836608887e-02) (116, -1.40284150838851928711e-01) (117, -1.71030580997467041016e-01) (118, -1.23496435582637786865e-01) (119, -2.20455408096313476562e-01) (120, -8.01331028342247009277e-02) (121, -1.01860128343105316162e-01) (122, -6.45179972052574157715e-02) (123, -4.03162203729152679443e-02) (124, -1.75607055425643920898e-01) (125, -8.22499021887779235840e-02) (126, -1.09264694154262542725e-01) (127, -1.95499122142791748047e-01) (128, -1.08885429799556732178e-01) (129, -6.18094056844711303711e-02) (130, -1.63030207157135009766e-01) (131, -9.56616923213005065918e-02) (132, -2.19375252723693847656e-01) (133, -3.42310890555381774902e-02) (134, -1.85917899012565612793e-01) (135, -1.46811693906784057617e-01) (136, -1.43751069903373718262e-01) (137, -9.53146740794181823730e-02) (138, -2.22283720970153808594e-01) (139, -4.32244203984737396240e-02) (140, -2.01528429985046386719e-01) (141, -1.81919142603874206543e-01) (142, -1.97697043418884277344e-01) (143, -8.52661058306694030762e-02) (144, -2.01105743646621704102e-01) (145, -9.57741066813468933105e-02) (146, -1.28828510642051696777e-01) (0, 3.52633208036422729492e-01) (1, 4.02094095945358276367e-01) (2, 2.28164970874786376953e-01) (3, 3.75164955854415893555e-01) (4, 3.84976714849472045898e-01) (5, 4.08688008785247802734e-01) (6, 3.65995198488235473633e-01) (7, 3.63459229469299316406e-01) (8, 3.89326483011245727539e-01) (9, 3.20617169141769409180e-01) (10, 2.71974354982376098633e-01) (11, 2.66453891992568969727e-01) (12, 3.97390484809875488281e-01) (13, 2.64551073312759399414e-01) (14, 5.31506538391113281250e-01) (15, 4.00193452835083007812e-01) (16, 2.67821878194808959961e-01) (17, 3.04386049509048461914e-01) (18, 3.90516728162765502930e-01) (19, 3.74030500650405883789e-01) (20, 4.18979287147521972656e-01) (21, 3.19979101419448852539e-01) (22, 3.44855159521102905273e-01) (23, 4.11208301782608032227e-01) (24, 3.51011663675308227539e-01) (25, 4.12360548973083496094e-01) (26, 2.47715756297111511230e-01) (27, 3.59327346086502075195e-01) (28, 2.51593023538589477539e-01) (29, 3.87080520391464233398e-01) (30, 4.02439892292022705078e-01) (31, 3.65238368511199951172e-01) (32, 3.40444207191467285156e-01) (33, 4.18064385652542114258e-01) (34, 2.90017962455749511719e-01) (35, 3.22952866554260253906e-01) (36, 3.34473311901092529297e-01) (37, 3.92257481813430786133e-01) (38, 2.70131796598434448242e-01) (39, 3.71504902839660644531e-01) (40, 2.59512990713119506836e-01) (41, 3.68470966815948486328e-01) (42, 3.83406192064285278320e-01) (43, 2.42489799857139587402e-01) (44, 3.55935335159301757812e-01) (45, 2.97316104173660278320e-01) (46, 3.18513840436935424805e-01) (47, 4.06646341085433959961e-01) (48, 3.93760651350021362305e-01) (49, 2.91458666324615478516e-01) (50, 3.37823748588562011719e-01) (51, 4.42320972681045532227e-01) (52, 3.91024410724639892578e-01) (53, 2.79619306325912475586e-01) (54, 3.57032358646392822266e-01) (55, 3.03764104843139648438e-01) (56, 2.24056974053382873535e-01) (57, 3.70053380727767944336e-01) (58, 3.93270194530487060547e-01) (59, 2.89556026458740234375e-01) (60, 3.29554110765457153320e-01) (61, 3.36272060871124267578e-01) (62, 4.07325088977813720703e-01) (63, 2.50537157058715820312e-01) (64, 3.25468480587005615234e-01) (65, 3.06780189275741577148e-01) (66, 3.55759143829345703125e-01) (67, 2.73114770650863647461e-01) (68, 2.67740279436111450195e-01) (69, 3.77893984317779541016e-01) (70, 3.73268187046051025391e-01) (71, 2.81779289245605468750e-01) (72, 2.64231950044631958008e-01) (73, 3.33907186985015869141e-01) (74, 2.85071343183517456055e-01) (75, 4.31315481662750244141e-01) (76, 4.26420271396636962891e-01) (77, 3.98596405982971191406e-01) (78, 3.43179255723953247070e-01) (79, 3.94045531749725341797e-01) (80, 2.63845056295394897461e-01) (81, 2.93471306562423706055e-01) (82, 3.24554979801177978516e-01) (83, 2.30960249900817871094e-01) (84, 3.06891143321990966797e-01) (85, 2.51562654972076416016e-01) (86, 3.11069905757904052734e-01) (87, 3.34534525871276855469e-01) (88, 3.88521075248718261719e-01) (89, 2.60281294584274291992e-01) (90, 3.77206683158874511719e-01) (91, 2.71622955799102783203e-01) (92, 3.80371272563934326172e-01) (93, 3.67209255695343017578e-01) (94, 2.97992348670959472656e-01) (95, 2.86199271678924560547e-01) (96, 2.30365395545959472656e-01) (97, 4.16585922241210937500e-01) (98, 3.16726982593536376953e-01) (99, 2.69103556871414184570e-01) (100, 3.65079283714294433594e-01) (101, 2.76832759380340576172e-01) (102, 3.38786125183105468750e-01) (103, 4.12640273571014404297e-01) (104, 4.01314258575439453125e-01) (105, 4.09585237503051757812e-01) (106, 3.90023648738861083984e-01) (107, 3.88041794300079345703e-01) (108, 3.93079996109008789062e-01) (109, 3.36487472057342529297e-01) (110, 3.37611377239227294922e-01) (111, 2.43427544832229614258e-01) (112, 3.82569789886474609375e-01) (113, 2.41580545902252197266e-01) (114, 2.49765440821647644043e-01) (115, 2.67333865165710449219e-01) (116, 2.69918322563171386719e-01) (117, 3.38262557983398437500e-01) (118, 3.77410709857940673828e-01) (119, 2.37409561872482299805e-01) (120, 3.77043128013610839844e-01) (121, 3.35447311401367187500e-01) (122, 2.83969670534133911133e-01) (123, 3.33892881870269775391e-01) (124, 2.78690993785858154297e-01) (125, 3.59834909439086914062e-01) (126, 3.97965073585510253906e-01) (127, 2.86924123764038085938e-01) (128, 3.54293763637542724609e-01) (129, 2.93040066957473754883e-01) (130, 3.35436701774597167969e-01) (131, 3.00176531076431274414e-01) (132, 3.50676238536834716797e-01) (133, 2.50110685825347900391e-01) (134, 2.93620288372039794922e-01) (135, 3.30266654491424560547e-01) (136, 2.40473553538322448730e-01) (137, 2.59505331516265869141e-01) (138, 2.98233628273010253906e-01) (139, 4.13259565830230712891e-01) (140, 3.76321196556091308594e-01) (141, 4.15253996849060058594e-01) (142, 2.32721701264381408691e-01) (143, 3.39694440364837646484e-01) (144, 2.35151633620262145996e-01) (145, 2.62839674949645996094e-01) (146, 3.81567418575286865234e-01) (0, 2.97217220067977905273e-01) (1, -8.29847082495689392090e-02) (2, -1.12137690186500549316e-01) (3, -8.04694443941116333008e-02) (4, 3.58850091695785522461e-01) (5, -1.42081677913665771484e-01) (6, -4.62401807308197021484e-02) (7, -1.89454659819602966309e-01) (8, 2.74900138378143310547e-01) (9, -9.06026884913444519043e-02) (10, -2.18915805220603942871e-01) (11, -4.95325624942779541016e-02) (12, -2.00735434889793395996e-01) (13, -1.11708067357540130615e-01) (14, -7.98200592398643493652e-02) (15, -9.11637768149375915527e-02) (16, -1.91673949360847473145e-01) (17, -1.31485462188720703125e-01) (18, -3.85019183158874511719e-02) (19, 3.82662326097488403320e-01) (20, -8.41109901666641235352e-02) (21, -1.99239805340766906738e-01) (22, 2.22667559981346130371e-01) (23, -9.45602208375930786133e-02) (24, -3.66472750902175903320e-02) (25, -2.09630668163299560547e-01) (26, -8.32019820809364318848e-02) (27, -8.71349796652793884277e-02) (28, -1.82151809334754943848e-01) (29, -2.13987641036510467529e-02) (30, -1.52628555893898010254e-01) (31, -1.22364744544029235840e-01) (32, -1.06117755174636840820e-01) (33, -5.39640225470066070557e-02) (34, 3.84358346462249755859e-01) (35, -1.06974422931671142578e-01) (36, -2.31606364250183105469e-01) (37, -1.17021463811397552490e-01) (38, -1.08735963702201843262e-01) (39, -5.39512448012828826904e-02) (40, 2.29504778981208801270e-01) (41, 3.80939185619354248047e-01) (42, -1.63402199745178222656e-01) (43, -1.89863502979278564453e-01) (44, -1.20934089645743370056e-02) (45, -8.14700052142143249512e-02) (46, 3.29128921031951904297e-01) (47, -1.97255238890647888184e-01) (48, -1.59510254859924316406e-01) (49, -1.23643033206462860107e-01) (50, -6.34355172514915466309e-02) (51, 4.56944946199655532837e-03) (52, -9.33274254202842712402e-02) (53, -3.02554517984390258789e-02) (54, -9.93388220667839050293e-02) (55, -1.22460268437862396240e-01) (56, -6.66061565279960632324e-02) (57, -1.82411178946495056152e-01) (58, -3.47477458417415618896e-02) (59, -1.96862891316413879395e-01) (60, -1.67751163244247436523e-01) (61, -1.76169306039810180664e-01) (62, -1.19147293269634246826e-01) (63, -5.56371659040451049805e-02) (64, -1.97410762310028076172e-01) (65, -1.40622735023498535156e-01) (66, -1.65803849697113037109e-01) (67, -1.85570076107978820801e-01) (68, -3.19284200668334960938e-02) (69, -8.57702940702438354492e-02) (70, -9.21007543802261352539e-02) (71, -3.53328473865985870361e-02) (72, -1.82065442204475402832e-01) (73, -2.68905777484178543091e-02) (74, -2.21688151359558105469e-01) (75, -1.40384867787361145020e-01) (76, -8.92927870154380798340e-02) (77, -9.23144370317459106445e-02) (78, -1.84509545564651489258e-01) (79, -2.40246336907148361206e-02) (80, -2.09539905190467834473e-01) (81, -1.81233525276184082031e-01) (82, -5.33463992178440093994e-02) (83, -8.28084275126457214355e-02) (84, -3.02304271608591079712e-02) (85, -1.47220030426979064941e-01) (86, -1.91699326038360595703e-01) (87, -4.62550856173038482666e-02) (88, -9.72645208239555358887e-02) (89, -2.09589526057243347168e-01) (90, -3.73309962451457977295e-02) (91, -7.04513788223266601562e-02) (92, -1.68065458536148071289e-01) (93, -1.37831017374992370605e-01) (94, -9.71948057413101196289e-02) (95, -1.52914077043533325195e-01) (96, -6.44894316792488098145e-02) (97, -6.31526634097099304199e-02) (98, -1.30222767591476440430e-01) (99, -7.91634693741798400879e-02) (100, -1.28194659948348999023e-01) (101, -2.02331587672233581543e-01) (102, -8.84948298335075378418e-02) (103, -8.65045562386512756348e-02) (104, -2.12344303727149963379e-01) (105, -8.44833329319953918457e-02) (106, -4.09432388842105865479e-02) (107, -7.52653703093528747559e-02) (108, -1.53628930449485778809e-01) (109, -1.79132595658302307129e-01) (110, -9.07099395990371704102e-02) (111, -1.26167342066764831543e-01) (112, -1.56062111258506774902e-01) (113, -1.18376441299915313721e-01) (114, -1.86391100287437438965e-01) (115, -1.65280416607856750488e-01) (116, -3.97504083812236785889e-02) (117, -1.55618682503700256348e-01) (118, -1.85630008578300476074e-01) (119, -1.12738952040672302246e-01) (120, -1.39362111687660217285e-01) (121, -1.99371412396430969238e-01) (122, -1.59080758690834045410e-01) (123, -8.33855941891670227051e-02) (124, -1.09954066574573516846e-01) (125, -3.08281425386667251587e-02) (126, -2.10682258009910583496e-01) (127, -1.46733865141868591309e-01) (128, -6.64406642317771911621e-02) (129, -1.16512604057788848877e-01) (130, -2.00217470526695251465e-01) (131, -1.68666854500770568848e-01) (132, -9.31660905480384826660e-02) (133, -6.28086254000663757324e-02) (134, -2.43695583194494247437e-02) (135, -7.79723003506660461426e-02) (136, -1.21612064540386199951e-01) (137, -4.81694675981998443604e-02) (138, -1.27619341015815734863e-01) (139, -4.79909814894199371338e-02) (140, -1.97695747017860412598e-01) (141, -1.94220557808876037598e-01) (142, -1.51453539729118347168e-01) (143, -1.29483953118324279785e-01) (144, -8.83228257298469543457e-02) (145, -1.11880190670490264893e-01) (146, -6.72278031706809997559e-02) (0, 5.55661380290985107422e-01) (1, 5.32523036003112792969e-01) (2, 4.82626855373382568359e-01) (3, 4.18984949588775634766e-01) (4, 5.16506731510162353516e-01) (5, 3.50140333175659179688e-01) (6, 6.32986984252929687500e+01) (7, 1.16174497604370117188e+01) (8, 7.74449348449707031250e-01) (9, 2.51693099737167358398e-01) (10, 4.40786719322204589844e-01) (11, 4.28681522607803344727e-01) (12, 5.66533446311950683594e-01) (13, 3.28296804428100585938e+00) (14, -1.63527214527130126953e+00) (15, -8.34578227996826171875e+00) (16, 5.08504629135131835938e-01) (17, 5.04912436008453369141e-01) (18, 5.07704019546508789062e-01) (19, 4.61477786302566528320e-01) (20, 9.61693477630615234375e+00) (21, 1.38070850372314453125e+01) (22, 5.78829824924468994141e-01) (23, 2.00370624661445617676e-01) (24, 5.12593090534210205078e-01) (25, 1.00400960445404052734e+00) (26, -6.91168689727783203125e+00) (27, 4.79404830932617187500e+00) (28, 5.26505112648010253906e-01) (29, 6.13018691539764404297e-01) (30, 4.67163443565368652344e-01) (31, 4.63710427284240722656e-01) (32, 7.95287609100341796875e-01) (33, 5.91218531131744384766e-01) (34, 4.44192469120025634766e-01) (35, 5.79491019248962402344e-01) (36, 7.14332520961761474609e-01) (37, 6.69539928436279296875e-01) (38, 5.88056981563568115234e-01) (39, 4.20631110668182373047e-01) (40, 5.05497097969055175781e-01) (41, -1.39353364706039428711e-01) (42, 7.02136158943176269531e-01) (43, 5.49006805419921875000e+01) (44, 9.89172363281250000000e+00) (45, 1.16046257019042968750e+01) (46, 5.11982917785644531250e-01) (47, 1.37364998459815979004e-01) (48, 4.38635617494583129883e-01) (49, 1.02697408199310302734e+00) (50, -7.02061510086059570312e+00) (51, 4.94322013854980468750e+00) (52, 5.16400098800659179688e-01) (53, 7.16940522193908691406e-01) (54, 3.55176627635955810547e-01) (55, 4.64443802833557128906e-01) (56, 8.73457670211791992188e-01) (57, 4.54104602336883544922e-01) (58, 4.97637242078781127930e-01) (59, 5.07074236869812011719e-01) (60, 5.80067694187164306641e-01) (61, 4.81530576944351196289e-01) (62, 4.13806021213531494141e-01) (63, 3.72079461812973022461e-01) (64, 4.94860261678695678711e-01) (65, 5.97302734851837158203e-01) (66, 5.80384850502014160156e-01) (67, 4.93048906326293945312e-01) (68, 4.27338570356369018555e-01) (69, -1.45088872909545898438e+01) (70, 4.77179050445556640625e-01) (71, 6.24768912792205810547e-01) (72, 6.03504121303558349609e-01) (73, 4.73844915628433227539e-01) (74, 5.70272147655487060547e-01) (75, 2.95071780681610107422e-01) (76, 5.23751139640808105469e-01) (77, 6.20090842247009277344e-01) (78, 6.33751213550567626953e-01) (79, 5.63712358474731445312e-01) (80, 6.18311285972595214844e-01) (81, 4.36795979738235473633e-01) (82, 5.64527571201324462891e-01) (83, 5.10048925876617431641e-01) (84, 4.49653297662734985352e-01) (85, 4.52165693044662475586e-01) (86, 5.31521022319793701172e-01) (87, 6.09868049621582031250e-01) (88, 5.08755862712860107422e-01) (89, 5.96907138824462890625e-01) (90, 4.57948714494705200195e-01) (91, 4.57654237747192382812e-01) (92, 4.47560966014862060547e-01) (93, 5.53109347820281982422e-01) (94, 4.84631657600402832031e-01) (95, 4.94485974311828613281e-01) (96, 4.99590396881103515625e-01) (97, 4.51802998781204223633e-01) (98, 5.79351842403411865234e-01) (99, 6.13300025463104248047e-01) (100, 6.13202631473541259766e-01) (101, 6.10373616218566894531e-01) (102, 6.08769178390502929688e-01) (103, 5.83281278610229492188e-01) (104, 4.50720727443695068359e-01) (105, 5.43135106563568115234e-01) (106, 5.05551099777221679688e-01) (107, 5.31436502933502197266e-01) (108, 5.36063015460968017578e-01) (109, 4.54736411571502685547e-01) (110, 4.84808564186096191406e-01) (111, 5.10916948318481445312e-01) (112, 4.77205127477645874023e-01) (113, 6.09434664249420166016e-01) (114, 5.79292893409729003906e-01) (115, 5.00117897987365722656e-01) (116, 6.11252903938293457031e-01) (117, 4.75850403308868408203e-01) (118, 4.68599468469619750977e-01) (119, 4.86018985509872436523e-01) (120, 4.32400494813919067383e-01) (121, 5.00454187393188476562e-01) (122, 4.95280265808105468750e-01) (123, 4.44725811481475830078e-01) (124, 6.14767193794250488281e-01) (125, 5.46618521213531494141e-01) (126, 5.09954810142517089844e-01) (127, 4.74330276250839233398e-01) (128, 5.73757827281951904297e-01) (129, 4.30954217910766601562e-01) (130, 4.72261399030685424805e-01) (131, 5.53156614303588867188e-01) (132, 6.19492828845977783203e-01) (133, 4.39124047756195068359e-01) (134, 5.00553667545318603516e-01) (135, 4.35026973485946655273e-01) (136, 5.46333611011505126953e-01) (137, 5.65114676952362060547e-01) (138, 5.33868074417114257812e-01) (139, 4.45484966039657592773e-01) (140, 5.82050681114196777344e-01) (141, 5.69404542446136474609e-01) (142, 5.31149566173553466797e-01) (143, 4.27639484405517578125e-01) (144, 5.45420289039611816406e-01) (145, 4.67144221067428588867e-01) (146, 5.06963670253753662109e-01) (0, -1.07272773981094360352e-01) (1, -1.63102507591247558594e-01) (2, -1.21674485504627227783e-01) (3, -3.22021692991256713867e-02) (4, -1.22548624873161315918e-01) (5, -2.26441342383623123169e-02) (6, -1.52645990252494812012e-01) (7, -1.28615513443946838379e-01) (8, -1.08029678463935852051e-01) (9, -2.51353587955236434937e-02) (10, -7.12024644017219543457e-02) (11, -2.04451680183410644531e-01) (12, -1.32506310939788818359e-01) (13, -3.05037796497344970703e-02) (14, -1.22652933001518249512e-01) (15, -1.72726973891258239746e-01) (16, -5.08070513606071472168e-02) (17, -1.97475552558898925781e-01) (18, -1.30009874701499938965e-01) (19, -2.72744130343198776245e-02) (20, -5.46842776238918304443e-02) (21, -2.06101208925247192383e-01) (22, -1.66744023561477661133e-01) (23, -4.30960617959499359131e-02) (24, -3.95154990255832672119e-02) (25, -2.02581480145454406738e-01) (26, -1.43276378512382507324e-01) (27, -1.03511223569512367249e-02) (28, -7.25777894258499145508e-02) (29, -9.42988768219947814941e-02) (30, -1.78213536739349365234e-01) (31, -1.71863406896591186523e-01) (32, -6.20260648429393768311e-02) (33, -8.84884968400001525879e-02) (34, -2.30310961604118347168e-01) (35, -1.00698538124561309814e-01) (36, -1.28751099109649658203e-01) (37, -1.91108658909797668457e-01) (38, -4.21193726360797882080e-02) (39, -1.22608162462711334229e-01) (40, -2.21005324274301528931e-02) (41, -3.39417755603790283203e-02) (42, -1.49249017238616943359e-01) (43, -1.28260314464569091797e-01) (44, -9.00543928146362304688e-02) (45, -1.16320945322513580322e-01) (46, -1.57369017601013183594e-01) (47, -1.24234981834888458252e-01) (48, -6.94575384259223937988e-02) (49, -5.86964301764965057373e-02) (50, -1.47370144724845886230e-01) (51, -8.71308222413063049316e-02) (52, -3.32210026681423187256e-02) (53, -6.72883912920951843262e-02) (54, -1.49350553750991821289e-01) (55, -6.51263520121574401855e-02) (56, -1.00994370877742767334e-01) (57, -9.71224680542945861816e-02) (58, -9.68302413821220397949e-02) (59, -1.24568514525890350342e-01) (60, -1.60314992070198059082e-01) (61, -5.56094385683536529541e-02) (62, -9.48270708322525024414e-02) (63, -2.03682884573936462402e-01) (64, -1.17397516965866088867e-01) (65, -8.26572179794311523438e-02) (66, -1.11772678792476654053e-01) (67, -1.97406664490699768066e-01) (68, -5.77631890773773193359e-02) (69, -1.52234166860580444336e-01) (70, -1.48614719510078430176e-01) (71, -8.00992846488952636719e-02) (72, -2.14312985539436340332e-01) (73, -7.58087709546089172363e-02) (74, -2.11386382579803466797e-01) (75, -5.53789548575878143311e-02) (76, -1.78139284253120422363e-01) (77, -1.29544228315353393555e-01) (78, -2.19104066491127014160e-01) (79, -2.59784236550331115723e-02) (80, -1.73959299921989440918e-01) (81, -1.18639841675758361816e-01) (82, -1.39520108699798583984e-01) (83, -1.89766407012939453125e-01) (84, -2.16587245464324951172e-01) (85, -7.13743567466735839844e-02) (86, -4.08571846783161163330e-02) (87, -6.62278980016708374023e-02) (88, -1.39251172542572021484e-01) (89, -1.16270720958709716797e-01) (90, -1.77635669708251953125e-01) (91, -1.02107226848602294922e-01) (92, -1.52398109436035156250e-01) (93, -4.57647927105426788330e-02) (94, -7.45223090052604675293e-02) (95, -4.77736182510852813721e-02) (96, -1.10275618731975555420e-01) (97, -1.75484597682952880859e-01) (98, -3.12046259641647338867e-02) (99, -1.43578886985778808594e-01) (100, -1.05199009180068969727e-01) (101, -1.50489687919616699219e-01) (102, -1.94127142429351806641e-01) (103, -9.29376408457756042480e-02) (104, -2.02976644039154052734e-01) (105, -1.77342414855957031250e-01) (106, -1.60560309886932373047e-01) (107, -1.51566684246063232422e-01) (108, -7.79203176498413085938e-02) (109, -1.40073299407958984375e-01) (110, -1.59883439540863037109e-01) (111, -2.16281890869140625000e-01) (112, -5.85981495678424835205e-02) (113, -6.93063810467720031738e-02) (114, -1.77059113979339599609e-01) (115, -4.39768619835376739502e-02) (116, -1.09470449388027191162e-01) (117, -1.86705946922302246094e-01) (118, -8.12136828899383544922e-02) (119, -2.19730675220489501953e-01) (120, -7.39874243736267089844e-02) (121, -2.28748738765716552734e-01) (122, -9.06293019652366638184e-02) (123, -1.96284919977188110352e-01) (124, -4.33049388229846954346e-02) (125, -1.36158943176269531250e-01) (126, -2.12848186492919921875e-01) (127, -1.24589540064334869385e-01) (128, -8.15463885664939880371e-02) (129, -2.15061545372009277344e-01) (130, -3.80695983767509460449e-02) (131, -1.56643092632293701172e-01) (132, -1.36561989784240722656e-01) (133, -2.03205704689025878906e-01) (134, -2.20589756965637207031e-01) (135, -1.09441451728343963623e-01) (136, -1.50449216365814208984e-01) (137, -1.54424920678138732910e-01) (138, -3.20191197097301483154e-02) (139, -1.98268890380859375000e-01) (140, -6.21370226144790649414e-02) (141, -1.62272110581398010254e-01) (142, -1.85561567544937133789e-01) (143, -9.17440652847290039062e-02) (144, -2.02117085456848144531e-01) (145, -1.31882637739181518555e-01) (146, -1.06729894876480102539e-01) (0, -6.38070678710937500000e+01) (1, 1.95216903686523437500e+01) (2, 9.70715522766113281250e-01) (3, -1.32611942291259765625e+00) (4, 1.22580647468566894531e-01) (5, 7.62708902359008789062e-01) (6, -1.22371065616607666016e+00) (7, 1.00885246276855468750e+02) (8, -1.12828617095947265625e+01) (9, 9.15318679809570312500e+00) (10, 1.93097889423370361328e+00) (11, -3.12243251800537109375e+01) (12, -2.11748733520507812500e+01) (13, -1.78833492100238800049e-02) (14, -8.14127883911132812500e+01) (15, 1.56427200317382812500e+02) (16, -1.14357030391693115234e+00) (17, 2.07011461257934570312e-01) (18, 7.21998739242553710938e+00) (19, 8.30866575241088867188e-01) (20, -3.55745941400527954102e-01) (21, 1.22881288528442382812e+01) (22, -2.11718887090682983398e-01) (23, 2.68299609422683715820e-01) (24, -2.04113597869873046875e+01) (25, -1.20367517471313476562e+01) (26, -9.66290850192308425903e-03) (27, -1.69436702728271484375e+01) (28, 3.62812466919422149658e-02) (29, 1.46802384406328201294e-02) (30, 9.96805131435394287109e-02) (31, 3.00954133272171020508e-01) (32, -3.52690162658691406250e+01) (33, 4.30710182189941406250e+01) (34, 1.48528814315795898438e-01) (35, -9.00340423583984375000e+01) (36, -1.87466330826282501221e-02) (37, -1.77377044677734375000e+02) (38, 2.38976440429687500000e+01) (39, 1.34978322982788085938e+01) (40, 5.37308216094970703125e+00) (41, 2.95394659042358398438e+00) (42, -1.94220530986785888672e+00) (43, -1.60260848999023437500e+02) (44, -3.55568618774414062500e+01) (45, 2.62791748046875000000e+01) (46, -3.80523025989532470703e-01) (47, 3.34104388952255249023e-01) (48, -2.04457607269287109375e+01) (49, -1.20554895401000976562e+01) (50, -1.65622998028993606567e-02) (51, -1.70574855804443359375e+01) (52, 8.36426764726638793945e-02) (53, 7.90089890360832214355e-02) (54, 1.52153879404067993164e-01) (55, 4.61748182773590087891e-01) (56, -3.53085556030273437500e+01) (57, 4.29854316711425781250e+01) (58, 1.53817936778068542480e-01) (59, 2.30453312397003173828e-01) (60, 1.39903455972671508789e-01) (61, 2.29699969291687011719e-01) (62, -9.13882104214280843735e-04) (63, 1.19716949462890625000e+01) (64, 9.71377342939376831055e-02) (65, 2.18582928180694580078e-01) (66, 2.20352217555046081543e-01) (67, 2.59010016918182373047e-01) (68, 5.71526177227497100830e-02) (69, -5.44422817230224609375e+00) (70, 6.88845440745353698730e-02) (71, 5.62967881560325622559e-02) (72, 1.82441130280494689941e-01) (73, 1.64441184997558593750e+01) (74, -4.15841178894042968750e+01) (75, 5.92012584209442138672e-01) (76, 6.95175006985664367676e-02) (77, 9.23531576991081237793e-02) (78, 1.28208994865417480469e-01) (79, 1.61323904991149902344e-01) (80, -4.62712144851684570312e+00) (81, 3.90891432762145996094e-01) (82, 1.10864609479904174805e-01) (83, 1.14709613844752311707e-02) (84, -1.66755547979846596718e-04) (85, 1.06709986925125122070e-01) (86, 1.74659565091133117676e-01) (87, 1.31121620535850524902e-01) (88, 1.20683414861559867859e-02) (89, 1.61087930202484130859e-01) (90, 1.15504212677478790283e-01) (91, 1.43171757459640502930e-01) (92, 4.68344315886497497559e-02) (93, 1.32377550005912780762e-01) (94, 5.25570958852767944336e-02) (95, 1.36911585927009582520e-01) (96, 1.06292776763439178467e-01) (97, 4.61491048336029052734e-02) (98, 8.06799381971359252930e-02) (99, 1.48940905928611755371e-01) (100, 2.11751405149698257446e-02) (101, 1.78603008389472961426e-01) (102, 4.97708208858966827393e-02) (103, 1.34481593966484069824e-01) (104, 1.56856521964073181152e-01) (105, 1.37140646576881408691e-01) (106, 1.66105628013610839844e-01) (107, 1.75391018390655517578e-01) (108, 2.37630121409893035889e-02) (109, 1.52824878692626953125e-01) (110, 2.21927594393491744995e-02) (111, 1.41781046986579895020e-01) (112, 5.87546527385711669922e-02) (113, 1.66492402553558349609e-01) (114, 1.27096146345138549805e-01) (115, 5.42096160352230072021e-02) (116, 7.08000659942626953125e-02) (117, 1.31663993000984191895e-01) (118, -1.61594357341527938843e-02) (119, 9.58805009722709655762e-02) (120, 9.17184874415397644043e-02) (121, 1.30437299609184265137e-01) (122, 4.47079315781593322754e-02) (123, 1.36985942721366882324e-01) (124, 5.97875677049160003662e-02) (125, 1.26810267567634582520e-01) (126, 8.04620906710624694824e-02) (127, 1.77406549453735351562e-01) (128, 1.75585418939590454102e-01) (129, -6.34258706122636795044e-03) (130, 1.16708375513553619385e-01) (131, 5.22051425650715827942e-03) (132, 1.75132930278778076172e-01) (133, -1.88418664038181304932e-02) (134, 1.69362947344779968262e-01) (135, 1.34725391864776611328e-01) (136, 1.35475769639015197754e-01) (137, 1.41022503376007080078e-01) (138, 1.29842549562454223633e-01) (139, 1.62675619125366210938e-01) (140, 9.72528383135795593262e-02) (141, 1.73810422420501708984e-01) (142, 9.74030494689941406250e-02) (143, 1.70594111084938049316e-01) (144, 1.40279591083526611328e-01) (145, 5.53214661777019500732e-02) (146, 2.48179938644170761108e-02) (0, -1.87790647149085998535e-01) (1, -2.29077786207199096680e-01) (2, 2.81261175870895385742e-01) (3, -7.42956399917602539062e-02) (4, -8.82509425282478332520e-02) (5, -5.50533365458250045776e-03) (6, 2.68307209014892578125e-01) (7, 2.86289513111114501953e-01) (8, -2.03568458557128906250e-01) (9, -1.67513228952884674072e-02) (10, -5.48074394464492797852e-02) (11, -1.57570093870162963867e-01) (12, -9.81631353497505187988e-02) (13, -3.09947561472654342651e-02) (14, 4.47217732667922973633e-01) (15, 4.94817942380905151367e-01) (16, -4.61394153535366058350e-02) (17, -3.88181544840335845947e-02) (18, 3.62243860960006713867e-01) (19, -6.99858069419860839844e-02) (20, -7.55807235836982727051e-02) (21, 3.18843275308609008789e-01) (22, -1.65533557534217834473e-01) (23, -9.54609513282775878906e-02) (24, -1.54105285182595252991e-02) (25, -1.62538155913352966309e-01) (26, 2.56287813186645507812e-01) (27, 4.34922009706497192383e-01) (28, 2.52466499805450439453e-01) (29, 3.32398027181625366211e-01) (30, -2.57842838764190673828e-02) (31, -1.68192625045776367188e-01) (32, -1.57000750303268432617e-01) (33, -1.92310050129890441895e-01) (34, -6.48725107312202453613e-02) (35, -2.27119103074073791504e-01) (36, -2.23681315779685974121e-01) (37, 4.19736504554748535156e-01) (38, 3.31282973289489746094e-01) (39, -1.67095154523849487305e-01) (40, -9.30036082863807678223e-02) (41, -1.13184034824371337891e-01) (42, -1.18971265852451324463e-01) (43, 2.94466257095336914062e-01) (44, 2.65953391790390014648e-01) (45, 2.96379506587982177734e-01) (46, -4.59839366376399993896e-02) (47, -1.74451872706413269043e-01) (48, -1.50852710008621215820e-01) (49, -1.00585050880908966064e-01) (50, 3.94062042236328125000e-01) (51, 4.54071789979934692383e-01) (52, 4.35916692018508911133e-01) (53, 2.76337265968322753906e-01) (54, -1.41949951648712158203e-01) (55, -3.78046967089176177979e-02) (56, -1.69564053416252136230e-01) (57, -1.31540969014167785645e-01) (58, -9.14099663496017456055e-02) (59, -1.33116617798805236816e-01) (60, -1.60293709486722946167e-02) (61, -8.78219977021217346191e-02) (62, -9.36333984136581420898e-02) (63, -1.45559072494506835938e-01) (64, -6.56645074486732482910e-02) (65, -1.07580006122589111328e-01) (66, -1.26135036349296569824e-01) (67, -4.72408905625343322754e-02) (68, -1.32224574685096740723e-01) (69, -3.49859409034252166748e-02) (70, -2.22242593765258789062e-01) (71, -2.14583382010459899902e-01) (72, -1.76934659481048583984e-01) (73, -1.43667265772819519043e-01) (74, -1.58249422907829284668e-01) (75, -9.91702303290367126465e-02) (76, -7.10084587335586547852e-02) (77, -1.76896288990974426270e-01) (78, -1.25008091330528259277e-01) (79, -2.12218299508094787598e-01) (80, -5.11204600334167480469e-02) (81, -1.22385434806346893311e-01) (82, -3.51109430193901062012e-02) (83, -5.04500828683376312256e-02) (84, -1.14772029221057891846e-01) (85, -1.58904537558555603027e-01) (86, -7.70833119750022888184e-02) (87, -2.96324342489242553711e-02) (88, -6.53756186366081237793e-02) (89, -1.48962005972862243652e-01) (90, -1.36187270283699035645e-01) (91, -8.60178694128990173340e-02) (92, -2.84723956137895584106e-02) (93, -1.98998555541038513184e-01) (94, -2.08955451846122741699e-01) (95, -7.52192661166191101074e-02) (96, -8.04892107844352722168e-02) (97, -1.18250265717506408691e-01) (98, -1.22611418366432189941e-01) (99, -1.87302574515342712402e-01) (100, -1.38967320322990417480e-01) (101, -1.10642999410629272461e-01) (102, -1.61382243037223815918e-01) (103, -9.31382104754447937012e-02) (104, -2.05617472529411315918e-01) (105, -9.70468446612358093262e-02) (106, -1.97998329997062683105e-01) (107, -4.19446751475334167480e-02) (108, -3.84937748312950134277e-02) (109, -7.87844881415367126465e-02) (110, -3.13351675868034362793e-02) (111, -6.26126602292060852051e-02) (112, -2.04465910792350769043e-01) (113, -4.75908443331718444824e-02) (114, -9.49755236506462097168e-02) (115, -9.96165648102760314941e-02) (116, -1.87640234827995300293e-01) (117, -1.53201982378959655762e-01) (118, -1.11161768436431884766e-01) (119, -3.41625139117240905762e-02) (120, -8.33123549818992614746e-02) (121, -2.84957606345415115356e-02) (122, -1.01325176656246185303e-01) (123, -9.29295346140861511230e-02) (124, -2.08639129996299743652e-01) (125, -9.14272293448448181152e-02) (126, -1.49291977286338806152e-01) (127, -7.02749416232109069824e-02) (128, -1.90820619463920593262e-01) (129, -4.59580942988395690918e-02) (130, -4.10066023468971252441e-02) (131, -1.18258602917194366455e-01) (132, -1.30652233958244323730e-01) (133, -1.81251272559165954590e-01) (134, -1.85217604041099548340e-01) (135, -1.17418073117733001709e-01) (136, -5.23528344929218292236e-02) (137, -1.64362534880638122559e-01) (138, -1.40505805611610412598e-01) (139, -7.19913467764854431152e-02) (140, -2.42938082665205001831e-02) (141, -1.52985736727714538574e-01) (142, -1.15748889744281768799e-01) (143, -2.09904417395591735840e-01) (144, -1.81721374392509460449e-01) (145, -1.91867515444755554199e-01) (146, -9.14356037974357604980e-02) (0, 5.21236479282379150391e-01) (1, 7.14683413505554199219e-01) (2, 5.31698048114776611328e-01) (3, 3.52958440780639648438e-01) (4, 5.81075668334960937500e+00) (5, -4.78099286556243896484e-01) (6, 5.77150344848632812500e-01) (7, 6.18075311183929443359e-01) (8, 5.27106821537017822266e-01) (9, 1.85440629720687866211e-01) (10, 4.69838827848434448242e-01) (11, 6.01134657859802246094e-01) (12, 6.89033508300781250000e-01) (13, 6.14735186100006103516e-01) (14, 4.59277957677841186523e-01) (15, 4.51245427131652832031e-01) (16, 5.27453541755676269531e-01) (17, 5.38574457168579101562e-01) (18, 4.84940111637115478516e-01) (19, 2.10047554969787597656e+00) (20, 3.75061392784118652344e+00) (21, 5.71887373924255371094e-01) (22, 5.16136705875396728516e-01) (23, 5.60648441314697265625e-01) (24, 5.29989540576934814453e-01) (25, 6.59512042999267578125e-01) (26, 2.93240457773208618164e-01) (27, 5.62719523906707763672e-01) (28, 2.04284906387329101562e+00) (29, 5.02159595489501953125e-01) (30, 5.00434219837188720703e-01) (31, 4.71374988555908203125e-01) (32, 3.22855383157730102539e-01) (33, 5.31195700168609619141e-01) (34, 9.76071238517761230469e-01) (35, -2.44594049453735351562e+00) (36, 7.48386859893798828125e-01) (37, 5.61533808708190917969e-01) (38, 6.41449332237243652344e-01) (39, -5.95409660339355468750e+01) (40, 2.49471497535705566406e+00) (41, 2.70253992080688476562e+00) (42, 1.93490238189697265625e+01) (43, 5.53909540176391601562e-01) (44, 5.61535596847534179688e-01) (45, 5.55308222770690917969e-01) (46, 5.69059848785400390625e-01) (47, 4.70654428005218505859e-01) (48, 5.34570276737213134766e-01) (49, 7.14149534702301025391e-01) (50, 2.86348134279251098633e-01) (51, 5.41037559509277343750e-01) (52, 1.98241055011749267578e+00) (53, 5.32834887504577636719e-01) (54, 4.80882644653320312500e-01) (55, 4.59244728088378906250e-01) (56, 1.91309109330177307129e-01) (57, 5.09187221527099609375e-01) (58, 5.78518629074096679688e-01) (59, 6.10057890415191650391e-01) (60, 5.26713073253631591797e-01) (61, 4.52777981758117675781e-01) (62, 4.29698109626770019531e-01) (63, 5.32722711563110351562e-01) (64, 5.34982681274414062500e-01) (65, 5.35828173160552978516e-01) (66, 4.61036175489425659180e-01) (67, 4.19489681720733642578e-01) (68, 6.02239966392517089844e-01) (69, 6.26362621784210205078e-01) (70, 5.99333226680755615234e-01) (71, 5.77528536319732666016e-01) (72, 6.14503741264343261719e-01) (73, 5.03634333610534667969e-01) (74, 5.33262372016906738281e-01) (75, 4.89677935838699340820e-01) (76, 6.14914596080780029297e-01) (77, 5.64701735973358154297e-01) (78, 6.13259673118591308594e-01) (79, 5.18940806388854980469e-01) (80, 5.73865354061126708984e-01) (81, 6.06848299503326416016e-01) (82, 4.66458827257156372070e-01) (83, 4.68115925788879394531e-01) (84, 5.09869873523712158203e-01) (85, 5.00439226627349853516e-01) (86, 4.90164071321487426758e-01) (87, 5.27289330959320068359e-01) (88, 5.65383017063140869141e-01) (89, 6.45314276218414306641e-01) (90, 5.18481194972991943359e-01) (91, 4.91770476102828979492e-01) (92, 6.48186862468719482422e-01) (93, 5.45439481735229492188e-01) (94, 5.62566161155700683594e-01) (95, 5.32341599464416503906e-01) (96, 4.57976847887039184570e-01) (97, 6.35308742523193359375e-01) (98, 5.31517207622528076172e-01) (99, 6.20193243026733398438e-01) (100, 6.28241240978240966797e-01) (101, 4.85620945692062377930e-01) (102, 5.48968851566314697266e-01) (103, 5.71994125843048095703e-01) (104, 5.89983880519866943359e-01) (105, 5.80811142921447753906e-01) (106, 4.73710894584655761719e-01) (107, 5.74838757514953613281e-01) (108, 5.12719154357910156250e-01) (109, 6.23959660530090332031e-01) (110, 4.76760059595108032227e-01) (111, 6.19086444377899169922e-01) (112, 6.02785050868988037109e-01) (113, 5.06331503391265869141e-01) (114, 6.44102454185485839844e-01) (115, 4.52888727188110351562e-01) (116, 5.51157414913177490234e-01) (117, 4.91386264562606811523e-01) (118, 5.30077338218688964844e-01) (119, 4.65744525194168090820e-01) (120, 4.82782542705535888672e-01) (121, 6.04366004467010498047e-01) (122, 5.12033402919769287109e-01) (123, 4.85895872116088867188e-01) (124, 5.04945456981658935547e-01) (125, 6.34134948253631591797e-01) (126, 5.65895080566406250000e-01) (127, 5.03735601902008056641e-01) (128, 6.12994909286499023438e-01) (129, 4.74878102540969848633e-01) (130, 4.82004225254058837891e-01) (131, 5.75127422809600830078e-01) (132, 5.15422940254211425781e-01) (133, 5.93674838542938232422e-01) (134, 4.97546881437301635742e-01) (135, 6.46783709526062011719e-01) (136, 5.29899835586547851562e-01) (137, 5.38602232933044433594e-01) (138, 5.68873643875122070312e-01) (139, 5.84559023380279541016e-01) (140, 5.20182251930236816406e-01) (141, 6.10718309879302978516e-01) (142, 5.44749796390533447266e-01) (143, 4.53608691692352294922e-01) (144, 4.69048112630844116211e-01) (145, 5.51488935947418212891e-01) (146, 4.66950684785842895508e-01) (0, 3.67097675800323486328e-01) (1, 3.84466409683227539062e-01) (2, 3.18796098232269287109e-01) (3, 4.00655686855316162109e-01) (4, 4.22695785760879516602e-01) (5, 2.99900799989700317383e-01) (6, 2.55741417407989501953e-01) (7, 2.28739246726036071777e-01) (8, 3.18960338830947875977e-01) (9, 7.83035457134246826172e-01) (10, 3.85247260332107543945e-01) (11, 4.39927697181701660156e-01) (12, 3.82908582687377929688e-01) (13, 4.68177616596221923828e-01) (14, 2.90846490859985351562e+00) (15, -8.89618322253227233887e-02) (16, 2.65862673521041870117e-01) (17, 3.99319529533386230469e-01) (18, 3.91494691371917724609e-01) (19, 2.83684194087982177734e-01) (20, 2.88676202297210693359e-01) (21, 2.59905785322189331055e-01) (22, 3.70848685503005981445e-01) (23, 3.16434800624847412109e-01) (24, 3.54551196098327636719e-01) (25, 3.42995762825012207031e-01) (26, 5.23158371448516845703e-01) (27, 5.21229326725006103516e-01) (28, 3.68537932634353637695e-01) (29, 2.62844890356063842773e-01) (30, 4.25011247396469116211e-01) (31, 2.96769320964813232422e-01) (32, 3.57225209474563598633e-01) (33, 2.87239342927932739258e-01) (34, 1.34968906641006469727e-01) (35, 5.20017266273498535156e-01) (36, 3.66851687431335449219e-01) (37, 2.40523785352706909180e-01) (38, 3.82418692111968994141e-01) (39, 2.99014747142791748047e-01) (40, 2.71472096443176269531e-01) (41, 6.15314543247222900391e-01) (42, 4.71968173980712890625e-01) (43, 4.21478331089019775391e-01) (44, 3.09446662664413452148e-01) (45, 2.76295721530914306641e-01) (46, 2.98836618661880493164e-01) (47, 4.13027435541152954102e-01) (48, 3.01486968994140625000e-01) (49, 2.65162974596023559570e-01) (50, 5.43965518474578857422e-01) (51, 5.28553307056427001953e-01) (52, 3.17926198244094848633e-01) (53, 3.38083326816558837891e-01) (54, 4.20027941465377807617e-01) (55, 4.30867075920104980469e-01) (56, 2.08601027727127075195e-01) (57, 2.86420047283172607422e-01) (58, 3.56174618005752563477e-01) (59, 3.72830033302307128906e-01) (60, 3.14330756664276123047e-01) (61, 2.93079644441604614258e-01) (62, 2.41733223199844360352e-01) (63, 2.44817465543746948242e-01) (64, 3.29170376062393188477e-01) (65, 2.52944976091384887695e-01) (66, 3.98196488618850708008e-01) (67, 2.67293035984039306641e-01) (68, 2.79785126447677612305e-01) (69, 3.60601127147674560547e-01) (70, 2.96649694442749023438e-01) (71, 3.12089353799819946289e-01) (72, 2.39830568432807922363e-01) (73, 3.16496163606643676758e-01) (74, 2.84132331609725952148e-01) (75, 3.52724611759185791016e-01) (76, 3.76786917448043823242e-01) (77, 3.69257837533950805664e-01) (78, 4.05502259731292724609e-01) (79, 2.63849914073944091797e-01) (80, 4.00942742824554443359e-01) (81, 3.83383035659790039062e-01) (82, 3.80054205656051635742e-01) (83, 3.00499886274337768555e-01) (84, 2.46463596820831298828e-01) (85, 3.00414025783538818359e-01) (86, 3.00488501787185668945e-01) (87, 2.55481332540512084961e-01) (88, 3.45785468816757202148e-01) (89, 4.17423099279403686523e-01) (90, 4.16561752557754516602e-01) (91, 4.06560748815536499023e-01) (92, 2.74469375610351562500e-01) (93, 4.18412059545516967773e-01) (94, 4.32377666234970092773e-01) (95, 3.84412914514541625977e-01) (96, 2.44099259376525878906e-01) (97, 3.91110152006149291992e-01) (98, 3.94987851381301879883e-01) (99, 3.02589803934097290039e-01) (100, 3.09159845113754272461e-01) (101, 2.62518286705017089844e-01) (102, 3.76855820417404174805e-01) (103, 3.33749324083328247070e-01) (104, 3.46531540155410766602e-01) (105, 2.28384181857109069824e-01) (106, 4.20008569955825805664e-01) (107, 3.04713070392608642578e-01) (108, 3.73662620782852172852e-01) (109, 4.17926818132400512695e-01) (110, 3.19795578718185424805e-01) (111, 3.60176473855972290039e-01) (112, 3.48337262868881225586e-01) (113, 2.61118650436401367188e-01) (114, 2.46935263276100158691e-01) (115, 3.68476480245590209961e-01) (116, 3.44662815332412719727e-01) (117, 3.08912187814712524414e-01) (118, 4.09982711076736450195e-01) (119, 2.65206426382064819336e-01) (120, 3.08714300394058227539e-01) (121, 3.84688049554824829102e-01) (122, 2.49615654349327087402e-01) (123, 3.56864184141159057617e-01) (124, 3.80820244550704956055e-01) (125, 2.47764989733695983887e-01) (126, 3.11213195323944091797e-01) (127, 3.98595124483108520508e-01) (128, 4.04931336641311645508e-01) (129, 2.83268272876739501953e-01) (130, 2.63368338346481323242e-01) (131, 2.80678838491439819336e-01) (132, 3.04581612348556518555e-01) (133, 4.10160094499588012695e-01) (134, 3.80487829446792602539e-01) (135, 4.28670078516006469727e-01) (136, 4.09257858991622924805e-01) (137, 3.71214836835861206055e-01) (138, 3.03187251091003417969e-01) (139, 3.56600970029830932617e-01) (140, 3.66698652505874633789e-01) (141, 4.00539785623550415039e-01) (142, 2.90457993745803833008e-01) (143, 2.84840017557144165039e-01) (144, 4.36253339052200317383e-01) (145, 2.99409776926040649414e-01) (146, 4.18298512697219848633e-01) (0, 5.49462378025054931641e-01) (1, 6.36907935142517089844e-01) (2, 8.43385219573974609375e-01) (3, 6.58455014228820800781e-01) (4, 4.04327027499675750732e-02) (5, 5.59099137783050537109e-01) (6, 2.53847908973693847656e+00) (7, 1.06368219852447509766e+00) (8, 5.37307560443878173828e-01) (9, 5.48720479011535644531e-01) (10, 4.97383505105972290039e-01) (11, 4.69271421432495117188e-01) (12, 5.85759103298187255859e-01) (13, 4.80876445770263671875e-01) (14, 5.05746185779571533203e-01) (15, 1.48146772384643554688e+00) (16, 5.71244359016418457031e-01) (17, 4.73011404275894165039e-01) (18, 8.90852153301239013672e-01) (19, 1.45841911435127258301e-01) (20, 7.73640632629394531250e-01) (21, 2.09946036338806152344e+00) (22, 6.48085534572601318359e-01) (23, 5.54148733615875244141e-01) (24, 6.41477763652801513672e-01) (25, 6.06599986553192138672e-01) (26, 5.74156939983367919922e-01) (27, 1.04944050312042236328e+00) (28, 7.76696205139160156250e-01) (29, 4.89571660757064819336e-01) (30, 4.51734364032745361328e-01) (31, 4.77314651012420654297e-01) (32, 8.90470623970031738281e-01) (33, 6.15133345127105712891e-01) (34, 6.67846322059631347656e-01) (35, 4.40516948699951171875e-01) (36, 5.57137072086334228516e-01) (37, 7.76145935058593750000e-01) (38, 1.77165877819061279297e+00) (39, 6.68544888496398925781e-01) (40, 3.02193641662597656250e-01) (41, -9.16205346584320068359e-02) (42, 6.64652884006500244141e-01) (43, 2.76761913299560546875e+00) (44, 1.60326135158538818359e+00) (45, 9.71834242343902587891e-01) (46, 4.69725787639617919922e-01) (47, 6.01279914379119873047e-01) (48, 5.12135863304138183594e-01) (49, 5.79067885875701904297e-01) (50, 4.86501038074493408203e-01) (51, 1.06506383419036865234e+00) (52, 8.01384389400482177734e-01) (53, 5.27278065681457519531e-01) (54, 5.92665672302246093750e-01) (55, 5.72221338748931884766e-01) (56, 7.33488082885742187500e-01) (57, 5.65712869167327880859e-01) (58, 6.50419592857360839844e-01) (59, 6.11371636390686035156e-01) (60, 6.23148322105407714844e-01) (61, 4.55351769924163818359e-01) (62, 5.14108538627624511719e-01) (63, 6.15910172462463378906e-01) (64, 6.31931126117706298828e-01) (65, 4.66413497924804687500e-01) (66, 6.29307985305786132812e-01) (67, 5.30474066734313964844e-01) (68, 6.44126772880554199219e-01) (69, 5.77000021934509277344e-01) (70, 4.94707733392715454102e-01) (71, 5.60396075248718261719e-01) (72, 5.24080991744995117188e-01) (73, 4.72402215003967285156e-01) (74, 5.93089282512664794922e-01) (75, 5.37947595119476318359e-01) (76, 5.47433376312255859375e-01) (77, 6.19388818740844726562e-01) (78, 5.63375651836395263672e-01) (79, 5.57675600051879882812e-01) (80, 5.54566740989685058594e-01) (81, 5.97730457782745361328e-01) (82, 6.14574909210205078125e-01) (83, 5.18918395042419433594e-01) (84, 5.17660439014434814453e-01) (85, 5.82151234149932861328e-01) (86, 4.69644039869308471680e-01) (87, 5.50823092460632324219e-01) (88, 5.19047558307647705078e-01) (89, 4.54983443021774291992e-01) (90, 5.33893108367919921875e-01) (91, 4.98475700616836547852e-01) (92, 4.65113967657089233398e-01) (93, 5.75836300849914550781e-01) (94, 4.63147848844528198242e-01) (95, 4.59085136651992797852e-01) (96, 6.18318617343902587891e-01) (97, 6.36960029602050781250e-01) (98, 5.61959207057952880859e-01) (99, 6.13680303096771240234e-01) (100, 5.68690240383148193359e-01) (101, 6.18025660514831542969e-01) (102, 5.23759484291076660156e-01) (103, 4.76842194795608520508e-01) (104, 4.61691349744796752930e-01) (105, 4.72329765558242797852e-01) (106, 6.19289815425872802734e-01) (107, 5.33160924911499023438e-01) (108, 6.33142471313476562500e-01) (109, 5.24020135402679443359e-01) (110, 4.58061128854751586914e-01) (111, 5.23557662963867187500e-01) (112, 5.11557936668395996094e-01) (113, 6.21409654617309570312e-01) (114, 5.85376441478729248047e-01) (115, 5.90408742427825927734e-01) (116, 5.51236093044281005859e-01) (117, 6.09840393066406250000e-01) (118, 4.84951108694076538086e-01) (119, 6.21084153652191162109e-01) (120, 6.12297058105468750000e-01) (121, 5.68842649459838867188e-01) (122, 4.69056278467178344727e-01) (123, 6.26221179962158203125e-01) (124, 4.95428115129470825195e-01) (125, 4.80498284101486206055e-01) (126, 6.34452760219573974609e-01) (127, 4.62887793779373168945e-01) (128, 4.69109684228897094727e-01) (129, 5.38190305233001708984e-01) (130, 6.30173444747924804688e-01) (131, 5.88196933269500732422e-01) (132, 5.04979372024536132812e-01) (133, 4.92506593465805053711e-01) (134, 6.18922591209411621094e-01) (135, 5.22242188453674316406e-01) (136, 5.22916436195373535156e-01) (137, 