FANN_FLO_2.1
num_layers=3
learning_rate=0.700000
connection_rate=1.000000
network_type=0
learning_momentum=0.000000
training_algorithm=2
train_error_function=1
train_stop_function=0
cascade_output_change_fraction=0.010000
quickprop_decay=-0.000100
quickprop_mu=1.750000
rprop_increase_factor=1.200000
rprop_decrease_factor=0.500000
rprop_delta_min=0.000000
rprop_delta_max=50.000000
rprop_delta_zero=0.100000
cascade_output_stagnation_epochs=12
cascade_candidate_change_fraction=0.010000
cascade_candidate_stagnation_epochs=12
cascade_max_out_epochs=150
cascade_max_cand_epochs=150
cascade_num_candidate_groups=2
bit_fail_limit=3.49999999999999977796e-01
cascade_candidate_limit=1.00000000000000000000e+03
cascade_weight_multiplier=4.00000000000000022204e-01
cascade_activation_functions_count=10
cascade_activation_functions=3 5 7 8 10 11 14 15 16 17 
cascade_activation_steepnesses_count=4
cascade_activation_steepnesses=2.50000000000000000000e-01 5.00000000000000000000e-01 7.50000000000000000000e-01 1.00000000000000000000e+00 
layer_sizes=65 41 11 
scale_included=0
neurons (num_inputs, activation_function, activation_steepness)=(0, 0, 0.00000000000000000000e+00) (0, 0, 0.00000000000000000000e+00) (0, 0, 0.00000000000000000000e+00) (0, 0, 0.00000000000000000000e+00) (0, 0, 0.00000000000000000000e+00) (0, 0, 0.00000000000000000000e+00) (0, 0, 0.00000000000000000000e+00) (0, 0, 0.00000000000000000000e+00) (0, 0, 0.00000000000000000000e+00) (0, 0, 0.00000000000000000000e+00) (0, 0, 0.00000000000000000000e+00) (0, 0, 0.00000000000000000000e+00) (0, 0, 0.00000000000000000000e+00) (0, 0, 0.00000000000000000000e+00) (0, 0, 0.00000000000000000000e+00) (0, 0, 0.00000000000000000000e+00) (0, 0, 0.00000000000000000000e+00) (0, 0, 0.00000000000000000000e+00) (0, 0, 0.00000000000000000000e+00) (0, 0, 0.00000000000000000000e+00) (0, 0, 0.00000000000000000000e+00) (0, 0, 0.00000000000000000000e+00) (0, 0, 0.00000000000000000000e+00) (0, 0, 0.00000000000000000000e+00) (0, 0, 0.00000000000000000000e+00) (0, 0, 0.00000000000000000000e+00) (0, 0, 0.00000000000000000000e+00) (0, 0, 0.00000000000000000000e+00) (0, 0, 0.00000000000000000000e+00) (0, 0, 0.00000000000000000000e+00) (0, 0, 0.00000000000000000000e+00) (0, 0, 0.00000000000000000000e+00) (0, 0, 0.00000000000000000000e+00) (0, 0, 0.00000000000000000000e+00) (0, 0, 0.00000000000000000000e+00) (0, 0, 0.00000000000000000000e+00) (0, 0, 0.00000000000000000000e+00) (0, 0, 0.00000000000000000000e+00) (0, 0, 0.00000000000000000000e+00) (0, 0, 0.00000000000000000000e+00) (0, 0, 0.00000000000000000000e+00) (0, 0, 0.00000000000000000000e+00) (0, 0, 0.00000000000000000000e+00) (0, 0, 0.00000000000000000000e+00) (0, 0, 0.00000000000000000000e+00) (0, 0, 0.00000000000000000000e+00) (0, 0, 0.00000000000000000000e+00) (0, 0, 0.00000000000000000000e+00) (0, 0, 0.00000000000000000000e+00) (0, 0, 0.00000000000000000000e+00) (0, 0, 0.00000000000000000000e+00) (0, 0, 0.00000000000000000000e+00) (0, 0, 0.00000000000000000000e+00) (0, 0, 0.00000000000000000000e+00) (0, 0, 0.00000000000000000000e+00) (0, 0, 0.00000000000000000000e+00) (0, 0, 0.00000000000000000000e+00) (0, 0, 0.00000000000000000000e+00) (0, 0, 0.00000000000000000000e+00) (0, 0, 0.00000000000000000000e+00) (0, 0, 0.00000000000000000000e+00) (0, 0, 0.00000000000000000000e+00) (0, 0, 0.00000000000000000000e+00) (0, 0, 0.00000000000000000000e+00) (0, 0, 0.00000000000000000000e+00) (65, 6, 5.00000000000000000000e-01) (65, 6, 5.00000000000000000000e-01) (65, 6, 5.00000000000000000000e-01) (65, 6, 5.00000000000000000000e-01) (65, 6, 5.00000000000000000000e-01) (65, 6, 5.00000000000000000000e-01) (65, 6, 5.00000000000000000000e-01) (65, 6, 5.00000000000000000000e-01) (65, 6, 5.00000000000000000000e-01) (65, 6, 5.00000000000000000000e-01) (65, 6, 5.00000000000000000000e-01) (65, 6, 5.00000000000000000000e-01) (65, 6, 5.00000000000000000000e-01) (65, 6, 5.00000000000000000000e-01) (65, 6, 5.00000000000000000000e-01) (65, 6, 5.00000000000000000000e-01) (65, 6, 5.00000000000000000000e-01) (65, 6, 5.00000000000000000000e-01) (65, 6, 5.00000000000000000000e-01) (65, 6, 5.00000000000000000000e-01) (65, 6, 5.00000000000000000000e-01) (65, 6, 5.00000000000000000000e-01) (65, 6, 5.00000000000000000000e-01) (65, 6, 5.00000000000000000000e-01) (65, 6, 5.00000000000000000000e-01) (65, 6, 5.00000000000000000000e-01) (65, 6, 5.00000000000000000000e-01) (65, 6, 5.00000000000000000000e-01) (65, 6, 5.00000000000000000000e-01) (65, 6, 5.00000000000000000000e-01) (65, 6, 5.00000000000000000000e-01) (65, 6, 5.00000000000000000000e-01) (65, 6, 5.00000000000000000000e-01) (65, 6, 5.00000000000000000000e-01) (65, 6, 5.00000000000000000000e-01) (65, 6, 5.00000000000000000000e-01) (65, 6, 5.00000000000000000000e-01) (65, 6, 5.00000000000000000000e-01) (65, 6, 5.00000000000000000000e-01) (65, 6, 5.00000000000000000000e-01) (0, 6, 0.00000000000000000000e+00) (41, 6, 5.00000000000000000000e-01) (41, 6, 5.00000000000000000000e-01) (41, 6, 5.00000000000000000000e-01) (41, 6, 5.00000000000000000000e-01) (41, 6, 5.00000000000000000000e-01) (41, 6, 5.00000000000000000000e-01) (41, 6, 5.00000000000000000000e-01) (41, 6, 5.00000000000000000000e-01) (41, 6, 5.00000000000000000000e-01) (41, 6, 5.00000000000000000000e-01) (0, 6, 0.00000000000000000000e+00) 
connections (connected_to_neuron, weight)=(0, 4.97226466842899506027e-01) (1, 5.23766812120556535248e-01) (2, 6.35853974619264739054e-01) (3, 6.01533132943442794272e-01) (4, 3.18294061001857142568e-01) (5, 4.57297150195069890266e-01) (6, 5.06460359843839635907e-01) (7, 4.75939698235922192815e-01) (8, 4.37891803648222721623e-01) (9, 3.39992890310808759669e-01) (10, 4.63548305140645544586e-01) (11, 4.54508042099970699379e-01) (12, 4.13826525019100777136e-01) (13, 5.31027295218312600511e-01) (14, 3.72643711935327692775e-01) (15, 5.70699257443888496866e-01) (16, 5.63983857571046187651e-01) (17, 4.72916238626559182201e-01) (18, 6.54149641548539828584e-01) (19, 4.02211720450916576652e-01) (20, 4.61807593441398656076e-01) (21, 5.60315904451817781151e-01) (22, 4.91463797646287336995e-01) (23, 4.32531604888952814214e-01) (24, 3.73213354939688657375e-01) (25, 6.08950120914603765243e-01) (26, 6.53802138403714927506e-01) (27, 5.06632718162900674841e-01) (28, 3.68602361021729441060e-01) (29, 4.59537782928999827270e-01) (30, 3.66037920150401874242e-01) (31, 4.66455074664903046600e-01) (32, 4.29104958117401125151e-01) (33, 1.25002236395188504048e+00) (34, 6.78368747505903701978e-01) (35, 6.12144261628102426265e-01) (36, 3.39981137834123148256e-01) (37, 5.07062501384960340189e-01) (38, 5.80695188739658751942e-01) (39, 6.28135757754844537004e-01) (40, 3.69546373300869035461e-01) (41, 5.81380936731041186860e-01) (42, 5.88112517081063490565e-01) (43, 6.11913110442229291053e-01) (44, 3.38186474614533660876e-01) (45, 6.90989204329638173618e-01) (46, 5.67797152059368648302e-01) (47, 9.10797128063430161404e-01) (48, 4.75429273466460688979e-01) (49, 4.59913924921171002325e-01) (50, 6.01384873565634525683e-01) (51, 5.20500936415065229568e-01) (52, 5.14453902739753221596e-01) (53, 6.34997284031419861883e-01) (54, 5.78270992447881826415e-01) (55, 5.17895325989814470091e-01) (56, 4.49722770898425328046e-01) (57, 5.33531754445992545399e-01) (58, 5.47195838086931951594e-01) (59, 6.35565350142583307402e-01) (60, 3.70669473425980944281e-01) (61, 5.32772936791780060695e-01) (62, 5.59780401411860917271e-01) (63, 5.59442774816524712733e-01) (64, 4.04745472512752335614e-01) (0, 7.86206466565226413934e-01) (1, 4.07192307669562936212e-01) (2, 5.87230980634988908307e-01) (3, 5.15149761596818245302e-01) (4, 1.64645331294065466743e+00) (5, 1.42059648946486777277e+03) (6, 9.09999305500438460115e+00) (7, 5.40337639157643878640e-01) (8, 1.50000000000000000000e+03) (9, 1.50000000000000000000e+03) (10, 9.12759453798018824955e+01) (11, 5.79696200267556083219e-01) (12, 6.90518821592749354465e-01) (13, 5.64963070771648867563e-01) (14, 7.76175911887392044886e-02) (15, 6.17776002097644938438e-01) (16, 4.29520680883310246312e-01) (17, 7.49860801534536824953e-01) (18, 6.02868406369516551813e-01) (19, 6.73203219399083785390e-01) (20, 3.63251540629598745902e-01) (21, 7.29470749200798351808e-01) (22, 6.67131888339974388202e-01) (23, 6.07671859383439594282e-01) (24, 2.15069260667969999190e+01) (25, 5.74022731398504348910e-01) (26, 1.62087761482013026360e+00) (27, 6.09970332645580537445e-01) (28, 8.06695419675625302602e-01) (29, 4.48846184602200271030e-01) (30, 6.67929819441932859370e-01) (31, 5.99521645753337550921e-01) (32, 5.75031842762366851574e-01) (33, 2.55097212369213233174e-01) (34, 3.68350504685374058322e-01) (35, 6.21391169244294050422e-01) (36, 7.08613422858731301091e-01) (37, 7.41384143798831440897e-01) (38, 6.78162663745483840216e-01) (39, -3.71582722362924847137e-02) (40, 6.82500579150287278729e-01) (41, 6.78889641524108133908e-01) (42, 5.62812388897895088391e-01) (43, 4.49487838954887919396e-01) (44, 5.80525873664827329890e-01) (45, 5.43351557986773592290e-01) (46, 4.45361677008563605629e-01) (47, 5.59630464695945351039e-01) (48, 6.35675068084839645088e-01) (49, 6.48074045597179293487e-01) (50, 6.39711205495312684732e-01) (51, 3.54381624744574821761e+02) (52, 1.65016896990076183949e-01) (53, 5.41789407119898203113e-01) (54, 4.06487445240848455086e-01) (55, 1.49686710884559703860e-01) (56, 6.48208842902808113351e-01) (57, 7.78281246784221641954e-02) (58, 4.71937986728946545778e-01) (59, 2.14543056253247488296e-01) (60, 5.44978964786564268330e-01) (61, 2.29121048788807096797e-01) (62, 3.48706100682130870627e-01) (63, 3.25474362456593835358e-01) (64, 7.15102682773755216061e-01) (0, 4.82535623032350091677e-01) (1, 7.57628681418761606992e-01) (2, 7.20375175386524402299e-01) (3, 4.42382747106610296761e-01) (4, 3.39137124768423503518e-01) (5, 5.75127467748149046045e-01) (6, 3.68449356725022603154e-01) (7, 5.60412568530428867319e-01) (8, 3.76162824767187542463e-01) (9, 3.28019290104426208821e-01) (10, 3.61773841419930908270e-01) (11, 3.75070026158245195536e-01) (12, 4.87098245850252797862e-01) (13, 5.84512963923125461463e-01) (14, 4.38532610478149675881e-01) (15, 6.94193322219380015703e-01) (16, 5.13594585972048656153e-01) (17, 4.80798742477634988290e-01) (18, 7.73184028961505398492e-01) (19, 4.47309844118760902010e-01) (20, 8.67072794515956868366e-01) (21, 6.00081430622686040621e-01) (22, 4.08353540270368853271e-01) (23, 5.71257267331343632222e-01) (24, 5.15901870235820902977e-01) (25, 5.27139463456119727880e-01) (26, 6.61014068645634278454e-01) (27, 4.40389809736590809308e-01) (28, 3.76199106838852992407e-01) (29, 5.29666541066528773207e-01) (30, 5.14076027569295268549e-01) (31, 4.70818212475860142785e-01) (32, 6.26060402801462023703e-01) (33, 7.23828702158154535518e-01) (34, 1.09849489265507416214e+00) (35, 7.15416322991490272187e-01) (36, 2.95288209152085867615e-01) (37, 5.41446077500368994073e-01) (38, 4.46139329963582409455e-01) (39, 5.94107249277795901321e-01) (40, 4.28335675461732345859e-01) (41, 5.48627635743979769067e-01) (42, 6.09536351787005936664e-01) (43, 5.60131334736772346083e-01) (44, 3.30602398050375834160e-01) (45, 4.76312339401629536439e-01) (46, 4.63506858454868053698e-01) (47, 7.67757504812806801375e-01) (48, 5.17562820759217112609e-01) (49, 4.96159092997397632718e-01) (50, 5.55473590043290332829e-01) (51, 6.27667023251832545405e-01) (52, 7.70335827257522254286e-01) (53, 5.79353166756479853738e-01) (54, 5.52452047779968258290e-01) (55, 4.38176155966735203506e-01) (56, 3.41422557571189944081e-01) (57, 7.71308424888708099587e-01) (58, 7.13471876329433762898e-01) (59, 7.42338931705607496525e-01) (60, 4.47996368603347683290e-01) (61, 6.15893414137387407159e-01) (62, 6.94263826238973869032e-01) (63, 6.07336385945258849794e-01) (64, 3.36577903517548349122e-01) (0, 2.92645188242267928480e-01) (1, 4.41811257076676400235e-01) (2, 5.26751118339724655470e-01) (3, 3.49653982666420337644e-01) (4, 9.66761882520199233859e-01) (5, -2.10472100427313613125e+00) (6, 3.12569267483031321131e-01) (7, -2.26422474938821460810e+00) (8, 4.56280087173843440507e-01) (9, 3.43238646086467036334e-01) (10, 5.78840048011991847865e-01) (11, 5.06109639260918897641e-01) (12, 7.18779851774330791336e-01) (13, -2.21387338570768754664e-01) (14, 1.99991944011978484141e+00) (15, 4.62321528459195452143e+00) (16, 7.27447647871615976634e-01) (17, 1.20611159260028898643e+03) (18, 4.51948610422300722789e-01) (19, 1.50000000000000000000e+03) (20, 5.66267671090772140019e-01) (21, -1.53436619584075312206e-01) (22, 7.79135576469819346457e-01) (23, 9.82440089107142311420e-01) (24, 7.25404255155972510494e-01) (25, 5.54215325990153884206e-01) (26, -5.96794753268559041715e+00) (27, 5.96459462979305632402e-01) (28, 6.54268630269991824377e-01) (29, 1.50000000000000000000e+03) (30, 3.40972589550805293968e+00) (31, 2.65787025111306496328e+00) (32, 4.25739643101072318121e-01) (33, 9.27601043930076696320e-01) (34, 1.50000000000000000000e+03) (35, 4.80023724833115927879e+00) (36, 8.16486212546760570241e-01) (37, 5.12059643886772275501e-01) (38, 6.06353241518811203470e-01) (39, 4.71021247442910406811e-01) (40, 5.56762222476515633574e-01) (41, 3.79553102518686236166e-01) (42, 5.76571779798031647246e-01) (43, 5.33382094561661190824e-01) (44, 5.54295368981115976759e-01) (45, 2.77002476187284407683e-01) (46, 6.72176826490585854756e-01) (47, 1.08088027120464480468e+00) (48, 4.81872168191512018076e-01) (49, 8.86121508838368376892e-01) (50, -5.13324764268253477817e-02) (51, 1.53098451678365732320e+00) (52, 5.93683551181499513660e-01) (53, -6.89770899350877986222e-01) (54, 5.73963678824922940436e-01) (55, 6.52626622348518647954e-01) (56, 5.78767485053480079671e-01) (57, 5.01945224221415076116e-01) (58, 2.87064697355961573333e-01) (59, 8.44270370235771783207e-01) (60, 5.82877774647636459626e-01) (61, 2.79132340818886923728e+01) (62, 2.45064057857013528618e+00) (63, 4.04209153721004383897e+01) (64, 5.86092817073031180364e-01) (0, 6.24241740650525622769e-01) (1, 8.49196858162103440648e-01) (2, 5.29660900315863658605e-01) (3, 5.75704369178804409302e-01) (4, 4.21279097181353867629e-01) (5, 6.38112977400966174812e-01) (6, 4.74909850204102035320e-01) (7, 6.16388481050430203645e-01) (8, 4.28049812505077620362e-01) (9, 3.80174185481480908511e-01) (10, 5.36005171268893354508e-01) (11, 4.44689480632502243118e-01) (12, 3.86312696679700751101e-01) (13, 6.37598218565198049390e-01) (14, 6.48359168555248221999e-01) (15, 6.56320147219725202881e-01) (16, 6.07819793598755486741e-01) (17, 4.71432506264090889214e-01) (18, 6.32374401595004131948e-01) (19, 6.11734093361729791560e-01) (20, 7.35164935603740854475e-01) (21, 6.63813955816639045260e-01) (22, 5.11277013538046332108e-01) (23, 4.51711848026066953299e-01) (24, 5.84706727625632805001e-01) (25, 5.06791366636469842177e-01) (26, 6.00638990753757151531e-01) (27, 5.99958863602971015361e-01) (28, 3.70306293154437027315e-01) (29, 4.34226390571714415678e-01) (30, 4.08290656612421698490e-01) (31, 3.75049792570770645916e-01) (32, 5.22187315390917894398e-01) (33, 8.05817531175368806373e-01) (34, 1.10505291810245132034e+00) (35, 6.28948304751936970725e-01) (36, 4.09976264689463021362e-01) (37, 5.58200965690477723946e-01) (38, 6.71721517657778099952e-01) (39, 6.25702269237682684455e-01) (40, 5.16847608018527804319e-01) (41, 3.99992889825455999464e-01) (42, 5.60175085617901191704e-01) (43, 4.44064917954696936064e-01) (44, 4.00880339012802067167e-01) (45, 5.12296367518375372896e-01) (46, 5.12852261735490033701e-01) (47, 1.33407815317855082959e+00) (48, 6.17911143973028709198e-01) (49, 8.32724269203688693963e-01) (50, 7.25301180423365887684e-01) (51, 5.14790603915750377695e-01) (52, 7.59017997361000396062e-01) (53, 4.93497069582654601660e-01) (54, 5.39343427792029039836e-01) (55, 7.83876415727424169511e-01) (56, 4.70176533059163348494e-01) (57, 8.46778454364836341561e-01) (58, 8.64330901114199634527e-01) (59, 7.93956391303429986905e-01) (60, 4.46514481607565960619e-01) (61, 5.84158487149358918167e-01) (62, 6.60789790671883481288e-01) (63, 4.47152076359493555469e-01) (64, 3.89334761288016750758e-01) (0, -7.95452753121595329544e-02) (1, -9.27989746842859536402e-02) (2, -5.03583168709071937741e-02) (3, -1.51732032310245817941e-01) (4, -1.01824838357562327817e-01) (5, -6.91892800701938009977e-02) (6, -1.81715516458406445288e-01) (7, 3.27409121286720145028e-02) (8, -8.66737463673312169554e-01) (9, -1.06995040341562347441e-01) (10, -1.96051931071186485989e-01) (11, -1.17517823186272060698e-01) (12, -8.43312837597170322779e-02) (13, 8.67768081991124491659e-03) (14, -1.83271229236871974200e-01) (15, -3.23007694394781977656e-03) (16, -3.19370898283662038586e-02) (17, -1.19879089702402477635e-01) (18, -1.08441976151669727813e-01) (19, -4.72234755838398662098e-02) (20, -2.26652880886089105883e-02) (21, 5.07163307365884365174e-03) (22, -1.75246936331612979121e-01) (23, -8.91698255184921323435e-02) (24, -8.37936402903312615997e-02) (25, 4.57769088903608803443e-02) (26, -5.51850087936998773275e-02) (27, -1.26973789388560548419e-01) (28, -2.16183669835278258198e-01) (29, 1.08677140684620438665e-02) (30, -8.59495453691697663956e-02) (31, -2.31538892302879717455e-01) (32, -1.66531709529165794503e-01) (33, -7.31587620331639321147e-02) (34, -1.38905414473746713355e-01) (35, -2.18391946721917057372e-01) (36, -1.91611640642595143502e-01) (37, -8.05026535047683455826e-02) (38, -2.24148362229953622415e-02) (39, -9.36300543305655652571e-02) (40, -9.46822032992054918310e-01) (41, -1.50076998077642881357e-01) (42, -4.48750062627186960262e-03) (43, -9.96080002773647582570e-02) (44, -1.78620730834425561762e-01) (45, -1.71876191074825102056e-01) (46, -6.27397444608029323382e-03) (47, 2.36623979079925682301e-02) (48, -8.25243095470871573793e-02) (49, -1.71125111319062633841e-01) (50, 1.94676624804931003299e-02) (51, -1.20311169385973956714e-01) (52, 8.20184079680710137472e-03) (53, -1.96136809068717544308e-03) (54, -1.62318740439399322902e-03) (55, -9.37529880949806854185e-02) (56, -4.63312533076554594613e-02) (57, -6.55879939512741955143e-02) (58, 9.18587946585418604895e-03) (59, -1.66157357818435130747e-01) (60, -2.32287975275600827585e-01) (61, -6.30639200845086178582e-02) (62, -1.90064991453388676401e-01) (63, -8.18421181885475162998e-02) (64, -2.45371325050297350856e+00) (0, -3.40759623311702713327e-03) (1, 1.72429782381553903248e-02) (2, -6.53379495306306012914e-02) (3, -6.33027886103861153755e-02) (4, -9.68168009130104950666e-02) (5, -6.30517956237270221775e-02) (6, -1.91837034131831507544e-01) (7, 3.47974029138364837621e-02) (8, -2.74811686393451770627e-01) (9, -1.14018731651159277440e-02) (10, 2.03394101360249331123e-02) (11, -9.88254511334399760036e-02) (12, -7.42083048770914854853e-02) (13, 3.29603858433088064972e-02) (14, 7.43368256089289580757e-02) (15, 1.45277214903717991068e-02) (16, -2.20495716323006393789e-02) (17, -1.40779803725134156078e-01) (18, 6.39668047127247285655e-02) (19, -8.89926437443257778437e-02) (20, -5.03123747137294713427e-02) (21, 1.10169085248673775945e-01) (22, 6.70586248031377202272e-02) (23, -5.14787526286615421123e-02) (24, 3.64831996169870248492e-02) (25, -1.27013756973463370903e-01) (26, 6.53629085256012265504e-02) (27, -7.19782941301389950217e-02) (28, -2.03483506223639781796e-01) (29, -5.66536788490986514821e-02) (30, -1.07537052602341448582e-01) (31, -3.42974383719550357519e-02) (32, -7.40179922805641599126e-02) (33, 2.83392318422226591190e-02) (34, -1.21546675058862449492e-01) (35, 3.72324059860315928483e-02) (36, -1.31184115351156177498e-01) (37, -1.26009451226607893659e-01) (38, -6.94725391805437741954e-02) (39, 4.91191659340587741256e-02) (40, 3.78554538262352580080e-02) (41, 4.56838604681079289010e-04) (42, -4.43983167674128487157e-02) (43, -8.99477110541717916892e-02) (44, -7.52967521290085900487e-02) (45, -1.90400196465285269365e-02) (46, 5.99267535115460964201e-02) (47, 3.96671177837427738067e-02) (48, 3.16262412007510748668e-02) (49, -1.12135034975914302247e-01) (50, 1.24543821175682342672e-01) (51, -1.93840469749963391355e-02) (52, 7.23852386575313169054e-03) (53, 9.65525667521651836944e-02) (54, -7.83447217895407999055e-02) (55, -1.23308461086224258052e-01) (56, 1.01380827159458411502e-01) (57, -1.24511863542307338326e-01) (58, 2.78666895632765894766e-03) (59, -1.09011747072814330073e-01) (60, -1.22961403233716709549e-01) (61, 4.70135257578601084560e-02) (62, -1.72094736702721823329e-01) (63, -3.10183838326632266291e-02) (64, -2.03071080860785357913e+00) (0, 8.16599006862115534000e-02) (1, 2.68245007203756734293e-02) (2, 5.62594496098087204494e-02) (3, -5.62201443448368254341e-02) (4, 1.32766324927436618619e-01) (5, 2.29679215842901296440e-01) (6, 4.37971371802474071511e-02) (7, 1.70756395458918769359e-01) (8, 6.23437825394824451930e-02) (9, 7.17042286888841945425e-02) (10, 5.24682662258968285363e-02) (11, 1.83827899182122916910e-01) (12, 1.05587360438275407182e-01) (13, 1.32405909721802494960e-01) (14, 5.47106169887468241075e-02) (15, 1.11384967218493766139e-01) (16, 1.17004108065695000551e-01) (17, 1.33216736999486495829e-01) (18, 1.32641045528721884805e-01) (19, -2.09046273345483389627e-02) (20, 6.05841147533734275532e-02) (21, 2.00505232807921235372e-01) (22, 1.12115466964942733785e-01) (23, 8.77482608327010277227e-02) (24, 1.19519941936808427041e-01) (25, 1.57203575584008381494e-01) (26, 1.13300837119355610194e-01) (27, 9.92003246336467109368e-02) (28, 8.00128105744262324572e-02) (29, 1.80315218557030310098e-01) (30, 9.96614632311614290217e-02) (31, 1.11362735143139823801e-01) (32, 4.45246838085234866722e-02) (33, -3.86628388950149559644e-02) (34, 1.37887094501775803179e-01) (35, 6.07801643581507289316e-02) (36, 3.88679719906414034014e-02) (37, 4.60448051956292084275e-02) (38, 6.59660633717680383592e-02) (39, 1.41139665400372371629e-01) (40, 1.10007917011178360522e-01) (41, -2.45841560620892272265e-03) (42, 5.42183599105700922416e-02) (43, 5.09988636337458667303e-02) (44, -3.51997050537242797685e-02) (45, 2.48944450632159024195e-02) (46, 8.28287540917712616917e-02) (47, 1.36322350738797698488e-01) (48, 5.41064232013087828554e-02) (49, 2.00463854212766079410e-01) (50, 8.48827257744320939903e-03) (51, 1.21575183758094951258e-01) (52, 3.40964999960942163892e-02) (53, 1.40339179831530103115e-02) (54, 8.41028529024051008101e-02) (55, 8.97315794901394209182e-02) (56, -7.38548551350122900461e-02) (57, 1.13271058467489957322e-01) (58, 3.06318924789356558658e-02) (59, 1.01132084652124962232e-01) (60, -7.56077736214021411953e-02) (61, 1.09199269738307944144e-01) (62, 9.21386028716996152710e-02) (63, 3.11334580255921943015e-02) (64, -2.06295311416133619886e+00) (0, 3.10138546103617462890e-01) (1, -9.96909857575280788922e+00) (2, -5.60774009139158469139e+00) (3, -4.37658366238882649668e+02) (4, 4.99622797190383272081e-01) (5, 3.89933179408721131143e-01) (6, 1.45915430667612922022e+00) (7, 5.43049527282314148380e+00) (8, 6.42997156706309302976e-01) (9, 4.81245969170223730771e+01) (10, 5.38201065758541652428e-01) (11, 2.04345833659197362309e+00) (12, 5.83144779443732996782e-01) (13, -1.33019686304790880627e+01) (14, 3.37044891102440458130e-01) (15, 3.12109706270706555031e+00) (16, 1.03044452664562413702e+00) (17, -4.63761632590432293366e-02) (18, 2.06356141294846123085e-03) (19, -6.75357570185294520115e+00) (20, 2.27521447324688791403e-01) (21, 2.42260941313786943851e+01) (22, 3.00469157816179610609e-01) (23, 3.66400864103052503751e-01) (24, 6.61365211995321833349e-01) (25, 8.73736705007322633776e+00) (26, -6.61511577174395704048e+00) (27, 6.65286493008168000607e-01) (28, 5.41279886988630942746e-01) (29, -2.68896070755261840102e-01) (30, 9.75114064521921286577e-01) (31, -1.11575529713598537995e+01) (32, 7.68210765499761578212e+02) (33, 5.31620595557097286310e-01) (34, 1.07659562352286997111e+01) (35, 1.55682760134039321898e+00) (36, 4.36585296210425521934e+00) (37, 4.14287210409791162302e-01) (38, 7.43168428828525406971e+00) (39, 1.10059026297705784714e+02) (40, 7.65817063859033919648e-01) (41, 3.79011199651194941040e+00) (42, 3.00164165430070073448e-01) (43, 6.99270704014243738023e-01) (44, 5.53953362827134920821e-01) (45, -1.68186773540544507455e+01) (46, -1.40789708652597997940e+01) (47, -9.38598404130484453844e-01) (48, 1.18512664529731210905e+01) (49, 4.64091016834255964962e-01) (50, 5.36749808928438376654e-01) (51, 6.79139548394534053877e-01) (52, 1.81065279858812100411e-01) (53, 1.40179998916482606575e+00) (54, -1.77320531084668026045e-01) (55, -5.52974739108131441157e-01) (56, 6.60805563372480531115e-01) (57, 2.61367555144791952060e+00) (58, -1.39878057928123888942e+00) (59, 3.27453671459493611540e-01) (60, 7.78345503977172725740e-01) (61, 1.62046976000793069295e-01) (62, 1.26602717519796192924e+00) (63, 5.45991211818042443404e-01) (64, 6.12765265425030403179e-01) (0, 5.21981301722090895723e-02) (1, 6.97737468707123609235e-02) (2, 2.51057094788067550195e-02) (3, -2.11484917876407704784e-02) (4, 7.05728672794047745542e-02) (5, 9.16046660343946828053e-02) (6, 3.75335641642511666505e-02) (7, -7.91191151455922336844e-01) (8, -1.27007320266912165918e-01) (9, -1.76740315948063775320e-02) (10, 5.09094250750857582610e-02) (11, 1.53977323296806689612e-02) (12, 1.21263176415548359910e-01) (13, -4.68400085261009152537e-02) (14, 6.12372801063732902227e-02) (15, -1.64820811767358677002e+00) (16, 5.00311868423390440630e-02) (17, 1.04355515810249741687e-02) (18, -4.87561071478284702163e-01) (19, -2.64280491267533557131e-01) (20, 8.64293032966689384056e-02) (21, -1.45208288902247295571e-01) (22, -4.17751503063632734225e-01) (23, -1.50359449127940941748e-01) (24, 2.07481238089869818308e-02) (25, 2.15195388997757031113e-01) (26, -1.08118021631755034662e+00) (27, -3.11797276346365247190e-02) (28, 9.59907386421389036135e-02) (29, -6.23125436343213268131e-01) (30, -1.04979168757630164643e-01) (31, -1.09015865217204938054e-01) (32, 7.03130544905332777184e-01) (33, 6.29306794075733755278e-01) (34, 4.56557690626459511396e-01) (35, 6.52503016232749977199e-01) (36, 1.88894039832593702011e-01) (37, 3.02271941427564361238e-01) (38, 2.16978856577716011644e-01) (39, 1.66518457956275622855e-01) (40, 1.46695836226535647473e-01) (41, 3.20915302561487869593e-01) (42, 1.72237995239758134858e-01) (43, 3.72400180903747352046e-02) (44, 3.13294060610127600430e-01) (45, 1.56309874001546583733e-02) (46, 4.67589973402071021336e-02) (47, 1.32765391036047189499e-02) (48, 4.81428615217728672615e-01) (49, 2.11753652424262445164e-01) (50, 5.36692070038374893781e-02) (51, 1.74164854698519860898e-01) (52, 3.56817650495966809387e-01) (53, 1.01075163884231183919e-01) (54, 1.60513157191060962248e-01) (55, -4.88054289202213206766e-02) (56, 3.02230798889564666876e-01) (57, 2.22051261217548506766e-01) (58, 1.64370613815859711870e-01) (59, 1.04639743283376884797e-01) (60, 3.37830488958428543089e-01) (61, 1.38090478342244776799e-01) (62, 1.37159511897956387649e-01) (63, 1.63993160878052685048e-01) (64, -4.13316823334170385662e-02) (0, 2.24989949754560991657e-02) (1, 6.71615977983275880270e-02) (2, 1.81804539401823547773e-02) (3, 1.08576815720004243859e-01) (4, -1.92828658428610064113e-02) (5, -8.58078383364975216807e-02) (6, -1.49324613090387497971e-01) (7, 2.77512910655896394285e-01) (8, -7.09011546457208874372e-02) (9, -1.89360101236735023367e-01) (10, -3.24359637838806738608e-02) (11, -6.80750376098324117002e-02) (12, -5.48081701495192682994e-02) (13, -4.96658021264498525382e-02) (14, -8.41923613024683353823e-02) (15, -3.37773656845890904443e-02) (16, -1.82769476878582269597e-02) (17, -9.61839087811579285248e-02) (18, -1.41017182558966974737e-01) (19, -1.98630895527619089069e-01) (20, 5.83058627261129891473e-02) (21, -4.89216051474475818739e-02) (22, -1.28395636743794984425e-02) (23, -7.95653721178373879441e-02) (24, -8.57531465836307571493e-02) (25, -4.53339124051998429432e-02) (26, -1.46135598075517264549e-01) (27, -1.19757198037845041805e-01) (28, -1.03652196816997693718e-01) (29, 4.90025872001954507229e-02) (30, -6.21662245144552656761e-03) (31, -2.24811158204454124288e-02) (32, -2.94639822973573432818e-02) (33, 1.47379345792902793910e-01) (34, -1.69622490435434904177e-02) (35, -1.33007021079755344273e-01) (36, -5.13696402155184930760e-02) (37, -5.30180339048282253667e-02) (38, -5.12637896747801594111e-02) (39, 1.18617023592517467634e-01) (40, -5.30615520223138500966e-02) (41, 6.61909007463234028146e-02) (42, 2.26666687153894604034e-02) (43, 6.96083372770435332422e-02) (44, 6.78136174312318346091e-02) (45, 1.47003448393237978742e-01) (46, 1.20060300525858518195e-01) (47, 1.13442620249975839597e-01) (48, 3.36412858809540693539e-01) (49, 1.34831610311044680639e-01) (50, 1.27323458094940944463e-01) (51, -5.60513878796635930946e-02) (52, 1.89929241570591406107e-01) (53, 5.26828960710229790565e-02) (54, 8.13274130999539629494e-02) (55, 1.32809882062280448789e-01) (56, 8.90295882815759082041e-02) (57, 1.66659491566673118035e-01) (58, 1.39486792687349481223e-01) (59, 1.24906574901727837612e-01) (60, 6.47537442284811803894e-02) (61, 6.98096013212699123551e-02) (62, 1.33146843428989213043e-02) (63, 3.13851416215125619824e-02) (64, -5.46498549220517867986e-02) (0, 4.89156810555070986624e-01) (1, 5.30922014412334886124e-01) (2, 6.53655365021385437174e-01) (3, 5.69335079153102441296e-01) (4, 3.85222739364723065769e-01) (5, 6.12926595727486089871e-01) (6, 3.68293333702551739517e-01) (7, 4.27510965865318892654e-01) (8, 2.93877750898631273646e-01) (9, 4.90375475425589901768e-01) (10, 4.40867075010513087552e-01) (11, 4.38514366031088509423e-01) (12, 4.54472282874543498377e-01) (13, 4.55516450500207892294e-01) (14, 4.31801837631201557155e-01) (15, 5.85072400965703343090e-01) (16, 5.39906517655435069791e-01) (17, 5.50224758911882827483e-01) (18, 5.52979457305623922636e-01) (19, 3.98925832338071773009e-01) (20, 6.12682203209572784353e-01) (21, 3.66707536431081393413e-01) (22, 4.92652667619620954209e-01) (23, 5.50495484691229886032e-01) (24, 5.25539335093117232489e-01) (25, 5.62912494279305897216e-01) (26, 5.77378441366381611743e-01) (27, 5.12656379051143140657e-01) (28, 4.67795839667122903549e-01) (29, 5.09849230933719477221e-01) (30, 4.38119765514527026440e-01) (31, 3.67464913925357794522e-01) (32, 5.12343218996425986411e-01) (33, 1.38221046198025798724e+00) (34, 1.06675285321862545196e+00) (35, 5.77266504035863881050e-01) (36, 4.97840626247127493453e-01) (37, 5.54815966916087033312e-01) (38, 4.62804641431439955923e-01) (39, 4.66935136617015689176e-01) (40, 3.61736271935972075742e-01) (41, 5.52746861665636912697e-01) (42, 5.76728426905595226160e-01) (43, 4.42390001586054681937e-01) (44, 5.18572549656905135151e-01) (45, 5.09168577678451805824e-01) (46, 4.54729008126330547235e-01) (47, 6.95325329067840058883e-01) (48, 6.34178347394307118101e-01) (49, 5.12754798005317535825e-01) (50, 4.69643360349596139525e-01) (51, 4.71743295104472881718e-01) (52, 6.66700567520766451679e-01) (53, 6.10443765292596918215e-01) (54, 6.20918126890555366337e-01) (55, 5.28423887443813300457e-01) (56, 4.18402289050068709741e-01) (57, 5.31080431064462010760e-01) (58, 6.14521898137519784200e-01) (59, 4.77678211561695487131e-01) (60, 4.55521250172740033157e-01) (61, 5.38485614455653349708e-01) (62, 5.17998129470764290261e-01) (63, 4.76354870022675069841e-01) (64, 4.58797323177292826202e-01) (0, 4.07696207585709180510e-01) (1, 6.08860540381637241336e-02) (2, 2.75688332649172307409e-01) (3, 1.09172686744034616591e-01) (4, -8.95361790104799853962e-02) (5, 6.79826468492341351446e-02) (6, 3.54333885043175214613e-02) (7, 4.29777143104814740582e-02) (8, 3.63750561660873328318e-01) (9, 3.46610246045227998746e-01) (10, -5.78214386251329412469e-02) (11, -1.89005412555499213711e-02) (12, 3.13830023527435275632e-01) (13, 5.81840412876314272417e-01) (14, 5.65068858600416973337e-02) (15, 2.84232316505897253389e-01) (16, 1.28208603354082011083e-02) (17, 1.08299188894260378646e-01) (18, 6.15155336912451389253e-01) (19, 4.87669875299246546874e-01) (20, 9.33440162905587067499e-01) (21, 6.05936898089695308300e-01) (22, 7.62219637944728523049e-02) (23, 1.55892170431291311739e-02) (24, 4.15068969861137337940e-01) (25, 1.07985291438753794324e-01) (26, -3.14472536759850969899e-04) (27, 1.51813378286014766250e-01) (28, 3.49825843893059373890e-01) (29, 6.14627850756232566032e-02) (30, -2.31302639629777859187e-02) (31, -6.74998104958757505489e-02) (32, 5.78945228470847395030e-01) (33, 6.52998648720771512899e-01) (34, 1.03246307361663114399e+00) (35, 4.95335270453888809605e-02) (36, 2.61416737781777874794e-01) (37, 4.20234525493514476935e-01) (38, 4.00940992553999120407e-01) (39, 5.53893684545420761367e-01) (40, 3.39715099454799163148e-01) (41, 5.93218393137912802793e-01) (42, 4.49746309592423565427e-01) (43, 5.07472548101825848832e-01) (44, 3.60460152522063925762e-01) (45, 5.12230259576688662371e-01) (46, 4.90353362763824129900e-01) (47, 7.56022148094365631366e-01) (48, -3.50449291715741531594e-02) (49, 3.00070091000912732293e-03) (50, 4.86227678820571829199e-01) (51, 5.76046088955320056968e-01) (52, 7.99225175783044972100e-01) (53, 6.13794691776716638820e-01) (54, 4.49794475533484561236e-01) (55, 5.61528957021140362471e-01) (56, 4.43416179051064784922e-01) (57, 4.64635808105332615003e-01) (58, 7.89664849888667030875e-01) (59, 4.11186132513570667957e-01) (60, 4.08613659342100421501e-01) (61, 4.80287353104577152685e-01) (62, 4.76390450716795477160e-01) (63, 5.27602506084053013424e-01) (64, 4.42222805818950015500e-01) (0, -5.08074414030295212763e-02) (1, -8.48801484872039463392e-02) (2, 2.71310324350940296201e-02) (3, -9.30066642860069743570e-03) (4, -3.94620238694267488899e-01) (5, -1.98643302186942621868e-01) (6, -3.16290052140226984889e-01) (7, -2.80635776041866902286e-01) (8, -9.30413932187380332550e-01) (9, -1.57093096116207864288e-01) (10, -2.91995715900833563428e-01) (11, -3.62553636689571023854e-01) (12, -4.78141591016178202356e-01) (13, -5.77434806561312984063e-03) (14, -7.91319285510100473013e-02) (15, -1.00085674482698561150e-01) (16, -1.96734881311577902707e-01) (17, -8.57368960654195932936e-02) (18, -2.55892575168551426879e-03) (19, -9.83528308879648288654e-02) (20, -7.23590802008772376874e-02) (21, -1.39820585378283374078e-01) (22, -2.35997077702448709857e-01) (23, -2.52131777882516117106e-01) (24, -4.45838020291706937925e-01) (25, -1.88367960808051265742e-01) (26, 2.12418485021430777926e-02) (27, -1.38300048927807478494e-01) (28, -4.32985577067111437888e-01) (29, -1.36605968448565234796e-01) (30, -3.13605442979289550376e-01) (31, -3.98699478819264430118e-01) (32, -2.29435367018118896443e-01) (33, -1.56265711908193799529e-01) (34, -9.37874177137229397827e-02) (35, -9.93513614221625679379e-02) (36, -2.39096740684866970739e-01) (37, -6.24133898610163551091e-02) (38, -2.23172807999618472152e-01) (39, -1.59173683537769922181e-01) (40, -5.98179043657494524666e-01) (41, -2.03219882057563472344e-01) (42, -1.92973313230517334871e-01) (43, -1.06865514809298581267e-01) (44, -1.26265916064040889522e-01) (45, -1.36058454874854600769e-01) (46, -1.14579005632940073012e-01) (47, 1.59128230804972785328e-02) (48, -1.41371364047632341876e-01) (49, -3.65818245650160814297e-02) (50, -2.20967196733745513404e-02) (51, -7.47803682343006759226e-02) (52, -4.64898288868170958543e-02) (53, -6.12791218753406183306e-02) (54, -4.77208266873650199802e-02) (55, -6.55376342282337903677e-02) (56, -1.62713511620715539641e-01) (57, -9.62366216990907935580e-02) (58, -1.02444769144240416248e-01) (59, -1.20328239052429328271e-01) (60, -3.49035457795367598521e-01) (61, -1.43836714653627656402e-01) (62, -2.56041424743275514153e-01) (63, -2.22732926651837914722e-01) (64, -1.19015089356429903944e+00) (0, 5.60744634295475941066e-01) (1, 1.16098337135115925456e+00) (2, 8.29912981987082187807e-01) (3, 5.01004423703480306074e-01) (4, 3.30566129308847933554e-01) (5, 5.79334748920397935024e-01) (6, 6.03560095470411339669e-01) (7, 5.66978189862643588981e-01) (8, 4.65922839270084987451e-01) (9, 5.20185112720412345944e-01) (10, 3.74818590652254812756e-01) (11, 4.37335113254473495381e-01) (12, 5.17880064584639532299e-01) (13, 7.52473520011336716173e-01) (14, 5.46766704548675708253e-01) (15, 1.07029343873310622826e+00) (16, 4.22475698280246836358e-01) (17, 6.04955498035210426089e-01) (18, 7.43872559879006578498e-01) (19, 6.28301974511859984140e-01) (20, 7.14752846312698086884e-01) (21, 6.80649888807145719838e-01) (22, 5.55825220859661128792e-01) (23, 4.54425224148937045854e-01) (24, 5.38815545284708319329e-01) (25, 6.51816546572328237019e-01) (26, 7.18999438419928860178e-01) (27, 4.84135378277435912686e-01) (28, 4.87622513130764101419e-01) (29, 5.92928953633018451796e-01) (30, 5.05086652993012807933e-01) (31, 3.80294405544242708483e-01) (32, 4.79136652497145931751e-01) (33, 7.52546569583822044791e-01) (34, 1.21122390456881312559e+00) (35, 6.75044854267805805037e-01) (36, 2.99615465071636610794e-01) (37, 5.93835180275706475683e-01) (38, 7.08993401359413022433e-01) (39, 5.82673916669432134796e-01) (40, 4.05132073670294634571e-01) (41, 5.16168722231142851342e-01) (42, 4.72443869528577309325e-01) (43, 5.00851958852780110298e-01) (44, 4.54232262894379401619e-01) (45, 5.61875264969009302618e-01) (46, 4.77990802741018905309e-01) (47, 7.40775446778041080087e-01) (48, 4.92508479872606763639e-01) (49, 5.28391434593259101682e-01) (50, 6.85001420530110483043e-01) (51, 6.49002494563047704901e-01) (52, 5.58055579712707139350e-01) (53, 5.40223061015905781090e-01) (54, 6.19657117575202365245e-01) (55, 4.68883703022563103069e-01) (56, 3.81700493405049634532e-01) (57, 6.96703426605950193462e-01) (58, 7.68065329456060097435e-01) (59, 6.48843179753413323851e-01) (60, 4.01497240607630645481e-01) (61, 6.23730180027984637547e-01) (62, 6.95524037333244637971e-01) (63, 5.71471402269583039768e-01) (64, 4.48462227317373229862e-01) (0, 5.17298508487387231902e-01) (1, 6.96679222104874318333e-01) (2, 5.83306717727488988068e-01) (3, 4.93447564018092144078e-01) (4, 4.11013677528383303272e-01) (5, 4.70409350467756504077e-01) (6, 4.50115409620612860753e-01) (7, 6.07302283530949060797e-01) (8, 4.08448409797425249224e-01) (9, 5.57067889004103755646e-01) (10, 5.42209017716666963338e-01) (11, 4.42346189619239216206e-01) (12, 3.47495628205696349688e-01) (13, 6.77308589551314788046e-01) (14, 4.89318044278438502026e-01) (15, 7.43620094207371074013e-01) (16, 5.93807042456185540935e-01) (17, 6.07041959053518875855e-01) (18, 7.06410532426603898770e-01) (19, 4.95727738748789170664e-01) (20, 7.81209300741842804783e-01) (21, 5.16689983044589351557e-01) (22, 4.91489079737288281358e-01) (23, 4.27062637288979529693e-01) (24, 4.68100418624127545542e-01) (25, 4.99196090734237540865e-01) (26, 5.85220062565982024338e-01) (27, 5.05331191242192834245e-01) (28, 4.63571564230012833630e-01) (29, 5.23592988374515955208e-01) (30, 3.10788645513336070358e-01) (31, 3.41876399995164226286e-01) (32, 5.29077559459921409335e-01) (33, 7.19759322579791804841e-01) (34, 1.13314538976494727507e+00) (35, 4.52363750667934438887e-01) (36, 4.36945838158142529917e-01) (37, 4.30283705233131252843e-01) (38, 4.90907205492451925721e-01) (39, 4.69400104071233503777e-01) (40, 3.46115107317978731860e-01) (41, 4.87940427685853939099e-01) (42, 5.90797984239319950994e-01) (43, 4.41468146038861308789e-01) (44, 4.72960331221977003935e-01) (45, 6.66324589137145539830e-01) (46, 5.90937276480353324004e-01) (47, 5.46750389664099833986e-01) (48, 6.44913600912254691977e-01) (49, 5.67537804586074723368e-01) (50, 6.14752737134493076887e-01) (51, 6.47842354992060664998e-01) (52, 7.27091435495786586607e-01) (53, 6.18733576614482361222e-01) (54, 6.16920759025843867818e-01) (55, 5.04940666739669752339e-01) (56, 5.79421882600015369924e-01) (57, 5.05748410486914545814e-01) (58, 8.13317756216320408846e-01) (59, 7.88187646289530863264e-01) (60, 4.54998495772333533260e-01) (61, 5.71556401278107584218e-01) (62, 3.87009514190591541460e-01) (63, 4.08969696562470452772e-01) (64, 3.97929087151214333495e-01) (0, -6.94633027788870149877e-02) (1, 4.69666186084067988071e-02) (2, -1.49179337629840175206e-01) (3, -1.46245260089369541467e-02) (4, -1.07016380616823156280e-01) (5, -1.29176944755353129146e-01) (6, -2.53319228814664794414e-02) (7, 7.52255320453283637949e-02) (8, 2.97077817402008424047e-03) (9, 3.92112156874456288524e-02) (10, -7.18985746208123804868e-02) (11, 7.34395836256639209655e-03) (12, -1.47619941707535524272e-02) (13, 5.26968760594724236479e-02) (14, 2.44586710133353618657e-02) (15, -2.98123544692440976822e-02) (16, -6.18970649684155785342e-02) (17, -2.05699593498855567986e-02) (18, -5.43328203616832566825e-02) (19, 5.90554722331466247498e-02) (20, -2.35531671189284641521e-02) (21, 7.15734443560806215395e-03) (22, 4.35813935231991814168e-02) (23, 1.42719611925097959737e-02) (24, -5.54186357636877457988e-02) (25, 5.38728457046711364797e-02) (26, 1.30052465463551397695e-02) (27, -8.90393040970507143594e-02) (28, 3.85479820355919336472e-02) (29, -9.62063737918446570951e-02) (30, -7.22841899003050930572e-02) (31, -2.76674136354529282000e-02) (32, -3.83117570948847546708e-02) (33, 2.52564527573274424932e-02) (34, -8.72788035557111319118e-02) (35, -1.60380116833831770640e-01) (36, -1.10639436607141289359e-02) (37, -9.79033135752373079308e-02) (38, 3.62415476255349491841e-02) (39, 4.95341622102272172157e-02) (40, -1.68108898509635729113e-01) (41, -3.34734470265869304972e-02) (42, -3.35987537808243377779e-02) (43, 2.43079467975841310989e-02) (44, -7.18982285395388248661e-02) (45, -1.33213443334707238447e-02) (46, -5.38475908143652357007e-02) (47, 5.03426160868216260313e-02) (48, 7.75030349108581095852e-02) (49, -2.23031446549693743164e-02) (50, 2.69675997183854744554e-02) (51, -4.87647495455001758757e-02) (52, -5.14760361084789716535e-02) (53, -4.32456412419135807768e-03) (54, -9.15585957341255585185e-02) (55, 1.75507493862114768990e-02) (56, -8.55615657446231470118e-02) (57, 4.87741857330523109759e-02) (58, 6.02068843557970814762e-02) (59, -7.14578970934770241197e-02) (60, -1.26930000122503993353e-03) (61, -1.35191830296099730485e-02) (62, -5.32321176200404796997e-03) (63, -4.25658549065194638517e-02) (64, -6.24252594539106087090e-01) (0, 3.58150285211874752633e-01) (1, 3.59757729782446411537e-01) (2, 2.15406742623945157700e-01) (3, -1.28150241113066498677e+00) (4, 3.42218375484532710828e-01) (5, 5.03815124219764598479e-01) (6, 5.24588770189303943425e-01) (7, 2.91301162568043991996e+00) (8, 9.80507580043136206527e-01) (9, 9.25930950020079746032e-01) (10, 6.87162621639413218055e-01) (11, 7.46325120521204365964e-01) (12, 5.87936833799986402482e-01) (13, 7.63935134635455703744e-01) (14, 1.75387887968678035655e+00) (15, 3.94134661695425325689e+00) (16, 4.82896334035731678025e-01) (17, 6.56614185877616773901e-01) (18, 1.09755174589277082475e+00) (19, 5.47140220211690064822e-01) (20, 6.01565155821367492095e-01) (21, 5.16751834144782207225e-01) (22, 7.05379656826068401898e-01) (23, 1.64976160436054075653e+00) (24, 7.70275125490507917014e-01) (25, 5.61743575447288034930e-01) (26, 1.37607521196272153396e+00) (27, 7.17315794055518485273e-01) (28, 9.76503890115145489759e-01) (29, 1.26400560952912655033e+00) (30, 8.20387113284403390878e-01) (31, 5.52722837292753288452e-01) (32, 8.22334137550021715413e-01) (33, 5.49477188279368866652e-01) (34, 3.51435438732158600406e-02) (35, -7.92505109619149189504e-02) (36, 2.13857426256913424334e-01) (37, 2.86435648370255702133e-01) (38, -1.58190549890312240344e-02) (39, -4.33848577953382186223e+00) (40, 5.94451695962863402301e-01) (41, 4.88698275875726784179e-01) (42, -1.32412592300256015676e+00) (43, -1.79954032151277298901e+00) (44, 3.91499132188489973316e-01) (45, -7.15834164799391436951e-01) (46, -6.43873522908683271204e-01) (47, -5.02785168082073141704e+00) (48, -1.12423733787487556413e+00) (49, -6.75957123807591098164e-01) (50, -8.75416248835796717565e-01) (51, -8.98685295102581993554e-01) (52, -9.79294211571076655964e-01) (53, -2.62829907626131564768e+00) (54, -9.33646271463246080202e-01) (55, -1.42577042539194698278e+00) (56, 4.58831574661192675979e-01) (57, 3.43541164590930869771e-01) (58, -2.18209850986878090007e-01) (59, -1.11332282486756795059e+00) (60, 5.54595403293210331697e-01) (61, -1.93949049779265147997e+00) (62, 4.06291728643418337263e-01) (63, 1.42703937098810740292e-01) (64, 6.13310442914542175430e-01) (0, 1.11506736542059425865e+00) (1, -2.70506655174453158885e-01) (2, -3.84779304476079553332e-01) (3, 3.88795197527186253694e+00) (4, 5.44853900997380735660e-01) (5, 3.42110129615477764897e-01) (6, 5.07109368897368351092e-01) (7, -8.55716548444212188329e-01) (8, 5.76422265963852376025e-01) (9, 5.19121643992810244406e-01) (10, 6.57694702502666372901e-01) (11, -8.35449770724829954283e-01) (12, 4.65227917968751958355e-01) (13, 5.19974810218482019764e-01) (14, 2.10016852776109180789e-01) (15, 1.01097088638862714349e-01) (16, 2.84249555235745265946e+00) (17, 7.71419828305340421482e-02) (18, 1.85199588589796099170e-01) (19, 5.75918225426830729385e-02) (20, -7.12592235392999828747e+00) (21, 5.19243440626839247720e-01) (22, 3.65105470314916757957e+00) (23, 1.21494746805294928649e+00) (24, -1.61937862300256507631e+00) (25, -3.65053167647932141904e+00) (26, 4.21395930622550540789e-01) (27, -9.93232366341724959291e-01) (28, 6.06695169677448853385e-01) (29, -2.61128784779827904927e+00) (30, 6.67615376763198931087e-01) (31, 6.62980302644142205359e-01) (32, 7.61978849061520802088e-01) (33, -5.71790080236487738286e-02) (34, -2.04335738721894477621e-01) (35, 5.66864873384982592697e-01) (36, 5.55947215306855202499e-01) (37, 4.29682563595988664673e-01) (38, 6.25505167612070311911e-01) (39, 2.77622035400107325387e-01) (40, 4.87361853393043498173e-01) (41, 7.74163934841891610006e-01) (42, 7.51239721378823555042e-01) (43, 4.23135841681415547644e-01) (44, 3.78452705762805041712e-01) (45, 3.73097552974639257162e-01) (46, 4.03390073896209497284e-02) (47, -3.16215032290453820774e-02) (48, 7.05805300945193808682e-02) (49, -1.88303254298945565992e+00) (50, -2.93041922701825408026e+00) (51, -1.02532979433058479835e+00) (52, -3.70378517414087393700e-01) (53, 4.88499148159550256043e-01) (54, 6.61749462778705499488e-01) (55, -4.57191737593207817025e-02) (56, 2.75565723363224046594e-01) (57, 7.44308746201798460129e-02) (58, 3.31794144118005673860e-01) (59, -4.10485030760428970531e-01) (60, 6.53855976898386925811e-01) (61, 6.30378993285747174502e-02) (62, 8.31377332614362529739e-01) (63, 7.83437342898043453943e-01) (64, 5.45017391095945491486e-01) (0, 5.26632775134894925984e-01) (1, 4.24232936677166438955e-01) (2, 6.89543625948145999516e-01) (3, 5.46361081377283563931e-01) (4, 3.65459881303453748558e-01) (5, 5.73965134043361580041e-01) (6, 4.13064366315039954713e-01) (7, 3.94851264685216529760e-01) (8, 2.99013635823703771699e-01) (9, 4.84007643938308140807e-01) (10, 4.55827200790495823401e-01) (11, 3.53076774179457819614e-01) (12, 3.14325161472210568014e-01) (13, 6.05749811181811925742e-01) (14, 5.17228919729379121861e-01) (15, 6.73938606896357428333e-01) (16, 4.74795439684600195651e-01) (17, 5.57075860447069026726e-01) (18, 8.17146374122934338047e-01) (19, 4.07108917805375059018e-01) (20, 8.02536638301896809722e-01) (21, 5.48260083207818160744e-01) (22, 4.69560697342645883001e-01) (23, 5.30091236334620408144e-01) (24, 3.72760432765622651274e-01) (25, 5.31251873552467057671e-01) (26, 5.41527358316520546211e-01) (27, 5.70486822596014908626e-01) (28, 2.96834553681595725294e-01) (29, 6.03368544515749172241e-01) (30, 4.45685520217382558084e-01) (31, 4.41598115048745631928e-01) (32, 4.99062495294216035280e-01) (33, 1.01339590075032415228e+00) (34, 1.04620465962208841759e+00) (35, 4.10103572217512202247e-01) (36, 4.20907180253794255265e-01) (37, 6.00599142546618725014e-01) (38, 4.86202306143909468439e-01) (39, 6.14308956540302042448e-01) (40, 4.27723420302580426000e-01) (41, 5.03458430689360358912e-01) (42, 4.81360036384312350854e-01) (43, 6.08477828815720434008e-01) (44, 3.92602954490362143769e-01) (45, 7.30915328948965048461e-01) (46, 5.65765002147469608929e-01) (47, 6.56892303269382527020e-01) (48, 4.62554592177705059530e-01) (49, 3.80539919614025723416e-01) (50, 5.70463124310565672381e-01) (51, 4.14505675774064663575e-01) (52, 7.24121049874404398849e-01) (53, 4.53169575978667582561e-01) (54, 5.31639414480949645814e-01) (55, 4.45539416900368689944e-01) (56, 4.36808955517731856144e-01) (57, 5.52377785105946039756e-01) (58, 1.75891500852766169416e+00) (59, 8.15545687402250529807e-01) (60, 2.96674696355075151466e-01) (61, 5.85000692802739363785e-01) (62, 5.05701261534004409270e-01) (63, 5.96515235749445649205e-01) (64, 4.30593054913231687575e-01) (0, 2.75580292672206791232e-03) (1, -1.57622684172058630248e-01) (2, -2.55397581311442821439e-02) (3, -2.88592201960075284486e-03) (4, -3.43435624568347377950e-02) (5, -3.41282341872352693035e-02) (6, -4.13255986156132876230e-02) (7, -7.14577126667057388465e-02) (8, -2.56462709266141800080e-02) (9, -2.41981545909389153537e-02) (10, -2.26251707937151352867e-02) (11, -1.24836714675390821061e-02) (12, 4.11286983960812424499e-02) (13, -9.37285591818807356512e-02) (14, -2.11976988857596644611e-02) (15, -8.49313363386099695607e-02) (16, -2.71683613244215436955e-02) (17, -3.52166164785779264856e-02) (18, 2.65534419300261399777e-02) (19, 3.79436363549123176209e-02) (20, -5.67071746158905806712e-02) (21, 6.16122956021914955360e-02) (22, -1.10733526209390226169e-01) (23, 1.49580472973791234192e-02) (24, -4.66783027602703098902e-02) (25, -8.39751989366078754884e-02) (26, -1.16868803808334503769e-01) (27, -1.15813698563061118207e-01) (28, 7.83364874204330041696e-02) (29, -1.00405621500243416588e-01) (30, -3.01653780770744089912e-02) (31, 1.17122135754295936955e-02) (32, -1.58499341107615460134e-01) (33, -8.99289171334819031900e-02) (34, 6.78635672445250352769e-03) (35, -2.27467776425794125650e-02) (36, 1.52906153648154057717e-02) (37, -5.84765148996801847892e-02) (38, 3.20831517115428080378e-02) (39, 3.63675892934728281491e-02) (40, -2.56136997938148907455e-03) (41, 1.53661869345957068089e-02) (42, -6.19696785592249790864e-02) (43, 1.93363251305121545964e-02) (44, 3.85904762833388231824e-02) (45, -1.10197309585464572890e-01) (46, -1.19046341952525142061e-01) (47, -2.38119043253486144252e-02) (48, -1.90924921106166902568e-03) (49, 9.46756653343214411855e-03) (50, -8.68831127902442990063e-02) (51, 7.78132749365121750840e-02) (52, 4.44968805248493262661e-02) (53, 7.58786142575063309729e-03) (54, 6.15222046137470571225e-03) (55, -9.34967706858457481278e-02) (56, 1.30689289526913481748e-02) (57, 5.73323120696285701281e-02) (58, -4.72624299775671261048e-02) (59, 7.44010162618043667526e-03) (60, -1.04583953946707844396e-01) (61, -4.15976983828010710154e-02) (62, -3.93578567738877768689e-02) (63, -1.27446286819209164687e-01) (64, -9.69800680087409133767e-02) (0, -8.22665541700786512314e-02) (1, 5.74915850479692097652e-02) (2, -5.05280301749997731720e-02) (3, -1.22171723934187993754e-02) (4, -2.33830582235535731905e-02) (5, -1.21269609074523596060e-01) (6, -8.11212303406270984762e-02) (7, 8.88745971769579548583e-03) (8, 1.28594830889333417052e-03) (9, -2.98226650061818622517e-02) (10, -4.24492835232053583594e-02) (11, -1.86086728683108118543e-02) (12, -4.14675378705004343827e-02) (13, -1.07860900205478490999e-01) (14, -5.78316096640476701163e-02) (15, -6.62639841556756092888e-02) (16, -5.63804713221865566597e-02) (17, -6.78031854940873979221e-02) (18, -5.37393363654441388877e-02) (19, 6.28880492917702343947e-02) (20, -7.26583344439751532828e-02) (21, -2.06887230402496707926e-02) (22, 1.03229724833132016637e-02) (23, -1.18995241000509316409e-01) (24, 6.28458570340400535237e-02) (25, -2.14046584047791858818e-02) (26, -5.95507148918639622748e-02) (27, -1.17370244475442142562e-01) (28, -1.34171209016609643827e-01) (29, -7.84517434951379488695e-02) (30, -2.30921882961666047329e-01) (31, -9.59996003582608420368e-02) (32, -9.01570855892177142055e-02) (33, -4.76359965000712065608e-02) (34, -1.21396557973820692911e-01) (35, -1.40347371708878482233e-01) (36, -4.95050282724687623626e-02) (37, 9.64158670025299681383e-03) (38, -2.09351770383760064920e-02) (39, -5.26632669862140551098e-02) (40, -5.32212602873656168145e-02) (41, -3.71822603478510994510e-03) (42, -8.25772168398395955968e-02) (43, 7.31114955313019905525e-03) (44, 2.39624719030273290732e-02) (45, -1.05416479342770513794e-01) (46, -8.83890976127854055555e-02) (47, -9.85007553690264991975e-02) (48, 3.84333474764523841394e-02) (49, -3.38853981869144740835e-02) (50, -1.01101818404662844447e-02) (51, -9.38640678595534239115e-02) (52, -1.32515019589278970624e-01) (53, -8.85308879636388240675e-02) (54, -3.14407451565147585959e-02) (55, -1.73838858462668777172e-01) (56, -4.99686339315800229048e-04) (57, 3.81267420162280795681e-02) (58, -7.65578420515722474216e-02) (59, 5.15233870070799966634e-03) (60, -1.18379616616299476739e-01) (61, -1.23382056335307327410e-01) (62, -1.05634751346916425097e-01) (63, -7.62824863667465186134e-02) (64, -1.45848902279200953735e+00) (0, 3.12620596505708281398e-01) (1, 8.18936844840148170377e-01) (2, 7.63638336859592037342e-01) (3, 6.16904855930744511205e-01) (4, 3.00982164595335277557e-01) (5, 5.16932256751069463263e-01) (6, 3.85878024639068450963e-01) (7, 5.90223972043204314630e-01) (8, 4.12067783265012421712e-01) (9, 3.57124477024555575522e-01) (10, 3.98535281814440034420e-01) (11, 4.50054849319423244669e-01) (12, 4.45599812565314779000e-01) (13, 6.70828745725277508782e-01) (14, 4.61087926478888687765e-01) (15, 6.95709683272484502581e-01) (16, 5.54740098172386564279e-01) (17, 5.55393298860168305175e-01) (18, 6.00432692286230085266e-01) (19, 6.33619762330978053555e-01) (20, 7.92062490758792092649e-01) (21, 4.68953218903189694711e-01) (22, 5.11442130831075369990e-01) (23, 6.75855534876864338933e-01) (24, 4.90559699977196506104e-01) (25, 5.75313713804487036896e-01) (26, 5.35668873146493140780e-01) (27, 4.03839239092659785246e-01) (28, 3.49646438213146004692e-01) (29, 6.14292341254908946802e-01) (30, 5.31379321065094889498e-01) (31, 3.75826433138422288938e-01) (32, 4.72345003196203039320e-01) (33, 1.48503961489897595705e+00) (34, 1.09446651791576865520e+00) (35, 5.29751399241197962198e-01) (36, 4.65194666296899539404e-01) (37, 5.50900351083683292863e-01) (38, 4.61506248965833754117e-01) (39, 6.08786963048350782124e-01) (40, 2.50068936376399597599e-01) (41, 4.99545525307375726243e-01) (42, 4.15909020877707980013e-01) (43, 5.96440324419079265228e-02) (44, 4.11808508216964186399e-01) (45, 6.46950473769073775010e-01) (46, 5.54576417286706396803e-02) (47, 1.25419858677076834219e-01) (48, 2.10780231929162953364e-02) (49, 8.45129545992570063717e-02) (50, 8.24541361233057240598e-02) (51, 1.22801766115984492544e-01) (52, 6.03852953511826218147e-01) (53, -6.46124644558756650037e-02) (54, 5.63308072420526384505e-01) (55, 6.26946478913369853458e-01) (56, 4.50709825682863440832e-01) (57, 6.15757048677273322035e-01) (58, 8.11361198455825327613e-01) (59, 8.06712871506317763526e-01) (60, 3.47223613902435557232e-01) (61, 6.58598687868050980398e-01) (62, 4.06573799979314198794e-01) (63, 5.12164415550354523710e-01) (64, 4.17442418947271520757e-01) (0, 3.33684278739094994370e-02) (1, 2.86037875976470623574e-01) (2, 2.41285883504729764537e-01) (3, 2.19902816394758782170e-01) (4, 2.41652380891167542498e-02) (5, 9.04206356548098888481e-01) (6, 1.69760543972870547869e-01) (7, 1.10471344455951331343e-01) (8, 4.30803583499199185813e-02) (9, 2.09435319150308441039e-01) (10, -4.83835596868565989692e-02) (11, 6.07176837736729188566e-02) (12, 1.17530288305252028636e-02) (13, 3.49634308703898333270e-01) (14, 4.32682918520988710198e-02) (15, 4.44167050709820890320e-02) (16, 3.14945544304516631545e-03) (17, 5.96730586859308409498e-02) (18, 1.91426814093477976053e-01) (19, 2.51871104100826526118e-01) (20, 3.37012983685707256942e-01) (21, 1.06907450254372857201e-01) (22, 1.30840942140142968420e-01) (23, 2.43787316776927609485e-01) (24, 6.56138921549552639467e-02) (25, -2.73966257563179882428e-02) (26, 1.41739386619540459061e-02) (27, 3.54034778180086273647e-01) (28, 1.30558806562037360566e-01) (29, 1.77499531961657852630e-01) (30, 1.78754038649172838395e-03) (31, 1.00110883336432740509e-01) (32, 1.65474644273433633967e-02) (33, 2.25794275544205169659e-01) (34, 1.24536041304355776793e-01) (35, 1.04224260521324510465e-01) (36, 2.61560875093163197613e-02) (37, 1.05004052627436728073e-01) (38, 6.41638401777973599316e-02) (39, 1.35615093354491900168e-01) (40, -1.31174965573170293487e-01) (41, 5.60261209908602328400e-02) (42, 2.93851377672000244057e-02) (43, -1.27744191968408360438e-01) (44, -1.50852896224346888499e-01) (45, 1.58380443104288837208e-01) (46, -3.90307761128197636125e-02) (47, -1.69474941403998130562e-01) (48, -2.14805021959545761057e-01) (49, -2.74930129860483263293e-01) (50, -4.50645401971789469342e-02) (51, -3.05337159242479894150e-01) (52, 6.54035266218078864542e-02) (53, -8.40543771367233683023e-02) (54, 1.60488980011324021413e-02) (55, -2.21619469843971073075e-01) (56, -1.04350067506652904870e-02) (57, -4.65012269397218958034e-01) (58, -1.73034129769606206950e-02) (59, -8.23069825739925348129e-02) (60, 1.39399493339249225254e-01) (61, 9.53876914115881352485e-02) (62, -1.42034241805728649044e-02) (63, -1.52855430117749990782e-01) (64, 8.85792382454910071088e-02) (0, 4.74878154984167799579e-01) (1, 7.57794938451137989333e-01) (2, 7.19611268858518338121e-01) (3, 6.05757188790836620385e-01) (4, 3.70341424940181351833e-01) (5, 4.84696645745243182013e-01) (6, 4.08611652997878382898e-01) (7, 7.34963609878911516837e-01) (8, 4.63310119995942404358e-01) (9, 3.51771618310867062451e-01) (10, 3.43989011187231297217e-01) (11, 4.19622000075450696244e-01) (12, 4.47956103057082721808e-01) (13, 5.89957369046420043723e-01) (14, 4.98749974732398237975e-01) (15, 1.00804687944189219628e+00) (16, 5.52997791391086179758e-01) (17, 5.25991180255649837250e-01) (18, 6.96822646441664805828e-01) (19, 3.89730064395982234160e-01) (20, 7.09039667752060398520e-01) (21, 5.61365061311197566241e-01) (22, 5.40937882041878093098e-01) (23, 5.32775771840336309637e-01) (24, 4.73589225451941098211e-01) (25, 5.67500221003268690012e-01) (26, 5.61939491493076648254e-01) (27, 5.48042340588119736289e-01) (28, 3.91429342794430312757e-01) (29, 6.30538041373221558317e-01) (30, 4.33384250789495717449e-01) (31, 4.64876119743397930861e-01) (32, 4.82694593886622114187e-01) (33, 8.02724747528925419715e-01) (34, 1.13012133960468608151e+00) (35, 5.75506577166713051419e-01) (36, 2.74683324493744662753e-01) (37, 5.56739323328465429697e-01) (38, 5.82801473978815209875e-01) (39, 6.63721312224345716402e-01) (40, 4.38294007180662137380e-01) (41, 3.76215868579403089900e-01) (42, 5.10822830653826942537e-01) (43, 5.30958433272018415217e-01) (44, 4.48104089551705719874e-01) (45, 5.03316037581498565423e-01) (46, 4.82542824777561274452e-01) (47, 5.95636537977220825724e-01) (48, 5.96309008006928764623e-01) (49, 4.36456010496591106929e-01) (50, 6.13544688513081304393e-01) (51, 5.17846873417179609511e-01) (52, 6.43938069197316553804e-01) (53, 5.11453222854766909045e-01) (54, 5.93400941701678341644e-01) (55, 5.10035226247940398636e-01) (56, 4.62529955534223713443e-01) (57, 4.80889934415211273144e-01) (58, 8.12041556584007562236e-01) (59, 4.48337613080086960782e-01) (60, 4.47075231043327414593e-01) (61, 4.62052878986505655146e-01) (62, 5.47134029802295418499e-01) (63, 4.10977223040826844525e-01) (64, 3.19475868970481857723e-01) (0, 7.09910593098495995568e-02) (1, -5.30316386053873711770e-02) (2, -3.77946893916397061441e-02) (3, 1.14424128755443249572e-01) (4, -1.11166611794437431016e-01) (5, 4.54424688397785173088e-02) (6, -6.41684981845418445090e-02) (7, -1.45832361114888897635e-01) (8, -1.30685459120550129253e-01) (9, -8.82372019730155027206e-02) (10, -1.18235781884643079143e-01) (11, 1.24185288280137910710e-02) (12, -3.93171734537035716395e-02) (13, 1.09897948300680628475e-01) (14, 1.43132241964268863005e-02) (15, 5.43159828436020394177e-03) (16, -5.93808178463645346817e-03) (17, 1.07273891572361487756e-01) (18, 5.51657180982298919747e-02) (19, 7.37286712942836902629e-02) (20, -1.06388397621703253981e-01) (21, -1.38971670750543785378e-01) (22, -8.98030260406525310257e-02) (23, 1.75340840656169373590e-02) (24, -1.69613047915921043296e-02) (25, -1.21464724462130344018e-01) (26, 1.00128971456917344879e-02) (27, 4.33779201274060097204e-02) (28, -1.72779170093430550770e-01) (29, 5.02579052090633970895e-02) (30, 2.69238276196577148991e-02) (31, 8.74814391801203294907e-02) (32, 1.65150292297883860559e-01) (33, 1.26893450109013011806e-01) (34, -2.96036090209427539544e-02) (35, -2.57294239033428115415e-02) (36, 1.73819569689562664072e-01) (37, 2.55364590355155289536e-02) (38, 1.21621702197382455801e-01) (39, -1.05002014834645260311e-01) (40, 5.69867396415339122484e-01) (41, 1.42394863202248395107e-01) (42, 2.13805920813826211280e-01) (43, 8.10490153177741839974e-02) (44, -1.92885720305905339345e-02) (45, 7.18376681546935291767e-02) (46, 1.72163042943570876453e-01) (47, 3.45800621762757554034e-01) (48, 1.50018159137591967217e-02) (49, -5.31241390777420982583e-02) (50, -8.60551787574327792241e-02) (51, -1.62625216169690167689e-01) (52, 1.69855321305200063220e-01) (53, 9.91907725921854777074e-03) (54, 1.60650055891817189480e-01) (55, 1.35969190752071641265e-02) (56, 7.42233140674522229308e-02) (57, -2.85503895820778952341e-02) (58, 2.05830868810645439826e-01) (59, 1.14131174867798571015e-01) (60, 5.67739339725587321972e-01) (61, 1.67421086956200670937e-01) (62, 6.27250177169883377237e-02) (63, 1.49223181873931437513e-01) (64, 5.20040164332887869247e-02) (0, 4.19379940133111431266e-02) (1, 2.17222084335530946086e-01) (2, 3.95936712133662049862e-01) (3, 1.21551216903521108748e+00) (4, -1.32607045473511986344e-01) (5, 6.65733838440580316664e-02) (6, 5.41971783678818971874e-02) (7, 4.36532583004994034770e-02) (8, 3.73764563368228219797e-02) (9, 6.76496526451780544331e-02) (10, -9.35177043506067312562e-02) (11, 1.50002802911855179224e-02) (12, -8.45455102917105350002e-02) (13, 3.02399584386793922330e-02) (14, -2.82702225865093074997e-02) (15, -2.66731917390673034518e-01) (16, 2.93795886313296464309e-02) (17, -2.40245044959646048000e-01) (18, -4.02561569265970295439e-02) (19, -5.02832162501494137063e-02) (20, 7.54413232717852655362e-02) (21, -7.40964468579830976003e-02) (22, -1.58442344463560653989e-02) (23, -7.07034725371443184549e-02) (24, -4.46024062840389284856e-02) (25, -5.07826224313628754592e-02) (26, -1.46063763923432510250e-01) (27, -6.12008543069216953691e-02) (28, 3.36461044456915631118e-02) (29, 4.93669804583914059726e-02) (30, 5.47964630110823747167e-02) (31, 2.67282867911305122011e-01) (32, -3.05721926574729317705e-02) (33, -1.33096249468283300832e-01) (34, -3.57404856940529869203e-01) (35, -1.25345872426138682521e+00) (36, 1.67905504095678226317e-01) (37, 5.71505918044568628211e-02) (38, -3.22611635394190882087e-02) (39, 4.71789888862951464765e-02) (40, 7.58212810484891197582e-02) (41, -6.37030490723971849071e-03) (42, 7.61085342990464736035e-02) (43, -6.23015824910701687851e-04) (44, 1.79872293061419469273e-01) (45, 3.42921378083123756797e-02) (46, 4.71427288801948840558e-02) (47, 2.08735453932076570061e-01) (48, 1.23093631224128904900e-01) (49, 3.29709336074257841620e-01) (50, 6.99404372538812157956e-02) (51, 4.92509559496109652899e-02) (52, -1.13294079543789527088e-03) (53, 1.02536591786431652285e-01) (54, 4.80353510756106397150e-02) (55, 6.55312740498375095877e-02) (56, 1.27001484916082346688e-01) (57, 1.10787816760194599008e-01) (58, 9.84044995418506679430e-02) (59, 5.33316597691400398618e-02) (60, 3.92604763279738866455e-02) (61, 1.43916784158443483016e-02) (62, 1.01016626828390153336e-02) (63, -2.37832036603799978902e-01) (64, -1.58728706708866296182e-01) (0, -2.01522895410368246827e-01) (1, -1.73028619354101464989e-01) (2, -1.05271283457344350110e-01) (3, -1.11462696584284856605e-01) (4, -8.06327400307112196476e-02) (5, -1.48643999245695213052e-01) (6, -2.15990344654617805187e-01) (7, -5.67557741470190793565e-02) (8, -7.20243687110757813130e-01) (9, -1.48999822481146848574e-01) (10, -5.53412398408606731603e-02) (11, -1.10555798747773187385e-01) (12, -1.45270202421339228449e-01) (13, -1.40744206988486081356e-01) (14, -2.10575783386368099726e-02) (15, -1.61484050231003734011e-01) (16, -1.12618367176201467084e-01) (17, -1.57725265803061343028e-01) (18, -1.46402775354135761265e-01) (19, -5.58210810901786716465e-02) (20, -3.37716800670658512384e-02) (21, -1.12319154587633487918e-01) (22, -1.76677127239169035056e-01) (23, -7.19538039738466667083e-02) (24, -4.16122536678130358623e-02) (25, -1.13315373772595137658e-01) (26, 3.94550324986035205743e-02) (27, -1.46134645788012801360e-01) (28, -2.13407011381325950605e-01) (29, -1.04045008888797550772e-02) (30, -1.01048557409116557260e-01) (31, -1.86219928478484481049e-01) (32, -1.42565011494214730070e-02) (33, -1.53376812670025952645e-01) (34, -3.08263282537811766915e-02) (35, -8.14321128377051145497e-02) (36, -1.34481685657092481234e-01) (37, 1.15876449914910830546e-02) (38, -1.07876138900888512984e-01) (39, -3.04285546339179910347e-02) (40, -3.20605438181869095704e-01) (41, -9.82458392652925671662e-02) (42, -8.98365287155082348214e-02) (43, -1.37999234291198591418e-01) (44, -1.02254425718020847125e-01) (45, -6.04325943196577161642e-02) (46, -9.48705653650697422474e-02) (47, -1.26548935919111399384e-01) (48, -1.19805026982279835823e-01) (49, -1.02769296292598982800e-01) (50, -4.46661741542709184172e-02) (51, -1.49084161985609253698e-01) (52, -2.55022917551560243665e-02) (53, -1.05093640526560255788e-02) (54, -4.40054652849155847338e-02) (55, -4.81739974832626344226e-02) (56, -1.67042718567996045786e-01) (57, -6.01931902731041024168e-02) (58, -1.60030569475268141799e-01) (59, -9.61955954235944044051e-02) (60, -1.34324223187868574403e-01) (61, -3.06943873861838280315e-02) (62, -6.28002990777044439730e-02) (63, -1.27411033832121461939e-01) (64, -2.63603768607680022384e+00) (0, 4.32871561275550639780e-02) (1, -1.26220671742886009215e-01) (2, -9.96070768924293449553e-03) (3, 1.88974897132745921213e-02) (4, -4.34382274635795873063e-02) (5, -8.21286120036223282748e-02) (6, -4.83990893648571229857e-02) (7, -1.72420153308868590036e-01) (8, 4.16733961893483786931e-02) (9, -9.73579803698268186896e-02) (10, -1.39299926994571904998e-02) (11, -8.48367742640372957119e-02) (12, -8.30763498039346556800e-03) (13, 7.65117258461984195428e-02) (14, -6.50308449091614726445e-02) (15, -3.61678200156051593561e-02) (16, -4.70741292365364286110e-02) (17, -6.44885329000471907435e-02) (18, -4.43549463320641167846e-03) (19, -5.67262306825056135395e-03) (20, -1.14649623353112337099e-01) (21, 8.10856972080710447504e-02) (22, -1.80484939424117758755e-02) (23, 1.05617304233441991826e-03) (24, 3.57687166021203248323e-02) (25, -9.31749008176512155677e-02) (26, 6.80089416878805041317e-03) (27, -6.18337984689896948826e-03) (28, -1.70159415086050924693e-01) (29, 5.93826961884605236675e-02) (30, -4.48182790839565386998e-02) (31, -1.02574056553615382964e-02) (32, -1.16928177873872024550e-01) (33, -1.32582333744134084341e-01) (34, 1.85761867084730247779e-02) (35, 1.59300015751238713269e-02) (36, -7.86299893064534849429e-02) (37, -6.08965996218604546653e-02) (38, -1.23453779702139450347e-02) (39, -9.61182636141996032952e-02) (40, -1.95189491269359138848e-02) (41, -1.11930042100965199299e-03) (42, 5.28434595702342441159e-02) (43, -8.94516575557382093153e-02) (44, -2.71663787289731853414e-02) (45, -8.10703910625908269472e-02) (46, 2.10259555965872993455e-02) (47, -3.44167686590157242965e-02) (48, -8.35198919715162413357e-02) (49, -1.98514261229891346427e-02) (50, 6.17848010481588660880e-02) (51, 5.63535062020678687716e-03) (52, 2.06319018916115079487e-02) (53, -4.19043430869602689937e-02) (54, -4.67646397224861856690e-02) (55, -1.35157290595406369416e-02) (56, -1.10187293566261414884e-02) (57, 3.95177980164713379962e-02) (58, 9.80691964450312349266e-03) (59, 1.00499499944706072868e-02) (60, -2.44441158654650665671e-02) (61, -9.72709024694368151742e-02) (62, -3.02300995537999779572e-02) (63, 1.53043288616878138397e-02) (64, -2.69083281533182228085e-01) (0, -2.13218888155203539769e-01) (1, -5.24693891876429618915e-02) (2, -4.65247838739079322412e-02) (3, -1.22175871843081651491e-01) (4, -2.11902950602842338190e-01) (5, -2.53055535086169014480e-01) (6, -2.29974997086788368605e-01) (7, -1.79174478794565883444e-01) (8, -5.29345441341219413722e-01) (9, -1.55540736531912721086e-01) (10, -1.34192771282090145268e-01) (11, -2.52417884890025756572e-01) (12, -2.59322684423762661599e-01) (13, -2.39330777601228505969e-01) (14, -7.88676130306806971726e-02) (15, -1.81696137042886507462e-01) (16, -9.00596196353213584995e-02) (17, -1.65369542448627698805e-01) (18, -4.29472263999022690895e-02) (19, -2.03544251079078836186e-01) (20, -1.18399158901765829549e-02) (21, -1.19394969779079637706e-01) (22, -1.11528382744276247096e-01) (23, -9.42235703123784212876e-02) (24, -3.35584871782745985946e-01) (25, -1.34103836342900961665e-01) (26, -1.32026968207878181438e-01) (27, -2.26920493811550993968e-01) (28, -3.34547154481060038389e-01) (29, -1.15832149854953214696e-01) (30, -2.24730737796730251077e-01) (31, -2.58646102029315427817e-01) (32, -2.56335341235459202025e-01) (33, -1.53956499772393395897e-01) (34, -1.25166609969777964384e-01) (35, -1.61398859907808472913e-01) (36, -2.43217822606717037903e-01) (37, -1.14473766383804645419e-01) (38, -1.41205323614742361826e-01) (39, -1.49101487514450237182e-01) (40, -4.36961484493781082694e-01) (41, -1.57525444376233475507e-01) (42, -1.51654835099091722661e-01) (43, -2.89727546448232786691e-01) (44, -1.36149856661555102022e-01) (45, -9.04512936035924974831e-02) (46, -2.08674358697062634072e-01) (47, -1.42028114392075271999e-01) (48, -3.96808013461983494219e-02) (49, -2.33718250491998263962e-01) (50, -9.54746193584464636350e-02) (51, -3.40619279460554341687e-02) (52, -5.41763222438069666498e-02) (53, -1.73459533071436744489e-01) (54, -1.06811466804487914528e-01) (55, -1.17346553057187705238e-01) (56, -1.00379054973889630942e-01) (57, -9.44200119750602112623e-02) (58, -1.08320656460691860934e-02) (59, -1.89490527629132321508e-01) (60, -1.30747387264752573666e-01) (61, -1.61505098132952412682e-01) (62, -1.15379603997296117934e-01) (63, -2.72598170449024124196e-01) (64, -1.12508521431171915061e+00) (0, -1.61040298761741473843e-01) (1, -2.92075222467980677443e-02) (2, -2.32988796958073958454e-02) (3, -1.99616197385129243158e-02) (4, -1.08017439817846283567e-01) (5, -1.31029145996658796802e-01) (6, -1.15327961658891128827e-01) (7, -1.18590989661708695602e-01) (8, -8.06138038431933767747e-01) (9, -6.60348569612518171423e-02) (10, -3.63651086000299425538e-02) (11, -1.96048575573313510478e-01) (12, -9.74652850803150033743e-02) (13, -9.69500363050798535935e-02) (14, -1.21896502618892413339e-01) (15, 3.56653495231377057340e-02) (16, -4.86586432274296598610e-02) (17, -1.36837143494644042363e-01) (18, -5.28531230972887552944e-02) (19, -1.68898598512742081912e-01) (20, 8.59506877933789575907e-02) (21, -1.28515632557099385158e-01) (22, -2.06633307640015612128e-01) (23, -1.46507521775629590000e-01) (24, -1.87135744384324259615e-01) (25, -1.26900508110723342359e-01) (26, -8.83726841524109518744e-02) (27, -8.58347669996843837259e-02) (28, -1.15664828191513954780e-01) (29, -1.21554697059485114496e-01) (30, -4.52440910021121855955e-02) (31, -1.07106848017282943464e-01) (32, 2.12389623524388872211e-02) (33, -6.52240525751695554568e-02) (34, -5.78377612452052741743e-02) (35, -1.05587725251862121767e-01) (36, -2.88223538715467325622e-02) (37, 4.43719707562701889958e-02) (38, -7.51502104036676638055e-02) (39, -9.59908120104542156303e-02) (40, -2.69530896745256765001e-01) (41, -5.34099014365251797964e-02) (42, -3.69072486330029245205e-02) (43, 1.89341282715414023670e-03) (44, -2.15178330370493393897e-02) (45, 3.70150070126848244889e-03) (46, -4.74053310562280588725e-02) (47, 4.72712503377979622460e-04) (48, -7.01493127674655825299e-03) (49, 4.42644914642686820860e-02) (50, 3.37586266854143779437e-02) (51, -1.53143441167095523125e-02) (52, -1.77435457553672404352e-01) (53, 1.38017188746330041887e-02) (54, 3.48391208938241946774e-03) (55, -1.67324509158176315538e-01) (56, -1.41620684496198880747e-02) (57, 4.28053145425215109121e-02) (58, -2.55278191378282143242e-02) (59, -4.03684725451195283719e-02) (60, -1.53744932031385561633e-01) (61, -9.69751472629490490762e-02) (62, -1.18100865385622325054e-01) (63, -1.88384533921624297559e-01) (64, -3.69582035762088567665e+00) (0, 4.30060571396501667429e-01) (1, 8.00375348333961511571e-01) (2, 6.82310245075369414813e-01) (3, 4.51116214028860706975e-01) (4, 3.20243376400435819651e-01) (5, 6.52271350495453705598e-01) (6, 4.72267021081248405956e-01) (7, 6.03781732968772688608e-01) (8, 4.19639148501057934748e-01) (9, 3.94385086478501456497e-01) (10, 3.52161656673948608720e-01) (11, 3.63577367031303555489e-01) (12, 5.04813501966334676752e-01) (13, 7.16562388666363347944e-01) (14, 4.77203629957226205249e-01) (15, 1.04024803933239540221e+00) (16, 4.74069485399267132042e-01) (17, 5.73162212674903082110e-01) (18, 7.12561179751363127366e-01) (19, 4.03000461752781702351e-01) (20, 7.28810921994323845929e-01) (21, 5.03015119583600123221e-01) (22, 5.01893945644237393644e-01) (23, 5.59402799669170058827e-01) (24, 4.65367823729757656981e-01) (25, 6.13710627269263953032e-01) (26, 7.65929964672814489468e-01) (27, 6.24579448419909200041e-01) (28, 3.37406200761059815729e-01) (29, 6.49851406917347884651e-01) (30, 5.46171887251305165911e-01) (31, 3.73123437125693457883e-01) (32, 4.83992585682214704335e-01) (33, 1.13736662800831322961e+00) (34, 1.06016532374106442482e+00) (35, 5.00090356134495261919e-01) (36, 3.41729006317783690072e-01) (37, 5.93512936345921504611e-01) (38, 4.22604230375543177267e-01) (39, 6.07960636567399070884e-01) (40, 3.34262902540764017534e-01) (41, 4.52886564115992873436e-01) (42, 4.66075389035885190303e-01) (43, 4.56229360637141867496e-01) (44, 3.46571612639667736566e-01) (45, 5.69047341002463125115e-01) (46, 4.61203029117077833998e-01) (47, 6.75229950234045417368e-01) (48, 4.78772846932827178534e-01) (49, 5.97379006518725330643e-01) (50, 6.88513451852432289968e-01) (51, 6.07379771010828517497e-01) (52, 4.88363788425270062277e-01) (53, 5.03445954794512817720e-01) (54, 5.81382590336310345336e-01) (55, 5.87052876882453111840e-01) (56, 5.30643022397385255573e-01) (57, 5.39321500701695710767e-01) (58, 6.68897210172539224970e-01) (59, 4.94052801435004851349e-01) (60, 3.47389531046001287518e-01) (61, 5.14734412862360879437e-01) (62, 5.16490180756040029308e-01) (63, 5.89389853750453274195e-01) (64, 4.72972395926363697871e-01) (0, -4.58901238775669961800e-02) (1, 4.06611823873364724991e-02) (2, -6.04689019808400066852e-03) (3, -3.85194219698377526839e-01) (4, 2.20479762140930540815e-01) (5, 1.01683154498518446562e-01) (6, -5.99410706641149912399e-02) (7, -9.57464906998899967228e-02) (8, -4.89065593865392611583e-02) (9, -3.84542476981480085829e-02) (10, 9.25572147974286149608e-03) (11, 3.82839937403068892446e-03) (12, 5.81854041509791836129e-02) (13, 5.78343737259062184997e-02) (14, 1.61697071899981614784e-01) (15, 1.64122555984632795267e-01) (16, 1.07904274598118549156e-01) (17, 2.58179165431107082718e-01) (18, 4.91428233487198606877e-02) (19, 1.41721846138054052844e-01) (20, -1.82157751573265094813e-02) (21, -7.48147036739504889269e-02) (22, 1.73560540644523669807e-01) (23, 9.08775720420439275804e-02) (24, 1.15828608489865439446e-01) (25, 1.51531517962120443332e-02) (26, -2.60523036078245742719e-02) (27, -3.93986015560754548881e-02) (28, 3.89762574134550759952e-02) (29, 3.85578990246610298076e-02) (30, 2.08218932134441814252e-01) (31, -4.91651092398989394971e-02) (32, 1.32617084490615211312e-01) (33, 2.20874517669257808272e-01) (34, 1.18761266553253183598e-01) (35, 1.26426384725367602080e-01) (36, 2.38738500624897126423e-01) (37, 4.30353586291386674967e-02) (38, 5.65653112287977100081e-02) (39, 1.11440219877359275591e-01) (40, 1.25455146024519376136e-01) (41, 7.29229136692719076551e-02) (42, 6.17821909946326547347e-02) (43, -2.15319371103155215996e-02) (44, 1.11512872330697579426e-01) (45, -1.15563651759056459922e-01) (46, 1.48796283985140581629e-01) (47, 2.35151324020987761987e-01) (48, 5.56398654358599142888e-02) (49, 1.13625734278657852805e-01) (50, 5.23935020403382412102e-02) (51, 1.29271297398131562728e-01) (52, 5.41261996190109812011e-02) (53, -6.12181225329786957157e-02) (54, 7.64719932858243245377e-03) (55, 1.11702446908656244373e-03) (56, 9.30825720906765380347e-02) (57, 6.83606235425462949173e-02) (58, 5.03491522804989377615e-02) (59, 9.56258700458860189109e-02) (60, -1.09375440464370768390e-02) (61, 1.08749553147308025691e-01) (62, 1.47064360049608822134e-01) (63, 2.39084042002907712354e-02) (64, -2.93097976321476418049e-03) (0, 1.66857584459810470712e-01) (1, 5.59878788661505755186e-01) (2, -9.11713383111077552146e-02) (3, 7.45194214993615822173e-01) (4, 1.38597544149993145979e-01) (5, 1.82487686568332779791e-01) (6, 2.02688050775855416186e-01) (7, 2.09963990958246693452e-01) (8, 3.96096581177065198975e-01) (9, 1.27227553462357534375e-01) (10, 6.91981644434534692856e-01) (11, 6.19552172046610394318e-01) (12, -7.38439319612357036871e-02) (13, -4.48129285717883824036e-02) (14, -1.93950200227904351324e-01) (15, -5.77459320036540560417e-02) (16, -9.69206090191691571611e-02) (17, -6.05567142226341670330e-01) (18, -2.09605500470457700724e-01) (19, -2.38126795577000532900e-01) (20, 8.92401124823649360973e-02) (21, -6.33571340281294664853e-02) (22, 5.47772697239841468986e-02) (23, -1.96951875743972930344e-02) (24, 4.42856746547267254854e-01) (25, -4.85571886740145883254e-02) (26, 1.76105738330743388786e-01) (27, 3.18442478551180185864e-01) (28, 2.57411510591639025591e-01) (29, 1.98850031520011488739e-01) (30, 1.55657046113747449256e-01) (31, 7.68215134604758986825e-01) (32, 8.68073514601081230868e-02) (33, 2.48322382263147872772e-01) (34, 1.89006792805785500677e-02) (35, 2.83223576612266270125e-01) (36, -3.99689884461692346296e-01) (37, -1.76383801461614087014e-01) (38, -1.91457291750320002244e-01) (39, -2.99378187620324032192e-01) (40, -4.89407483440475965519e-01) (41, -3.10621024968426417967e-01) (42, -2.38000797398568053609e-01) (43, -2.36228834068626492027e-01) (44, -1.47225764927994051678e-01) (45, -1.52902424832486061312e-01) (46, -2.69615477415044935139e-01) (47, -6.08702666639586498221e-01) (48, -3.40529043004648215853e-02) (49, 2.11778602232201443659e-03) (50, -2.48583174286476471515e-01) (51, -5.56212635850467429499e-01) (52, -1.53249527555086556552e-01) (53, -7.07243630892919084019e-01) (54, -1.86755599191010063231e-01) (55, -2.14086131975934318428e-01) (56, -6.94008663459059982337e-01) (57, 2.70459036738031483038e-02) (58, -7.85732595588205184889e-01) (59, 2.41240975111334070291e-02) (60, -1.28283472030267714503e-01) (61, -2.89202485932877673136e-01) (62, -2.34280906184026332939e-01) (63, -1.87769326282209464418e-01) (64, 9.04201250585905391688e-01) (0, 3.91241235820107502441e-01) (1, -8.35099955516872688444e-02) (2, -1.49913929323320235198e+03) (3, -4.58416799208141654276e+01) (4, 7.30605811092896573200e-01) (5, 8.23803518165447945520e-01) (6, 1.14015889761436017835e+00) (7, 3.16770059746988286165e+00) (8, 7.19042016511693748981e-01) (9, 1.50000000000000000000e+03) (10, 9.77666751953515267282e-01) (11, 8.15160141389079884178e-01) (12, 7.93996861325800162845e-01) (13, 4.99747763937745781426e-01) (14, 3.56880008349538591084e-01) (15, 3.79639993505575312760e-01) (16, 1.05129246297279044242e+00) (17, 5.35861363492999065450e-01) (18, 4.81436201718538514527e-01) (19, 5.22510245057337452401e-01) (20, 3.50722573871384446509e-01) (21, 1.50000000000000000000e+03) (22, 4.64167103536651193263e-01) (23, 5.76635265512265071663e-01) (24, 7.61377663843995078352e-01) (25, 7.16459478338418076504e+00) (26, 5.91430667210038008008e-01) (27, 8.08265225950094645668e-01) (28, 3.27683806798660555160e+02) (29, 4.37653204255134431477e-01) (30, 4.94489122929924085348e-01) (31, -8.41933876614476872646e+00) (32, 3.35878399629071644483e+00) (33, 6.42691776834314887346e-01) (34, 2.48914586507704649332e-01) (35, 1.49999998799999661969e+03) (36, 6.18114924134188337135e-01) (37, 7.44990739253266087694e-01) (38, 1.00005585862859125434e+00) (39, 1.21941697041097962817e+00) (40, 3.64292088249116685628e-01) (41, 9.28529982061943393035e+00) (42, 5.81404324704882680130e-01) (43, 4.66331991753337948836e-01) (44, 5.48278938573695140413e-01) (45, -5.52738224268978894926e-01) (46, -7.50590682977731091796e+01) (47, -2.84865003373725436120e+01) (48, 1.06783497622175049813e+00) (49, 4.60831177513325251915e-01) (50, 5.42262469850971484675e-01) (51, 1.01398729367204776253e+00) (52, -5.84051220675821602946e-01) (53, 6.47178295491892097147e-01) (54, -4.70353554038710430785e-01) (55, -5.23216971892972226854e-01) (56, 4.84432292163291977616e-01) (57, 5.18173458834372269166e-01) (58, -1.35180003603409701896e+01) (59, -3.57966014951260069754e-01) (60, 1.67862136333862110860e+00) (61, -6.63198899477470238395e-01) (62, 5.04171352594601884789e-01) (63, -1.06896871307553742447e+00) (64, 6.08476874761115782420e-01) (0, 4.54262537293614709899e-01) (1, -2.83904272907812904592e+00) (2, -1.48535761259928345002e-01) (3, 7.07282792444017038846e-01) (4, 3.73760649928795818386e-01) (5, -1.83500195852442482547e+00) (6, -5.21787287777575436998e-01) (7, -8.34290243998110470081e-01) (8, -2.95283007879351533376e+00) (9, -1.67786509579576459394e+00) (10, 3.06012747868496248760e-01) (11, 1.99030614798918287223e-01) (12, -2.75901089264087318043e+00) (13, -1.39754308333518650898e-01) (14, -4.63947938357017128364e-02) (15, 3.54922450935037270270e-01) (16, -9.73708133459740565741e+00) (17, -6.62912457666696597336e-01) (18, 3.06575200330826636019e-01) (19, 4.95274049085520501334e-02) (20, -4.15684745171573055700e+00) (21, -1.53663063476856098788e-01) (22, 3.16392522813055854236e-01) (23, -8.72359305131554657597e-02) (24, -4.19004111033341430925e+00) (25, -1.18634325615104518903e+00) (26, -4.21992269650859785912e+00) (27, 3.30036141007993277796e-01) (28, -3.85215852623176457925e+00) (29, 2.18366091801467487876e-01) (30, -1.60882230303490247891e+00) (31, -5.30220728814403519102e-01) (32, 3.60898518569383319754e-01) (33, 4.94952617220171087187e-01) (34, 9.78661318621240478022e-02) (35, 2.01441126115177199241e-01) (36, 6.04023666680704840459e-01) (37, 5.48645234992483410430e-01) (38, 1.46682947963035936745e+00) (39, 7.14968542878202772961e-01) (40, 7.36921753791899836195e-01) (41, 6.68373002214533995513e-01) (42, 5.61622289465788959717e-01) (43, 9.25063223565760761602e-01) (44, 6.99113839428296190981e-01) (45, 5.41286958536299156464e-01) (46, 6.36339814965117711587e-01) (47, 2.88141125873580516981e+00) (48, 5.32129487488558439168e+00) (49, 5.18819505047079410076e-01) (50, 5.18696057863052617520e-01) (51, 3.68452916390739182440e-01) (52, 1.28807860317435673991e+00) (53, 6.23605270983983883681e-01) (54, 7.41323131865127105122e-01) (55, 2.21108098801252950238e+00) (56, 9.44653682710135722544e-01) (57, 4.59140991972728895743e-01) (58, 7.93436043956916936537e+00) (59, 7.68226187287216366606e-01) (60, 1.71043450586925804835e+00) (61, 4.85912338080021655173e-01) (62, 2.60433103376328745071e+00) (63, 5.36871777459216437123e-01) (64, 4.80162815437680801089e-01) (0, -4.59437154549372714363e-02) (1, -1.76838436288158873388e-01) (2, -1.46611002764677034182e-01) (3, -1.19136742857580149590e-01) (4, -3.43087275082178844166e-01) (5, -5.42780385752470589944e-02) (6, -1.28022735991229180685e-01) (7, -1.04323012236257853247e-01) (8, -1.17546805831591205660e+00) (9, -1.47180999234955228738e-01) (10, -1.35156553902584269933e-01) (11, -4.63435146600998992827e-01) (12, -2.56968908421876363057e-01) (13, -7.70383063818291247138e-02) (14, -2.25423025221807515894e-01) (15, 5.81899095188533332923e-02) (16, -1.84183849506143082486e-01) (17, -1.32979288076848917166e-01) (18, -3.65961938055072086295e-02) (19, -1.19166161838669446005e-01) (20, 6.75213335107317930150e-02) (21, -2.23402352224844447104e-01) (22, -2.33119362190776863164e-01) (23, -3.52969964980370976004e-01) (24, -3.72253022372345032664e-01) (25, -2.34907999598704675392e-01) (26, -1.60579271130685319324e-01) (27, -9.64082925029225851210e-02) (28, -4.46648097077332051352e-01) (29, -1.27650178780030015835e-01) (30, -1.94280396429469204289e-01) (31, -4.74024542028708251173e-01) (32, -7.41615216637678681399e-02) (33, -1.14172027335394846159e-01) (34, -7.76537008168101394734e-02) (35, -2.01916758051724681833e-01) (36, -2.44114135115931635278e-01) (37, -1.29820198611081738527e-01) (38, -2.09634106756252380777e-01) (39, -1.31844427951690212897e-01) (40, -3.82496112819989686482e-01) (41, -1.67664646283868318255e-01) (42, -1.07227372703448578517e-01) (43, -9.79857775904134919998e-02) (44, -5.61091667070342733914e-02) (45, -3.54550270528360064737e-02) (46, -5.08939081353411912345e-02) (47, -4.16797614548364905862e-02) (48, -2.54601051589723736956e-01) (49, -6.44388892693169013093e-02) (50, -7.92702094436522064491e-02) (51, -5.72893311317693096352e-02) (52, 4.14935699126494694777e-01) (53, 1.59779587447630606889e-02) (54, -5.53806940510463766025e-02) (55, -1.61405007733957522875e-01) (56, -7.68832062601048360495e-02) (57, -1.08511451781244210035e-02) (58, -1.60395766103775511136e-01) (59, -1.88763395269106182273e-01) (60, -3.64066141861743020058e-01) (61, -1.32507569145814851908e-01) (62, -1.92587742055482513681e-01) (63, -2.40789637547400098283e-01) (64, -1.55160520142156954648e+00) (0, -1.25026245937568114552e-01) (1, -8.45611567380290252149e-02) (2, -1.86200774935574124569e-02) (3, 1.07358456054678277208e-02) (4, -4.03628734118928120256e-02) (5, -1.51639797517104935043e-02) (6, -1.55799078465523127557e-01) (7, -2.18841106291062896527e-02) (8, -4.96691409690895868678e-02) (9, -9.46154133515001438681e-02) (10, -8.84496954505646498790e-02) (11, -7.92459523012694899702e-02) (12, -6.82165642464367810716e-02) (13, -2.42594128929658238436e-02) (14, -1.87353401821248669035e-02) (15, -6.36354936618562794237e-02) (16, 1.26242469524927791724e-01) (17, 6.22871297920111130497e-02) (18, 1.55006702692837394775e-01) (19, 5.25648028964641689242e-01) (20, 6.96298239714224082020e-02) (21, -1.00789923560678940789e-02) (22, -6.08351955182485290563e-02) (23, 2.84909076417143615478e-02) (24, -5.88859216588347080673e-03) (25, -1.86461895051871842655e-02) (26, -9.49170798673918542088e-02) (27, -6.56939009910116750168e-02) (28, -1.17231347420014481164e-01) (29, -8.98589286084584409897e-02) (30, -1.10675994062689006525e-01) (31, -9.42375217282373917049e-02) (32, 6.07541602471848227185e-02) (33, 9.01584450632640227452e-02) (34, 2.26403791964930531377e-02) (35, -2.31258845625345182961e-02) (36, 2.03079481953216400836e-02) (37, 3.32747148979949721598e-03) (38, 1.15804517484281971340e-01) (39, 8.78781944601465803135e-02) (40, 7.60145593253085810614e-03) (41, 7.60311575586893884093e-02) (42, 8.40122967204662424168e-02) (43, 7.12279213251514470295e-02) (44, 6.98424456679608840481e-02) (45, -5.31421715365598418962e-03) (46, -7.33163935466590727108e-02) (47, 1.48479431178233692822e-03) (48, -1.44652057768701575169e-01) (49, -7.99510189097549645032e-02) (50, -1.60931011324015660335e-01) (51, -5.36740789845536636626e-01) (52, -3.44147501866641919444e-02) (53, 2.71807989160106379389e-02) (54, 3.22311766758534845589e-02) (55, -6.08999517086465172455e-02) (56, -3.86284741437974057238e-03) (57, 6.29111542343310098380e-02) (58, 2.99781248689585770595e-03) (59, 5.44114774101575396359e-02) (60, 7.00429812720159139516e-02) (61, 7.61257597994886431314e-02) (62, 7.71981078454850450088e-02) (63, 5.21991335498535602433e-02) (64, -9.36357866972241659198e-02) (0, 5.64558321803997897881e-01) (1, 9.00825840743185390913e-01) (2, 7.40170334504633320449e-01) (3, 4.67809794001450507395e-01) (4, 4.47649033262997708693e-01) (5, 5.51797587821344137637e-01) (6, 3.72276230013979692046e-01) (7, 4.89988593746185308042e-01) (8, 3.84607527091582190870e-01) (9, 3.29960051255646591439e-01) (10, 4.27800349693465864487e-01) (11, 4.27589629783647284800e-01) (12, 3.47337423608357731553e-01) (13, 5.42890972120772641318e-01) (14, 6.05574135531100621321e-01) (15, 7.52521608719304513357e-01) (16, 4.61007409910242582640e-01) (17, 6.53072443909291422415e-01) (18, 7.20737979207851653385e-01) (19, 5.22820088327291654373e-01) (20, 9.32862792194150691749e-01) (21, 5.51195094699520549142e-01) (22, 4.94444974620785737685e-01) (23, 6.29585186128067908484e-01) (24, 3.61413664246397092761e-01) (25, 6.24524810130000829211e-01) (26, 5.43610469603780233072e-01) (27, 5.68856590870761014145e-01) (28, 3.55686235943893702682e-01) (29, 6.50057037297654849439e-01) (30, 4.87877346110553777869e-01) (31, 3.39729329067551155674e-01) (32, 4.51870705793823435048e-01) (33, 7.86726719769242910374e-01) (34, 1.10500092301346031221e+00) (35, 4.42222142387017458365e-01) (36, 4.38372904090666204446e-01) (37, 5.39908247843763677842e-01) (38, 5.15891013897079142581e-01) (39, 5.01206040861648549622e-01) (40, 4.18332761826068433297e-01) (41, 3.88345113969930655351e-01) (42, 5.90970162628108752756e-01) (43, 5.86129915304947290977e-01) (44, 3.88071093759537411039e-01) (45, 6.31463557599700631151e-01) (46, 5.68077984209667596893e-01) (47, 6.82193796028102816820e-01) (48, 5.79807518969969848399e-01) (49, 4.54460897371542382750e-01) (50, 6.48092641582584061410e-01) (51, 5.84588688121659538766e-01) (52, 9.55282227163059771691e-01) (53, 5.06282062232984442218e-01) (54, 5.46260270500888545087e-01) (55, 4.77046482573532382165e-01) (56, 3.78026822544843099649e-01) (57, 5.70914490402785856915e-01) (58, 8.04724628645315243070e-01) (59, 7.62497537074920295197e-01) (60, 3.35563932054275648742e-01) (61, 5.64452484765507911391e-01) (62, 5.34435892935368417334e-01) (63, 4.71949415232498781236e-01) (64, 4.88655611203686279786e-01) (0, -3.07745229491781790987e-02) (1, -3.38178182085879242003e-02) (2, 2.98233949497711536836e-03) (3, -1.53056457792754480041e-01) (4, -3.29929399880383888988e-01) (5, -1.46866123983146495968e-01) (6, -3.31036222743101182786e-01) (7, -8.45068009165377415082e-02) (8, -1.52119402615659399247e-01) (9, -2.78264696494409435878e-01) (10, -6.96431725390023181887e-02) (11, -1.27890835757500626046e-01) (12, -1.86098661786653657435e-01) (13, -1.06377793738304179949e-01) (14, -1.47418490160196341554e-01) (15, -3.30317195789742792944e-02) (16, -1.08302811137234625272e-01) (17, -7.39555087565097885038e-02) (18, 4.67438493502796842405e-02) (19, -1.72743519611237045241e-01) (20, 1.45712536810690077710e-02) (21, -1.29331942360710570872e-02) (22, -6.87385742022452415900e-03) (23, -2.00259587930042698423e-01) (24, -8.71122167056463669876e-02) (25, -1.62671188879591227527e-01) (26, -1.06415375559634164948e-01) (27, -7.53267366867742954595e-02) (28, -4.78907083456240723063e-01) (29, -2.42029546512956411641e-01) (30, -1.18085374766645656575e-01) (31, -2.82305619553240572106e-01) (32, -1.14971754532186914988e-01) (33, -6.62719927769185590538e-02) (34, -3.16296509029160496929e-02) (35, -1.05712180965936264343e-01) (36, -3.13610102180152949813e-01) (37, -1.84667038960912410772e-01) (38, -3.25431769307687190906e-01) (39, -1.86929566649823603042e-01) (40, -4.79527896359163430251e-01) (41, -2.66278321697216879826e-01) (42, -1.02837517315748916413e-01) (43, -1.71038538311753030019e-01) (44, -1.67484042458894699656e-01) (45, -2.12410869210906794180e-01) (46, -2.07300595608526400104e-01) (47, -1.67294654088693817151e-01) (48, -1.68050581341475824271e-01) (49, -7.75333569039624442842e-02) (50, 4.77005034423805748811e-02) (51, -2.44092865971584860318e-01) (52, 2.43668449049385775484e-02) (53, -7.03214711814257598110e-02) (54, -9.38137175896437830458e-02) (55, -1.99495811447845533548e-01) (56, -2.02190810645184265715e-01) (57, -1.69063620965707595012e-01) (58, -1.39993916150006669774e-01) (59, -1.84177372463875999031e-01) (60, -8.12628156039991500492e-01) (61, -7.69747512382379928120e-02) (62, -2.39402034783923994832e-01) (63, -1.39144161764722995578e-01) (64, -1.25259265067039571306e+00) (65, 5.09511210313437379327e-01) (66, 2.65239017306608459643e-03) (67, 4.71487082830084502927e-01) (68, 2.56605392821435754347e-02) (69, 4.86921526780737579099e-01) (70, 6.84974589560204072392e-01) (71, 6.04668168222353363817e-01) (72, 9.30740522097206479657e-01) (73, 6.14955464861465170290e-02) (74, -2.45819935430975980428e-02) (75, 1.78004790885885333385e-01) (76, 4.60718997111929595700e-01) (77, 3.56936723282946288816e-01) (78, 6.02189340373322168354e-01) (79, 4.78309579482687652341e-01) (80, 3.42811145177496612302e-01) (81, 5.62424726070758662644e-01) (82, -8.29186597291945992616e-02) (83, 8.83516292555707183354e-02) (84, 5.15015147915475424156e-01) (85, 5.02804150897929402753e-01) (86, 4.94519383285199787270e-01) (87, 3.42638410916937530271e-01) (88, -1.25566988644491589477e-01) (89, 3.80041994443548858396e-01) (90, 6.98203289734009358014e-01) (91, -1.14140024786523097688e+00) (92, 5.66347045233197898817e-01) (93, 6.91232477532957245714e-01) (94, 5.70455796537335246832e-01) (95, 6.53768078588562784326e-01) (96, 4.69560109367979705564e-01) (97, 5.68138646632937116543e-01) (98, -4.40593944850999064133e-02) (99, -2.00742820044041564431e-02) (100, -4.02514431365617042502e-02) (101, 5.63061683283062164307e-01) (102, -1.74303497578132821078e-01) (103, 4.54233743539465606442e-01) (104, 7.03350337650506696185e-01) (105, 3.46288346043242156735e-01) (65, 3.51108263683406252031e-01) (66, 1.17787508488348350438e-02) (67, 3.82607560110179323321e-01) (68, 1.23726185522314829218e-02) (69, 4.16585433733550447588e-01) (70, 6.04760603753221603895e-01) (71, 4.98869729049698618084e-01) (72, 1.01427139189336035230e+00) (73, -2.17997674322675761768e-03) (74, -2.33844887441131826789e-01) (75, 1.46698821714945706884e-02) (76, 4.06750086200324434405e-01) (77, 3.48377596092311281328e-01) (78, 5.30131907811206892767e-01) (79, 4.69289171946135896807e-01) (80, 4.32683776569453615313e-01) (81, 5.68898110680245427950e-01) (82, 8.16399488849220596187e-03) (83, -5.70183611289765690522e-02) (84, 4.83223471295920747881e-01) (85, 7.11888295842412865966e-01) (86, 5.29389627394720174713e-01) (87, 4.76054418337432283526e-01) (88, 4.33485759266508841048e-01) (89, 4.46038338792411226397e-01) (90, 4.59419967717969446319e-01) (91, 1.55170585848577413657e+00) (92, 6.63621888427039396952e-01) (93, 5.70398097356342170805e-01) (94, 6.52428148595403545329e-01) (95, 6.77955334833492018198e-01) (96, 4.11754767847148317461e-01) (97, 3.80732992692434046855e-01) (98, 2.78610803745825752475e-01) (99, -9.57223990823056064547e-02) (100, 7.80119218332714081665e-02) (101, 6.42485289555241090298e-01) (102, 9.62871541271604569623e-01) (103, 4.52738407504645723467e-01) (104, 5.43166881978407678488e-01) (105, 3.79507835459796327715e-01) (65, 3.80642858768977798700e-01) (66, -6.33432237253172686353e-02) (67, 3.72759794320144333124e-01) (68, -4.16402891013070500237e-02) (69, 3.35557663317002929926e-01) (70, 5.81641817309917152912e-01) (71, 5.84856696774324835708e-01) (72, -1.57485077599573752849e+00) (73, 2.38780976056164363774e-02) (74, 6.76519965186237914878e-01) (75, 1.50941671715194958292e-01) (76, 3.99801214660682358026e-01) (77, 4.28369124855079330683e-01) (78, 6.50727206685601355929e-01) (79, 3.31451249743976272821e-01) (80, 3.52284809078254379511e-01) (81, 5.60302821703310249823e-01) (82, -2.86968433262063782330e-01) (83, 8.03125523008322295127e-02) (84, 4.19967730964698471308e-01) (85, 7.48098001025143677367e-01) (86, 6.01990900371745185637e-01) (87, 2.90358935917892135858e-01) (88, -2.26980335714211028941e-01) (89, 3.55221954609431900263e-01) (90, 3.28980232891797674810e+00) (91, 9.06751895286056708301e-01) (92, 7.02074261226710016892e-01) (93, 6.83073397946314164741e-01) (94, 5.77444377830252819628e-01) (95, 5.68547378168931083486e-01) (96, 3.08289220060386337519e-01) (97, 2.06078019302888215680e-01) (98, -7.04098393975624570196e-01) (99, -7.00204071730923909012e-03) (100, -4.05898801616740925735e-02) (101, 6.84129273890265121594e-01) (102, 3.75308570627650484042e+00) (103, 3.28829498465337433100e-01) (104, 1.13474456718191785143e-01) (105, 4.44621284927405990839e-01) (65, 3.55384568160727942754e-01) (66, -3.43701612294425376537e-02) (67, 3.93950106984332526494e-01) (68, 1.97757835099076524632e-02) (69, 4.67430131918147528935e-01) (70, 5.51233757258468126672e-01) (71, 7.34727681440410229641e-01) (72, -6.77425576857878741777e-01) (73, 1.57526202359041002377e-02) (74, 5.07214833547911747580e-01) (75, 2.34853877188276716215e-01) (76, 4.48511066323474372197e-01) (77, 4.22214972263530219365e-01) (78, 6.09116244517377558587e-01) (79, 3.30082042550996268560e-01) (80, 4.11511259561732734014e-01) (81, 5.51567519844319176237e-01) (82, 7.08247496073906857017e-02) (83, -1.60830270153645260578e-01) (84, 3.36770127004340613652e-01) (85, 4.95524332149515356338e-01) (86, 6.32612084262604068563e-01) (87, 4.54963820463374579717e-01) (88, 9.93863941381680077169e-02) (89, 3.27497272229150260259e-01) (90, 2.43131915908719076214e+00) (91, 3.93445437726205771156e-01) (92, 5.85090174029783249843e-01) (93, 5.52123741512444365931e-01) (94, 5.70427843769196862844e-01) (95, 5.55830084278827185607e-01) (96, 3.77365643566802466680e-01) (97, 3.46580040311726178537e-01) (98, -6.51581626583457584889e-02) (99, -6.27281292649726623933e-02) (100, 2.06781485215692006907e-01) (101, 6.86877638255261491196e-01) (102, 3.33566221444249144668e+00) (103, 4.60738184338763678838e-01) (104, 6.12799709131115255545e-01) (105, 2.79152224248603364476e-01) (65, 3.10320359494716369042e-01) (66, -7.45396327412103792964e-02) (67, 4.72317290332347483606e-01) (68, -6.72004925616239284780e-02) (69, 4.31280796256095499963e-01) (70, 6.18056777330753925881e-01) (71, 6.27934622363071071049e-01) (72, -1.14862604320025096794e-01) (73, 5.82482510814321327586e-02) (74, 5.34235221735228749118e-01) (75, 5.82110358496744306755e-01) (76, 3.91997118320495219201e-01) (77, 4.83628404166728587121e-01) (78, 5.44549927439307968058e-01) (79, 4.51232743289500803918e-01) (80, 4.50430956509143443078e-01) (81, 5.89708327525162334659e-01) (82, 3.00500551267419369061e-01) (83, 3.48880280118921831667e-02) (84, 4.01743133392364115686e-01) (85, 7.22836313364719429408e-01) (86, 5.72708071979887933800e-01) (87, 3.82477086808711619348e-01) (88, 4.40410224907899355840e-02) (89, 4.64232620623141856164e-01) (90, -1.13634510945189406983e-01) (91, 1.07605643345980372949e+00) (92, 5.40353288459491709617e-01) (93, 5.07009121904118842394e-01) (94, 6.53223565828962016155e-01) (95, 5.51814476333221004545e-01) (96, 3.57703038331300349206e-01) (97, 1.71477757706549410743e-01) (98, -1.40181732532059039054e-01) (99, 5.94017121259275606565e-03) (100, 2.34181340012005967388e-01) (101, 6.17292274876659718963e-01) (102, -3.91929306536420607454e-01) (103, 3.59455034908086390466e-01) (104, 6.02897202369572116076e-01) (105, 3.31723970201045603723e-01) (65, 5.16798535488759092082e-01) (66, 7.24846721517091868714e-02) (67, 3.39144611858055833320e-01) (68, -8.22356497763050142691e-02) (69, 4.60244054101631772102e-01) (70, 6.06237772875322100674e-01) (71, 5.31808054948100683568e-01) (72, 1.85676988065519438242e-01) (73, 4.61505463178077321440e-02) (74, 2.16682754885525315170e-04) (75, 1.23379893718666769353e-01) (76, 5.21083453797004159114e-01) (77, 3.71732251845524441780e-01) (78, 4.85321359559966913899e-01) (79, 4.77842698000595700325e-01) (80, 4.26638396583721768440e-01) (81, 5.82635689635240927586e-01) (82, 4.54071508271690349456e-02) (83, 2.50891167136799292381e-02) (84, 3.56752799950764309944e-01) (85, 5.21943529616586854303e-01) (86, 6.59396492064465489236e-01) (87, 3.61462528012917172493e-01) (88, 4.15338829467423065189e-01) (89, 4.38104124866650235237e-01) (90, -1.34372947811497156501e+00) (91, 6.64257210922572283174e-01) (92, 5.97193468129171067815e-01) (93, 4.22040243112046742358e-01) (94, 4.92496389250714039498e-01) (95, 6.41761913373432801855e-01) (96, 5.20020822189949272207e-01) (97, 1.27499730073738659630e-01) (98, 5.22469549168325553268e-01) (99, 7.39856453250655327070e-02) (100, 3.11889177008948768888e-02) (101, 5.60574152003117665011e-01) (102, -3.63705017341380143492e+00) (103, 3.64804456137344967903e-01) (104, 4.77549557295567306259e-01) (105, 3.50545952223465684394e-01) (65, 4.45955995537004545870e-01) (66, 7.72631708752405249596e-02) (67, 3.73234938896856383028e-01) (68, 